svm_type c_svc
kernel_type linear
nr_class 2
total_sv 70
rho -0.194569
label 1 2
nr_sv 34 36
SV
0.2959294696467436 3:1 7:1 15:1 21:1 29:1 33:1 34:1 37:1 44:1 50:1 53:1 57:1 67:1 76:1 78:1 81:1 84:1 86:1 93:1 104:1 111:1 
0.333395609902073 6:1 10:1 16:1 22:1 24:1 33:1 35:1 37:1 44:1 50:1 53:1 57:1 67:1 76:1 78:1 81:1 84:1 86:1 95:1 103:1 106:1 
0.03652750066422411 3:1 10:1 20:1 22:1 25:1 33:1 34:1 36:1 40:1 50:1 54:1 58:1 65:1 74:1 78:1 81:1 84:1 89:1 92:1 105:1 110:1 
0.1498832974487566 6:1 10:1 19:1 22:1 24:1 33:1 35:1 37:1 44:1 50:1 53:1 57:1 67:1 76:1 78:1 81:1 84:1 86:1 93:1 103:1 106:1 
0.06584740270336537 6:1 10:1 14:1 22:1 24:1 33:1 35:1 37:1 44:1 50:1 53:1 57:1 67:1 76:1 78:1 81:1 84:1 86:1 93:1 103:1 106:1 
0.1787859360060444 6:1 8:1 14:1 22:1 24:1 33:1 35:1 37:1 44:1 50:1 53:1 57:1 67:1 76:1 78:1 81:1 84:1 86:1 93:1 104:1 106:1 
0.104411715352361 6:1 10:1 14:1 22:1 24:1 33:1 35:1 37:1 47:1 50:1 53:1 57:1 67:1 76:1 78:1 81:1 84:1 86:1 95:1 103:1 106:1 
0.1099466175525983 3:1 8:1 14:1 21:1 25:1 33:1 34:1 36:1 45:1 51:1 55:1 59:1 67:1 76:1 78:1 81:1 84:1 86:1 92:1 104:1 111:1 
0.08185164582598629 2:1 7:1 19:1 21:1 28:1 33:1 35:1 37:1 48:1 50:1 53:1 57:1 67:1 76:1 78:1 81:1 84:1 86:1 98:1 101:1 109:1 
0.1651027671149741 6:1 8:1 19:1 21:1 25:1 33:1 34:1 36:1 48:1 51:1 55:1 59:1 67:1 76:1 78:1 81:1 84:1 86:1 92:1 103:1 111:1 
0.2702380952380953 6:1 8:1 16:1 22:1 24:1 33:1 35:1 37:1 40:1 50:1 53:1 57:1 67:1 76:1 78:1 81:1 84:1 86:1 93:1 104:1 106:1 
0.1827107691968043 4:1 10:1 15:1 22:1 28:1 33:1 34:1 37:1 48:1 50:1 54:1 56:1 67:1 74:1 78:1 81:1 84:1 88:1 98:1 104:1 106:1 
0.06392427458477314 6:1 10:1 15:1 22:1 28:1 33:1 34:1 37:1 48:1 50:1 54:1 56:1 67:1 74:1 78:1 81:1 84:1 88:1 98:1 104:1 106:1 
0.5060294292822902 3:1 10:1 15:1 22:1 28:1 33:1 34:1 37:1 48:1 50:1 54:1 56:1 67:1 74:1 78:1 81:1 84:1 88:1 98:1 104:1 106:1 
0.1289981280362497 3:1 8:1 19:1 21:1 28:1 33:1 34:1 36:1 48:1 50:1 53:1 57:1 67:1 76:1 78:1 81:1 83:1 86:1 96:1 104:1 108:1 
0.5719133577112129 3:1 7:1 19:1 21:1 28:1 33:1 35:1 37:1 48:1 50:1 53:1 57:1 67:1 76:1 78:1 81:1 84:1 86:1 98:1 101:1 109:1 
0.08611484332145641 6:1 10:1 20:1 22:1 28:1 33:1 34:1 37:1 48:1 50:1 54:1 56:1 67:1 74:1 78:1 81:1 84:1 88:1 98:1 104:1 106:1 
0.3803835829139102 2:1 8:1 16:1 21:1 28:1 33:1 34:1 36:1 48:1 50:1 53:1 57:1 67:1 76:1 78:1 81:1 83:1 86:1 96:1 104:1 107:1 
0.1894093992848875 3:1 7:1 19:1 21:1 28:1 33:1 34:1 36:1 48:1 50:1 53:1 57:1 67:1 76:1 78:1 81:1 83:1 86:1 96:1 104:1 108:1 
0.1794064969472439 1:1 7:1 19:1 21:1 28:1 33:1 35:1 37:1 48:1 50:1 53:1 57:1 67:1 76:1 78:1 81:1 84:1 86:1 98:1 101:1 109:1 
0.06165419074454698 3:1 8:1 14:1 21:1 25:1 33:1 34:1 36:1 48:1 51:1 55:1 59:1 67:1 76:1 78:1 81:1 84:1 86:1 92:1 103:1 111:1 
0.1785714285714286 4:1 9:1 19:1 21:1 28:1 33:1 35:1 37:1 48:1 50:1 53:1 57:1 67:1 76:1 78:1 81:1 84:1 86:1 98:1 101:1 109:1 
0.06395423475779351 3:1 7:1 19:1 21:1 28:1 33:1 34:1 36:1 48:1 50:1 53:1 57:1 67:1 76:1 78:1 81:1 83:1 86:1 96:1 104:1 107:1 
0.1311858091247673 3:1 8:1 14:1 21:1 25:1 33:1 34:1 36:1 45:1 51:1 53:1 59:1 67:1 76:1 78:1 81:1 84:1 86:1 92:1 103:1 107:1 
0.3135744047619048 3:1 8:1 12:1 21:1 28:1 33:1 34:1 36:1 48:1 50:1 53:1 57:1 67:1 76:1 78:1 81:1 83:1 86:1 96:1 104:1 107:1 
0.1932783130581244 3:1 8:1 19:1 21:1 28:1 33:1 34:1 36:1 48:1 50:1 53:1 57:1 67:1 76:1 78:1 81:1 83:1 86:1 96:1 104:1 107:1 
0.173452380952381 3:1 8:1 14:1 21:1 25:1 33:1 34:1 36:1 48:1 51:1 55:1 57:1 67:1 76:1 78:1 81:1 84:1 86:1 92:1 104:1 111:1 
0.1024489209042188 3:1 10:1 14:1 22:1 25:1 33:1 34:1 36:1 45:1 50:1 54:1 58:1 66:1 74:1 78:1 81:1 84:1 89:1 92:1 105:1 110:1 
0.1350764863081883 2:1 8:1 19:1 21:1 28:1 33:1 34:1 36:1 48:1 50:1 53:1 57:1 67:1 76:1 78:1 81:1 83:1 86:1 96:1 104:1 107:1 
0.06284740803769037 3:1 7:1 15:1 22:1 30:1 33:1 34:1 37:1 38:1 51:1 53:1 57:1 67:1 76:1 78:1 81:1 84:1 88:1 98:1 104:1 110:1 
0.1219984530585016 6:1 8:1 15:1 22:1 31:1 33:1 34:1 37:1 38:1 51:1 53:1 57:1 67:1 76:1 78:1 81:1 84:1 88:1 98:1 104:1 110:1 
0.1461535218253968 3:1 7:1 15:1 22:1 30:1 33:1 34:1 37:1 38:1 51:1 53:1 57:1 66:1 75:1 78:1 81:1 84:1 88:1 98:1 104:1 110:1 
0.09430142274203634 2:1 7:1 20:1 22:1 28:1 33:1 35:1 37:1 48:1 50:1 52:1 56:1 68:1 77:1 78:1 79:1 84:1 88:1 98:1 101:1 109:1 
0.1666666666666667 4:1 7:1 15:1 22:1 31:1 33:1 34:1 37:1 38:1 51:1 53:1 58:1 67:1 76:1 78:1 81:1 84:1 88:1 98:1 104:1 109:1 
-0.06584740270336537 3:1 8:1 19:1 21:1 27:1 33:1 35:1 37:1 48:1 51:1 53:1 57:1 67:1 76:1 78:1 81:1 84:1 86:1 97:1 104:1 106:1 
-0.06392427458477314 6:1 7:1 15:1 21:1 27:1 33:1 34:1 36:1 48:1 50:1 53:1 56:1 67:1 76:1 78:1 81:1 84:1 86:1 93:1 103:1 107:1 
-0.1350764863081883 2:1 8:1 19:1 21:1 23:1 33:1 34:1 36:1 48:1 50:1 53:1 57:1 67:1 76:1 78:1 81:1 84:1 86:1 95:1 103:1 107:1 
-0.09284777260626251 6:1 8:1 19:1 21:1 27:1 33:1 35:1 37:1 48:1 51:1 53:1 57:1 67:1 76:1 78:1 81:1 84:1 86:1 95:1 104:1 106:1 
-0.1794064969472439 2:1 8:1 19:1 21:1 27:1 33:1 34:1 36:1 48:1 50:1 53:1 57:1 67:1 76:1 78:1 81:1 84:1 86:1 93:1 102:1 108:1 
-0.1311858091247673 5:1 10:1 14:1 22:1 28:1 33:1 34:1 37:1 45:1 50:1 53:1 57:1 67:1 76:1 78:1 81:1 84:1 86:1 95:1 104:1 111:1 
-0.3492352188658779 3:1 7:1 15:1 21:1 23:1 33:1 34:1 36:1 44:1 50:1 53:1 56:1 67:1 76:1 78:1 81:1 84:1 86:1 93:1 103:1 107:1 
-0.2800967261904763 3:1 8:1 19:1 21:1 27:1 33:1 35:1 37:1 48:1 51:1 53:1 57:1 67:1 76:1 78:1 81:1 84:1 86:1 95:1 104:1 106:1 
-0.3286692334548009 6:1 10:1 14:1 22:1 28:1 33:1 34:1 37:1 44:1 50:1 53:1 57:1 67:1 76:1 78:1 81:1 84:1 86:1 93:1 104:1 111:1 
-0.03652750066422411 3:1 8:1 19:1 21:1 27:1 33:1 35:1 37:1 44:1 51:1 53:1 57:1 67:1 76:1 78:1 81:1 84:1 86:1 95:1 104:1 106:1 
-0.1219984530585016 3:1 8:1 19:1 21:1 23:1 33:1 35:1 37:1 48:1 51:1 53:1 57:1 67:1 76:1 78:1 81:1 84:1 86:1 95:1 104:1 106:1 
-0.1099466175525983 3:1 7:1 20:1 21:1 27:1 33:1 34:1 36:1 45:1 50:1 53:1 56:1 67:1 76:1 78:1 81:1 84:1 86:1 93:1 103:1 107:1 
-0.1641456512380519 6:1 8:1 20:1 21:1 27:1 33:1 35:1 37:1 44:1 51:1 53:1 57:1 67:1 76:1 78:1 81:1 84:1 86:1 97:1 104:1 106:1 
-0.06395423475779351 3:1 10:1 14:1 22:1 28:1 33:1 34:1 37:1 42:1 50:1 53:1 57:1 67:1 76:1 78:1 81:1 84:1 86:1 93:1 104:1 111:1 
-0.3256630412006962 3:1 8:1 19:1 21:1 23:1 33:1 35:1 37:1 48:1 51:1 53:1 57:1 67:1 76:1 78:1 81:1 84:1 86:1 97:1 104:1 106:1 
-0.3746498105904563 6:1 10:1 14:1 22:1 28:1 33:1 34:1 37:1 40:1 50:1 53:1 57:1 67:1 76:1 78:1 81:1 84:1 86:1 93:1 104:1 111:1 
-0.1651027671149741 3:1 7:1 15:1 21:1 28:1 33:1 34:1 36:1 44:1 51:1 53:1 57:1 66:1 76:1 78:1 81:1 84:1 86:1 95:1 104:1 106:1 
-0.1932783130581244 3:1 8:1 12:1 21:1 28:1 33:1 34:1 36:1 48:1 50:1 53:1 57:1 67:1 76:1 78:1 81:1 83:1 88:1 98:1 101:1 112:1 
-0.08185164582598629 6:1 7:1 11:1 22:1 28:1 33:1 35:1 37:1 48:1 50:1 55:1 57:1 67:1 74:1 78:1 81:1 84:1 88:1 98:1 104:1 109:1 
-0.3084375 3:1 10:1 15:1 22:1 28:1 33:1 35:1 37:1 48:1 50:1 55:1 59:1 67:1 74:1 78:1 81:1 84:1 88:1 98:1 104:1 109:1 
-0.1827107691968043 6:1 10:1 15:1 22:1 28:1 33:1 35:1 37:1 48:1 50:1 55:1 57:1 67:1 74:1 78:1 81:1 84:1 88:1 98:1 104:1 109:1 
-0.173452380952381 4:1 8:1 16:1 21:1 28:1 33:1 34:1 36:1 48:1 50:1 53:1 57:1 67:1 76:1 78:1 81:1 83:1 88:1 98:1 101:1 112:1 
-0.1666666666666667 4:1 7:1 15:1 22:1 28:1 33:1 35:1 37:1 48:1 50:1 53:1 57:1 67:1 74:1 78:1 81:1 84:1 88:1 98:1 104:1 109:1 
-0.06284740803769037 3:1 7:1 16:1 21:1 28:1 33:1 34:1 36:1 39:1 50:1 53:1 57:1 67:1 71:1 78:1 81:1 83:1 88:1 98:1 101:1 112:1 
-0.06165419074454698 3:1 7:1 19:1 22:1 28:1 33:1 34:1 37:1 47:1 50:1 53:1 59:1 67:1 76:1 78:1 81:1 84:1 90:1 92:1 104:1 106:1 
-0.1975919292822902 3:1 10:1 15:1 22:1 28:1 33:1 35:1 37:1 48:1 50:1 55:1 57:1 67:1 74:1 78:1 81:1 84:1 88:1 98:1 104:1 109:1 
-0.1024489209042188 6:1 7:1 17:1 22:1 28:1 33:1 34:1 37:1 47:1 50:1 53:1 59:1 67:1 76:1 78:1 81:1 84:1 90:1 92:1 104:1 106:1 
-0.144725018891469 3:1 7:1 19:1 22:1 28:1 33:1 34:1 37:1 48:1 50:1 53:1 59:1 67:1 76:1 78:1 81:1 84:1 90:1 92:1 104:1 106:1 
-0.1692499586640211 6:1 7:1 19:1 22:1 28:1 33:1 34:1 37:1 45:1 50:1 53:1 59:1 67:1 76:1 78:1 81:1 84:1 90:1 92:1 104:1 106:1 
-0.1894093992848875 4:1 8:1 19:1 22:1 28:1 33:1 35:1 36:1 48:1 50:1 54:1 57:1 67:1 76:1 78:1 81:1 83:1 86:1 98:1 103:1 107:1 
-0.3135744047619048 3:1 7:1 16:1 21:1 28:1 33:1 34:1 36:1 48:1 50:1 53:1 57:1 67:1 76:1 78:1 81:1 83:1 86:1 98:1 105:1 110:1 
-0.1040552663474834 2:1 8:1 19:1 22:1 28:1 33:1 35:1 36:1 48:1 50:1 54:1 58:1 67:1 76:1 78:1 81:1 83:1 86:1 98:1 103:1 107:1 
-0.2763283165664268 3:1 8:1 16:1 21:1 28:1 33:1 34:1 36:1 48:1 50:1 53:1 57:1 67:1 76:1 78:1 81:1 83:1 86:1 98:1 104:1 110:1 
-0.1289981280362497 2:1 10:1 19:1 22:1 28:1 33:1 35:1 36:1 48:1 50:1 54:1 58:1 67:1 76:1 78:1 81:1 83:1 86:1 98:1 103:1 107:1 
-0.08611484332145641 2:1 7:1 15:1 22:1 28:1 33:1 34:1 36:1 48:1 50:1 52:1 56:1 65:1 74:1 78:1 81:1 83:1 86:1 98:1 105:1 106:1 
-0.09430142274203634 3:1 8:1 15:1 22:1 28:1 32:1 34:1 36:1 43:1 50:1 53:1 57:1 64:1 73:1 78:1 80:1 84:1 86:1 94:1 101:1 109:1 
