svm_type c_svc
kernel_type polynomial
degree 7
gamma 1
coef0 0
nr_class 2
total_sv 18
rho -1.06829
label 6 9
probA -4.09174
probB -0.91998
nr_sv 7 11
SV
1.059647129429536e-33 1:16 2:100 3:11 4:71 5:5 6:39 7:29 8:11 9:85 10:11 11:100 12:28 13:46 14:18 
1.187879966156629e-34 1:41 2:100 3:6 4:89 6:57 7:12 8:25 9:54 10:4 11:100 12:24 13:55 14:25 15:17 
1.720493000336308e-33 1:89 2:90 3:49 4:100 5:14 6:73 7:11 8:41 9:49 10:17 11:100 12:28 13:41 14:24 
2.465415827580874e-35 1:16 2:100 4:57 5:55 6:55 7:44 9:12 10:17 11:6 12:77 13:45 14:98 15:100 16:100 
2.523113461037568e-34 1:100 2:94 3:76 4:100 5:44 6:82 7:18 8:59 10:29 11:6 13:41 14:7 15:22 16:25 
2.336464846921457e-36 1:88 2:85 3:100 4:100 5:60 6:75 7:26 8:48 10:19 11:34 13:80 14:18 15:30 16:30 
3.203527799733389e-34 1:25 2:75 3:85 4:100 5:49 6:72 7:18 8:40 10:7 11:51 13:100 14:28 15:49 16:29 
-3.217830621826672e-34 1:62 2:57 3:100 4:85 5:52 6:100 8:76 9:39 10:64 11:79 12:57 13:52 14:24 15:5 
-1.20987095875288e-33 1:50 2:100 3:4 4:93 5:22 6:66 7:42 8:84 9:66 10:49 11:100 12:15 13:56 16:10 
-1.66584823078931e-34 3:46 4:16 5:85 6:41 7:100 8:72 9:73 10:100 11:18 12:95 13:19 14:66 15:76 16:55 
-1.045899048314287e-34 1:100 2:76 3:73 4:100 5:18 6:95 7:11 8:66 9:66 10:65 11:74 12:48 13:49 14:16 
-9.196072022656539e-35 1:69 2:48 3:100 4:74 5:76 6:100 7:26 8:86 10:56 11:46 12:44 13:81 14:34 15:77 
-2.737616221865938e-34 3:33 4:12 5:66 6:35 7:90 8:61 9:100 10:89 11:57 12:100 13:25 14:79 15:58 16:60 
-2.658791930260842e-34 1:59 2:78 3:60 4:100 5:7 6:94 8:65 9:53 10:57 11:100 12:42 13:80 14:14 15:32 
-2.572247570226753e-34 1:100 2:72 3:43 4:78 6:91 7:50 8:100 9:54 10:75 11:40 12:50 13:30 14:25 15:29 
-4.576566567889112e-34 1:50 2:85 3:3 4:100 5:4 6:78 7:63 8:68 9:100 10:61 11:80 12:19 13:32 16:7 
-1.578269309764888e-34 1:14 2:84 4:53 5:79 6:83 7:9 8:100 9:8 10:66 11:100 12:80 13:67 14:38 15:14 
-1.914442465081072e-34 2:60 3:39 4:49 5:100 6:78 7:57 8:100 9:10 10:68 11:88 12:58 13:80 14:20 15:11 
