svm_type c_svc
kernel_type polynomial
degree 7
gamma 1
coef0 0
nr_class 2
total_sv 21
rho -0.513063
label 2 5
probA -4.16729
probB -0.448851
nr_sv 8 13
SV
2.131729932040844e-34 2:79 3:31 4:94 5:68 6:100 7:100 8:88 9:94 10:62 11:74 12:39 13:51 14:18 15:64 
1.081781677478205e-33 1:16 2:37 3:8 4:82 5:49 6:100 7:55 8:56 9:26 10:17 13:50 14:3 15:100 16:3 
2.081545266177875e-34 1:40 2:80 3:63 4:100 5:100 6:91 7:84 8:67 9:52 10:46 11:18 12:28 14:6 15:47 
4.597874902161552e-33 2:72 3:19 4:100 5:27 6:60 7:10 8:21 9:2 10:1 11:35 13:68 14:1 15:100 16:8 
1.951400391791824e-33 1:30 2:59 3:46 4:100 5:49 6:47 7:27 8:5 10:7 11:33 12:16 13:66 15:100 16:4 
3.19652577851257e-35 1:7 2:67 3:22 4:100 5:46 6:70 7:35 8:32 10:5 11:2 13:51 14:5 15:100 16:9 
7.592691493167084e-36 1:6 2:48 3:32 4:77 5:75 6:100 7:100 8:79 9:73 10:51 11:33 12:26 14:1 15:62 
4.042186115284579e-34 1:68 2:93 3:100 4:100 5:97 6:76 7:72 8:57 9:43 10:38 11:13 12:21 14:1 15:39 
-3.801352434917623e-34 2:66 3:1 4:64 5:26 6:53 7:63 8:26 9:12 11:12 12:52 13:33 14:91 15:100 16:100 
-7.015654294347448e-34 1:7 2:91 3:57 4:100 5:8 6:96 8:54 9:57 10:50 11:100 12:21 13:46 15:1 16:14 
-1.517896116282633e-33 1:12 2:60 3:37 4:36 5:41 7:15 8:2 10:42 11:27 12:66 13:63 14:84 15:100 16:100 
-3.755237466910063e-34 1:24 2:80 3:59 4:95 5:100 6:100 7:63 8:92 9:25 10:78 11:21 12:47 13:36 14:16 
-7.744305541947107e-34 1:36 2:80 4:64 5:37 6:41 7:25 9:1 10:8 11:7 12:54 13:43 14:88 15:100 16:100 
-9.919068767147759e-34 1:21 2:52 4:48 5:39 6:50 7:100 8:51 9:68 11:26 12:29 13:8 14:83 15:85 16:100 
-3.327733979950131e-35 1:10 2:91 3:20 4:59 5:83 6:56 7:100 8:13 9:40 11:3 12:42 14:82 15:60 16:100 
-5.098373028698237e-34 1:4 2:73 3:53 4:91 5:100 6:100 7:47 8:88 9:20 10:41 11:72 12:36 13:52 14:1 
-1.165584397472573e-33 1:2 2:64 3:31 4:33 5:47 6:3 9:3 10:39 11:8 12:74 13:54 14:89 15:100 16:100 
-9.418669897286572e-34 1:100 2:100 3:38 4:87 5:2 6:62 7:48 8:51 9:94 10:28 11:70 14:4 15:2 16:28 
-2.598403146012055e-34 1:10 2:89 3:32 4:98 5:36 6:100 8:68 9:31 10:49 11:100 12:29 13:60 15:1 16:15 
-8.16068515670269e-34 1:100 2:81 3:66 4:100 5:29 6:82 7:5 8:52 9:31 10:45 11:68 12:28 13:46 16:2 
-2.822822510854214e-35 1:33 2:79 3:83 4:99 5:100 6:100 7:47 8:84 10:62 11:22 12:38 13:53 14:14 15:1 
