svm_type c_svc
kernel_type polynomial
degree 3
gamma 0.0001
coef0 0
nr_class 2
total_sv 57
rho -7.63985
label 10 7
probA -1.9639
probB -0.620032
nr_sv 38 19
SV
0.660790236105736 2:67 3:16 4:80 5:64 6:100 7:85 8:99 9:85 10:74 11:89 12:49 13:95 14:24 15:100 
0.5132168802238324 2:75 3:29 4:79 5:71 6:91 7:100 8:100 9:82 10:74 11:68 12:48 13:57 14:21 15:58 
0.6269644855926692 2:78 3:40 4:100 5:97 6:78 7:69 8:39 9:44 11:100 12:7 13:35 14:37 15:22 16:73 
3.2185397737887 2:79 3:31 4:94 5:68 6:100 7:100 8:88 9:94 10:62 11:74 12:39 13:51 14:18 15:64 
0.03112077122533011 2:98 3:20 4:100 5:19 6:70 7:11 8:40 9:43 10:27 11:89 12:42 13:94 14:29 15:100 
0.4925072986518017 1:26 2:87 3:64 4:100 5:66 6:57 7:39 8:21 11:15 12:29 13:57 14:21 15:100 16:21 
3.80583684553728 2:92 3:42 4:100 5:90 6:100 7:100 8:83 9:71 10:63 11:57 12:40 13:44 14:17 15:14 
0.9214947785471594 2:93 3:43 4:100 5:93 6:90 7:89 8:63 9:60 10:39 11:28 12:17 13:44 15:100 16:4 
0.02435789240615905 1:19 2:93 3:9 4:74 5:100 6:94 7:25 8:100 9:1 10:49 13:93 14:16 15:46 16:60 
0.003221596294599857 1:40 2:98 3:51 4:100 6:61 7:11 8:16 9:93 11:100 12:37 13:18 14:51 15:24 16:19 
0.3628579526315915 1:42 2:85 3:85 4:100 5:100 6:68 7:76 8:32 9:45 11:50 12:1 13:38 14:40 16:65 
0.03732371856746929 1:74 2:98 3:43 4:100 5:69 6:89 7:90 8:82 9:100 10:38 11:84 12:3 13:41 16:8 
0.3072837228398494 2:76 3:49 4:100 5:100 6:82 7:58 8:41 9:28 11:82 12:15 13:28 14:51 15:34 16:88 
0.003275495672395965 1:34 2:62 3:51 4:96 5:55 6:56 7:50 8:13 11:6 12:56 13:38 14:100 15:100 16:90 
3.934027364965577 2:81 3:20 4:100 5:64 6:100 7:100 8:85 9:72 10:60 11:35 12:42 13:46 14:21 15:79 
0.3622257537655762 1:40 2:99 3:2 4:100 5:35 6:72 7:56 8:99 9:86 10:67 11:100 12:28 13:59 16:7 
0.1244244793503463 1:4 2:100 4:100 5:7 6:69 7:56 8:55 9:100 10:67 11:86 12:60 13:62 14:31 15:55 
1.517498821426397 2:93 3:36 4:100 5:79 6:98 7:94 8:79 9:72 10:57 11:100 12:33 13:79 14:11 15:38 
0.8144196501243558 1:6 2:89 3:52 4:100 5:100 6:91 7:93 8:65 9:62 10:43 11:25 12:23 14:2 15:55 
1.203267599427088 1:9 2:100 4:75 5:78 6:72 7:100 8:92 9:74 10:93 11:56 12:62 13:38 14:31 15:21 
0.006072246439017049 2:100 3:8 4:74 5:95 6:80 7:62 8:96 9:16 10:78 11:100 12:64 13:85 14:28 15:58 
0.01308290816200232 1:17 2:99 3:39 4:72 5:94 6:42 7:65 9:16 10:25 12:74 13:27 14:100 15:100 16:99 
0.671424742056283 1:26 2:93 3:70 4:100 5:75 6:55 7:44 8:17 11:6 12:24 13:54 14:24 15:100 16:12 
0.09602854439841783 2:85 3:42 4:97 5:30 6:75 7:23 8:21 9:72 11:100 12:47 13:87 14:100 15:36 16:99 
0.09676500180849321 2:98 3:34 4:100 5:53 6:78 7:47 8:47 9:72 10:26 11:100 12:8 13:68 15:36 16:8 
0.1116312093362813 1:44 2:93 4:100 5:32 6:60 7:85 8:27 9:61 11:41 12:36 13:100 14:65 15:72 16:88 
0.1239730411508547 1:49 2:75 3:44 4:100 5:23 6:73 7:43 8:37 9:47 12:16 13:40 14:45 15:100 16:68 
2.424731821761416 2:82 3:32 4:75 5:70 6:88 7:100 8:100 9:89 10:75 11:75 12:50 13:61 14:25 15:54 
0.05879254168786758 1:54 2:82 3:26 4:63 5:100 6:76 7:28 8:100 9:61 10:50 12:36 13:49 15:55 16:54 
0.08334447515669957 2:70 3:33 4:100 5:100 6:94 7:100 8:59 9:75 10:25 11:47 13:69 14:34 15:14 16:61 
0.1497896135837139 1:13 2:100 4:98 5:8 6:57 7:80 8:54 9:100 10:66 11:71 12:95 13:48 14:48 15:34 
0.142361130611366 2:100 3:13 4:72 5:87 6:78 7:58 8:97 9:49 10:80 11:100 12:58 13:70 14:29 15:47 
0.1602679194995355 2:82 3:38 4:100 5:62 6:95 7:31 8:75 9:23 10:57 11:23 12:37 13:46 14:18 15:100 
0.1888376972703646 1:29 2:100 4:75 5:53 6:54 7:100 8:30 9:78 11:56 12:25 13:66 14:63 15:15 16:71 
0.01131617057616153 1:40 2:56 3:100 4:92 5:26 6:100 7:15 8:51 9:77 10:9 13:16 14:46 15:100 16:80 
0.03234333963643941 2:100 3:54 4:93 5:57 6:77 7:57 8:61 9:61 10:46 11:61 12:30 13:68 14:14 15:100 
0.5209149286294846 1:2 2:95 3:64 4:100 5:100 6:78 7:87 8:50 9:51 10:25 12:6 13:20 15:89 16:3 
0.4077632025606335 2:100 3:57 4:94 5:100 6:78 7:100 8:63 9:100 10:47 11:86 12:31 13:71 14:15 15:100 
-1.145635613370431 1:2 2:85 3:31 4:100 5:76 6:74 7:62 8:37 9:47 11:100 12:8 13:68 14:30 16:41 
-0.4283397944848796 2:80 3:30 4:100 5:74 6:81 7:82 8:43 9:75 10:4 11:39 13:44 14:16 15:100 16:20 
-0.5540855065650392 2:91 3:19 4:97 5:69 6:100 7:100 8:85 9:84 10:62 11:59 12:41 13:33 14:21 15:7 
-0.2389848341226394 2:72 3:32 4:91 5:77 6:100 7:100 8:88 9:87 10:45 11:75 13:61 14:15 15:89 16:34 
-0.1650870060993795 1:31 2:90 3:63 4:100 5:100 6:76 7:75 8:36 9:56 11:96 12:34 13:61 14:43 16:45 
-0.4756327913269102 2:67 3:46 4:91 5:100 6:100 7:83 8:56 9:52 10:15 11:22 13:29 14:28 15:85 16:29 
-2.192751496794188 2:100 3:15 4:84 5:57 6:75 7:100 8:68 9:77 10:55 11:53 12:34 13:29 14:13 15:16 
-0.0206084877658917 1:35 2:97 3:68 4:100 5:100 6:69 7:75 8:34 9:44 11:91 12:15 13:75 14:34 16:33 
-0.8058872861540662 1:26 2:97 3:29 4:100 5:75 6:99 7:100 8:83 9:82 10:61 11:56 12:39 13:27 14:20 
-1.750747885494135 1:1 2:87 3:38 4:100 5:49 6:63 7:34 8:22 9:16 12:29 13:49 14:24 15:100 16:22 
-3.346212020226313 2:87 3:37 4:96 5:98 6:100 7:100 8:87 9:80 10:65 11:63 12:44 13:52 14:22 15:62 
-0.6088935324253705 1:13 2:65 4:94 5:38 6:98 7:78 8:100 9:100 10:93 11:83 12:63 13:67 14:32 15:57 
-0.7525461505908964 1:34 2:77 3:77 4:100 5:100 6:74 7:75 8:43 9:40 10:16 14:24 15:79 16:26 
-5.549965934880761 2:78 3:23 4:91 5:61 6:97 7:100 8:100 9:87 10:75 11:78 12:50 13:71 14:24 15:68 
-1.724612590099364 2:92 3:33 4:99 5:84 6:100 7:100 8:92 9:67 10:71 11:45 12:47 13:30 14:21 15:27 
-3.602694238908759 2:100 3:46 4:96 5:91 6:94 7:100 8:82 9:72 10:59 11:53 12:33 13:49 14:5 15:66 
-0.09792280958368675 1:19 2:100 3:69 4:92 5:68 6:53 7:53 8:15 9:67 11:100 12:27 13:54 14:47 16:56 
-0.3278814067304218 1:28 2:65 3:41 4:100 5:63 6:64 7:55 8:21 9:31 12:33 13:50 14:45 15:100 16:58 
-0.4756062658458181 1:25 2:100 3:76 4:95 5:75 6:63 7:58 8:29 9:54 11:100 12:24 13:61 14:43 16:54 
