svm_type c_svc
kernel_type polynomial
degree 7
gamma 1
coef0 0
nr_class 2
total_sv 24
rho -0.996103
label 2 7
probA -2.79962
probB -0.00908303
nr_sv 12 12
SV
5.539284464942273e-33 2:95 3:35 4:100 5:59 6:78 7:61 8:52 9:46 10:27 11:22 12:5 13:56 15:100 16:1 
6.249878969318161e-33 2:79 3:31 4:94 5:68 6:100 7:100 8:88 9:94 10:62 11:74 12:39 13:51 14:18 15:64 
4.325610046312863e-33 2:63 3:23 4:100 5:56 6:78 7:48 8:34 9:19 11:11 12:13 13:55 14:23 15:100 16:11 
2.568438595151587e-33 1:6 2:89 3:52 4:100 5:100 6:91 7:93 8:65 9:62 10:43 11:25 12:23 14:2 15:55 
5.783636113193922e-33 2:78 3:16 4:100 5:51 6:74 7:42 8:37 9:10 10:8 11:21 12:18 13:65 15:100 16:19 
9.702796552488377e-34 1:20 2:93 3:74 4:100 5:100 6:83 7:78 8:64 9:41 10:46 12:29 13:11 14:11 15:78 
3.122443095069129e-32 1:16 2:67 3:35 4:100 5:50 6:70 7:36 8:34 9:15 12:21 13:48 14:20 15:100 16:9 
3.19390303759164e-32 1:22 2:76 3:54 4:100 5:62 6:58 7:39 8:20 11:13 12:24 13:57 14:27 15:100 16:23 
9.907051387998685e-35 1:68 2:93 3:100 4:100 5:97 6:76 7:72 8:57 9:43 10:38 11:13 12:21 14:1 15:39 
4.452067120589732e-33 1:2 2:95 3:64 4:100 5:100 6:78 7:87 8:50 9:51 10:25 12:6 13:20 15:89 16:3 
1.456728849369823e-32 2:82 3:31 4:100 5:47 6:68 7:36 8:34 9:8 10:5 11:12 12:20 13:60 14:18 15:100 
2.562791948492989e-35 1:24 2:88 3:59 4:100 5:100 6:91 7:89 8:64 9:61 10:42 11:28 12:22 15:47 16:2 
-1.156612947728353e-32 1:11 2:83 3:41 4:100 5:47 6:67 7:25 8:35 9:8 12:31 13:49 14:32 15:100 16:31 
-1.458650300792767e-33 2:86 3:35 4:97 5:100 6:100 7:73 8:67 9:48 10:34 11:21 13:18 14:5 15:56 16:24 
-2.550304281067304e-33 2:100 3:15 4:84 5:57 6:75 7:100 8:68 9:77 10:55 11:53 12:34 13:29 14:13 15:16 
-6.874763751085846e-32 1:1 2:87 3:38 4:100 5:49 6:63 7:34 8:22 9:16 12:29 13:49 14:24 15:100 16:22 
-8.36952732478837e-33 2:79 3:24 4:100 5:62 6:84 7:66 8:53 9:56 10:22 11:43 13:49 14:24 15:100 16:22 
-7.763680198757676e-35 1:7 2:72 4:100 5:42 6:100 7:100 8:100 9:90 10:80 11:61 12:55 13:39 14:28 15:23 
-1.708277443462333e-33 1:25 2:100 3:71 4:93 5:77 6:57 7:59 8:20 9:30 12:28 13:50 14:25 15:100 16:14 
-6.200891884537694e-33 1:34 2:77 3:77 4:100 5:100 6:74 7:75 8:43 9:40 10:16 14:24 15:79 16:26 
-8.973981894908073e-34 2:78 3:23 4:91 5:61 6:97 7:100 8:100 9:87 10:75 11:78 12:50 13:71 14:24 15:68 
-4.734724312728927e-33 2:100 3:46 4:96 5:91 6:94 7:100 8:82 9:72 10:59 11:53 12:33 13:49 14:5 15:66 
-1.051959282089735e-33 1:2 2:63 4:92 5:39 6:96 7:83 8:100 9:100 10:87 11:81 12:59 13:68 14:30 15:60 
-3.815064093406651e-34 2:96 3:47 4:100 5:71 6:70 7:67 8:35 9:58 11:100 12:1 13:74 14:17 15:19 16:18 
