svm_type c_svc
kernel_type polynomial
degree 7
gamma 1
coef0 0
nr_class 2
total_sv 24
rho -3.03385
label 2 3
probA -1.90906
probB -0.268215
nr_sv 16 8
SV
2.992314092415371e-33 2:79 3:31 4:94 5:68 6:100 7:100 8:88 9:94 10:62 11:74 12:39 13:51 14:18 15:64 
5.278339569566334e-32 2:99 3:50 4:100 5:77 6:77 7:59 8:50 9:29 10:26 12:2 13:48 15:100 16:4 
3.408438325508898e-33 1:46 2:95 4:94 5:18 6:100 7:94 8:92 9:59 10:61 11:4 12:32 13:49 14:7 15:100 
2.589500484132994e-32 2:79 3:35 4:100 5:87 6:99 7:100 8:71 9:63 10:46 11:23 12:24 13:46 14:4 15:98 
1.390353468895988e-32 2:90 3:43 4:100 5:89 6:87 7:75 8:59 9:44 10:36 11:9 12:14 13:48 14:5 15:100 
4.204362431176334e-32 2:83 3:43 4:100 5:89 6:85 7:75 8:57 9:42 10:32 12:11 13:35 15:100 
5.37504022973904e-33 2:93 3:43 4:100 5:78 6:83 7:66 8:55 9:36 10:31 11:11 12:6 13:53 15:100 16:1 
1.16167543521112e-32 1:19 2:88 3:53 4:100 5:92 6:84 7:71 8:53 9:36 10:29 12:5 13:48 14:1 15:100 
8.294800596596719e-35 2:83 3:30 4:100 5:78 6:96 7:100 8:74 9:70 10:51 11:37 12:30 13:35 14:7 15:83 
2.962878860746489e-31 1:8 2:91 3:63 4:100 5:100 6:82 7:79 8:55 9:42 10:31 12:11 13:37 14:1 15:100 
2.496944833861085e-32 1:31 2:78 3:35 4:100 5:77 6:85 7:76 8:50 9:43 10:23 12:2 13:48 14:1 15:100 
1.399462998279933e-32 1:2 2:81 3:28 4:100 5:68 6:83 7:67 8:49 9:37 10:23 12:1 13:48 15:100 16:1 
5.428605017396733e-33 2:82 3:42 4:100 5:100 6:90 7:86 8:62 9:46 10:39 11:1 12:17 13:26 14:1 15:93 
4.573700577467557e-32 1:9 2:90 3:46 4:100 5:74 6:74 7:62 8:42 9:29 10:18 13:49 14:2 15:100 16:1 
1.141991471950735e-32 1:15 2:77 3:27 4:100 5:90 6:87 7:88 8:59 9:52 10:33 12:12 13:23 15:100 16:2 
8.75040860873667e-33 1:2 2:95 3:64 4:100 5:100 6:78 7:87 8:50 9:51 10:25 12:6 13:20 15:89 16:3 
-5.373910633728989e-31 1:7 2:90 3:55 4:100 5:93 6:82 7:79 8:54 9:41 10:31 12:10 13:40 15:100 
-1.448804250000486e-33 1:9 2:78 3:48 4:100 5:100 6:94 7:78 8:63 9:85 10:36 11:73 12:6 13:19 16:29 
-1.444713091208095e-32 2:66 3:3 4:93 5:52 6:100 7:100 8:91 9:84 10:65 11:45 12:46 13:27 14:21 15:65 
-2.662141722014016e-33 2:98 3:34 4:100 5:53 6:78 7:47 8:47 9:72 10:26 11:100 12:8 13:68 15:36 16:8 
-1.847706614658514e-34 1:2 2:79 3:48 4:100 5:77 6:83 7:60 8:53 9:100 10:28 11:83 13:23 14:1 16:30 
-4.232563829139531e-33 1:54 2:86 3:84 4:100 5:100 6:79 7:71 8:59 9:56 10:34 11:62 12:9 13:22 16:15 
-4.111270618233446e-33 2:89 3:10 4:100 5:46 6:82 7:11 8:58 9:32 10:50 11:94 12:43 13:100 14:18 15:52 
-2.112076939986548e-34 2:78 3:35 4:100 5:74 6:86 7:42 8:55 9:57 10:31 11:100 12:8 13:58 15:8 16:8 
