svm_type c_svc
kernel_type polynomial
degree 7
gamma 1
coef0 0
nr_class 2
total_sv 27
rho -0.899026
label 8 3
probA -3.93764
probB -0.607675
nr_sv 19 8
SV
2.433290242251094e-34 1:100 2:100 3:14 4:90 5:74 6:55 7:79 8:97 9:37 10:62 12:39 13:36 15:39 16:44 
3.059747507186763e-35 1:31 2:93 3:12 4:78 5:71 6:36 7:31 9:21 10:33 11:100 12:65 13:69 14:100 16:78 
3.330577419227493e-34 1:39 2:73 3:76 4:100 5:22 6:79 7:50 8:43 9:69 10:6 13:26 14:30 15:100 16:52 
4.788138941927099e-35 1:66 2:93 3:50 4:56 5:80 6:100 8:55 9:17 10:35 11:59 13:100 14:52 16:29 
6.206362395507122e-35 1:54 2:85 3:94 4:100 5:96 6:61 7:79 8:22 9:84 11:100 12:32 13:53 14:52 16:58 
7.469833978257903e-35 1:59 2:72 3:36 4:100 6:72 7:23 8:36 9:52 12:1 13:44 14:27 15:100 16:55 
3.064109680620625e-33 2:30 3:46 4:60 5:59 6:100 7:21 8:81 9:67 10:50 11:100 12:16 13:38 15:7 16:28 
1.156952948947807e-33 1:2 2:77 3:54 4:100 5:100 6:79 7:86 8:47 9:59 10:16 11:63 13:73 14:27 16:43 
6.233787465300397e-35 1:17 2:97 3:25 4:59 5:85 6:100 8:82 9:27 10:51 11:23 13:100 14:36 15:19 16:33 
1.1868641141834e-34 1:72 2:100 3:3 4:76 5:100 6:63 7:49 8:99 9:29 10:45 12:28 13:53 15:33 16:48 
8.807017479821068e-34 1:53 2:61 3:100 4:73 5:92 6:100 7:55 8:72 9:58 10:36 11:51 12:1 15:29 16:31 
1.699100932475663e-34 1:5 2:66 3:16 4:100 5:100 6:98 7:69 8:58 9:29 10:20 11:75 13:21 14:32 16:71 
5.927867392577224e-34 2:39 3:62 4:67 5:86 6:100 7:6 8:87 9:38 10:54 11:100 12:26 13:72 15:1 16:17 
2.149770115854575e-37 1:49 2:100 3:57 4:55 5:40 6:9 9:44 10:40 11:100 12:77 13:77 14:100 15:14 16:69 
1.643478929493688e-34 1:21 2:64 3:55 4:29 5:7 8:32 9:55 10:65 11:100 12:100 13:20 14:93 15:12 16:57 
6.262829455279982e-34 1:1 2:74 3:23 4:100 5:83 6:87 7:75 8:42 9:49 11:100 12:2 13:55 14:34 16:64 
4.725794518079556e-35 1:49 2:82 3:6 4:100 6:65 7:19 8:27 9:15 11:8 12:38 13:48 14:62 15:100 16:68 
1.781317450574072e-35 1:23 2:49 3:81 4:69 5:100 6:100 7:35 8:87 9:33 10:53 11:68 12:21 13:13 16:28 
1.851575748454469e-34 1:59 2:100 3:6 4:57 5:100 6:72 7:26 8:86 9:64 10:46 13:91 14:10 15:35 16:34 
-5.429640831706865e-35 2:85 3:43 4:100 5:100 6:95 7:85 8:74 9:44 10:57 11:33 12:37 13:50 14:16 15:9 
-8.77791004384339e-34 1:7 2:90 3:55 4:100 5:93 6:82 7:79 8:54 9:41 10:31 12:10 13:40 15:100 
-2.082761351191125e-34 1:2 2:55 3:18 4:86 5:70 6:100 7:98 8:79 9:75 10:50 11:100 12:15 13:52 16:15 
-1.37586029973505e-35 2:66 3:3 4:93 5:52 6:100 7:100 8:91 9:84 10:65 11:45 12:46 13:27 14:21 15:65 
-7.520535323447009e-34 1:2 2:79 3:48 4:100 5:77 6:83 7:60 8:53 9:100 10:28 11:83 13:23 14:1 16:30 
-4.991834914142009e-33 1:12 2:73 3:22 4:100 5:72 6:80 7:26 8:54 9:56 10:47 11:100 12:20 13:50 16:18 
-9.361056611892128e-34 1:54 2:86 3:84 4:100 5:100 6:79 7:71 8:59 9:56 10:34 11:62 12:9 13:22 16:15 
-4.407134203096215e-35 2:89 3:10 4:100 5:46 6:82 7:11 8:58 9:32 10:50 11:94 12:43 13:100 14:18 15:52 
