svm_type c_svc
kernel_type polynomial
degree 7
gamma 1
coef0 0
nr_class 2
total_sv 11
rho -0.73027
label 2 4
probA -3.08636
probB -0.441394
nr_sv 4 7
SV
2.931134459625126e-34 2:79 3:31 4:94 5:68 6:100 7:100 8:88 9:94 10:62 11:74 12:39 13:51 14:18 15:64 
1.812560638365337e-33 2:80 3:17 4:100 5:41 6:99 7:60 8:83 9:53 10:52 11:56 12:20 13:77 14:7 15:100 
2.674213122263477e-33 2:95 3:27 4:100 5:32 6:63 7:15 8:31 9:11 10:10 11:41 12:7 13:70 14:3 15:100 
1.286444884942675e-32 2:80 3:22 4:100 5:24 6:66 7:7 8:34 10:14 11:34 12:9 13:69 14:4 15:100 
-7.088278325783471e-33 2:81 3:15 4:100 5:20 6:76 7:19 8:52 9:24 10:28 11:71 12:21 13:88 14:23 15:100 
-6.62377991121667e-34 1:41 2:90 3:62 4:100 5:29 6:74 7:2 8:47 10:22 11:64 12:33 13:100 14:28 15:88 
-6.51251485024845e-34 1:36 2:100 3:13 4:75 5:57 6:65 7:100 8:78 9:63 10:85 11:41 12:57 13:18 14:29 
-4.625511799135915e-33 1:26 2:100 3:16 4:79 6:52 7:36 8:32 9:100 10:38 11:55 12:52 13:38 14:26 15:32 
-4.098313996158815e-34 1:53 2:100 4:75 5:7 6:43 7:100 8:52 9:50 10:76 11:16 12:91 13:14 14:44 15:28 
-8.854800579811127e-34 1:21 2:100 3:13 4:70 6:38 7:6 8:17 9:73 10:20 11:100 12:28 13:62 14:32 15:56 
-3.321604997355178e-33 2:100 3:3 4:84 5:1 6:63 7:7 8:43 9:52 10:38 11:55 12:35 13:62 14:14 15:100 
