svm_type c_svc
kernel_type polynomial
degree 7
gamma 1
coef0 0
nr_class 2
total_sv 15
rho 1.53641
label 4 6
probA -2.53494
probB 0.532079
nr_sv 9 6
SV
9.015587349418602e-33 1:56 2:100 3:17 4:77 6:46 7:45 8:27 9:100 10:42 11:83 12:53 13:38 14:28 15:6 
8.753268917840879e-34 1:18 2:61 3:37 4:100 5:17 6:65 8:33 9:61 10:39 11:100 12:55 13:66 14:37 15:37 
2.7706655507698e-34 1:26 2:100 3:16 4:79 6:52 7:36 8:32 9:100 10:38 11:55 12:52 13:38 14:26 15:32 
3.055923930164952e-34 1:53 2:100 4:75 5:7 6:43 7:100 8:52 9:50 10:76 11:16 12:91 13:14 14:44 15:28 
8.081972394092655e-34 1:71 2:100 3:39 4:87 5:11 6:63 8:37 9:42 10:25 11:100 12:37 13:74 14:24 15:53 
3.759159828554142e-32 1:21 2:100 3:13 4:70 6:38 7:6 8:17 9:73 10:20 11:100 12:28 13:62 14:32 15:56 
4.043497151434559e-33 1:65 2:100 3:46 4:91 5:2 6:58 8:31 9:66 10:31 11:100 12:60 13:49 14:39 15:20 
1.23625157637542e-33 1:92 2:100 3:50 4:79 5:20 6:56 8:34 9:56 10:22 11:100 12:41 13:66 14:23 15:50 
1.938322584315972e-33 1:50 2:100 3:63 4:96 5:30 6:65 8:36 9:13 10:8 11:85 12:22 13:100 14:30 15:80 
-2.93360279123383e-32 1:52 2:100 3:18 4:76 6:46 7:9 8:17 9:61 10:19 11:100 12:38 13:54 14:22 15:18 
-1.53466304929844e-32 1:47 2:100 3:21 4:78 6:42 7:26 8:8 9:94 10:4 11:100 12:32 13:34 14:28 15:28 
-1.448284417313132e-34 1:16 2:100 4:57 5:55 6:55 7:44 9:12 10:17 11:6 12:77 13:45 14:98 15:100 16:100 
-2.364504356552918e-36 1:100 2:91 3:85 4:100 5:49 6:78 7:18 8:52 10:23 11:25 13:69 14:9 15:30 16:20 
-1.604379589695492e-33 1:42 2:100 3:15 4:73 6:45 7:4 8:17 9:51 11:100 12:16 13:92 14:43 15:34 16:39 
-9.657209085266748e-33 1:25 2:90 3:42 4:100 5:15 6:63 8:26 9:42 11:100 12:3 13:80 14:28 15:59 16:6 
