svm_type c_svc
kernel_type polynomial
degree 7
gamma 1
coef0 0
nr_class 2
total_sv 34
rho -1.14918
label 4 9
probA -3.48042
probB 0.0547643
nr_sv 14 20
SV
1.234312834839013e-33 1:63 2:100 3:40 4:73 5:70 6:63 7:100 8:77 9:79 10:74 11:55 12:48 13:29 14:23 
1.824691124745957e-36 1:51 2:100 4:90 5:5 6:57 7:92 8:61 9:100 10:70 11:85 12:82 13:68 14:40 15:86 
4.491123502059796e-36 1:100 2:100 3:24 4:77 6:56 7:96 8:57 9:100 10:86 11:79 12:70 13:37 14:35 15:4 
1.078763606576223e-33 1:56 2:97 3:42 4:100 6:74 7:52 8:60 9:100 10:81 11:74 12:60 13:50 14:30 15:33 
4.155238981826264e-34 2:81 3:15 4:100 5:20 6:76 7:19 8:52 9:24 10:28 11:71 12:21 13:88 14:23 15:100 
1.206656558766777e-33 1:90 2:100 3:43 4:79 6:56 7:51 8:58 9:100 10:69 11:97 12:61 13:79 14:28 15:60 
3.35992775771535e-34 1:41 2:90 3:62 4:100 5:29 6:74 7:2 8:47 10:22 11:64 12:33 13:100 14:28 15:88 
3.433955638903594e-33 1:78 2:100 3:43 4:92 6:73 7:14 8:54 9:83 10:55 11:100 12:43 13:63 14:22 15:29 
3.030177034152518e-33 1:59 2:100 4:79 5:31 6:64 7:100 8:75 9:93 10:76 11:63 12:51 13:37 14:26 15:11 
3.72124104050126e-33 1:53 2:100 3:5 4:80 6:63 7:60 8:64 9:100 10:79 11:79 12:57 13:55 14:26 15:31 
2.780620294971041e-35 1:11 2:100 4:74 5:43 6:56 7:100 8:56 9:88 10:83 11:87 12:55 13:84 14:27 15:87 
1.818659265676997e-34 1:38 2:95 3:53 4:100 5:19 6:80 8:59 9:61 10:65 11:100 12:89 13:75 14:47 15:49 
3.918441727401727e-35 1:66 2:100 3:73 4:96 5:34 6:72 8:48 9:39 10:31 11:100 12:46 13:75 14:26 15:64 
2.066585795056474e-34 1:12 2:100 4:70 5:64 6:68 7:100 8:87 9:82 10:90 11:67 12:60 13:54 14:30 15:50 
-4.976190171492048e-34 1:78 2:72 3:81 4:100 5:8 6:91 8:55 9:69 10:59 11:100 12:71 13:74 14:33 15:58 
-1.290905536304148e-33 1:7 2:100 4:73 5:57 6:81 7:49 8:80 9:76 10:52 11:100 12:23 13:65 15:1 16:2 
-4.16042410345419e-34 1:82 2:100 3:16 4:90 6:58 7:60 8:58 9:93 10:89 11:100 12:60 13:85 14:26 15:41 
-5.466638565888129e-34 1:87 2:90 3:38 4:100 6:82 7:46 8:71 9:100 10:71 11:73 12:47 13:38 14:24 15:27 
-3.495318630620481e-35 1:21 2:94 3:44 4:73 5:100 6:100 7:13 8:100 9:16 10:80 11:61 12:66 13:23 14:33 
-1.500853984311605e-33 1:79 2:100 3:35 4:86 5:60 6:67 7:100 8:85 9:89 10:71 11:70 12:43 13:40 14:19 
-3.692321395182792e-34 2:69 3:52 4:60 5:100 6:77 7:74 8:100 9:23 10:89 11:47 12:69 13:55 14:36 15:51 
-7.479180330473337e-35 1:14 2:76 3:57 4:100 5:63 6:55 7:13 8:72 9:71 10:86 11:100 12:37 13:52 16:21 
-4.069040567656494e-35 3:46 4:16 5:85 6:41 7:100 8:72 9:73 10:100 11:18 12:95 13:19 14:66 15:76 16:55 
-5.110595716687325e-34 1:100 2:83 3:47 4:100 6:79 7:25 8:51 9:78 10:68 11:82 12:71 13:77 14:34 15:64 
-5.60894648670773e-34 3:33 4:12 5:66 6:35 7:90 8:61 9:100 10:89 11:57 12:100 13:25 14:79 15:58 16:60 
-4.209475956006176e-35 1:56 2:76 3:66 4:100 6:88 7:23 8:60 9:90 10:71 11:100 12:68 13:87 14:31 15:92 
-4.851428858179865e-34 1:100 2:80 3:60 4:62 6:48 7:26 8:79 9:81 10:100 11:90 12:67 13:59 14:32 15:30 
-1.158052402308666e-33 1:59 2:78 3:60 4:100 5:7 6:94 8:65 9:53 10:57 11:100 12:42 13:80 14:14 15:32 
-2.742101637886332e-33 1:50 2:85 3:3 4:100 5:4 6:78 7:63 8:68 9:100 10:61 11:80 12:19 13:32 16:7 
-8.122358068311901e-34 1:49 2:100 3:8 4:93 6:60 7:45 8:82 9:61 10:57 11:100 12:28 13:73 15:8 16:2 
-2.803400309311553e-34 1:14 2:84 4:53 5:79 6:83 7:9 8:100 9:8 10:66 11:100 12:80 13:67 14:38 15:14 
-3.339378784575603e-33 1:75 2:100 3:4 4:88 6:61 7:74 8:70 9:100 10:88 11:82 12:58 13:56 14:28 15:51 
-5.536325861954841e-35 1:81 2:67 3:72 4:100 6:83 7:31 8:50 9:100 10:66 11:94 12:51 13:83 14:11 15:4 
-1.600382022424065e-34 1:83 2:73 3:74 4:100 5:4 6:82 8:59 9:74 10:73 11:100 12:54 13:65 14:21 15:2 
