svm_type c_svc
kernel_type polynomial
degree 7
gamma 1
coef0 0
nr_class 2
total_sv 16
rho -0.0894406
label 0 7
probA -3.62341
probB -0.353246
nr_sv 10 6
SV
1.18776439920581e-33 1:6 2:43 3:16 4:2 5:68 7:100 8:35 9:81 10:75 11:38 12:100 13:7 14:63 16:22 
1.352848989158479e-33 1:25 2:77 3:3 4:60 5:11 7:71 8:4 9:100 10:57 11:56 12:100 13:2 14:66 16:11 
4.553485650658753e-34 1:66 2:100 3:30 4:87 5:8 6:56 8:21 9:31 11:75 12:17 13:100 14:47 15:89 16:79 
3.326120773336436e-34 1:95 2:31 3:44 4:2 6:26 7:11 8:69 9:60 10:100 11:100 12:73 13:84 14:30 15:40 
1.075118680163747e-34 1:15 2:55 4:35 5:15 6:1 7:54 9:88 10:19 11:100 12:53 13:80 14:85 15:45 16:100 
3.451115887758363e-34 1:33 2:100 3:15 4:85 6:40 7:13 9:46 10:3 11:76 12:25 13:100 14:61 15:84 16:95 
1.265390229339307e-33 1:55 2:100 3:16 4:79 6:39 7:5 9:61 10:1 11:100 12:31 13:67 14:61 15:5 16:67 
2.542866734896423e-34 1:4 2:25 3:68 4:64 5:33 6:97 8:36 9:38 11:100 12:43 13:96 14:100 15:22 16:85 
9.856156438978421e-35 1:66 2:98 3:55 4:70 5:98 6:68 7:100 8:100 9:57 10:92 11:33 12:62 13:16 14:31 
2.164078485921105e-33 1:52 2:100 4:36 5:36 7:100 8:52 9:40 10:73 11:15 12:45 13:65 14:60 15:5 16:2 
-3.750348083309057e-33 2:89 3:26 4:100 5:35 6:51 7:32 9:13 10:13 11:22 12:32 13:60 14:40 15:100 16:46 
-2.323413594636826e-34 1:11 2:83 3:41 4:100 5:47 6:67 7:25 8:35 9:8 12:31 13:49 14:32 15:100 16:31 
-9.293838972577387e-34 2:100 3:15 4:84 5:57 6:75 7:100 8:68 9:77 10:55 11:53 12:34 13:29 14:13 15:16 
-1.770635852355054e-33 1:1 2:87 3:38 4:100 5:49 6:63 7:34 8:22 9:16 12:29 13:49 14:24 15:100 16:22 
-7.118673484413342e-35 2:83 3:26 4:90 5:100 6:100 7:72 8:68 9:38 10:34 11:7 13:3 14:19 15:46 16:41 
-8.096185134661916e-34 1:19 2:100 3:69 4:92 5:68 6:53 7:53 8:15 9:67 11:100 12:27 13:54 14:47 16:56 
