svm_type c_svc
kernel_type polynomial
degree 7
gamma 1
coef0 0
nr_class 2
total_sv 12
rho 0.111563
label 2 6
probA -3.71759
probB 0.330913
nr_sv 5 7
SV
2.361987902104761e-33 1:16 2:37 3:8 4:82 5:49 6:100 7:55 8:56 9:26 10:17 13:50 14:3 15:100 16:3 
1.17560038772737e-32 2:72 3:19 4:100 5:27 6:60 7:10 8:21 9:2 10:1 11:35 13:68 14:1 15:100 16:8 
7.102248598888137e-33 1:30 2:59 3:46 4:100 5:49 6:47 7:27 8:5 10:7 11:33 12:16 13:66 15:100 16:4 
9.390444261633039e-35 1:6 2:48 3:32 4:77 5:75 6:100 7:100 8:79 9:73 10:51 11:33 12:26 14:1 15:62 
5.20212496299841e-34 1:68 2:93 3:100 4:100 5:97 6:76 7:72 8:57 9:43 10:38 11:13 12:21 14:1 15:39 
-2.256961951720138e-34 1:32 2:100 3:12 4:76 6:48 7:1 8:21 9:39 11:100 12:9 13:64 14:21 15:18 16:3 
-5.427062463420473e-35 1:100 2:100 3:76 4:95 5:50 6:72 7:26 8:49 9:6 10:26 13:46 14:2 15:25 16:20 
-9.372608994947182e-34 1:100 2:100 3:74 4:88 5:46 6:69 7:22 8:47 10:24 11:3 13:36 14:11 15:7 16:23 
-5.053249243078039e-34 1:16 2:100 4:57 5:55 6:55 7:44 9:12 10:17 11:6 12:77 13:45 14:98 15:100 16:100 
-2.640191423302395e-33 1:100 2:100 3:61 4:82 5:30 6:58 7:6 8:30 11:44 12:2 13:43 14:21 15:2 16:9 
-3.427281930205803e-33 1:25 2:75 3:85 4:100 5:49 6:72 7:18 8:40 10:7 11:51 13:100 14:28 15:49 16:29 
-1.404433132006584e-32 1:24 2:100 3:7 4:72 6:42 7:6 8:13 9:60 10:9 11:100 12:29 13:43 14:23 15:9 
