svm_type c_svc
kernel_type polynomial
degree 7
gamma 1
coef0 0
nr_class 2
total_sv 16
rho -0.781982
label 2 9
probA -4.20595
probB -0.964046
nr_sv 5 11
SV
5.932775571927131e-34 2:79 3:31 4:94 5:68 6:100 7:100 8:88 9:94 10:62 11:74 12:39 13:51 14:18 15:64 
1.758135013343352e-33 2:72 3:19 4:100 5:27 6:60 7:10 8:21 9:2 10:1 11:35 13:68 14:1 15:100 16:8 
9.775812310707253e-34 1:30 2:59 3:46 4:100 5:49 6:47 7:27 8:5 10:7 11:33 12:16 13:66 15:100 16:4 
2.868563518784683e-35 1:68 2:94 3:49 4:100 5:78 6:88 7:42 8:61 10:37 11:25 12:16 13:79 14:8 15:100 
1.865472572509344e-34 1:68 2:93 3:100 4:100 5:97 6:76 7:72 8:57 9:43 10:38 11:13 12:21 14:1 15:39 
-3.053468631652111e-35 1:68 2:46 3:89 4:75 5:52 6:100 8:80 9:6 10:53 11:72 12:54 13:100 14:33 15:89 
-8.350270593517925e-34 1:7 2:100 4:73 5:57 6:81 7:49 8:80 9:76 10:52 11:100 12:23 13:65 15:1 16:2 
-8.019847731610091e-35 1:8 2:64 3:65 4:74 5:100 6:100 7:43 8:93 10:66 11:57 12:72 13:48 14:42 15:27 
-2.961942062660145e-34 2:69 3:52 4:60 5:100 6:77 7:74 8:100 9:23 10:89 11:47 12:69 13:55 14:36 15:51 
-1.848817098110671e-34 1:14 2:76 3:57 4:100 5:63 6:55 7:13 8:72 9:71 10:86 11:100 12:37 13:52 16:21 
-1.136635514068378e-34 3:46 4:16 5:85 6:41 7:100 8:72 9:73 10:100 11:18 12:95 13:19 14:66 15:76 16:55 
-1.952921430652211e-34 1:69 2:48 3:100 4:74 5:76 6:100 7:26 8:86 10:56 11:46 12:44 13:81 14:34 15:77 
-3.43784332635846e-34 3:33 4:12 5:66 6:35 7:90 8:61 9:100 10:89 11:57 12:100 13:25 14:79 15:58 16:60 
-3.998029595702441e-34 1:100 2:72 3:43 4:78 6:91 7:50 8:100 9:54 10:75 11:40 12:50 13:30 14:25 15:29 
-8.743055369300604e-34 1:50 2:85 3:3 4:100 5:4 6:78 7:63 8:68 9:100 10:61 11:80 12:19 13:32 16:7 
-1.90542031375866e-34 2:60 3:39 4:49 5:100 6:78 7:57 8:100 9:10 10:68 11:88 12:58 13:80 14:20 15:11 
