svm_type c_svc
kernel_type polynomial
degree 7
gamma 1
coef0 0
nr_class 2
total_sv 26
rho 0.136417
label 5 7
probA -3.9411
probB -0.172616
nr_sv 15 11
SV
2.514668600626077e-33 1:33 2:100 4:66 5:28 6:40 7:55 8:12 9:1 11:10 12:46 13:44 14:84 15:100 16:92 
6.711671916155695e-34 1:7 2:91 3:57 4:100 5:8 6:96 8:54 9:57 10:50 11:100 12:21 13:46 15:1 16:14 
1.048667574151322e-34 2:58 3:39 4:38 5:56 6:5 7:27 9:6 10:35 11:18 12:64 13:59 14:83 15:100 16:100 
1.078709458648203e-33 1:34 2:62 3:51 4:96 5:55 6:56 7:50 8:13 11:6 12:56 13:38 14:100 15:100 16:90 
4.644313287186271e-34 1:24 2:80 3:59 4:95 5:100 6:100 7:63 8:92 9:25 10:78 11:21 12:47 13:36 14:16 
3.959593231405374e-34 1:21 2:52 4:48 5:39 6:50 7:100 8:51 9:68 11:26 12:29 13:8 14:83 15:85 16:100 
3.637805002822181e-34 1:10 2:91 3:20 4:59 5:83 6:56 7:100 8:13 9:40 11:3 12:42 14:82 15:60 16:100 
2.16997568192328e-35 1:10 2:79 3:18 4:48 5:39 6:17 9:3 10:38 11:10 12:71 13:54 14:87 15:100 16:100 
1.496823834774333e-33 1:8 2:70 3:43 4:50 5:44 6:15 7:10 10:37 11:12 12:68 13:55 14:86 15:100 16:100 
9.247480196795304e-34 1:4 2:73 3:53 4:91 5:100 6:100 7:47 8:88 9:20 10:41 11:72 12:36 13:52 14:1 
8.623245528761192e-34 1:2 2:64 3:31 4:33 5:47 6:3 9:3 10:39 11:8 12:74 13:54 14:89 15:100 16:100 
6.75120380249775e-34 1:72 2:94 3:25 4:100 5:26 6:71 7:25 8:36 9:72 10:44 11:100 12:18 13:55 16:2 
8.914715093320145e-34 1:100 2:100 3:38 4:87 5:2 6:62 7:48 8:51 9:94 10:28 11:70 14:4 15:2 16:28 
3.110865280884802e-34 1:10 2:89 3:32 4:98 5:36 6:100 8:68 9:31 10:49 11:100 12:29 13:60 15:1 16:15 
1.207598176676816e-35 1:100 2:81 3:66 4:100 5:29 6:82 7:5 8:52 9:31 10:45 11:68 12:28 13:46 16:2 
-9.441406936084755e-34 1:2 2:85 3:31 4:100 5:76 6:74 7:62 8:37 9:47 11:100 12:8 13:68 14:30 16:41 
-8.816626793289474e-35 2:96 3:45 4:100 5:100 6:99 7:79 8:83 9:60 10:63 11:45 12:42 13:36 14:21 15:33 
-6.942511908858166e-33 1:7 2:100 3:40 4:89 5:37 6:48 7:21 8:9 11:3 12:40 13:48 14:58 15:100 16:65 
-3.361701248592405e-34 2:100 3:15 4:84 5:57 6:75 7:100 8:68 9:77 10:55 11:53 12:34 13:29 14:13 15:16 
-2.62876660226178e-34 1:26 2:97 3:29 4:100 5:75 6:99 7:100 8:83 9:82 10:61 11:56 12:39 13:27 14:20 
-9.571847706402829e-35 1:34 2:91 4:98 5:42 6:100 7:83 8:94 9:100 10:71 11:86 12:46 13:62 14:23 15:46 
-1.913864121733523e-34 2:66 3:21 4:100 5:50 6:78 7:42 8:33 9:24 11:9 12:40 13:54 14:55 15:100 16:69 
-2.706555867472518e-34 1:24 2:100 3:77 4:93 5:100 6:72 7:71 8:48 9:46 10:23 11:28 14:24 15:31 16:35 
-4.814327534233703e-34 2:83 3:26 4:90 5:100 6:100 7:72 8:68 9:38 10:34 11:7 13:3 14:19 15:46 16:41 
-1.955395138015835e-34 1:19 2:100 3:69 4:92 5:68 6:53 7:53 8:15 9:67 11:100 12:27 13:54 14:47 16:56 
-9.803353253380735e-34 1:28 2:65 3:41 4:100 5:63 6:64 7:55 8:21 9:31 12:33 13:50 14:45 15:100 16:58 
