svm_type c_svc
kernel_type polynomial
degree 7
gamma 1
coef0 0
nr_class 2
total_sv 37
rho -1.0251
label 8 9
probA -4.16532
probB -0.692012
nr_sv 24 13
SV
3.520998790897544e-34 1:100 2:100 3:14 4:90 5:74 6:55 7:79 8:97 9:37 10:62 12:39 13:36 15:39 16:44 
1.025519752941909e-35 1:38 2:73 3:84 4:41 5:100 7:53 8:7 9:73 10:49 11:98 12:90 13:54 14:100 16:75 
2.902224075391276e-34 1:37 2:71 3:79 4:71 5:49 6:100 8:45 9:25 10:36 11:66 13:100 14:51 15:10 16:26 
2.167004965293264e-34 1:32 2:52 3:22 5:100 6:2 7:78 8:63 9:35 10:37 11:14 12:100 13:71 14:92 16:73 
4.887386812766359e-34 2:31 3:52 4:59 5:46 6:100 7:11 8:81 9:65 10:52 11:100 12:17 13:38 15:9 16:26 
1.996516300615194e-34 1:22 2:100 3:66 4:50 5:100 6:94 7:45 8:95 9:5 10:41 11:58 13:78 14:42 16:46 
3.94212011813819e-35 1:36 2:53 3:100 4:82 5:55 6:100 7:2 8:69 9:36 10:34 11:74 14:14 15:62 16:44 
2.885457577617878e-35 1:35 2:100 4:88 5:58 6:44 7:55 9:30 10:39 11:100 12:73 13:94 14:97 15:28 16:84 
1.135149334644622e-34 1:66 2:93 3:50 4:56 5:80 6:100 8:55 9:17 10:35 11:59 13:100 14:52 16:29 
1.014687593159428e-34 1:100 2:86 3:47 4:100 6:73 7:42 8:43 9:85 10:15 11:28 13:37 14:36 15:84 16:66 
8.414518007879658e-35 1:44 2:73 3:77 4:100 5:100 6:68 7:78 8:28 9:68 11:100 12:33 13:56 14:51 16:53 
5.945129084953084e-35 1:17 2:97 3:25 4:59 5:85 6:100 8:82 9:27 10:51 11:23 13:100 14:36 15:19 16:33 
1.024519033761602e-34 1:56 2:66 3:100 4:94 5:44 6:100 7:35 8:64 9:63 10:29 11:37 14:22 15:42 16:54 
5.75226861549297e-35 1:54 2:82 3:26 4:63 5:100 6:76 7:28 8:100 9:61 10:50 12:36 13:49 15:55 16:54 
1.906282178725866e-34 2:39 3:62 4:67 5:86 6:100 7:6 8:87 9:38 10:54 11:100 12:26 13:72 15:1 16:17 
4.218685037237946e-34 2:18 3:39 4:59 5:82 6:100 7:34 8:100 9:34 10:62 11:100 12:36 13:68 15:14 16:19 
6.275025114557701e-35 1:27 2:50 3:66 4:35 5:46 7:7 8:31 9:46 10:68 11:100 12:100 13:41 14:100 16:64 
7.200917946591769e-35 1:55 2:100 3:43 4:41 5:100 6:42 7:61 8:96 9:45 10:43 11:10 13:98 14:20 16:27 
3.159350090926192e-34 1:14 2:70 3:58 4:36 5:28 8:30 9:48 10:66 11:100 12:100 13:46 14:95 15:22 16:55 
3.531292357199716e-35 1:31 2:87 3:22 4:49 5:83 6:100 8:74 9:45 10:67 11:23 13:100 14:37 15:15 16:38 
7.21740558289792e-35 1:29 2:100 4:75 5:53 6:54 7:100 8:30 9:78 11:56 12:25 13:66 14:63 15:15 16:71 
4.339301937163439e-34 1:23 2:49 3:81 4:69 5:100 6:100 7:35 8:87 9:33 10:53 11:68 12:21 13:13 16:28 
3.596918160232924e-35 1:20 2:86 4:73 5:82 6:85 7:35 8:100 9:19 10:45 11:30 13:100 14:33 15:24 16:54 
1.372148304287526e-33 1:11 2:17 3:54 4:54 5:99 6:92 7:42 8:100 9:31 10:64 11:100 12:35 13:75 16:13 
-7.724055271722854e-36 1:84 2:52 3:98 4:96 5:64 6:100 7:73 8:62 9:100 10:55 11:83 12:9 13:42 16:4 
-1.312452603977225e-34 1:7 2:100 4:73 5:57 6:81 7:49 8:80 9:76 10:52 11:100 12:23 13:65 15:1 16:2 
-4.099263737602192e-35 1:62 2:57 3:100 4:85 5:52 6:100 8:76 9:39 10:64 11:79 12:57 13:52 14:24 15:5 
-3.994485806753213e-34 1:41 2:71 3:32 4:40 5:100 6:76 7:34 8:100 9:36 10:57 11:89 12:68 13:70 14:4 
-5.240560885067375e-34 1:50 2:100 3:4 4:93 5:22 6:66 7:42 8:84 9:66 10:49 11:100 12:15 13:56 16:10 
-5.780640740996419e-34 1:14 2:76 3:57 4:100 5:63 6:55 7:13 8:72 9:71 10:86 11:100 12:37 13:52 16:21 
-1.340719842591574e-34 3:46 4:16 5:85 6:41 7:100 8:72 9:73 10:100 11:18 12:95 13:19 14:66 15:76 16:55 
-2.255213454966137e-34 1:69 2:48 3:100 4:74 5:76 6:100 7:26 8:86 10:56 11:46 12:44 13:81 14:34 15:77 
-3.790661021623334e-34 3:33 4:12 5:66 6:35 7:90 8:61 9:100 10:89 11:57 12:100 13:25 14:79 15:58 16:60 
-4.267838218082081e-34 1:100 2:72 3:43 4:78 6:91 7:50 8:100 9:54 10:75 11:40 12:50 13:30 14:25 15:29 
-4.850447743424143e-34 1:50 2:85 3:3 4:100 5:4 6:78 7:63 8:68 9:100 10:61 11:80 12:19 13:32 16:7 
-4.266920847672772e-34 1:46 2:48 3:100 4:74 5:87 6:100 7:10 8:86 9:30 10:68 11:90 12:58 13:43 14:29 
-1.398513833367664e-33 2:60 3:39 4:49 5:100 6:78 7:57 8:100 9:10 10:68 11:88 12:58 13:80 14:20 15:11 
