svm_type c_svc
kernel_type polynomial
degree 3
gamma 0.0001
coef0 0
nr_class 2
total_sv 54
rho -1.67983
label 10 4
probA -3.03117
probB -0.612511
nr_sv 33 21
SV
0.3315791417319053 1:77 2:100 3:53 4:90 6:43 7:13 9:86 10:34 11:100 12:84 13:73 14:51 15:10 16:9 
0.2839278509203721 1:78 2:72 3:81 4:100 5:8 6:91 8:55 9:69 10:59 11:100 12:71 13:74 14:33 15:58 
0.007033614069004043 2:89 3:26 4:100 5:35 6:51 7:32 9:13 10:13 11:22 12:32 13:60 14:40 15:100 16:46 
0.05612720356166186 1:5 2:84 3:38 4:100 5:53 6:73 7:32 8:42 10:19 11:29 12:32 13:69 14:23 15:100 
0.05334447534421951 1:82 2:100 3:16 4:90 6:58 7:60 8:58 9:93 10:89 11:100 12:60 13:85 14:26 15:41 
0.01534700888717139 1:33 2:93 4:55 5:61 6:58 7:91 8:25 9:37 11:29 12:53 13:36 14:100 15:100 16:93 
0.09980885357978282 1:35 2:94 4:74 5:75 6:97 7:100 8:100 9:70 10:75 11:45 12:50 13:25 14:25 
0.05128606418791651 2:100 3:12 4:71 5:94 6:90 7:31 8:96 9:11 10:76 11:100 12:80 13:58 14:41 15:37 
1.179152552958641 1:79 2:100 3:35 4:86 5:60 6:67 7:100 8:85 9:89 10:71 11:70 12:43 13:40 14:19 
0.08573900957521663 1:100 2:94 3:52 4:77 5:4 6:77 7:47 8:100 9:97 10:88 11:76 12:55 13:35 14:28 
0.01669946817940036 1:99 2:82 3:66 4:100 6:85 7:13 8:56 9:84 10:67 11:100 12:68 13:85 14:33 15:70 
0.4493013508507593 2:100 3:15 4:84 5:57 6:75 7:100 8:68 9:77 10:55 11:53 12:34 13:29 14:13 15:16 
0.1503041218903209 2:80 3:22 4:100 5:24 6:66 7:7 8:34 10:14 11:34 12:9 13:69 14:4 15:100 
0.05530878661859705 1:94 2:100 3:35 4:94 5:3 6:58 8:21 9:74 10:14 11:100 12:43 13:21 14:34 15:19 
1.403683646670224 1:52 2:100 3:18 4:76 6:46 7:9 8:17 9:61 10:19 11:100 12:38 13:54 14:22 15:18 
0.09795029038679816 1:80 2:86 3:46 4:100 6:78 7:42 8:57 9:100 10:75 11:98 12:62 13:88 14:29 15:75 
0.4189015957567089 1:56 2:76 3:66 4:100 6:88 7:23 8:60 9:90 10:71 11:100 12:68 13:87 14:31 15:92 
0.0127291531902557 2:90 3:22 4:100 5:39 6:59 7:37 8:11 9:31 11:21 12:32 13:60 14:35 15:100 16:39 
0.2117656979864903 1:82 2:100 3:64 4:75 5:16 6:46 8:13 9:73 10:1 11:100 12:20 13:27 14:27 15:47 
0.02937672149797687 1:26 2:90 3:75 4:74 5:70 6:100 8:85 9:83 10:80 11:100 12:52 13:61 14:20 15:9 
0.2745033110743217 1:9 2:81 3:5 4:24 5:54 7:99 8:38 9:100 10:94 11:48 12:100 13:8 14:56 16:4 
0.220250228889284 1:66 2:98 3:55 4:70 5:98 6:68 7:100 8:100 9:57 10:92 11:33 12:62 13:16 14:31 
0.08382480676529137 1:97 2:100 3:41 4:81 5:14 6:13 7:71 8:23 9:100 10:85 11:77 12:85 13:47 14:53 
0.02203620251163045 1:74 2:100 3:72 4:59 5:16 6:57 7:45 8:95 9:96 10:84 11:100 12:36 13:61 16:3 
0.1697873878350339 1:52 2:100 4:36 5:36 7:100 8:52 9:40 10:73 11:15 12:45 13:65 14:60 15:5 16:2 
0.06374616095578714 1:94 2:75 3:55 4:100 6:78 7:17 8:45 9:76 10:62 11:100 12:78 13:92 14:36 15:84 
0.4518713034820677 2:89 3:10 4:100 5:46 6:82 7:11 8:58 9:32 10:50 11:94 12:43 13:100 14:18 15:52 
0.1315749066531118 2:100 3:22 4:86 5:60 6:80 7:100 8:80 9:84 10:65 11:66 12:42 13:51 14:18 15:47 
1.021780861557838 1:75 2:100 3:4 4:88 6:61 7:74 8:70 9:100 10:88 11:82 12:58 13:56 14:28 15:51 
0.005495938224605531 2:72 4:77 5:23 6:64 7:73 8:37 9:25 11:9 12:62 13:33 14:100 15:100 16:100 
0.02492246514791588 1:38 2:94 4:77 5:73 6:53 7:100 8:100 9:24 10:92 11:70 12:70 13:94 14:60 15:82 
0.5484941368634189 1:25 2:90 3:42 4:100 5:15 6:63 8:26 9:42 11:100 12:3 13:80 14:28 15:59 16:6 
0.1235696348577871 2:100 3:10 4:90 5:56 6:91 7:100 8:92 9:69 10:71 11:40 12:48 13:17 14:21 15:12 
-0.01306874496901566 1:46 2:100 3:10 4:83 5:34 6:64 7:100 8:77 9:71 10:82 11:49 12:54 13:22 14:27 
-1.436061394482981 1:63 2:100 3:40 4:73 5:70 6:63 7:100 8:77 9:79 10:74 11:55 12:48 13:29 14:23 
-0.1567026860676305 1:39 2:100 4:82 5:22 6:55 7:100 8:63 9:62 10:99 11:62 12:81 13:59 14:40 15:60 
-0.6682835911855849 2:81 3:15 4:100 5:20 6:76 7:19 8:52 9:24 10:28 11:71 12:21 13:88 14:23 15:100 
-0.6046156531274394 1:87 2:100 3:34 4:81 6:53 7:38 8:32 9:99 10:49 11:100 12:53 13:55 14:27 15:18 
-0.3601213406229207 1:90 2:100 3:43 4:79 6:56 7:51 8:58 9:100 10:69 11:97 12:61 13:79 14:28 15:60 
-0.05625699941470789 1:65 2:89 3:61 4:100 5:16 6:73 8:47 9:65 10:40 11:100 12:59 13:61 14:30 15:28 
-0.02899357698684516 1:41 2:90 3:62 4:100 5:29 6:74 7:2 8:47 10:22 11:64 12:33 13:100 14:28 15:88 
-0.1625492980116754 1:43 2:75 3:71 4:100 5:38 6:68 8:37 9:60 10:32 11:100 12:51 13:82 14:34 15:54 
-0.4855252222634772 1:9 2:100 4:75 5:78 6:72 7:100 8:92 9:74 10:93 11:56 12:62 13:38 14:31 15:21 
-0.7498466426416525 1:18 2:61 3:37 4:100 5:17 6:65 8:33 9:61 10:39 11:100 12:55 13:66 14:37 15:37 
-0.7891210299783258 1:78 2:100 3:43 4:92 6:73 7:14 8:54 9:83 10:55 11:100 12:43 13:63 14:22 15:29 
-0.11137899557457 1:25 2:100 4:84 5:16 6:63 7:77 8:67 9:100 10:66 11:76 12:45 13:53 14:22 15:34 
-0.6868581170878473 1:59 2:100 4:79 5:31 6:64 7:100 8:75 9:93 10:76 11:63 12:51 13:37 14:26 15:11 
-0.7072962322869805 1:71 2:100 3:39 4:87 5:11 6:63 8:37 9:42 10:25 11:100 12:37 13:74 14:24 15:53 
-0.3254392720873181 1:21 2:100 3:13 4:70 6:38 7:6 8:17 9:73 10:20 11:100 12:28 13:62 14:32 15:56 
-0.165462605499993 1:20 2:67 3:45 4:100 5:17 6:73 8:38 9:62 10:24 11:100 12:42 13:78 14:32 15:50 
-0.07488467902627953 1:92 2:100 3:50 4:79 5:20 6:56 8:34 9:56 10:22 11:100 12:41 13:66 14:23 15:50 
-0.04013491994050342 1:93 2:100 3:60 4:90 6:55 7:82 8:50 9:100 10:78 11:90 12:86 13:80 14:41 15:71 
-0.316825446432954 1:56 2:100 3:6 4:76 6:55 7:78 8:62 9:100 10:84 11:68 12:57 13:44 14:29 15:32 
-0.2117975049728145 1:81 2:82 3:59 4:100 6:64 7:71 8:46 9:100 10:60 11:74 12:93 13:64 14:46 15:55 
