svm_type c_svc
kernel_type polynomial
degree 7
gamma 1
coef0 0
nr_class 2
total_sv 23
rho -0.108398
label 4 5
probA -3.67638
probB 0.431304
nr_sv 10 13
SV
7.751081347769663e-35 1:63 2:100 3:40 4:73 5:70 6:63 7:100 8:77 9:79 10:74 11:55 12:48 13:29 14:23 
1.604244171706895e-34 1:41 2:90 3:62 4:100 5:29 6:74 7:2 8:47 10:22 11:64 12:33 13:100 14:28 15:88 
2.042004365215672e-33 1:18 2:61 3:37 4:100 5:17 6:65 8:33 9:61 10:39 11:100 12:55 13:66 14:37 15:37 
3.213430667175159e-34 1:36 2:100 3:13 4:75 5:57 6:65 7:100 8:78 9:63 10:85 11:41 12:57 13:18 14:29 
4.612069718055341e-36 1:19 2:100 3:14 4:79 5:5 6:59 8:38 9:27 10:20 11:100 12:34 13:81 14:21 15:70 
6.213257551765831e-34 1:71 2:100 3:39 4:87 5:11 6:63 8:37 9:42 10:25 11:100 12:37 13:74 14:24 15:53 
3.046647555610012e-33 1:21 2:100 3:13 4:70 6:38 7:6 8:17 9:73 10:20 11:100 12:28 13:62 14:32 15:56 
2.27586338719213e-34 1:92 2:100 3:50 4:79 5:20 6:56 8:34 9:56 10:22 11:100 12:41 13:66 14:23 15:50 
3.766978369906703e-33 1:66 2:100 3:39 4:86 5:11 6:64 7:36 8:45 9:100 10:57 11:66 12:45 13:32 14:23 
6.385608450859907e-34 2:100 3:3 4:84 5:1 6:63 7:7 8:43 9:52 10:38 11:55 12:35 13:62 14:14 15:100 
-1.203304300178225e-34 1:35 2:96 3:100 4:100 5:44 6:93 8:73 9:27 10:60 11:85 12:46 13:76 14:17 15:21 
-1.534188151871378e-34 2:66 3:1 4:64 5:26 6:53 7:63 8:26 9:12 11:12 12:52 13:33 14:91 15:100 16:100 
-1.692554485658147e-33 1:7 2:91 3:57 4:100 5:8 6:96 8:54 9:57 10:50 11:100 12:21 13:46 15:1 16:14 
-1.52739177467506e-33 1:12 2:60 3:37 4:36 5:41 7:15 8:2 10:42 11:27 12:66 13:63 14:84 15:100 16:100 
-3.284210513452445e-35 1:100 2:97 3:49 4:100 5:11 6:82 7:10 8:51 9:54 10:52 11:76 12:29 13:47 14:5 
-3.778959915590564e-34 1:24 2:80 3:59 4:95 5:100 6:100 7:63 8:92 9:25 10:78 11:21 12:47 13:36 14:16 
-6.383428492108768e-34 1:36 2:80 4:64 5:37 6:41 7:25 9:1 10:8 11:7 12:54 13:43 14:88 15:100 16:100 
-7.876456891088549e-34 1:21 2:52 4:48 5:39 6:50 7:100 8:51 9:68 11:26 12:29 13:8 14:83 15:85 16:100 
-5.400398634640324e-34 1:2 2:64 3:31 4:33 5:47 6:3 9:3 10:39 11:8 12:74 13:54 14:89 15:100 16:100 
-3.419338266868338e-33 1:72 2:94 3:25 4:100 5:26 6:71 7:25 8:36 9:72 10:44 11:100 12:18 13:55 16:2 
-1.491633871238769e-33 1:100 2:100 3:38 4:87 5:2 6:62 7:48 8:51 9:94 10:28 11:70 14:4 15:2 16:28 
-1.052725765498137e-34 1:100 2:98 3:61 4:100 5:20 6:89 8:58 9:36 10:54 11:65 12:37 13:44 14:2 15:6 
-2.028687812569995e-35 1:100 2:81 3:66 4:100 5:29 6:82 7:5 8:52 9:31 10:45 11:68 12:28 13:46 16:2 
