svm_type c_svc
kernel_type polynomial
degree 7
gamma 1
coef0 0
nr_class 2
total_sv 30
rho -0.759262
label 0 9
probA -3.96008
probB -0.829049
nr_sv 12 18
SV
1.639567918096846e-34 1:77 2:100 3:53 4:90 6:43 7:13 9:86 10:34 11:100 12:84 13:73 14:51 15:10 16:9 
5.701490987653844e-35 1:80 2:88 3:43 4:100 5:9 6:70 8:31 9:28 11:78 12:11 13:100 14:46 15:90 16:85 
1.899066533847041e-34 2:52 3:23 5:79 6:5 7:100 8:58 9:59 10:60 11:74 12:64 13:79 14:100 15:27 16:74 
1.048013745994871e-33 2:47 3:5 4:25 5:52 7:93 8:30 9:100 10:75 11:62 12:100 13:30 14:63 15:42 16:22 
5.463212915635152e-35 1:100 2:66 3:61 4:100 6:51 7:8 9:82 10:32 11:92 12:89 13:64 14:61 15:8 16:8 
6.781876753495006e-34 1:95 2:31 3:44 4:2 6:26 7:11 8:69 9:60 10:100 11:100 12:73 13:84 14:30 15:40 
3.654618978589109e-34 1:55 2:100 3:16 4:79 6:39 7:5 9:61 10:1 11:100 12:31 13:67 14:61 15:5 16:67 
1.265390117305823e-34 1:4 2:25 3:68 4:64 5:33 6:97 8:36 9:38 11:100 12:43 13:96 14:100 15:22 16:85 
3.991795554558143e-34 1:66 2:98 3:55 4:70 5:98 6:68 7:100 8:100 9:57 10:92 11:33 12:62 13:16 14:31 
3.619667528349734e-35 1:97 2:100 3:41 4:81 5:14 6:13 7:71 8:23 9:100 10:85 11:77 12:85 13:47 14:53 
1.325074076852431e-34 1:52 2:100 4:36 5:36 7:100 8:52 9:40 10:73 11:15 12:45 13:65 14:60 15:5 16:2 
6.021644673332342e-34 1:11 2:23 3:44 5:87 6:15 7:100 8:50 9:83 10:84 11:41 12:100 14:80 15:2 16:46 
-6.942034988958153e-36 1:68 2:46 3:89 4:75 5:52 6:100 8:80 9:6 10:53 11:72 12:54 13:100 14:33 15:89 
-5.026664982529774e-35 1:62 2:57 3:100 4:85 5:52 6:100 8:76 9:39 10:64 11:79 12:57 13:52 14:24 15:5 
-1.432929914266835e-34 1:8 2:64 3:65 4:74 5:100 6:100 7:43 8:93 10:66 11:57 12:72 13:48 14:42 15:27 
-1.73029313514444e-35 1:21 2:94 3:44 4:73 5:100 6:100 7:13 8:100 9:16 10:80 11:61 12:66 13:23 14:33 
-5.272895007353564e-34 1:41 2:71 3:32 4:40 5:100 6:76 7:34 8:100 9:36 10:57 11:89 12:68 13:70 14:4 
-3.663865954591251e-34 1:50 2:100 3:4 4:93 5:22 6:66 7:42 8:84 9:66 10:49 11:100 12:15 13:56 16:10 
-1.428955687486247e-34 2:69 3:52 4:60 5:100 6:77 7:74 8:100 9:23 10:89 11:47 12:69 13:55 14:36 15:51 
-1.626631088743493e-34 1:14 2:76 3:57 4:100 5:63 6:55 7:13 8:72 9:71 10:86 11:100 12:37 13:52 16:21 
-6.323204582483288e-36 3:46 4:16 5:85 6:41 7:100 8:72 9:73 10:100 11:18 12:95 13:19 14:66 15:76 16:55 
-2.169220037629452e-35 1:69 2:48 3:100 4:74 5:76 6:100 7:26 8:86 10:56 11:46 12:44 13:81 14:34 15:77 
-9.368586528989675e-34 3:33 4:12 5:66 6:35 7:90 8:61 9:100 10:89 11:57 12:100 13:25 14:79 15:58 16:60 
-2.172622703015993e-34 1:100 2:80 3:60 4:62 6:48 7:26 8:79 9:81 10:100 11:90 12:67 13:59 14:32 15:30 
-4.559428767367637e-34 1:100 2:72 3:43 4:78 6:91 7:50 8:100 9:54 10:75 11:40 12:50 13:30 14:25 15:29 
-1.117632642186798e-34 3:35 4:8 5:69 6:31 7:93 8:62 9:100 10:100 11:69 12:100 13:57 14:64 15:64 16:26 
-5.79041452147214e-34 1:50 2:85 3:3 4:100 5:4 6:78 7:63 8:68 9:100 10:61 11:80 12:19 13:32 16:7 
-2.676691484497911e-35 1:14 2:84 4:53 5:79 6:83 7:9 8:100 9:8 10:66 11:100 12:80 13:67 14:38 15:14 
-4.809681311464459e-35 3:32 4:13 5:77 6:36 7:100 8:65 9:92 10:94 11:32 12:100 13:7 14:75 15:66 16:63 
-3.297389028746749e-35 2:60 3:39 4:49 5:100 6:78 7:57 8:100 9:10 10:68 11:88 12:58 13:80 14:20 15:11 
