svm_type c_svc
kernel_type polynomial
degree 7
gamma 1
coef0 0
nr_class 2
total_sv 34
rho -1.25541
label 1 9
probA -3.63847
probB -0.143193
nr_sv 14 20
SV
1.591115077844906e-34 1:100 2:84 3:31 4:100 6:88 7:8 8:70 9:15 10:53 11:15 12:35 14:17 
1.844083062291452e-34 1:36 2:63 4:67 5:53 6:84 7:100 8:100 9:83 10:74 11:66 12:47 13:53 14:21 15:51 
2.236827783639737e-34 1:83 2:85 3:57 4:77 5:60 6:83 7:65 8:100 9:72 10:55 11:87 12:10 15:100 16:2 
1.063900311782217e-33 1:35 2:94 4:74 5:75 6:97 7:100 8:100 9:70 10:75 11:45 12:50 13:25 14:25 
4.533537010479504e-34 2:4 3:74 4:29 5:100 6:62 7:88 8:95 9:74 10:100 11:74 12:67 13:74 14:33 15:76 
2.524922083671076e-34 1:100 2:100 3:96 4:97 5:93 6:80 7:82 8:63 9:71 10:46 11:46 12:30 13:25 14:14 
4.659600037880749e-33 1:12 2:77 3:36 4:90 5:44 6:100 7:37 8:63 9:46 10:27 11:100 12:21 13:47 14:8 
4.431856403061021e-34 2:71 3:36 4:67 5:73 6:77 7:100 8:100 9:98 10:95 11:86 12:62 13:74 14:30 15:60 
1.221733647470432e-33 1:100 2:100 4:87 6:73 7:17 8:58 9:33 10:44 11:33 12:29 13:50 14:15 15:67 
6.353508851388191e-34 1:33 2:63 3:69 4:82 5:100 6:100 7:78 8:78 9:71 10:54 11:69 12:29 13:57 14:6 
1.970414185868183e-34 2:55 3:20 4:77 5:53 6:100 7:73 8:91 9:93 10:68 11:100 12:45 13:93 14:22 15:47 
9.284715301110893e-35 2:82 3:38 4:100 5:62 6:95 7:31 8:75 9:23 10:57 11:23 12:37 13:46 14:18 15:100 
5.098420064886872e-34 1:100 2:98 3:67 4:100 5:48 6:84 7:38 8:68 9:27 10:51 11:19 12:33 13:9 14:16 
9.870943622738131e-34 1:14 2:52 4:56 5:36 6:78 7:74 8:100 9:100 10:96 11:79 12:64 13:58 14:32 15:39 
-3.508514745300833e-34 1:84 2:52 3:98 4:96 5:64 6:100 7:73 8:62 9:100 10:55 11:83 12:9 13:42 16:4 
-3.035552595708482e-33 1:7 2:100 4:73 5:57 6:81 7:49 8:80 9:76 10:52 11:100 12:23 13:65 15:1 16:2 
-2.714153311495678e-34 1:62 2:57 3:100 4:85 5:52 6:100 8:76 9:39 10:64 11:79 12:57 13:52 14:24 15:5 
-7.520049363923655e-35 1:8 2:64 3:65 4:74 5:100 6:100 7:43 8:93 10:66 11:57 12:72 13:48 14:42 15:27 
-3.546252274601695e-35 1:21 2:94 3:44 4:73 5:100 6:100 7:13 8:100 9:16 10:80 11:61 12:66 13:23 14:33 
-4.849724506227611e-35 1:41 2:71 3:32 4:40 5:100 6:76 7:34 8:100 9:36 10:57 11:89 12:68 13:70 14:4 
-2.430572284426109e-34 3:42 4:18 5:77 6:43 7:100 8:73 9:84 10:100 11:29 12:92 13:24 14:64 15:79 16:53 
-1.066837080802628e-33 2:69 3:52 4:60 5:100 6:77 7:74 8:100 9:23 10:89 11:47 12:69 13:55 14:36 15:51 
-2.703794952693095e-34 1:14 2:76 3:57 4:100 5:63 6:55 7:13 8:72 9:71 10:86 11:100 12:37 13:52 16:21 
-2.128341140957278e-34 2:91 3:47 4:70 5:62 6:100 7:43 8:78 9:91 10:70 11:100 12:30 13:68 15:29 16:12 
-1.248820368373386e-34 1:69 2:48 3:100 4:74 5:76 6:100 7:26 8:86 10:56 11:46 12:44 13:81 14:34 15:77 
-3.098252129109444e-34 1:59 2:78 3:60 4:100 5:7 6:94 8:65 9:53 10:57 11:100 12:42 13:80 14:14 15:32 
-1.680671875976996e-34 1:79 2:89 3:57 4:100 5:65 6:89 7:100 8:91 9:83 10:62 11:59 12:36 13:32 14:13 
-1.080156261499768e-33 1:100 2:72 3:43 4:78 6:91 7:50 8:100 9:54 10:75 11:40 12:50 13:30 14:25 15:29 
-4.705041500332089e-34 1:63 2:67 3:13 4:77 5:39 6:100 7:96 8:93 9:100 10:67 11:75 12:43 13:40 14:20 
-9.707830198025511e-34 3:35 4:8 5:69 6:31 7:93 8:62 9:100 10:100 11:69 12:100 13:57 14:64 15:64 16:26 
-7.510202276320305e-34 1:50 2:85 3:3 4:100 5:4 6:78 7:63 8:68 9:100 10:61 11:80 12:19 13:32 16:7 
-5.203193938986979e-34 1:57 2:100 4:83 5:48 6:72 7:100 8:93 9:89 10:74 11:67 12:47 13:48 14:21 15:56 
-8.935150642740601e-34 2:60 3:39 4:49 5:100 6:78 7:57 8:100 9:10 10:68 11:88 12:58 13:80 14:20 15:11 
-1.844838287991752e-34 1:37 2:69 3:100 4:83 5:61 6:100 8:91 9:64 10:78 11:62 12:55 13:26 14:28 15:2 
