svm_type c_svc
kernel_type polynomial
degree 7
gamma 1
coef0 0
nr_class 2
total_sv 43
rho -0.2935
label 8 0
probA -4.11801
probB 0.116732
nr_sv 24 19
SV
1.009310371541832e-34 1:100 2:100 3:14 4:90 5:74 6:55 7:79 8:97 9:37 10:62 12:39 13:36 15:39 16:44 
6.687880708459967e-34 1:55 2:76 3:22 4:68 5:66 6:29 7:39 9:52 10:32 11:100 12:68 13:69 14:100 16:86 
1.894240758787873e-34 1:19 2:78 3:29 4:36 5:13 7:8 8:27 9:58 10:49 11:100 12:79 13:55 14:100 16:88 
8.28174972562119e-34 1:37 2:71 3:79 4:71 5:49 6:100 8:45 9:25 10:36 11:66 13:100 14:51 15:10 16:26 
1.112184105417501e-33 1:32 2:52 3:22 5:100 6:2 7:78 8:63 9:35 10:37 11:14 12:100 13:71 14:92 16:73 
2.442851798998182e-34 1:100 2:94 3:40 4:100 6:68 7:43 8:35 9:92 10:5 11:23 13:3 14:34 15:46 16:68 
9.236216800990166e-34 1:44 2:75 3:21 4:38 7:18 8:28 9:56 10:60 11:100 12:90 13:82 14:100 15:28 16:81 
1.602172573411635e-33 1:59 2:72 3:36 4:100 6:72 7:23 8:36 9:52 12:1 13:44 14:27 15:100 16:55 
4.100902984556929e-34 1:50 2:83 3:26 4:62 5:58 6:100 7:14 8:60 9:2 10:30 11:50 13:100 14:51 16:34 
2.442788047177727e-33 2:20 3:38 4:56 5:46 6:100 7:6 8:81 9:58 10:56 11:100 12:24 13:50 15:7 16:15 
2.473780769127894e-33 1:20 2:60 4:83 5:15 6:39 7:100 8:9 9:30 11:47 12:54 13:67 14:100 15:2 16:59 
6.404768449961959e-34 1:56 2:71 3:31 4:100 5:16 6:66 7:24 8:23 11:17 12:34 13:57 14:57 15:100 16:76 
8.206724461884107e-34 1:54 2:77 3:30 4:37 7:13 8:25 9:55 10:54 11:100 12:80 13:89 14:100 15:37 16:86 
2.060854709862409e-34 1:64 2:97 3:32 4:67 5:19 6:26 9:30 10:36 11:67 12:67 13:100 14:100 15:47 16:88 
1.342463778229122e-35 1:51 2:91 3:5 4:86 6:43 7:22 9:8 10:24 11:50 12:61 13:100 14:93 15:45 16:100 
5.292930976288685e-35 1:49 2:49 3:100 4:79 5:54 6:100 7:8 8:68 9:35 10:27 13:6 14:35 15:71 16:63 
2.767289305826859e-34 2:77 3:50 4:100 5:100 6:72 7:40 8:39 9:13 11:74 12:1 13:23 14:38 15:12 16:77 
3.588494026601583e-34 1:55 2:100 3:43 4:41 5:100 6:42 7:61 8:96 9:45 10:43 11:10 13:98 14:20 16:27 
1.346048012655543e-33 1:21 2:64 3:55 4:29 5:7 8:32 9:55 10:65 11:100 12:100 13:20 14:93 15:12 16:57 
4.508247380220792e-34 1:49 2:82 3:6 4:100 6:65 7:19 8:27 9:15 11:8 12:38 13:48 14:62 15:100 16:68 
2.328283953887535e-34 1:100 2:100 3:19 4:93 6:53 7:27 8:11 9:1 11:29 12:41 13:79 14:77 15:54 16:96 
6.934490154524094e-34 1:29 2:100 4:75 5:53 6:54 7:100 8:30 9:78 11:56 12:25 13:66 14:63 15:15 16:71 
8.665341327116692e-35 1:9 2:41 3:73 4:80 6:100 7:28 8:56 9:92 10:16 11:35 13:22 14:42 15:100 16:74 
5.974047170682095e-34 2:45 3:53 4:36 5:62 7:7 8:6 9:52 10:38 11:100 12:70 13:71 14:100 15:11 16:84 
-4.939145417039492e-34 1:38 2:51 3:8 4:66 6:19 7:42 9:87 10:26 11:100 12:71 13:61 14:100 15:16 16:84 
-1.201401280260721e-34 1:22 2:55 3:10 4:60 6:18 7:46 9:89 10:28 11:100 12:70 13:68 14:100 15:29 16:69 
-1.829731932438983e-33 1:6 2:43 3:16 4:2 5:68 7:100 8:35 9:81 10:75 11:38 12:100 13:7 14:63 16:22 
-9.22492223655241e-34 1:48 2:53 3:10 4:54 7:49 8:6 9:88 10:48 11:100 12:100 13:48 14:84 15:7 16:44 
-3.469988693545609e-34 1:94 2:95 3:56 4:100 5:23 6:67 8:29 9:19 11:69 12:16 13:100 14:50 15:89 16:90 
-1.905407778462062e-34 1:54 2:63 3:45 4:100 5:1 6:53 7:11 9:75 10:18 11:100 12:74 13:44 14:98 16:54 
-1.254708224100035e-33 1:25 2:77 3:3 4:60 5:11 7:71 8:4 9:100 10:57 11:56 12:100 13:2 14:66 16:11 
-7.134982582604006e-34 2:52 3:23 5:79 6:5 7:100 8:58 9:59 10:60 11:74 12:64 13:79 14:100 15:27 16:74 
-3.532631597676302e-34 1:45 2:78 3:6 4:48 6:2 7:46 9:83 10:34 11:100 12:80 13:63 14:100 15:19 16:78 
-5.424911589052534e-34 1:66 2:100 3:30 4:87 5:8 6:56 8:21 9:31 11:75 12:17 13:100 14:47 15:89 16:79 
-1.378042915005718e-34 1:95 2:31 3:44 4:2 6:26 7:11 8:69 9:60 10:100 11:100 12:73 13:84 14:30 15:40 
-9.483735940358481e-34 1:15 2:55 4:35 5:15 6:1 7:54 9:88 10:19 11:100 12:53 13:80 14:85 15:45 16:100 
-2.722585739410984e-33 1:55 2:100 3:16 4:79 6:39 7:5 9:61 10:1 11:100 12:31 13:67 14:61 15:5 16:67 
-2.623201886005841e-34 1:48 2:86 3:16 4:51 6:11 7:37 9:77 10:29 11:100 12:66 13:81 14:100 15:31 16:92 
-9.052236944986563e-34 1:4 2:25 3:68 4:64 5:33 6:97 8:36 9:38 11:100 12:43 13:96 14:100 15:22 16:85 
-2.79209974246719e-35 1:66 2:98 3:55 4:70 5:98 6:68 7:100 8:100 9:57 10:92 11:33 12:62 13:16 14:31 
-3.961878221095596e-33 1:52 2:100 4:36 5:36 7:100 8:52 9:40 10:73 11:15 12:45 13:65 14:60 15:5 16:2 
-8.670832272706851e-34 1:96 2:43 3:63 5:1 6:7 8:57 9:38 10:100 11:100 12:94 13:81 14:45 15:36 16:7 
-1.716469169514742e-34 1:7 2:59 4:25 5:35 7:76 9:100 10:35 11:80 12:76 13:44 14:100 15:5 16:88 
