svm_type c_svc
kernel_type polynomial
degree 7
gamma 1
coef0 0
nr_class 2
total_sv 39
rho -1.73172
label 1 3
probA -2.98196
probB -0.0838217
nr_sv 22 17
SV
3.524759891553494e-33 2:100 3:73 4:97 5:95 6:80 7:100 8:64 9:95 10:48 11:82 12:31 13:64 14:15 15:23 
7.753867821437887e-35 1:44 2:60 4:77 5:47 6:99 7:100 8:100 9:84 10:75 11:75 12:50 13:75 14:24 15:100 
1.100098348462619e-32 1:29 2:75 3:29 4:85 5:100 6:100 7:85 8:81 9:59 10:61 11:38 12:41 13:15 14:20 
1.450153911916373e-33 2:76 3:42 4:100 5:51 6:91 7:43 8:52 9:46 10:13 11:100 12:7 13:71 14:2 15:31 
2.245138831510924e-34 1:49 2:93 4:55 5:28 6:74 7:63 8:100 9:62 10:50 11:59 12:3 13:24 14:1 15:100 
1.778196841721049e-32 1:47 2:73 3:82 4:95 5:100 6:100 7:89 8:75 9:79 10:49 11:76 12:24 13:47 16:2 
2.118373417291641e-33 2:69 3:23 4:83 5:82 6:100 7:100 8:95 9:86 10:70 11:75 12:44 13:62 14:19 15:64 
2.042298555780189e-34 1:58 2:74 3:100 4:100 5:94 6:75 7:85 8:35 9:59 10:2 13:29 14:2 15:88 16:3 
1.829221840907488e-33 1:100 2:100 3:96 4:97 5:93 6:80 7:82 8:63 9:71 10:46 11:46 12:30 13:25 14:14 
4.958258053971585e-33 2:82 3:42 4:100 5:73 6:100 7:63 8:58 9:52 10:16 11:19 12:8 13:50 14:3 15:100 
5.895682157580026e-33 1:12 2:77 3:36 4:90 5:44 6:100 7:37 8:63 9:46 10:27 11:100 12:21 13:47 14:8 
4.441871378603685e-34 1:4 2:79 3:65 4:100 5:67 6:86 7:67 8:58 9:67 10:29 11:23 12:5 15:100 16:5 
2.376606352288812e-34 2:86 3:49 4:96 5:65 6:100 7:53 8:56 9:53 10:11 11:100 12:2 13:53 15:8 16:9 
3.761214500555689e-34 1:20 2:65 3:43 4:94 5:76 6:100 7:58 8:64 9:44 10:27 12:1 13:18 14:4 15:100 
4.108744039551796e-33 2:80 3:35 4:84 5:84 6:100 7:100 8:89 9:82 10:67 11:63 12:44 13:41 14:22 15:22 
3.561565317485541e-33 1:23 2:65 3:67 4:85 5:100 6:100 7:87 8:75 9:77 10:49 11:72 12:23 13:46 
7.466276457508924e-34 2:82 3:38 4:100 5:62 6:95 7:31 8:75 9:23 10:57 11:23 12:37 13:46 14:18 15:100 
2.812162254277662e-34 1:36 2:87 3:81 4:100 5:80 6:74 7:61 8:31 9:44 12:10 13:50 14:11 15:100 16:15 
2.125449867506016e-34 1:11 2:75 3:33 4:84 5:89 6:100 7:100 8:90 9:76 10:68 11:49 12:45 13:24 14:22 
1.334250838858852e-34 1:31 2:88 3:3 4:84 5:77 6:100 7:100 8:96 9:69 10:72 11:37 12:49 13:14 14:24 
1.284199742532825e-32 2:78 3:44 4:100 5:68 6:85 7:66 8:46 9:80 10:8 11:100 13:38 14:2 15:1 16:7 
1.190209663042511e-33 2:54 4:72 5:42 6:90 7:91 8:100 9:100 10:76 11:74 12:51 13:48 14:26 15:26 
-1.385689597461214e-33 2:84 3:50 4:100 5:72 6:79 7:37 8:52 9:51 10:41 11:100 12:27 13:62 14:3 15:3 
-1.221368143908761e-32 1:19 2:73 3:54 4:91 5:100 6:100 7:99 8:78 9:86 10:52 11:78 12:26 13:43 14:8 
-1.900678710319863e-33 1:59 2:85 3:84 4:100 5:82 6:79 7:60 8:56 9:100 10:48 11:74 12:28 13:37 14:14 
-3.407573339700926e-33 1:75 2:80 3:93 4:100 5:100 6:81 7:80 8:59 9:66 10:35 11:66 12:9 13:34 16:4 
-5.260829285699744e-33 1:7 2:90 3:55 4:100 5:93 6:82 7:79 8:54 9:41 10:31 12:10 13:40 15:100 
-9.591242559192922e-34 2:80 3:43 4:93 5:91 6:100 7:96 8:80 9:75 10:57 11:100 12:36 13:90 14:14 15:48 
-2.016905351206805e-32 1:32 2:72 3:57 4:93 5:100 6:100 7:87 8:78 9:62 10:56 11:61 12:30 13:44 14:7 
-3.09225638120091e-33 1:31 2:88 3:68 4:100 5:60 6:86 7:76 8:68 9:100 10:44 11:78 12:18 13:39 14:6 
-1.683554974179745e-33 1:66 2:89 3:100 4:100 5:99 6:81 7:77 8:61 9:64 10:38 11:67 12:15 13:38 14:1 
-5.450663509509642e-33 2:66 3:3 4:93 5:52 6:100 7:100 8:91 9:84 10:65 11:45 12:46 13:27 14:21 15:65 
-2.076377541289615e-33 1:61 2:88 3:100 4:100 5:96 6:81 7:75 8:60 9:80 10:36 11:81 12:13 13:44 16:1 
-5.382141015438852e-33 2:98 3:34 4:100 5:53 6:78 7:47 8:47 9:72 10:26 11:100 12:8 13:68 15:36 16:8 
-3.652189105875673e-33 1:2 2:79 3:48 4:100 5:77 6:83 7:60 8:53 9:100 10:28 11:83 13:23 14:1 16:30 
-8.491378184056583e-34 2:100 3:38 4:97 5:44 6:76 7:47 8:54 9:73 10:37 11:100 12:21 13:74 14:6 15:35 
-4.877866574175477e-35 1:58 2:91 3:93 4:100 5:77 6:73 7:97 8:49 9:100 10:20 11:70 13:26 14:7 16:28 
-1.339609754719402e-33 1:65 2:100 3:93 4:92 5:71 6:68 7:80 8:47 9:100 10:24 11:70 12:6 13:34 16:7 
-4.328644295750891e-33 2:78 3:35 4:100 5:74 6:86 7:42 8:55 9:57 10:31 11:100 12:8 13:58 15:8 16:8 
