svm_type c_svc
kernel_type polynomial
degree 7
gamma 1
coef0 0
nr_class 2
total_sv 26
rho -1.11765
label 1 5
probA -3.70293
probB 0.212557
nr_sv 10 16
SV
2.712503501953838e-33 1:15 2:73 3:42 4:100 5:32 6:72 7:27 8:39 9:44 10:7 11:100 13:52 14:5 16:3 
3.87578266076964e-34 1:100 2:100 3:100 4:92 5:80 6:76 7:65 8:61 9:50 10:45 11:40 12:30 13:15 14:15 
2.806895322763823e-34 1:100 2:100 3:96 4:97 5:93 6:80 7:82 8:63 9:71 10:46 11:46 12:30 13:25 14:14 
1.325382090030892e-33 1:48 2:74 3:88 4:95 5:100 6:100 7:78 8:75 9:66 10:49 11:64 12:23 13:32 16:1 
8.606970836227325e-33 1:12 2:77 3:36 4:90 5:44 6:100 7:37 8:63 9:46 10:27 11:100 12:21 13:47 14:8 
1.185332330140291e-33 1:100 2:100 4:87 6:73 7:17 8:58 9:33 10:44 11:33 12:29 13:50 14:15 15:67 
1.378391988006734e-33 1:33 2:63 3:69 4:82 5:100 6:100 7:78 8:78 9:71 10:54 11:69 12:29 13:57 14:6 
6.925891488271754e-33 2:67 3:45 4:80 5:100 6:100 7:50 8:85 9:32 10:64 11:23 12:42 13:18 14:21 15:14 
1.952254984665862e-34 2:82 3:38 4:100 5:62 6:95 7:31 8:75 9:23 10:57 11:23 12:37 13:46 14:18 15:100 
2.198445908179876e-33 1:100 2:98 3:67 4:100 5:48 6:84 7:38 8:68 9:27 10:51 11:19 12:33 13:9 14:16 
-2.791910587847798e-34 2:66 3:1 4:64 5:26 6:53 7:63 8:26 9:12 11:12 12:52 13:33 14:91 15:100 16:100 
-2.865586926568638e-33 1:7 2:91 3:57 4:100 5:8 6:96 8:54 9:57 10:50 11:100 12:21 13:46 15:1 16:14 
-1.621776021378775e-33 1:12 2:60 3:37 4:36 5:41 7:15 8:2 10:42 11:27 12:66 13:63 14:84 15:100 16:100 
-3.641421887264542e-33 1:24 2:80 3:59 4:95 5:100 6:100 7:63 8:92 9:25 10:78 11:21 12:47 13:36 14:16 
-8.628343113236433e-34 1:36 2:80 4:64 5:37 6:41 7:25 9:1 10:8 11:7 12:54 13:43 14:88 15:100 16:100 
-1.400707299364568e-33 1:21 2:52 4:48 5:39 6:50 7:100 8:51 9:68 11:26 12:29 13:8 14:83 15:85 16:100 
-1.038012543948901e-33 1:68 2:82 3:100 4:100 5:99 6:91 7:68 8:75 9:95 10:48 11:80 12:21 13:41 14:7 
-1.986591320781122e-34 1:10 2:91 3:20 4:59 5:83 6:56 7:100 8:13 9:40 11:3 12:42 14:82 15:60 16:100 
-3.791966202653885e-34 1:21 2:80 3:60 4:95 5:100 6:100 7:55 8:87 9:37 10:52 11:76 12:28 13:46 14:2 
-3.396183251440236e-34 1:100 2:97 3:69 4:100 5:39 6:86 7:59 8:62 9:78 10:36 11:63 12:9 13:30 14:2 
-4.074547715326979e-33 1:4 2:73 3:53 4:91 5:100 6:100 7:47 8:88 9:20 10:41 11:72 12:36 13:52 14:1 
-2.182851037493644e-33 1:2 2:64 3:31 4:33 5:47 6:3 9:3 10:39 11:8 12:74 13:54 14:89 15:100 16:100 
-1.176817015708519e-33 1:72 2:94 3:25 4:100 5:26 6:71 7:25 8:36 9:72 10:44 11:100 12:18 13:55 16:2 
-1.695293788393944e-33 1:100 2:100 3:38 4:87 5:2 6:62 7:48 8:51 9:94 10:28 11:70 14:4 15:2 16:28 
-1.644520716730307e-33 1:10 2:89 3:32 4:98 5:36 6:100 8:68 9:31 10:49 11:100 12:29 13:60 15:1 16:15 
-1.795377039855875e-33 1:100 2:81 3:66 4:100 5:29 6:82 7:5 8:52 9:31 10:45 11:68 12:28 13:46 16:2 
