svm_type c_svc
kernel_type polynomial
degree 7
gamma 1
coef0 0
nr_class 2
total_sv 22
rho 0.265816
label 9 7
probA -3.49608
probB -0.0856798
nr_sv 13 9
SV
2.617457149249825e-33 1:7 2:100 4:73 5:57 6:81 7:49 8:80 9:76 10:52 11:100 12:23 13:65 15:1 16:2 
5.878301071770785e-35 1:61 2:59 3:100 4:80 5:66 6:100 7:15 8:85 10:55 11:55 12:48 13:87 14:32 15:71 
4.654862151640056e-34 1:8 2:64 3:65 4:74 5:100 6:100 7:43 8:93 10:66 11:57 12:72 13:48 14:42 15:27 
4.895968143735735e-34 1:62 2:76 4:82 5:29 6:100 7:90 8:98 9:100 10:74 11:90 12:49 13:75 14:25 15:70 
2.079552021365325e-34 2:69 3:52 4:60 5:100 6:77 7:74 8:100 9:23 10:89 11:47 12:69 13:55 14:36 15:51 
1.182151378786684e-35 1:5 2:73 3:48 4:68 5:100 6:100 7:27 8:88 10:59 11:76 12:71 13:72 14:42 15:53 
1.647642457609061e-34 2:91 3:47 4:70 5:62 6:100 7:43 8:78 9:91 10:70 11:100 12:30 13:68 15:29 16:12 
3.087608538743484e-34 3:33 4:12 5:66 6:35 7:90 8:61 9:100 10:89 11:57 12:100 13:25 14:79 15:58 16:60 
1.043603700883465e-34 1:56 2:76 3:66 4:100 6:88 7:23 8:60 9:90 10:71 11:100 12:68 13:87 14:31 15:92 
2.946925210773093e-35 1:63 2:67 3:13 4:77 5:39 6:100 7:96 8:93 9:100 10:67 11:75 12:43 13:40 14:20 
1.945671768181503e-33 1:50 2:85 3:3 4:100 5:4 6:78 7:63 8:68 9:100 10:61 11:80 12:19 13:32 16:7 
1.244950064935353e-33 1:57 2:100 4:83 5:48 6:72 7:100 8:93 9:89 10:74 11:67 12:47 13:48 14:21 15:56 
4.742383067210732e-36 1:37 2:69 3:100 4:83 5:61 6:100 8:91 9:64 10:78 11:62 12:55 13:26 14:28 15:2 
-8.413003562443829e-34 1:2 2:85 3:31 4:100 5:76 6:74 7:62 8:37 9:47 11:100 12:8 13:68 14:30 16:41 
-7.701996279082402e-34 2:89 3:26 4:100 5:35 6:51 7:32 9:13 10:13 11:22 12:32 13:60 14:40 15:100 16:46 
-3.495188685800841e-34 1:11 2:83 3:41 4:100 5:47 6:67 7:25 8:35 9:8 12:31 13:49 14:32 15:100 16:31 
-1.116828553427086e-33 2:100 3:15 4:84 5:57 6:75 7:100 8:68 9:77 10:55 11:53 12:34 13:29 14:13 15:16 
-1.740744089831225e-33 1:1 2:87 3:38 4:100 5:49 6:63 7:34 8:22 9:16 12:29 13:49 14:24 15:100 16:22 
-2.433556839995769e-33 1:34 2:91 4:98 5:42 6:100 7:83 8:94 9:100 10:71 11:86 12:46 13:62 14:23 15:46 
-1.444218730827905e-34 1:24 2:100 3:77 4:93 5:100 6:72 7:71 8:48 9:46 10:23 11:28 14:24 15:31 16:35 
-2.114707773660568e-34 1:29 2:100 3:72 4:80 5:65 6:52 7:38 8:25 11:2 12:22 13:25 14:47 15:100 16:49 
-4.577785700927506e-35 1:19 2:100 3:69 4:92 5:68 6:53 7:53 8:15 9:67 11:100 12:27 13:54 14:47 16:56 
