svm_type c_svc
kernel_type polynomial
degree 7
gamma 1
coef0 0
nr_class 2
total_sv 40
rho 0.627665
label 8 1
probA -3.69169
probB -0.137288
nr_sv 19 21
SV
4.607021231638303e-34 1:100 2:100 3:14 4:90 5:74 6:55 7:79 8:97 9:37 10:62 12:39 13:36 15:39 16:44 
2.630800208553359e-34 1:28 2:6 3:64 4:48 5:100 6:91 7:53 8:100 9:22 10:59 11:80 12:31 13:66 16:2 
7.277502123168197e-34 1:66 2:90 3:6 4:55 5:100 6:73 7:45 8:100 9:33 10:46 13:89 14:11 15:13 16:23 
3.741904740532471e-34 1:32 2:52 3:22 5:100 6:2 7:78 8:63 9:35 10:37 11:14 12:100 13:71 14:92 16:73 
2.902772663082037e-34 1:34 2:71 3:16 4:65 5:17 6:23 9:1 10:42 11:44 12:75 13:100 14:100 15:46 16:91 
3.169547851973165e-35 1:59 2:82 3:11 4:67 5:100 6:65 7:54 8:100 9:40 10:48 12:22 13:60 15:43 16:52 
7.752616125578849e-33 1:59 2:72 3:36 4:100 6:72 7:23 8:36 9:52 12:1 13:44 14:27 15:100 16:55 
1.996179209080292e-33 1:50 2:83 3:26 4:62 5:58 6:100 7:14 8:60 9:2 10:30 11:50 13:100 14:51 16:34 
1.017717819817029e-32 2:20 3:38 4:56 5:46 6:100 7:6 8:81 9:58 10:56 11:100 12:24 13:50 15:7 16:15 
1.103084061653433e-33 1:2 2:77 3:54 4:100 5:100 6:79 7:86 8:47 9:59 10:16 11:63 13:73 14:27 16:43 
2.259153241481269e-33 1:20 2:60 4:83 5:15 6:39 7:100 8:9 9:30 11:47 12:54 13:67 14:100 15:2 16:59 
9.406032280497455e-34 1:59 2:61 3:91 4:100 5:37 6:92 7:36 8:46 9:45 12:6 13:35 14:36 15:100 16:38 
3.461451217353649e-34 2:77 3:50 4:100 5:100 6:72 7:40 8:39 9:13 11:74 12:1 13:23 14:38 15:12 16:77 
3.718079808593463e-33 1:27 2:50 3:79 4:68 5:100 6:100 7:46 8:85 9:42 10:42 11:51 12:1 15:35 16:33 
7.467781673157754e-35 1:42 2:63 3:100 4:85 5:54 6:100 7:42 8:62 9:62 10:22 14:27 15:73 16:51 
1.88179571994663e-33 1:21 2:64 3:55 4:29 5:7 8:32 9:55 10:65 11:100 12:100 13:20 14:93 15:12 16:57 
4.751061641880011e-34 1:6 2:50 3:41 4:50 5:100 6:19 7:44 9:20 10:37 11:63 12:73 13:65 14:100 16:73 
4.827175098423478e-34 1:49 2:82 3:6 4:100 6:65 7:19 8:27 9:15 11:8 12:38 13:48 14:62 15:100 16:68 
1.75385705691691e-34 1:5 2:76 3:29 4:100 5:100 6:81 7:55 8:39 11:61 12:3 13:15 14:44 15:21 16:83 
-5.015770044303542e-33 1:14 2:55 3:40 4:61 5:59 6:100 7:58 8:62 9:59 10:21 11:100 12:14 13:48 14:5 
-9.255156603048719e-34 1:15 2:73 3:42 4:100 5:32 6:72 7:27 8:39 9:44 10:7 11:100 13:52 14:5 16:3 
-5.785624575155053e-33 1:38 2:70 3:51 4:100 5:37 6:72 7:38 8:38 9:28 10:5 13:50 14:4 15:100 16:10 
-1.16230790139678e-33 1:39 2:59 3:74 4:78 5:100 6:100 7:76 8:77 9:62 10:51 11:57 12:24 13:38 16:2 
-2.268792829033024e-35 2:5 3:18 4:35 5:47 6:63 7:76 8:88 9:100 10:100 11:79 12:68 13:60 14:35 15:58 
-6.821026740993497e-33 2:37 3:14 4:70 5:27 6:100 7:26 8:64 9:24 10:28 11:3 13:18 14:5 15:100 16:12 
-1.953770609429885e-33 1:100 2:100 3:38 4:87 5:25 6:72 7:19 8:58 9:12 10:43 11:6 12:28 14:14 15:6 
-1.02674468810813e-34 3:18 4:27 5:48 6:49 7:76 8:73 9:100 10:100 11:94 12:73 13:82 14:40 15:82 16:9 
-3.799581266027697e-34 2:29 3:4 4:45 5:41 6:71 7:78 8:96 9:100 10:100 11:75 12:67 13:50 14:33 15:25 
-1.990076977691652e-33 1:19 2:100 3:16 4:55 5:10 6:96 7:16 8:48 9:24 10:2 13:50 14:11 15:100 16:16 
-9.49236302186233e-34 1:11 2:47 3:58 4:70 5:100 6:100 7:73 8:70 9:50 10:34 11:28 14:12 15:70 16:10 
-3.065382103540009e-33 2:66 3:43 4:100 5:49 6:89 7:19 8:42 9:48 10:10 11:100 12:5 13:38 14:1 15:3 
-4.844604566210608e-34 1:36 2:74 3:77 4:100 5:69 6:68 7:50 8:24 9:35 12:9 13:50 14:12 15:100 16:18 
-1.127830597456796e-33 1:31 2:96 3:44 4:76 5:24 6:100 7:41 8:50 9:48 10:7 13:49 14:14 15:100 16:23 
-1.207811681599283e-33 1:100 2:100 4:86 6:72 8:57 10:43 12:28 13:50 14:14 15:50 
-9.287754057535085e-35 1:67 2:100 3:67 4:85 5:100 6:71 7:67 8:57 9:33 10:42 12:28 14:14 
-7.474294153527302e-34 1:100 2:100 4:87 6:73 7:17 8:58 9:33 10:44 11:33 12:29 13:50 14:15 15:67 
-1.464290547937347e-33 2:67 3:45 4:80 5:100 6:100 7:50 8:85 9:32 10:64 11:23 12:42 13:18 14:21 15:14 
-3.049869833276789e-35 1:58 2:50 3:88 4:84 5:100 6:100 7:84 8:60 9:80 10:19 11:40 14:4 15:64 16:5 
-1.219291387994071e-34 2:55 3:20 4:77 5:53 6:100 7:73 8:91 9:93 10:68 11:100 12:45 13:93 14:22 15:47 
-7.925797057994633e-35 2:17 3:100 4:38 5:96 6:69 7:91 8:100 9:78 10:94 11:70 12:62 13:65 14:31 15:70 
