svm_type c_svc
kernel_type polynomial
degree 7
gamma 1
coef0 0
nr_class 2
total_sv 28
rho -0.38465
label 8 4
probA -3.47682
probB -0.673735
nr_sv 21 7
SV
2.387522349972208e-34 1:100 2:100 3:14 4:90 5:74 6:55 7:79 8:97 9:37 10:62 12:39 13:36 15:39 16:44 
7.722181640609065e-36 1:53 2:79 3:44 4:55 5:22 6:10 9:32 10:36 11:66 12:69 13:100 14:100 15:61 16:83 
6.953615679906611e-34 1:37 2:71 3:79 4:71 5:49 6:100 8:45 9:25 10:36 11:66 13:100 14:51 15:10 16:26 
1.283294284934468e-34 1:32 2:52 3:22 5:100 6:2 7:78 8:63 9:35 10:37 11:14 12:100 13:71 14:92 16:73 
1.735975128292041e-34 1:34 2:71 3:16 4:65 5:17 6:23 9:1 10:42 11:44 12:75 13:100 14:100 15:46 16:91 
1.977201398005573e-34 1:100 2:94 3:40 4:100 6:68 7:43 8:35 9:92 10:5 11:23 13:3 14:34 15:46 16:68 
1.197941301778242e-34 1:36 2:53 3:100 4:82 5:55 6:100 7:2 8:69 9:36 10:34 11:74 14:14 15:62 16:44 
1.639434481219032e-33 1:59 2:72 3:36 4:100 6:72 7:23 8:36 9:52 12:1 13:44 14:27 15:100 16:55 
3.678067702767413e-34 1:50 2:83 3:26 4:62 5:58 6:100 7:14 8:60 9:2 10:30 11:50 13:100 14:51 16:34 
5.80891838569578e-35 1:13 2:78 3:44 4:47 5:36 9:48 10:39 11:100 12:74 13:85 14:100 15:20 16:79 
3.023477436529397e-33 2:20 3:38 4:56 5:46 6:100 7:6 8:81 9:58 10:56 11:100 12:24 13:50 15:7 16:15 
1.112141938793072e-33 1:20 2:60 4:83 5:15 6:39 7:100 8:9 9:30 11:47 12:54 13:67 14:100 15:2 16:59 
9.491968159208027e-35 1:48 2:88 3:28 4:58 5:34 6:9 9:25 10:42 11:66 12:77 13:100 14:100 15:49 16:78 
2.197353730990882e-34 2:77 3:50 4:100 5:100 6:72 7:40 8:39 9:13 11:74 12:1 13:23 14:38 15:12 16:77 
2.572582181921967e-35 1:55 2:100 3:43 4:41 5:100 6:42 7:61 8:96 9:45 10:43 11:10 13:98 14:20 16:27 
1.234962825380924e-33 1:21 2:64 3:55 4:29 5:7 8:32 9:55 10:65 11:100 12:100 13:20 14:93 15:12 16:57 
2.443753913318852e-35 1:6 2:50 3:41 4:50 5:100 6:19 7:44 9:20 10:37 11:63 12:73 13:65 14:100 16:73 
8.83115073440352e-34 1:49 2:82 3:6 4:100 6:65 7:19 8:27 9:15 11:8 12:38 13:48 14:62 15:100 16:68 
3.138816402118137e-34 1:29 2:100 4:75 5:53 6:54 7:100 8:30 9:78 11:56 12:25 13:66 14:63 15:15 16:71 
9.500443881280824e-35 1:9 2:41 3:73 4:80 6:100 7:28 8:56 9:92 10:16 11:35 13:22 14:42 15:100 16:74 
5.946082310103233e-35 1:59 2:100 3:6 4:57 5:100 6:72 7:26 8:86 9:64 10:46 13:91 14:10 15:35 16:34 
-5.98218612248937e-34 1:41 2:90 3:62 4:100 5:29 6:74 7:2 8:47 10:22 11:64 12:33 13:100 14:28 15:88 
-1.657865423421327e-33 1:18 2:61 3:37 4:100 5:17 6:65 8:33 9:61 10:39 11:100 12:55 13:66 14:37 15:37 
-2.892850016298318e-34 1:36 2:100 3:13 4:75 5:57 6:65 7:100 8:78 9:63 10:85 11:41 12:57 13:18 14:29 
-3.0416089644509e-33 1:26 2:100 3:16 4:79 6:52 7:36 8:32 9:100 10:38 11:55 12:52 13:38 14:26 15:32 
-7.600290446695404e-34 1:53 2:100 4:75 5:7 6:43 7:100 8:52 9:50 10:76 11:16 12:91 13:14 14:44 15:28 
-3.270138429195037e-33 1:21 2:100 3:13 4:70 6:38 7:6 8:17 9:73 10:20 11:100 12:28 13:62 14:32 15:56 
-1.096324747579656e-33 2:100 3:3 4:84 5:1 6:63 7:7 8:43 9:52 10:38 11:55 12:35 13:62 14:14 15:100 
