svm_type c_svc
kernel_type polynomial
degree 3
gamma 0.0001
coef0 0
nr_class 2
total_sv 68
rho -5.28987
label 10 2
probA -1.15806
probB -0.107921
nr_sv 43 25
SV
1.542109190568415 1:28 2:55 3:63 4:78 5:100 6:100 7:75 8:71 9:56 10:42 11:35 12:13 15:25 
0.1784418153170106 1:44 2:60 4:77 5:47 6:99 7:100 8:100 9:84 10:75 11:75 12:50 13:75 14:24 15:100 
11.15109362643153 2:62 3:21 4:100 5:27 6:80 7:26 8:35 9:4 10:4 11:12 13:55 14:2 15:100 16:5 
1.369311626510506 2:54 3:49 4:75 5:96 6:100 7:91 8:75 9:69 10:45 11:51 12:16 13:27 15:100 16:6 
1.846187068386184 2:100 3:82 4:95 5:100 6:79 7:100 8:64 9:91 10:48 11:82 12:32 13:55 14:15 15:55 
0.2822881523061909 2:46 3:52 4:72 5:100 6:100 7:84 8:75 9:71 10:42 11:64 12:9 13:2 14:1 15:32 
1.429999141234703 2:81 3:15 4:100 5:20 6:76 7:19 8:52 9:24 10:28 11:71 12:21 13:88 14:23 15:100 
10.49965420090783 1:55 2:70 3:73 4:100 5:62 6:66 7:49 8:26 9:30 12:2 13:50 14:3 15:100 16:6 
1.091679163920468 1:48 2:100 3:18 4:59 5:43 6:74 7:53 8:82 9:41 10:22 13:38 14:1 15:100 
3.233384695769628 1:7 2:78 3:78 4:100 5:100 6:93 7:98 8:51 9:98 10:9 11:22 14:1 15:93 16:2 
0.2557082995769244 1:19 2:93 3:9 4:74 5:100 6:94 7:25 8:100 9:1 10:49 13:93 14:16 15:46 16:60 
308.4125836263582 1:7 2:90 3:55 4:100 5:93 6:82 7:79 8:54 9:41 10:31 12:10 13:40 15:100 
4.721526400857303 2:62 3:30 4:90 5:70 6:100 7:57 8:61 9:48 10:22 11:7 13:36 14:2 15:100 16:3 
0.08516645240864978 2:72 3:32 4:91 5:77 6:100 7:100 8:88 9:87 10:45 11:75 13:61 14:15 15:89 16:34 
8.95424686907003 2:69 3:42 4:87 5:100 6:100 7:75 8:79 9:50 10:59 11:25 12:39 13:17 14:19 15:67 
3.835879658097548 2:81 3:20 4:100 5:64 6:100 7:100 8:85 9:72 10:60 11:35 12:42 13:46 14:21 15:79 
0.01783978802252856 1:85 2:90 3:10 4:65 5:100 6:69 7:34 8:100 9:53 10:41 13:92 14:5 15:35 16:48 
18.54247113582965 2:82 3:42 4:100 5:73 6:100 7:63 8:58 9:52 10:16 11:19 12:8 13:50 14:3 15:100 
0.579432141743528 2:99 3:28 4:100 5:65 6:95 7:100 8:89 9:95 10:66 11:72 12:43 13:50 14:18 15:45 
0.07108838383472661 1:10 2:93 4:54 5:21 6:74 7:52 8:100 9:65 10:46 11:53 13:26 14:4 15:100 16:5 
7.913125099510875 2:66 3:3 4:93 5:52 6:100 7:100 8:91 9:84 10:65 11:45 12:46 13:27 14:21 15:65 
0.523866047534166 2:70 3:50 4:84 5:100 6:100 7:94 8:82 9:81 10:56 11:65 12:29 13:50 14:3 15:54 
0.3777690167075716 1:1 2:87 3:38 4:100 5:49 6:63 7:34 8:22 9:16 12:29 13:49 14:24 15:100 16:22 
0.1627821796821904 1:69 2:82 4:100 5:22 6:64 7:96 8:36 9:96 11:33 12:20 13:93 14:53 15:100 16:79 
0.6371146579478623 2:54 3:61 4:75 5:100 6:100 7:94 8:98 9:65 10:74 11:42 12:49 13:35 14:23 15:68 
4.367961374350749 2:79 3:24 4:100 5:62 6:84 7:66 8:53 9:56 10:22 11:43 13:49 14:24 15:100 16:22 
8.414157128138465 2:97 3:76 4:100 5:100 6:74 7:62 8:40 9:33 10:6 11:4 13:11 14:22 15:91 16:24 
0.4805291671696758 1:22 2:94 4:92 5:27 6:100 7:100 8:99 9:68 10:51 11:48 13:24 14:24 15:94 16:36 
0.3492024876659863 1:31 2:87 3:59 4:100 5:59 6:69 7:74 8:64 9:100 10:42 11:84 12:11 13:44 
0.8391393531022246 1:39 2:100 3:16 4:74 5:40 6:57 7:14 8:80 9:32 10:35 12:7 13:18 15:100 16:8 
0.6739182294631462 1:17 2:98 3:80 4:100 5:100 6:67 7:67 8:33 9:26 12:7 14:23 15:89 16:19 
0.05492297576973729 1:17 2:100 4:81 5:2 6:62 7:42 8:46 9:100 10:52 11:79 12:39 13:77 14:19 15:89 
2.141464086444566 1:20 2:65 3:43 4:94 5:76 6:100 7:58 8:64 9:44 10:27 12:1 13:18 14:4 15:100 
2.011821678425156 2:53 3:48 4:77 5:100 6:100 7:89 8:83 9:77 10:58 11:64 12:33 13:57 14:8 15:95 
0.9453561675675706 2:69 3:5 4:92 5:62 6:100 7:100 8:82 9:80 10:53 11:97 12:26 13:97 14:2 15:38 
0.0005470425396704473 1:95 2:83 3:17 4:87 5:51 6:48 7:92 8:10 11:25 12:37 13:100 14:69 15:94 16:100 
0.134054013309527 1:88 2:87 4:82 5:3 6:95 7:97 8:100 9:100 10:75 11:91 12:50 13:91 14:25 15:100 
1.456068942927007 2:100 3:46 4:96 5:91 6:94 7:100 8:82 9:72 10:59 11:53 12:33 13:49 14:5 15:66 
0.1915945111446699 1:25 2:75 3:85 4:100 5:49 6:72 7:18 8:40 10:7 11:51 13:100 14:28 15:49 16:29 
0.9628208915423183 2:100 3:57 4:94 5:100 6:78 7:100 8:63 9:100 10:47 11:86 12:31 13:71 14:15 15:100 
0.5866515059208406 1:43 2:100 3:22 4:60 5:38 6:63 7:31 8:64 9:41 10:19 13:45 14:2 15:100 16:7 
0.8457884446642949 2:57 3:14 4:73 5:54 6:90 7:100 8:100 9:100 10:74 11:80 12:47 13:55 14:22 15:49 
1.264854516678893 1:10 2:100 4:99 5:51 6:100 7:95 8:89 9:100 10:67 11:91 12:44 13:76 14:22 15:69 
-13.53758146780643 2:85 3:32 4:100 5:76 6:91 7:70 8:65 9:38 10:43 11:11 12:20 13:50 14:6 15:100 
-17.52389427826134 2:79 3:31 4:94 5:68 6:100 7:100 8:88 9:94 10:62 11:74 12:39 13:51 14:18 15:64 
-0.4337055831619122 2:99 3:50 4:100 5:77 6:77 7:59 8:50 9:29 10:26 12:2 13:48 15:100 16:4 
-4.209618837276113 1:53 2:81 3:86 4:100 5:98 6:69 7:83 8:37 9:52 10:9 12:3 13:47 15:100 16:2 
-13.76821560311271 1:29 2:71 3:55 4:100 5:74 6:75 7:59 8:39 9:30 10:9 12:8 13:49 15:100 16:2 
-5.630045124216524 2:93 3:43 4:100 5:93 6:90 7:89 8:63 9:60 10:39 11:28 12:17 13:44 15:100 16:4 
-1.663514340532655 1:46 2:95 4:94 5:18 6:100 7:94 8:92 9:59 10:61 11:4 12:32 13:49 14:7 15:100 
-0.4117735369094186 2:79 3:35 4:100 5:87 6:99 7:100 8:71 9:63 10:46 11:23 12:24 13:46 14:4 15:98 
-1.755753810363 1:41 2:81 3:48 4:100 5:67 6:71 7:50 8:36 10:26 11:29 12:19 13:72 15:100 16:31 
-33.1021076894028 1:9 2:86 3:48 4:100 5:68 6:76 7:59 8:46 9:33 10:21 13:49 14:3 15:100 16:6 
-6.019712369545982 1:23 2:80 3:14 4:80 5:77 6:100 7:100 8:70 9:66 10:39 12:19 13:23 14:12 15:97 
-19.06750526277491 2:83 3:43 4:100 5:89 6:85 7:75 8:57 9:42 10:32 12:11 13:35 15:100 
-1.075773323081036 2:92 3:44 4:100 5:88 6:91 7:82 8:66 9:55 10:44 11:26 12:23 13:51 14:6 15:100 
-0.1274610815662449 1:10 2:81 3:37 4:100 5:56 6:62 7:44 8:21 10:13 11:35 12:25 13:75 15:100 16:30 
-11.51701671459554 2:71 3:29 4:100 5:70 6:88 7:65 8:38 9:28 10:10 11:11 12:16 13:56 14:11 15:100 
-163.7637830972154 1:8 2:91 3:63 4:100 5:100 6:82 7:79 8:55 9:42 10:31 12:11 13:37 14:1 15:100 
-1.216808926532237 1:1 2:55 3:7 4:100 5:30 6:92 7:20 8:45 10:4 11:23 13:61 14:10 15:100 16:12 
-27.53763178557384 1:9 2:90 3:46 4:100 5:74 6:74 7:62 8:42 9:29 10:18 13:49 14:2 15:100 16:1 
-30.27111583923994 2:91 3:44 4:100 5:74 6:78 7:71 8:51 9:48 10:26 11:12 12:5 13:42 15:100 16:1 
-12.04241277427279 2:71 3:39 4:94 5:100 6:100 7:100 8:73 9:54 10:48 11:11 12:23 13:33 14:1 15:95 
-3.422669430170148 1:49 2:90 3:33 4:88 5:74 6:100 7:69 8:55 9:39 10:18 12:3 13:49 14:3 15:100 
-8.200684929013972 2:66 3:30 4:90 5:69 6:100 7:65 8:62 9:39 10:29 11:12 12:1 13:57 15:100 16:3 
-0.266351129850375 1:28 2:89 3:63 4:100 5:84 6:71 7:69 8:38 9:32 10:14 12:17 13:52 14:13 15:100 
-24.25252541390261 1:2 2:95 3:64 4:100 5:100 6:78 7:87 8:50 9:51 10:25 12:6 13:20 15:89 16:3 
-12.61793860698204 2:79 3:47 4:96 5:100 6:100 7:80 8:74 9:39 10:51 11:5 12:26 13:25 14:4 15:82 
