svm_type c_svc
kernel_type polynomial
degree 7
gamma 1
coef0 0
nr_class 2
total_sv 15
rho -1.08536
label 4 3
probA -3.29352
probB -0.0694338
nr_sv 10 5
SV
2.856691602662169e-34 2:100 3:7 4:92 5:5 6:68 7:19 8:45 9:86 10:34 11:100 12:45 13:74 14:23 15:67 
7.611987942594261e-36 1:63 2:100 3:40 4:73 5:70 6:63 7:100 8:77 9:79 10:74 11:55 12:48 13:29 14:23 
1.500891261057745e-33 2:81 3:15 4:100 5:20 6:76 7:19 8:52 9:24 10:28 11:71 12:21 13:88 14:23 15:100 
9.770259700491524e-34 1:5 2:100 3:31 4:93 6:63 7:52 8:50 9:100 10:72 11:62 12:61 13:31 14:31 15:1 
6.906047452754844e-34 1:9 2:100 4:75 5:78 6:72 7:100 8:92 9:74 10:93 11:56 12:62 13:38 14:31 15:21 
3.063173861405009e-33 1:18 2:61 3:37 4:100 5:17 6:65 8:33 9:61 10:39 11:100 12:55 13:66 14:37 15:37 
9.680480911334347e-34 1:25 2:100 4:84 5:16 6:63 7:77 8:67 9:100 10:66 11:76 12:45 13:53 14:22 15:34 
1.059146882728152e-33 1:50 2:100 3:44 4:93 5:10 6:69 8:45 9:75 10:49 11:100 12:46 13:60 14:23 15:33 
6.029890218428104e-35 1:12 2:100 4:70 5:64 6:68 7:100 8:87 9:82 10:90 11:67 12:60 13:54 14:30 15:50 
3.312885544107531e-34 1:10 2:100 3:26 4:94 5:18 6:72 8:50 9:41 10:36 11:100 12:43 13:72 14:22 15:77 
-5.391075764929815e-34 1:7 2:90 3:55 4:100 5:93 6:82 7:79 8:54 9:41 10:31 12:10 13:40 15:100 
-5.11466779065757e-33 1:7 2:85 3:29 4:100 5:28 6:70 7:26 8:55 9:83 10:58 11:100 12:31 13:55 14:11 
-9.517866018248396e-34 2:66 3:3 4:93 5:52 6:100 7:100 8:91 9:84 10:65 11:45 12:46 13:27 14:21 15:65 
-3.037435988258852e-34 1:49 2:100 3:79 4:95 5:61 6:63 7:67 8:47 9:100 10:27 11:73 12:4 13:31 16:13 
-2.034453848651547e-33 2:89 3:10 4:100 5:46 6:82 7:11 8:58 9:32 10:50 11:94 12:43 13:100 14:18 15:52 
