svm_type c_svc
kernel_type polynomial
degree 7
gamma 1
coef0 0
nr_class 2
total_sv 41
rho -0.296134
label 8 7
probA -3.45879
probB -0.361976
nr_sv 26 15
SV
3.157019515167916e-34 2:67 3:38 4:66 5:62 6:30 7:38 9:8 10:30 11:45 12:63 13:100 14:90 15:58 16:100 
1.473626763184007e-34 1:3 2:57 3:83 4:70 5:100 6:100 7:6 8:85 9:20 10:52 11:71 12:20 15:37 16:32 
1.65044598896237e-34 1:37 2:71 3:79 4:71 5:49 6:100 8:45 9:25 10:36 11:66 13:100 14:51 15:10 16:26 
7.144594637829648e-33 1:49 2:100 3:19 4:91 5:31 6:54 7:36 8:15 11:7 12:36 13:51 14:63 15:100 16:87 
4.002218875617901e-35 1:60 2:100 3:14 4:67 5:100 6:55 7:80 8:98 9:39 10:56 12:13 13:80 15:50 16:45 
9.751698366977862e-34 1:27 2:100 4:74 5:60 6:43 7:100 8:3 9:34 11:29 12:44 13:74 14:81 15:10 16:58 
2.695166618750707e-34 1:54 2:85 3:94 4:100 5:96 6:61 7:79 8:22 9:84 11:100 12:32 13:53 14:52 16:58 
6.209969797527773e-34 1:50 2:83 3:26 4:62 5:58 6:100 7:14 8:60 9:2 10:30 11:50 13:100 14:51 16:34 
3.377866635632874e-34 1:44 2:73 3:77 4:100 5:100 6:68 7:78 8:28 9:68 11:100 12:33 13:56 14:51 16:53 
2.458730737291079e-33 2:20 3:38 4:56 5:46 6:100 7:6 8:81 9:58 10:56 11:100 12:24 13:50 15:7 16:15 
3.735914562442671e-33 1:2 2:77 3:54 4:100 5:100 6:79 7:86 8:47 9:59 10:16 11:63 13:73 14:27 16:43 
2.334836978004644e-34 1:20 2:60 4:83 5:15 6:39 7:100 8:9 9:30 11:47 12:54 13:67 14:100 15:2 16:59 
4.032353415138702e-34 1:56 2:71 3:31 4:100 5:16 6:66 7:24 8:23 11:17 12:34 13:57 14:57 15:100 16:76 
6.851190222930795e-34 1:72 2:100 3:3 4:76 5:100 6:63 7:49 8:99 9:29 10:45 12:28 13:53 15:33 16:48 
1.529636101815249e-33 2:77 3:50 4:100 5:100 6:72 7:40 8:39 9:13 11:74 12:1 13:23 14:38 15:12 16:77 
4.917327889471097e-34 1:27 2:50 3:79 4:68 5:100 6:100 7:46 8:85 9:42 10:42 11:51 12:1 15:35 16:33 
2.951646325387012e-34 1:54 2:82 3:26 4:63 5:100 6:76 7:28 8:100 9:61 10:50 12:36 13:49 15:55 16:54 
1.999798337354311e-35 1:42 2:63 3:100 4:85 5:54 6:100 7:42 8:62 9:62 10:22 14:27 15:73 16:51 
1.275143399007265e-33 1:7 2:91 3:34 4:60 5:77 6:100 8:69 9:8 10:39 11:32 13:100 14:43 15:8 16:39 
1.554398858166607e-34 1:20 2:73 3:57 4:44 5:76 6:2 9:40 10:40 11:100 12:76 13:77 14:100 15:22 16:65 
1.239644061559913e-33 1:5 2:92 3:82 4:100 5:100 6:67 7:57 8:32 9:12 11:80 12:11 13:70 14:46 16:66 
9.054427747236431e-34 1:21 2:64 3:55 4:29 5:7 8:32 9:55 10:65 11:100 12:100 13:20 14:93 15:12 16:57 
5.15286802781021e-33 1:1 2:74 3:23 4:100 5:83 6:87 7:75 8:42 9:49 11:100 12:2 13:55 14:34 16:64 
1.915454253653946e-34 2:79 3:25 4:50 5:98 6:25 7:71 9:10 10:16 11:50 12:47 13:100 14:76 15:83 16:100 
1.247316591410115e-34 1:29 2:100 4:75 5:53 6:54 7:100 8:30 9:78 11:56 12:25 13:66 14:63 15:15 16:71 
5.967271249031237e-33 1:45 2:71 3:63 4:100 5:20 6:78 7:44 8:39 9:51 12:11 13:40 14:40 15:100 16:52 
-8.545793165848505e-33 1:2 2:85 3:31 4:100 5:76 6:74 7:62 8:37 9:47 11:100 12:8 13:68 14:30 16:41 
-6.472986907774708e-34 1:16 2:78 4:100 5:76 6:92 7:100 8:78 9:77 10:35 11:74 13:98 14:32 15:27 16:38 
-1.689027075606734e-33 2:89 3:26 4:100 5:35 6:51 7:32 9:13 10:13 11:22 12:32 13:60 14:40 15:100 16:46 
-3.050286850913943e-34 2:66 3:25 4:100 5:48 6:70 7:43 8:23 9:26 11:21 12:33 13:60 14:46 15:100 16:61 
-9.289390615421805e-34 1:31 2:90 3:63 4:100 5:100 6:76 7:75 8:36 9:56 11:96 12:34 13:61 14:43 16:45 
-5.529039585465798e-33 1:7 2:100 3:40 4:89 5:37 6:48 7:21 8:9 11:3 12:40 13:48 14:58 15:100 16:65 
-2.849870749223842e-33 2:96 3:41 4:100 5:100 6:88 7:59 8:49 9:34 11:53 12:4 13:64 14:33 15:8 16:34 
-1.663186191374007e-34 1:22 2:94 4:92 5:27 6:100 7:100 8:99 9:68 10:51 11:48 13:24 14:24 15:94 16:36 
-1.667706344970283e-33 1:24 2:100 3:77 4:93 5:100 6:72 7:71 8:48 9:46 10:23 11:28 14:24 15:31 16:35 
-1.33565094439556e-33 2:83 3:26 4:90 5:100 6:100 7:72 8:68 9:38 10:34 11:7 13:3 14:19 15:46 16:41 
-6.405571372414247e-34 1:19 2:100 3:69 4:92 5:68 6:53 7:53 8:15 9:67 11:100 12:27 13:54 14:47 16:56 
-4.734219441552487e-33 1:28 2:65 3:41 4:100 5:63 6:64 7:55 8:21 9:31 12:33 13:50 14:45 15:100 16:58 
-7.026237580449553e-34 1:25 2:100 3:76 4:95 5:75 6:63 7:58 8:29 9:54 11:100 12:24 13:61 14:43 16:54 
-5.098810166625614e-33 1:39 2:94 3:47 4:100 5:47 6:61 7:26 8:23 9:3 12:39 13:50 14:50 15:100 16:63 
-4.041412015362994e-35 2:74 3:33 4:91 5:92 6:100 7:100 8:77 9:71 10:40 11:52 13:37 14:34 15:69 16:44 
