svm_type c_svc
kernel_type polynomial
degree 7
gamma 1
coef0 0
nr_class 2
total_sv 33
rho -0.936994
label 1 7
probA -3.16799
probB -0.210253
nr_sv 21 12
SV
1.446298231766181e-33 2:100 3:73 4:97 5:95 6:80 7:100 8:64 9:95 10:48 11:82 12:31 13:64 14:15 15:23 
6.944072878729937e-33 2:75 3:29 4:79 5:71 6:91 7:100 8:100 9:82 10:74 11:68 12:48 13:57 14:21 15:58 
2.569168168149342e-33 1:15 2:73 3:42 4:100 5:32 6:72 7:27 8:39 9:44 10:7 11:100 13:52 14:5 16:3 
3.913810172222868e-33 2:62 3:21 4:100 5:27 6:80 7:26 8:35 9:4 10:4 11:12 13:55 14:2 15:100 16:5 
3.974981521071466e-34 1:10 2:100 3:4 4:67 5:11 6:70 7:2 8:80 9:19 10:33 13:21 14:8 15:100 16:12 
2.653235562079339e-34 1:21 2:100 3:19 4:70 5:32 6:100 7:45 8:52 9:63 10:7 13:34 14:8 15:100 16:13 
2.736842349511631e-33 2:69 3:42 4:87 5:100 6:100 7:75 8:79 9:50 10:59 11:25 12:39 13:17 14:19 15:67 
1.340347008864213e-34 2:79 3:39 4:85 5:100 6:100 7:95 8:92 9:80 10:69 11:73 12:46 13:63 14:23 15:59 
2.696658528231644e-34 1:19 2:100 3:16 4:55 5:10 6:96 7:16 8:48 9:24 10:2 13:50 14:11 15:100 16:16 
3.508351538542485e-35 1:12 2:77 3:36 4:90 5:44 6:100 7:37 8:63 9:46 10:27 11:100 12:21 13:47 14:8 
7.939781827430242e-34 2:82 3:32 4:75 5:70 6:88 7:100 8:100 9:89 10:75 11:75 12:50 13:61 14:25 15:54 
1.11755100793628e-33 2:86 3:49 4:96 5:65 6:100 7:53 8:56 9:53 10:11 11:100 12:2 13:53 15:8 16:9 
4.661139542872438e-34 1:5 2:100 3:10 4:71 5:33 6:71 7:33 8:80 9:48 10:37 11:40 14:4 15:100 16:6 
1.482822367016634e-33 1:67 2:100 3:67 4:85 5:100 6:71 7:67 8:57 9:33 10:42 12:28 14:14 
4.095704550025919e-33 2:80 3:35 4:84 5:84 6:100 7:100 8:89 9:82 10:67 11:63 12:44 13:41 14:22 15:22 
2.726845843981916e-32 1:23 2:73 3:60 4:100 5:54 6:76 7:40 8:34 9:22 12:15 13:50 14:14 15:100 16:14 
2.180055125202025e-33 2:82 3:38 4:100 5:62 6:95 7:31 8:75 9:23 10:57 11:23 12:37 13:46 14:18 15:100 
2.355202943859195e-33 1:31 2:88 3:3 4:84 5:77 6:100 7:100 8:96 9:69 10:72 11:37 12:49 13:14 14:24 
1.61525658341948e-33 2:78 3:44 4:100 5:68 6:85 7:66 8:46 9:80 10:8 11:100 13:38 14:2 15:1 16:7 
2.829637667432454e-33 2:100 3:54 4:93 5:57 6:77 7:57 8:61 9:61 10:46 11:61 12:30 13:68 14:14 15:100 
2.772086667251988e-34 2:100 3:57 4:94 5:100 6:78 7:100 8:63 9:100 10:47 11:86 12:31 13:71 14:15 15:100 
-7.217947648360591e-33 2:89 3:41 4:94 5:87 6:100 7:100 8:98 9:80 10:75 11:68 12:50 13:59 14:25 15:60 
-4.456953819927963e-34 2:72 3:32 4:91 5:77 6:100 7:100 8:88 9:87 10:45 11:75 13:61 14:15 15:89 16:34 
-1.014167883233792e-32 1:11 2:83 3:41 4:100 5:47 6:67 7:25 8:35 9:8 12:31 13:49 14:32 15:100 16:31 
-1.056908546239708e-33 2:86 3:35 4:97 5:100 6:100 7:73 8:67 9:48 10:34 11:21 13:18 14:5 15:56 16:24 
-6.015747544812255e-34 1:34 2:100 3:100 4:87 5:82 6:58 7:55 8:29 9:42 11:3 12:7 14:27 15:85 16:35 
-3.265815069385987e-33 2:100 3:15 4:84 5:57 6:75 7:100 8:68 9:77 10:55 11:53 12:34 13:29 14:13 15:16 
-2.861393302756083e-33 1:26 2:97 3:29 4:100 5:75 6:99 7:100 8:83 9:82 10:61 11:56 12:39 13:27 14:20 
-2.921610559146991e-32 1:1 2:87 3:38 4:100 5:49 6:63 7:34 8:22 9:16 12:29 13:49 14:24 15:100 16:22 
-3.493050179301782e-33 1:34 2:77 3:77 4:100 5:100 6:74 7:75 8:43 9:40 10:16 14:24 15:79 16:26 
-1.104656643909716e-33 2:78 3:23 4:91 5:61 6:97 7:100 8:100 9:87 10:75 11:78 12:50 13:71 14:24 15:68 
-3.058130551946142e-34 1:2 2:63 4:92 5:39 6:96 7:83 8:100 9:100 10:87 11:81 12:59 13:68 14:30 15:60 
-3.48314806082634e-33 2:96 3:47 4:100 5:71 6:70 7:67 8:35 9:58 11:100 12:1 13:74 14:17 15:19 16:18 
