svm_type c_svc
kernel_type polynomial
degree 7
gamma 1
coef0 0
nr_class 2
total_sv 21
rho -0.246381
label 1 6
probA -3.01279
probB 0.300911
nr_sv 12 9
SV
2.248122804838375e-32 1:15 2:73 3:42 4:100 5:32 6:72 7:27 8:39 9:44 10:7 11:100 13:52 14:5 16:3 
1.516932369916922e-33 2:62 3:21 4:100 5:27 6:80 7:26 8:35 9:4 10:4 11:12 13:55 14:2 15:100 16:5 
9.768600790406746e-33 2:37 3:14 4:70 5:27 6:100 7:26 8:64 9:24 10:28 11:3 13:18 14:5 15:100 16:12 
3.349322232266613e-33 1:39 2:76 3:68 4:100 5:49 6:61 7:40 8:21 9:19 12:4 13:50 14:6 15:100 16:5 
6.411410386953891e-33 1:100 2:100 3:38 4:87 5:25 6:72 7:19 8:58 9:12 10:43 11:6 12:28 14:14 15:6 
4.142893878564082e-35 3:18 4:27 5:48 6:49 7:76 8:73 9:100 10:100 11:94 12:73 13:82 14:40 15:82 16:9 
1.393669741492961e-33 1:19 2:100 3:16 4:55 5:10 6:96 7:16 8:48 9:24 10:2 13:50 14:11 15:100 16:16 
2.868490917947039e-33 1:100 2:100 4:86 6:72 8:57 10:43 12:28 13:50 14:14 15:50 
2.666245807960325e-34 1:100 2:100 4:87 6:73 7:17 8:58 9:33 10:44 11:33 12:29 13:50 14:15 15:67 
1.66947751819878e-33 1:100 2:100 3:67 4:90 5:33 6:75 7:25 8:60 10:45 12:30 14:15 
3.650558686395563e-33 1:100 2:100 3:74 4:86 5:48 6:73 7:29 8:59 9:16 10:44 11:6 12:29 14:15 
2.528056719959786e-34 2:17 3:24 4:44 5:64 6:73 7:100 8:100 9:68 10:84 11:32 12:57 13:24 14:28 15:16 
-7.129619453547747e-33 1:32 2:100 3:12 4:76 6:48 7:1 8:21 9:39 11:100 12:9 13:64 14:21 15:18 16:3 
-4.999042502409793e-33 1:38 2:76 3:58 4:100 5:21 6:65 8:27 9:44 11:100 12:22 13:45 14:36 15:22 16:8 
-1.286734092696145e-34 1:16 2:100 3:11 4:71 5:5 6:39 7:29 8:11 9:85 10:11 11:100 12:28 13:46 14:18 
-1.108906053551437e-32 1:100 2:100 3:69 4:91 5:43 6:72 7:18 8:49 10:22 11:16 13:34 14:11 15:3 16:10 
-5.282676964187816e-34 1:16 2:100 4:57 5:55 6:55 7:44 9:12 10:17 11:6 12:77 13:45 14:98 15:100 16:100 
-2.564686324532677e-33 1:25 2:75 3:85 4:100 5:49 6:72 7:18 8:40 10:7 11:51 13:100 14:28 15:49 16:29 
-2.217194788040334e-32 1:24 2:100 3:7 4:72 6:42 7:6 8:13 9:60 10:9 11:100 12:29 13:43 14:23 15:9 
-2.903473129092046e-33 1:35 2:91 3:46 4:100 5:20 6:65 7:4 8:29 9:38 11:100 12:20 13:38 14:37 16:8 
-2.155778952351541e-33 1:100 2:99 3:60 4:100 5:34 6:78 7:14 8:53 10:27 11:6 13:37 14:9 15:6 16:27 
