svm_type c_svc
kernel_type polynomial
degree 7
gamma 1
coef0 0
nr_class 2
total_sv 27
rho 0.254609
label 8 2
probA -3.7734
probB 0.261103
nr_sv 18 9
SV
2.127062884205965e-34 1:32 2:52 3:22 5:100 6:2 7:78 8:63 9:35 10:37 11:14 12:100 13:71 14:92 16:73 
1.776310220290006e-34 1:34 2:71 3:16 4:65 5:17 6:23 9:1 10:42 11:44 12:75 13:100 14:100 15:46 16:91 
7.564911058831111e-34 1:59 2:82 3:11 4:67 5:100 6:65 7:54 8:100 9:40 10:48 12:22 13:60 15:43 16:52 
4.016969601907853e-33 1:59 2:72 3:36 4:100 6:72 7:23 8:36 9:52 12:1 13:44 14:27 15:100 16:55 
5.356968525265519e-34 1:50 2:83 3:26 4:62 5:58 6:100 7:14 8:60 9:2 10:30 11:50 13:100 14:51 16:34 
3.812509875034224e-33 2:20 3:38 4:56 5:46 6:100 7:6 8:81 9:58 10:56 11:100 12:24 13:50 15:7 16:15 
1.760722399627511e-33 1:20 2:60 4:83 5:15 6:39 7:100 8:9 9:30 11:47 12:54 13:67 14:100 15:2 16:59 
1.117605205396522e-34 1:56 2:71 3:31 4:100 5:16 6:66 7:24 8:23 11:17 12:34 13:57 14:57 15:100 16:76 
8.108659188022366e-34 1:59 2:61 3:91 4:100 5:37 6:92 7:36 8:46 9:45 12:6 13:35 14:36 15:100 16:38 
1.218808115627968e-33 1:27 2:50 3:79 4:68 5:100 6:100 7:46 8:85 9:42 10:42 11:51 12:1 15:35 16:33 
5.302569491217402e-34 1:7 2:91 3:34 4:60 5:77 6:100 8:69 9:8 10:39 11:32 13:100 14:43 15:8 16:39 
1.920690673420367e-35 1:55 2:100 3:43 4:41 5:100 6:42 7:61 8:96 9:45 10:43 11:10 13:98 14:20 16:27 
1.384221652784026e-33 1:21 2:64 3:55 4:29 5:7 8:32 9:55 10:65 11:100 12:100 13:20 14:93 15:12 16:57 
3.244896690966853e-34 1:6 2:50 3:41 4:50 5:100 6:19 7:44 9:20 10:37 11:63 12:73 13:65 14:100 16:73 
1.414327329321609e-33 1:49 2:82 3:6 4:100 6:65 7:19 8:27 9:15 11:8 12:38 13:48 14:62 15:100 16:68 
1.805081058761128e-34 1:35 2:55 3:46 4:55 5:100 6:23 7:60 9:5 10:28 11:32 12:64 13:65 14:100 16:79 
7.746111750237579e-34 1:5 2:76 3:29 4:100 5:100 6:81 7:55 8:39 11:61 12:3 13:15 14:44 15:21 16:83 
9.078940800462118e-35 1:45 2:71 3:63 4:100 5:20 6:78 7:44 8:39 9:51 12:11 13:40 14:40 15:100 16:52 
-4.468955191623856e-34 1:3 2:66 3:16 4:100 5:27 6:69 7:14 8:32 11:33 12:5 13:67 14:10 15:100 16:11 
-2.034707865597929e-34 2:79 3:31 4:94 5:68 6:100 7:100 8:88 9:94 10:62 11:74 12:39 13:51 14:18 15:64 
-2.357557237473288e-33 1:16 2:37 3:8 4:82 5:49 6:100 7:55 8:56 9:26 10:17 13:50 14:3 15:100 16:3 
-2.005756645054076e-34 1:61 2:79 3:90 4:100 5:100 6:78 7:76 8:54 9:42 10:32 11:7 12:13 15:49 16:3 
-6.944555882966679e-33 2:72 3:19 4:100 5:27 6:60 7:10 8:21 9:2 10:1 11:35 13:68 14:1 15:100 16:8 
-1.970345948528596e-33 1:30 2:59 3:46 4:100 5:49 6:47 7:27 8:5 10:7 11:33 12:16 13:66 15:100 16:4 
-5.103324271076884e-33 1:16 2:67 3:35 4:100 5:50 6:70 7:36 8:34 9:15 12:21 13:48 14:20 15:100 16:9 
-4.263906070773819e-34 1:6 2:48 3:32 4:77 5:75 6:100 7:100 8:79 9:73 10:51 11:33 12:26 14:1 15:62 
-4.794569790110465e-34 1:68 2:93 3:100 4:100 5:97 6:76 7:72 8:57 9:43 10:38 11:13 12:21 14:1 15:39 
