svm_type c_svc
kernel_type polynomial
degree 7
gamma 1
coef0 0
nr_class 2
total_sv 30
rho 0.389863
label 8 6
probA -3.85667
probB 0.527019
nr_sv 20 10
SV
2.343839485926023e-33 1:37 2:71 3:79 4:71 5:49 6:100 8:45 9:25 10:36 11:66 13:100 14:51 15:10 16:26 
2.881728858972555e-34 1:32 2:52 3:22 5:100 6:2 7:78 8:63 9:35 10:37 11:14 12:100 13:71 14:92 16:73 
1.104926518622847e-33 1:34 2:71 3:16 4:65 5:17 6:23 9:1 10:42 11:44 12:75 13:100 14:100 15:46 16:91 
1.194128044598592e-33 1:49 2:100 3:19 4:91 5:31 6:54 7:36 8:15 11:7 12:36 13:51 14:63 15:100 16:87 
1.999462750915213e-34 1:62 2:100 3:100 4:98 5:77 6:61 7:45 8:28 9:39 11:79 12:25 13:50 14:57 16:72 
2.532341290129803e-34 1:36 2:53 3:100 4:82 5:55 6:100 7:2 8:69 9:36 10:34 11:74 14:14 15:62 16:44 
1.935700607970703e-33 1:59 2:72 3:36 4:100 6:72 7:23 8:36 9:52 12:1 13:44 14:27 15:100 16:55 
2.016063209142562e-33 1:50 2:83 3:26 4:62 5:58 6:100 7:14 8:60 9:2 10:30 11:50 13:100 14:51 16:34 
3.816718614689579e-33 2:20 3:38 4:56 5:46 6:100 7:6 8:81 9:58 10:56 11:100 12:24 13:50 15:7 16:15 
2.396742318178646e-33 1:20 2:60 4:83 5:15 6:39 7:100 8:9 9:30 11:47 12:54 13:67 14:100 15:2 16:59 
1.478625023796093e-33 1:100 2:86 3:49 4:100 5:3 6:79 7:37 8:43 9:59 10:5 11:9 14:40 15:43 16:70 
2.968980979410959e-34 1:72 2:100 3:3 4:76 5:100 6:63 7:49 8:99 9:29 10:45 12:28 13:53 15:33 16:48 
7.896878947480888e-34 1:49 2:49 3:100 4:79 5:54 6:100 7:8 8:68 9:35 10:27 13:6 14:35 15:71 16:63 
1.34766524349675e-33 2:77 3:50 4:100 5:100 6:72 7:40 8:39 9:13 11:74 12:1 13:23 14:38 15:12 16:77 
2.088249896999655e-34 1:55 2:100 3:43 4:41 5:100 6:42 7:61 8:96 9:45 10:43 11:10 13:98 14:20 16:27 
1.81547480288688e-33 1:21 2:64 3:55 4:29 5:7 8:32 9:55 10:65 11:100 12:100 13:20 14:93 15:12 16:57 
1.7911505953532e-33 1:49 2:82 3:6 4:100 6:65 7:19 8:27 9:15 11:8 12:38 13:48 14:62 15:100 16:68 
2.681861041347874e-34 2:79 3:25 4:50 5:98 6:25 7:71 9:10 10:16 11:50 12:47 13:100 14:76 15:83 16:100 
3.967203687109364e-34 1:35 2:55 3:46 4:55 5:100 6:23 7:60 9:5 10:28 11:32 12:64 13:65 14:100 16:79 
5.351730618133891e-35 1:41 2:94 3:22 4:69 5:90 6:42 7:100 8:3 9:20 12:37 13:47 14:73 15:40 16:100 
-3.926502804032628e-33 1:100 2:92 3:64 4:100 5:37 6:77 7:20 8:50 9:11 10:21 11:22 13:35 14:26 16:40 
-1.068575122511256e-33 1:38 2:76 3:58 4:100 5:21 6:65 8:27 9:44 11:100 12:22 13:45 14:36 15:22 16:8 
-1.17063802469262e-34 1:66 2:100 3:33 4:78 5:11 6:53 8:25 9:20 11:77 12:1 13:100 14:24 15:41 16:26 
-2.369784461474721e-34 1:100 2:100 3:55 4:93 5:23 6:59 7:11 8:15 9:53 11:77 12:31 13:41 14:62 16:51 
-6.476956995954214e-33 1:22 2:100 3:8 4:72 6:41 7:5 8:10 9:57 11:100 12:21 13:51 14:33 15:6 16:13 
-2.907922200048199e-34 1:100 2:100 3:55 4:79 5:22 6:55 8:27 9:14 11:61 12:13 13:53 14:39 15:2 16:37 
-2.024104884006826e-33 1:16 2:100 4:57 5:55 6:55 7:44 9:12 10:17 11:6 12:77 13:45 14:98 15:100 16:100 
-4.09551001124621e-33 1:25 2:75 3:85 4:100 5:49 6:72 7:18 8:40 10:7 11:51 13:100 14:28 15:49 16:29 
-5.495573157155717e-33 1:24 2:100 3:7 4:72 6:42 7:6 8:13 9:60 10:9 11:100 12:29 13:43 14:23 15:9 
-2.641650725514377e-34 1:100 2:100 3:58 4:86 5:27 6:66 7:7 8:43 10:18 11:34 13:72 14:14 15:43 16:29 
