svm_type c_svc
kernel_type polynomial
degree 7
gamma 1
coef0 0
nr_class 2
total_sv 18
rho -0.621053
label 0 3
probA -3.84743
probB -0.881688
nr_sv 12 6
SV
8.972693784399209e-35 1:77 2:100 3:53 4:90 6:43 7:13 9:86 10:34 11:100 12:84 13:73 14:51 15:10 16:9 
3.880176909270673e-34 1:6 2:43 3:16 4:2 5:68 7:100 8:35 9:81 10:75 11:38 12:100 13:7 14:63 16:22 
4.57632624293104e-34 1:25 2:77 3:3 4:60 5:11 7:71 8:4 9:100 10:57 11:56 12:100 13:2 14:66 16:11 
4.55187315991809e-35 1:66 2:100 3:30 4:87 5:8 6:56 8:21 9:31 11:75 12:17 13:100 14:47 15:89 16:79 
1.840130152959409e-34 1:34 2:100 3:24 4:100 6:53 7:8 8:4 9:59 11:100 12:34 13:69 14:68 15:14 16:69 
2.092828104812007e-34 1:95 2:31 3:44 4:2 6:26 7:11 8:69 9:60 10:100 11:100 12:73 13:84 14:30 15:40 
1.168020887732891e-36 1:15 2:55 4:35 5:15 6:1 7:54 9:88 10:19 11:100 12:53 13:80 14:85 15:45 16:100 
5.950088096611632e-34 1:55 2:100 3:16 4:79 6:39 7:5 9:61 10:1 11:100 12:31 13:67 14:61 15:5 16:67 
1.361648595931551e-34 1:4 2:25 3:68 4:64 5:33 6:97 8:36 9:38 11:100 12:43 13:96 14:100 15:22 16:85 
1.691161179256486e-34 1:66 2:98 3:55 4:70 5:98 6:68 7:100 8:100 9:57 10:92 11:33 12:62 13:16 14:31 
6.827188594046823e-34 1:52 2:100 4:36 5:36 7:100 8:52 9:40 10:73 11:15 12:45 13:65 14:60 15:5 16:2 
9.448468639813985e-35 1:21 2:74 3:4 4:74 5:2 6:19 7:63 9:100 10:49 11:71 12:100 13:10 14:73 16:20 
-4.541945997502332e-34 1:7 2:90 3:55 4:100 5:93 6:82 7:79 8:54 9:41 10:31 12:10 13:40 15:100 
-8.44385813003223e-34 1:7 2:85 3:29 4:100 5:28 6:70 7:26 8:55 9:83 10:58 11:100 12:31 13:55 14:11 
-3.459569554086849e-35 2:66 3:3 4:93 5:52 6:100 7:100 8:91 9:84 10:65 11:45 12:46 13:27 14:21 15:65 
-1.334124176417089e-34 1:49 2:100 3:79 4:95 5:61 6:63 7:67 8:47 9:100 10:27 11:73 12:4 13:31 16:13 
-1.565696810613087e-33 1:12 2:73 3:22 4:100 5:72 6:80 7:26 8:54 9:56 10:47 11:100 12:20 13:50 16:18 
-2.056782776188785e-35 2:89 3:10 4:100 5:46 6:82 7:11 8:58 9:32 10:50 11:94 12:43 13:100 14:18 15:52 
