svm_type c_svc
kernel_type polynomial
degree 7
gamma 1
coef0 0
nr_class 2
total_sv 12
rho -1.11096
label 6 3
probA -3.6996
probB -0.826684
nr_sv 7 5
SV
1.909097657778237e-33 1:16 2:100 3:11 4:71 5:5 6:39 7:29 8:11 9:85 10:11 11:100 12:28 13:46 14:18 
2.958635199351873e-34 1:100 2:99 3:72 4:100 5:54 6:71 7:44 8:41 9:42 10:10 11:69 13:47 14:25 16:29 
7.593551477446408e-34 1:63 2:93 3:69 4:100 5:38 6:67 7:16 8:31 9:43 10:4 11:100 12:22 13:48 14:25 
2.547834102813939e-36 1:16 2:100 4:57 5:55 6:55 7:44 9:12 10:17 11:6 12:77 13:45 14:98 15:100 16:100 
4.056123993418009e-34 1:25 2:75 3:85 4:100 5:49 6:72 7:18 8:40 10:7 11:51 13:100 14:28 15:49 16:29 
1.16974918356833e-33 1:46 2:100 3:28 4:98 5:7 6:64 7:13 8:29 9:55 10:6 11:100 12:15 13:46 14:17 
1.243633303708688e-34 1:25 2:90 3:42 4:100 5:15 6:63 8:26 9:42 11:100 12:3 13:80 14:28 15:59 16:6 
-5.313609825680375e-34 1:7 2:90 3:55 4:100 5:93 6:82 7:79 8:54 9:41 10:31 12:10 13:40 15:100 
-1.418048037208633e-33 1:7 2:85 3:29 4:100 5:28 6:70 7:26 8:55 9:83 10:58 11:100 12:31 13:55 14:11 
-4.363716332062741e-34 1:49 2:100 3:79 4:95 5:61 6:63 7:67 8:47 9:100 10:27 11:73 12:4 13:31 16:13 
-2.150876225003163e-33 1:12 2:73 3:22 4:100 5:72 6:80 7:26 8:54 9:56 10:47 11:100 12:20 13:50 16:18 
-1.299321948557716e-34 2:89 3:10 4:100 5:46 6:82 7:11 8:58 9:32 10:50 11:94 12:43 13:100 14:18 15:52 
