svm_type c_svc
kernel_type polynomial
degree 7
gamma 1
coef0 0
nr_class 2
total_sv 36
rho 1.57282
label 2 1
probA -2.50106
probB 0.0921003
nr_sv 18 18
SV
8.138276178038097e-33 2:79 3:31 4:94 5:68 6:100 7:100 8:88 9:94 10:62 11:74 12:39 13:51 14:18 15:64 
1.331038750792045e-33 1:53 2:81 3:86 4:100 5:98 6:69 7:83 8:37 9:52 10:9 12:3 13:47 15:100 16:2 
6.290450102751986e-35 1:46 2:95 4:94 5:18 6:100 7:94 8:92 9:59 10:61 11:4 12:32 13:49 14:7 15:100 
5.119121004030994e-32 1:16 2:37 3:8 4:82 5:49 6:100 7:55 8:56 9:26 10:17 13:50 14:3 15:100 16:3 
3.005851519448805e-31 1:5 2:68 3:22 4:100 5:47 6:75 7:35 8:35 9:8 10:1 12:2 13:50 14:4 15:100 
1.150689524772155e-31 2:72 3:19 4:100 5:27 6:60 7:10 8:21 9:2 10:1 11:35 13:68 14:1 15:100 16:8 
3.230217633456094e-32 2:79 3:28 4:100 5:54 6:90 7:46 8:62 9:28 10:36 11:18 12:9 13:52 15:100 16:5 
3.3880001632606e-34 1:30 2:59 3:46 4:100 5:49 6:47 7:27 8:5 10:7 11:33 12:16 13:66 15:100 16:4 
1.36161575035264e-31 1:1 2:55 3:7 4:100 5:30 6:92 7:20 8:45 10:4 11:23 13:61 14:10 15:100 16:12 
5.666073309888261e-32 1:7 2:69 3:17 4:100 5:30 6:70 7:20 8:33 10:2 11:25 13:62 14:2 15:100 16:7 
3.322571570089166e-32 1:16 2:67 3:35 4:100 5:50 6:70 7:36 8:34 9:15 12:21 13:48 14:20 15:100 16:9 
1.180534615993147e-32 1:20 2:72 3:51 4:100 5:60 6:69 7:40 8:35 9:12 10:4 12:12 13:49 14:9 15:100 
8.825168599097138e-33 1:6 2:48 3:32 4:77 5:75 6:100 7:100 8:79 9:73 10:51 11:33 12:26 14:1 15:62 
7.566182214421733e-33 2:52 3:20 4:83 5:56 6:100 7:79 8:84 9:58 10:52 11:36 12:20 13:59 14:1 15:100 
5.192646428361511e-33 1:68 2:93 3:100 4:100 5:97 6:76 7:72 8:57 9:43 10:38 11:13 12:21 14:1 15:39 
7.233273552000365e-32 1:30 2:83 3:62 4:100 5:51 6:69 7:29 8:40 10:14 11:1 13:50 14:8 15:100 16:10 
2.449210825157042e-33 1:27 2:75 3:64 4:100 5:100 6:99 7:79 8:70 9:45 10:44 11:6 12:20 15:64 16:6 
1.990822078134385e-33 1:63 2:77 3:95 4:100 5:92 6:63 7:64 8:28 9:26 10:2 13:50 14:4 15:100 16:7 
-2.035819235107414e-33 1:44 2:60 4:77 5:47 6:99 7:100 8:100 9:84 10:75 11:75 12:50 13:75 14:24 15:100 
-5.936551718233811e-34 1:32 2:74 3:87 4:95 5:100 6:100 7:84 8:73 9:79 10:46 11:66 12:18 15:3 
-6.459068390040353e-31 2:62 3:21 4:100 5:27 6:80 7:26 8:35 9:4 10:4 11:12 13:55 14:2 15:100 16:5 
-2.732936442956534e-33 2:76 3:42 4:100 5:51 6:91 7:43 8:52 9:46 10:13 11:100 12:7 13:71 14:2 15:31 
-1.107487645715107e-32 1:48 2:100 3:18 4:59 5:43 6:74 7:53 8:82 9:41 10:22 13:38 14:1 15:100 
-5.048489410049888e-33 2:69 3:23 4:83 5:82 6:100 7:100 8:95 9:86 10:70 11:75 12:44 13:62 14:19 15:64 
-5.166488184197451e-32 2:62 3:30 4:90 5:70 6:100 7:57 8:61 9:48 10:22 11:7 13:36 14:2 15:100 16:3 
-1.634961276615316e-33 2:82 3:42 4:100 5:73 6:100 7:63 8:58 9:52 10:16 11:19 12:8 13:50 14:3 15:100 
-8.261899287771211e-33 1:39 2:100 3:16 4:74 5:40 6:57 7:14 8:80 9:32 10:35 12:7 13:18 15:100 16:8 
-5.589403538719854e-34 1:100 2:100 4:86 6:72 8:57 10:43 12:28 13:50 14:14 15:50 
-7.915343532656862e-34 1:65 2:94 3:100 4:100 5:82 6:83 7:71 8:67 9:41 10:50 11:18 12:33 13:6 14:17 
-4.433985453450573e-33 1:67 2:100 3:67 4:85 5:100 6:71 7:67 8:57 9:33 10:42 12:28 14:14 
-3.49258068779297e-33 2:59 3:20 4:79 5:100 6:100 7:100 8:90 9:60 10:67 11:33 12:44 13:7 14:22 15:33 
-4.125352442362217e-34 1:35 2:78 3:92 4:100 5:100 6:96 7:85 8:68 9:88 10:40 11:79 12:13 15:27 16:4 
-1.524162830204484e-32 2:82 3:38 4:100 5:62 6:95 7:31 8:75 9:23 10:57 11:23 12:37 13:46 14:18 15:100 
-8.404789511457859e-34 2:100 3:57 4:94 5:100 6:78 7:100 8:63 9:100 10:47 11:86 12:31 13:71 14:15 15:100 
-9.004716962391224e-32 1:34 2:79 3:69 4:100 5:60 6:75 7:41 8:26 9:13 12:8 13:50 14:7 15:100 16:5 
-4.554348060910006e-34 2:60 3:24 4:82 5:84 6:100 7:100 8:90 9:73 10:68 11:43 12:44 13:18 14:22 15:14 
