svm_type c_svc
kernel_type polynomial
degree 7
gamma 1
coef0 0
nr_class 2
total_sv 20
rho -0.115126
label 4 7
probA -3.09947
probB -0.146327
nr_sv 12 8
SV
1.695882334075932e-34 1:63 2:100 3:40 4:73 5:70 6:63 7:100 8:77 9:79 10:74 11:55 12:48 13:29 14:23 
2.195064695073216e-33 2:81 3:15 4:100 5:20 6:76 7:19 8:52 9:24 10:28 11:71 12:21 13:88 14:23 15:100 
3.395741049180684e-34 1:41 2:90 3:62 4:100 5:29 6:74 7:2 8:47 10:22 11:64 12:33 13:100 14:28 15:88 
1.196651923960565e-33 1:9 2:100 4:75 5:78 6:72 7:100 8:92 9:74 10:93 11:56 12:62 13:38 14:31 15:21 
7.369100185884094e-34 1:18 2:61 3:37 4:100 5:17 6:65 8:33 9:61 10:39 11:100 12:55 13:66 14:37 15:37 
9.51322229071929e-34 1:36 2:100 3:13 4:75 5:57 6:65 7:100 8:78 9:63 10:85 11:41 12:57 13:18 14:29 
4.691334412052986e-33 1:26 2:100 3:16 4:79 6:52 7:36 8:32 9:100 10:38 11:55 12:52 13:38 14:26 15:32 
4.589327997919708e-34 1:21 2:100 3:13 4:70 6:38 7:6 8:17 9:73 10:20 11:100 12:28 13:62 14:32 15:56 
1.169151631112057e-33 1:9 2:100 4:77 5:11 6:51 7:74 8:53 9:100 10:72 11:59 12:50 13:33 14:25 15:9 
5.126318466922558e-35 1:45 2:100 3:9 4:76 5:40 6:64 7:100 8:70 9:76 10:79 11:53 12:53 13:25 14:26 
1.492323570829388e-33 2:100 3:3 4:84 5:1 6:63 7:7 8:43 9:52 10:38 11:55 12:35 13:62 14:14 15:100 
3.314372450227852e-34 1:12 2:100 4:70 5:64 6:68 7:100 8:87 9:82 10:90 11:67 12:60 13:54 14:30 15:50 
-4.393586918451373e-33 2:89 3:26 4:100 5:35 6:51 7:32 9:13 10:13 11:22 12:32 13:60 14:40 15:100 16:46 
-3.694873941558075e-33 2:100 3:15 4:84 5:57 6:75 7:100 8:68 9:77 10:55 11:53 12:34 13:29 14:13 15:16 
-3.975116715975825e-33 1:1 2:87 3:38 4:100 5:49 6:63 7:34 8:22 9:16 12:29 13:49 14:24 15:100 16:22 
-3.10359411754467e-34 1:34 2:91 4:98 5:42 6:100 7:83 8:94 9:100 10:71 11:86 12:46 13:62 14:23 15:46 
-5.279882033838205e-34 1:13 2:65 4:94 5:38 6:98 7:78 8:100 9:100 10:93 11:83 12:63 13:67 14:32 15:57 
-5.329092737803162e-34 1:19 2:100 3:69 4:92 5:68 6:53 7:53 8:15 9:67 11:100 12:27 13:54 14:47 16:56 
-3.069576706117342e-34 1:21 2:98 4:100 5:54 6:100 7:100 8:100 9:60 10:81 11:32 12:57 13:21 14:29 15:19 
-4.176191298258015e-35 1:40 2:93 4:99 5:50 6:100 7:100 8:99 9:82 10:88 11:64 12:60 13:55 14:30 15:55 
