svm_type c_svc
kernel_type polynomial
degree 7
gamma 1
coef0 0
nr_class 2
total_sv 25
rho 0.076148
label 5 3
probA -3.41061
probB -0.263127
nr_sv 13 12
SV
1.359026618029238e-33 1:12 2:60 3:37 4:36 5:41 7:15 8:2 10:42 11:27 12:66 13:63 14:84 15:100 16:100 
3.951496064252103e-33 1:40 2:90 3:87 4:100 5:81 6:93 7:39 8:71 9:70 10:46 11:100 12:23 13:52 14:6 
3.575852356263263e-34 1:36 2:80 4:64 5:37 6:41 7:25 9:1 10:8 11:7 12:54 13:43 14:88 15:100 16:100 
6.93603657740703e-34 1:21 2:52 4:48 5:39 6:50 7:100 8:51 9:68 11:26 12:29 13:8 14:83 15:85 16:100 
2.941225288275977e-33 1:68 2:82 3:100 4:100 5:99 6:91 7:68 8:75 9:95 10:48 11:80 12:21 13:41 14:7 
1.337171652105154e-33 1:1 2:97 3:68 4:98 5:39 6:100 7:21 8:63 9:55 10:50 11:100 12:25 13:46 16:19 
4.916282777775174e-34 1:10 2:91 3:20 4:59 5:83 6:56 7:100 8:13 9:40 11:3 12:42 14:82 15:60 16:100 
1.277739531339119e-32 1:21 2:80 3:60 4:95 5:100 6:100 7:55 8:87 9:37 10:52 11:76 12:28 13:46 14:2 
4.182005025910658e-35 1:70 2:91 3:100 4:100 5:61 6:86 7:35 8:60 9:60 10:50 11:64 12:21 13:34 16:15 
6.959537384791094e-34 1:2 2:64 3:31 4:33 5:47 6:3 9:3 10:39 11:8 12:74 13:54 14:89 15:100 16:100 
4.260765809303917e-34 1:40 2:92 3:100 4:100 5:97 6:94 7:43 8:77 9:57 10:54 11:89 12:27 13:55 16:8 
6.298898880570522e-33 1:72 2:94 3:25 4:100 5:26 6:71 7:25 8:36 9:72 10:44 11:100 12:18 13:55 16:2 
2.408289603082352e-33 1:10 2:89 3:32 4:98 5:36 6:100 8:68 9:31 10:49 11:100 12:29 13:60 15:1 16:15 
-8.60511975442122e-34 1:59 2:85 3:84 4:100 5:82 6:79 7:60 8:56 9:100 10:48 11:74 12:28 13:37 14:14 
-2.265222993804435e-33 1:51 2:100 3:93 4:95 5:64 6:73 7:70 8:61 9:100 10:39 11:82 12:12 13:38 16:7 
-1.473409373185456e-34 1:7 2:90 3:55 4:100 5:93 6:82 7:79 8:54 9:41 10:31 12:10 13:40 15:100 
-1.214368748653938e-32 1:47 2:80 3:71 4:100 5:100 6:89 7:38 8:72 9:44 10:48 11:91 12:23 13:45 16:10 
-4.170525572112112e-33 1:7 2:85 3:29 4:100 5:28 6:70 7:26 8:55 9:83 10:58 11:100 12:31 13:55 14:11 
-3.219517420381943e-33 1:32 2:72 3:57 4:93 5:100 6:100 7:87 8:78 9:62 10:56 11:61 12:30 13:44 14:7 
-1.548677006106503e-33 1:61 2:100 3:100 4:84 5:84 6:62 7:37 8:53 9:71 10:39 11:87 12:15 13:47 16:4 
-3.298568341627492e-33 1:5 2:87 3:50 4:100 5:100 6:98 7:73 8:75 9:36 10:56 11:65 12:36 13:44 14:15 
-6.359778675075446e-34 2:89 3:10 4:100 5:46 6:82 7:11 8:58 9:32 10:50 11:94 12:43 13:100 14:18 15:52 
-6.045162484317354e-34 1:45 2:84 3:73 4:100 5:100 6:98 7:82 8:72 9:69 10:43 11:61 12:14 13:31 16:2 
-4.043647450448063e-33 1:6 2:87 3:50 4:100 5:62 6:81 7:22 8:57 9:70 10:46 11:100 12:20 13:59 16:4 
-8.419776607998116e-34 1:33 2:74 3:4 4:93 5:73 6:100 7:55 8:72 9:38 10:50 11:100 12:35 13:73 14:8 
