svm_type c_svc
kernel_type polynomial
degree 3
gamma 0.0001
coef0 0
nr_class 2
total_sv 61
rho -0.80386
label 8 10
probA -2.8927
probB 0.309411
nr_sv 28 33
SV
0.1199564688124705 1:100 2:100 3:14 4:90 5:74 6:55 7:79 8:97 9:37 10:62 12:39 13:36 15:39 16:44 
0.1380142838140836 1:53 2:79 3:44 4:55 5:22 6:10 9:32 10:36 11:66 12:69 13:100 14:100 15:61 16:83 
0.1081972800892342 1:3 2:57 3:83 4:70 5:100 6:100 7:6 8:85 9:20 10:52 11:71 12:20 15:37 16:32 
0.2618397551199617 1:37 2:71 3:79 4:71 5:49 6:100 8:45 9:25 10:36 11:66 13:100 14:51 15:10 16:26 
0.02867865113611458 1:32 2:52 3:22 5:100 6:2 7:78 8:63 9:35 10:37 11:14 12:100 13:71 14:92 16:73 
2.105206897328564 1:49 2:100 3:19 4:91 5:31 6:54 7:36 8:15 11:7 12:36 13:51 14:63 15:100 16:87 
0.02988530953309192 1:29 2:95 3:93 4:67 5:84 6:100 7:10 8:68 10:18 11:74 13:100 14:44 15:17 16:44 
0.05007933724060997 1:62 2:100 3:100 4:98 5:77 6:61 7:45 8:28 9:39 11:79 12:25 13:50 14:57 16:72 
0.07981880438993701 1:70 2:92 4:83 5:57 6:49 7:100 8:13 9:16 11:5 12:37 13:48 14:74 15:64 16:100 
0.09446389479051551 1:100 2:100 3:39 4:84 5:58 6:51 7:88 8:20 9:25 12:24 13:42 14:54 15:98 16:81 
0.01256991682603945 1:35 2:90 3:24 4:61 5:100 6:100 7:12 8:84 10:29 11:49 13:96 14:57 15:7 16:28 
0.3268896968232648 1:44 2:73 3:77 4:100 5:100 6:68 7:78 8:28 9:68 11:100 12:33 13:56 14:51 16:53 
0.1161125082511089 2:20 3:38 4:56 5:46 6:100 7:6 8:81 9:58 10:56 11:100 12:24 13:50 15:7 16:15 
0.009782074113336587 1:2 2:77 3:54 4:100 5:100 6:79 7:86 8:47 9:59 10:16 11:63 13:73 14:27 16:43 
0.09359823845145544 1:20 2:60 4:83 5:15 6:39 7:100 8:9 9:30 11:47 12:54 13:67 14:100 15:2 16:59 
0.08904377478884995 1:56 2:71 3:31 4:100 5:16 6:66 7:24 8:23 11:17 12:34 13:57 14:57 15:100 16:76 
0.2261628163977042 1:54 2:77 3:30 4:37 7:13 8:25 9:55 10:54 11:100 12:80 13:89 14:100 15:37 16:86 
0.3447119282065169 1:59 2:61 3:91 4:100 5:37 6:92 7:36 8:46 9:45 12:6 13:35 14:36 15:100 16:38 
0.05099968212927348 1:31 2:100 4:82 5:47 6:46 7:97 8:12 9:44 11:31 12:33 13:95 14:61 15:100 16:91 
0.0008574887000111829 2:39 3:62 4:67 5:86 6:100 7:6 8:87 9:38 10:54 11:100 12:26 13:72 15:1 16:17 
0.4918010517057976 1:55 2:95 4:100 5:26 6:67 7:64 8:33 9:50 11:16 12:29 13:47 14:63 15:100 16:90 
0.05208875058845463 1:21 2:64 3:55 4:29 5:7 8:32 9:55 10:65 11:100 12:100 13:20 14:93 15:12 16:57 
0.07875970705166005 1:1 2:74 3:23 4:100 5:83 6:87 7:75 8:42 9:49 11:100 12:2 13:55 14:34 16:64 
0.004762133113926517 1:49 2:82 3:6 4:100 6:65 7:19 8:27 9:15 11:8 12:38 13:48 14:62 15:100 16:68 
0.1128814416460428 2:79 3:25 4:50 5:98 6:25 7:71 9:10 10:16 11:50 12:47 13:100 14:76 15:83 16:100 
0.1440862130457849 1:67 2:100 3:10 4:92 5:29 6:53 7:50 8:14 9:1 12:37 13:45 14:67 15:100 16:87 
0.1136669187183746 1:29 2:100 4:75 5:53 6:54 7:100 8:30 9:78 11:56 12:25 13:66 14:63 15:15 16:71 
0.1541411183176669 1:32 2:68 4:100 5:38 6:71 7:100 8:37 9:75 11:13 12:18 13:35 14:59 15:90 16:95 
-0.2564662779648437 1:100 2:92 3:64 4:100 5:37 6:77 7:20 8:50 9:11 10:21 11:22 13:35 14:26 16:40 
-0.01713677690532115 1:38 2:96 3:49 4:68 5:74 6:100 7:24 8:87 9:91 10:80 11:100 12:30 13:54 16:32 
-0.1064515591623847 1:16 2:78 4:100 5:76 6:92 7:100 8:78 9:77 10:35 11:74 13:98 14:32 15:27 16:38 
-0.04258812795012786 1:48 2:53 3:10 4:54 7:49 8:6 9:88 10:48 11:100 12:100 13:48 14:84 15:7 16:44 
-0.2039830557969108 1:94 2:95 3:56 4:100 5:23 6:67 8:29 9:19 11:69 12:16 13:100 14:50 15:89 16:90 
-0.1529252921637904 2:37 3:14 4:70 5:27 6:100 7:26 8:64 9:24 10:28 11:3 13:18 14:5 15:100 16:12 
-0.01434295095653547 1:25 2:86 3:19 4:83 6:41 7:14 9:71 10:16 11:100 12:55 13:78 14:95 15:12 16:100 
-0.01785758622808552 1:74 2:100 3:2 4:49 5:29 7:100 8:54 9:61 10:95 12:39 13:75 14:77 15:6 16:21 
-0.05555988499951349 1:46 2:88 3:24 4:61 5:19 6:11 7:63 9:100 10:29 11:86 12:78 13:45 14:100 16:86 
-0.2470965661508881 1:31 2:90 3:63 4:100 5:100 6:76 7:75 8:36 9:56 11:96 12:34 13:61 14:43 16:45 
-0.07196779634522063 2:52 3:23 5:79 6:5 7:100 8:58 9:59 10:60 11:74 12:64 13:79 14:100 15:27 16:74 
-0.06351274693511218 1:7 2:89 3:52 4:100 5:93 6:70 7:80 8:27 9:68 11:100 12:39 13:66 14:53 16:52 
-0.02890832125197901 1:19 2:100 3:16 4:55 5:10 6:96 7:16 8:48 9:24 10:2 13:50 14:11 15:100 16:16 
-0.1203059906334063 1:31 2:96 3:44 4:76 5:24 6:100 7:41 8:50 9:48 10:7 13:49 14:14 15:100 16:23 
-0.0333253449293533 1:100 2:100 4:86 6:72 8:57 10:43 12:28 13:50 14:14 15:50 
-0.01983130994079533 1:3 2:97 3:39 4:100 5:100 6:79 7:63 8:39 9:27 11:76 12:7 13:92 14:33 16:35 
-0.239648811597127 1:33 2:100 3:15 4:85 6:40 7:13 9:46 10:3 11:76 12:25 13:100 14:61 15:84 16:95 
-0.8542841508247707 1:60 2:91 4:85 5:19 6:37 7:82 8:27 9:31 11:3 12:30 13:40 14:74 15:100 16:100 
-0.03084292497889423 1:48 2:86 3:16 4:51 6:11 7:37 9:77 10:29 11:100 12:66 13:81 14:100 15:31 16:92 
-0.09942880949726739 1:58 2:50 3:88 4:84 5:100 6:100 7:84 8:60 9:80 10:19 11:40 14:4 15:64 16:5 
-0.1453974612285495 1:4 2:25 3:68 4:64 5:33 6:97 8:36 9:38 11:100 12:43 13:96 14:100 15:22 16:85 
-0.8566947049066481 1:57 2:96 4:87 5:46 6:65 7:63 8:15 9:7 11:3 12:39 13:43 14:84 15:100 16:100 
-0.06242096923770649 1:46 2:48 3:100 4:74 5:87 6:100 7:10 8:86 9:30 10:68 11:90 12:58 13:43 14:29 
-0.01794868801354709 1:64 2:93 3:25 4:56 6:9 7:37 9:78 10:35 11:100 12:81 13:61 14:100 15:18 16:70 
-0.003975145836296869 1:8 2:81 3:48 4:100 5:98 6:90 7:77 8:63 9:100 10:28 11:86 13:35 14:9 16:35 
-0.0190146554262149 1:51 2:99 3:28 4:60 5:40 6:9 7:79 9:100 10:44 11:81 12:90 13:40 14:100 16:87 
-0.0713219390958611 1:96 2:43 3:63 5:1 6:7 8:57 9:38 10:100 11:100 12:94 13:81 14:45 15:36 16:7 
-0.0207755017081395 1:58 2:91 3:93 4:100 5:77 6:73 7:97 8:49 9:100 10:20 11:70 13:26 14:7 16:28 
-0.1311301738547315 1:43 2:82 3:21 4:51 5:35 6:15 9:8 10:32 11:30 12:66 13:64 14:85 15:100 16:100 
-0.08479907173537735 1:34 2:96 3:46 4:53 5:36 6:12 9:2 10:47 11:28 12:77 13:63 14:92 15:100 16:100 
-0.07907867479812056 1:28 2:65 3:41 4:100 5:63 6:64 7:55 8:21 9:31 12:33 13:50 14:45 15:100 16:58 
-0.1137295935607938 1:25 2:100 3:76 4:95 5:75 6:63 7:58 8:29 9:54 11:100 12:24 13:61 14:43 16:54 
-1.156305276515537 1:39 2:94 3:47 4:100 5:47 6:61 7:26 8:23 9:3 12:39 13:50 14:50 15:100 16:63 
