svm_type c_svc
kernel_type polynomial
degree 7
gamma 1
coef0 0
nr_class 2
total_sv 12
rho -1.01261
label 6 0
probA -2.76167
probB -0.128432
nr_sv 5 7
SV
6.987218589747922e-33 1:39 2:100 3:23 4:82 6:52 7:1 8:21 9:48 11:100 12:16 13:70 14:42 15:6 16:55 
2.468856371564458e-33 1:64 2:100 3:21 4:74 6:38 7:17 8:3 9:72 11:100 12:31 13:59 14:51 15:6 16:39 
7.770492716808984e-33 1:70 2:100 3:45 4:86 5:11 6:53 8:15 9:57 11:100 12:26 13:67 14:57 16:67 
8.336745408120536e-34 1:16 2:100 4:57 5:55 6:55 7:44 9:12 10:17 11:6 12:77 13:45 14:98 15:100 16:100 
4.072798701979152e-32 1:55 2:100 3:20 4:69 5:3 6:36 7:4 8:3 9:72 11:100 12:31 13:68 14:57 16:45 
-2.525228182123119e-33 1:77 2:100 3:53 4:90 6:43 7:13 9:86 10:34 11:100 12:84 13:73 14:51 15:10 16:9 
-2.961894212632497e-33 1:6 2:43 3:16 4:2 5:68 7:100 8:35 9:81 10:75 11:38 12:100 13:7 14:63 16:22 
-1.330661406810455e-33 1:25 2:77 3:3 4:60 5:11 7:71 8:4 9:100 10:57 11:56 12:100 13:2 14:66 16:11 
-8.197529314025973e-34 1:95 2:31 3:44 4:2 6:26 7:11 8:69 9:60 10:100 11:100 12:73 13:84 14:30 15:40 
-4.64453134159961e-32 1:55 2:100 3:16 4:79 6:39 7:5 9:61 10:1 11:100 12:31 13:67 14:61 15:5 16:67 
-5.717211463458222e-34 1:4 2:25 3:68 4:64 5:33 6:97 8:36 9:38 11:100 12:43 13:96 14:100 15:22 16:85 
-4.133657943414344e-33 1:52 2:100 4:36 5:36 7:100 8:52 9:40 10:73 11:15 12:45 13:65 14:60 15:5 16:2 
