svm_type c_svc
kernel_type polynomial
degree 3
gamma 0.0001
coef0 0
nr_class 2
total_sv 39
rho -1.99799
label 10 6
probA -2.18509
probB -0.45361
nr_sv 28 11
SV
0.3103400237114153 1:14 2:100 3:1 4:54 5:51 6:47 7:36 10:14 11:6 12:71 13:42 14:93 15:100 16:97 
0.01688972696810108 1:77 2:100 3:53 4:90 6:43 7:13 9:86 10:34 11:100 12:84 13:73 14:51 15:10 16:9 
0.5095197972548337 1:15 2:73 3:42 4:100 5:32 6:72 7:27 8:39 9:44 10:7 11:100 13:52 14:5 16:3 
0.03033071935233843 1:8 2:95 3:8 4:58 5:61 6:47 7:54 9:20 10:21 12:68 13:37 14:100 15:100 16:100 
1.413598536899023 1:17 2:100 3:8 4:53 5:61 6:47 7:42 9:3 10:17 12:80 13:44 14:96 15:100 16:94 
0.05858366531874842 1:37 2:71 3:79 4:71 5:49 6:100 8:45 9:25 10:36 11:66 13:100 14:51 15:10 16:26 
0.9122414140632968 1:13 2:98 4:74 5:51 6:57 7:32 9:2 10:22 11:4 12:85 13:41 14:100 15:100 16:100 
0.873090296726687 1:22 2:100 4:55 5:40 6:59 7:53 8:2 9:19 11:20 12:66 13:41 14:99 15:100 16:98 
0.008426990114709708 1:22 2:100 3:9 4:68 6:35 7:22 8:16 9:100 10:18 11:88 12:37 13:50 14:33 15:57 
0.1036844041283767 1:29 2:95 3:93 4:67 5:84 6:100 7:10 8:68 10:18 11:74 13:100 14:44 15:17 16:44 
0.01730674079548232 1:62 2:100 3:100 4:98 5:77 6:61 7:45 8:28 9:39 11:79 12:25 13:50 14:57 16:72 
0.1071271465017129 1:27 2:100 4:74 5:60 6:43 7:100 8:3 9:34 11:29 12:44 13:74 14:81 15:10 16:58 
0.3303855112955519 1:24 2:88 4:46 5:54 6:45 7:20 9:24 10:55 11:38 12:95 13:51 14:94 15:100 16:100 
0.371713725697377 1:9 2:95 3:3 4:60 5:65 6:67 7:66 8:8 9:11 12:61 13:32 14:91 15:100 16:100 
0.2783963867485237 1:4 2:80 3:3 4:52 5:47 6:54 7:55 9:10 10:2 12:80 13:43 14:100 15:100 16:95 
1.245843809137267 1:15 2:96 3:3 4:61 5:57 6:49 7:42 9:10 10:13 12:66 13:44 14:95 15:100 16:100 
0.3308518575717599 1:51 2:100 3:35 4:74 5:10 6:49 8:22 9:54 10:12 11:100 12:32 13:90 14:25 15:69 
0.05555076157013911 1:19 2:100 3:16 4:55 5:10 6:96 7:16 8:48 9:24 10:2 13:50 14:11 15:100 16:16 
0.213952271884925 1:25 2:92 3:20 4:41 5:67 6:47 7:55 9:20 10:30 12:76 13:43 14:100 15:100 16:99 
0.2519138062059368 1:25 2:100 3:11 4:78 6:51 7:3 8:26 9:89 10:27 11:100 12:44 13:57 14:26 15:36 
0.07173529427999141 1:16 2:91 4:49 5:61 6:55 7:54 8:2 9:14 12:57 13:33 14:96 15:100 16:100 
0.1301402031294027 1:21 2:100 3:13 4:70 6:38 7:6 8:17 9:73 10:20 11:100 12:28 13:62 14:32 15:56 
1.572752560912059 1:55 2:100 3:16 4:79 6:39 7:5 9:61 10:1 11:100 12:31 13:67 14:61 15:5 16:67 
0.3611200220507376 1:65 2:100 3:46 4:91 5:2 6:58 8:31 9:66 10:31 11:100 12:60 13:49 14:39 15:20 
0.2281482937347382 1:100 2:96 3:42 4:100 5:8 6:76 8:43 9:55 10:42 11:92 12:20 13:62 15:6 16:8 
0.1800228147198986 1:50 2:100 3:63 4:96 5:30 6:65 8:36 9:13 10:8 11:85 12:22 13:100 14:30 15:80 
0.02251451669978015 1:77 2:99 4:73 5:100 6:100 7:12 8:84 9:6 10:48 11:12 13:99 14:39 15:16 16:51 
0.03702991553077661 1:100 2:100 3:65 4:94 5:34 6:83 7:27 8:50 9:67 10:40 11:76 12:12 13:40 16:7 
-0.07466730227845127 1:39 2:100 3:23 4:82 6:52 7:1 8:21 9:48 11:100 12:16 13:70 14:42 15:6 16:55 
-0.3744898462496734 1:38 2:76 3:58 4:100 5:21 6:65 8:27 9:44 11:100 12:22 13:45 14:36 15:22 16:8 
-1.463926505316543 1:52 2:100 3:18 4:76 6:46 7:9 8:17 9:61 10:19 11:100 12:38 13:54 14:22 15:18 
-0.4381514154115917 1:70 2:100 3:45 4:86 5:11 6:53 8:15 9:57 11:100 12:26 13:67 14:57 16:67 
-5.816037530051544 1:16 2:100 4:57 5:55 6:55 7:44 9:12 10:17 11:6 12:77 13:45 14:98 15:100 16:100 
-0.2620849954204201 1:53 2:100 3:36 4:91 5:15 6:55 7:10 8:17 9:61 11:100 12:21 13:59 14:50 16:61 
-0.1374789682876653 1:100 2:94 3:76 4:100 5:44 6:82 7:18 8:59 10:29 11:6 13:41 14:7 15:22 16:25 
-0.62404526503369 1:55 2:100 3:20 4:69 5:3 6:36 7:4 8:3 9:72 11:100 12:31 13:68 14:57 16:45 
-0.2772728975967673 1:42 2:100 3:15 4:73 6:45 7:4 8:17 9:51 11:100 12:16 13:92 14:43 15:34 16:39 
-0.3757597066902981 1:25 2:75 3:85 4:100 5:49 6:72 7:18 8:40 10:7 11:51 13:100 14:28 15:49 16:29 
-0.1992967806669447 1:25 2:90 3:42 4:100 5:15 6:63 8:26 9:42 11:100 12:3 13:80 14:28 15:59 16:6 
