svm_type c_svc
kernel_type polynomial
degree 3
gamma 0.0001
coef0 0
nr_class 2
total_sv 74
rho -5.99073
label 10 5
probA -2.12952
probB -0.390042
nr_sv 45 29
SV
0.5679475496895682 1:100 2:96 3:66 4:100 5:63 6:85 7:85 8:88 9:78 10:53 11:66 12:20 13:35 16:12 
0.5521260353577981 1:59 2:85 3:84 4:100 5:82 6:79 7:60 8:56 9:100 10:48 11:74 12:28 13:37 14:14 
2.125864633331542 1:58 2:94 3:84 4:100 5:82 6:74 7:46 8:57 9:92 10:42 11:100 12:14 13:52 16:1 
0.5945227955210879 1:75 2:86 3:100 4:100 5:95 6:78 7:65 8:57 9:90 10:36 11:81 12:10 13:42 
1.592003633936788 1:79 2:81 3:57 4:100 5:17 6:82 7:62 8:65 9:99 10:52 11:100 12:16 13:52 14:1 
0.3812426280949865 1:51 2:100 3:93 4:95 5:64 6:73 7:70 8:61 9:100 10:39 11:82 12:12 13:38 16:7 
0.1056337552504804 1:49 2:100 3:19 4:91 5:31 6:54 7:36 8:15 11:7 12:36 13:51 14:63 15:100 16:87 
0.157241255307857 1:100 2:100 3:56 4:100 5:19 6:75 8:43 9:12 10:10 11:62 13:68 14:14 15:15 16:12 
0.2100065866036752 1:57 2:87 3:100 4:69 5:97 6:100 7:23 8:83 9:74 10:59 11:96 12:52 13:78 14:10 
0.5250224670379667 1:99 2:74 3:100 4:100 5:45 6:90 7:44 8:65 9:100 10:66 11:92 12:35 13:57 14:8 
0.2047048133557517 1:100 2:94 3:53 4:80 5:68 6:39 7:68 11:17 12:36 13:62 14:69 15:88 16:100 
0.02646879267155588 1:40 2:98 3:51 4:100 6:61 7:11 8:16 9:93 11:100 12:37 13:18 14:51 15:24 16:19 
0.7130003128969892 1:30 2:97 3:82 4:100 5:65 6:67 7:19 8:87 9:81 10:83 11:100 12:39 13:68 16:16 
0.01931169835214414 2:3 3:28 5:62 6:18 7:87 8:43 9:100 10:71 11:89 12:100 13:54 14:98 15:78 16:80 
0.9471102561981235 1:47 2:80 3:71 4:100 5:100 6:89 7:38 8:72 9:44 10:48 11:91 12:23 13:45 16:10 
0.6749744154545626 1:69 2:98 3:53 4:83 5:85 6:98 7:46 8:100 9:81 10:65 11:100 12:27 13:42 14:11 
0.009880133320667303 1:22 2:100 3:66 4:50 5:100 6:94 7:45 8:95 9:5 10:41 11:58 13:78 14:42 16:46 
0.005486322213125159 1:25 2:46 3:100 4:31 5:80 8:9 9:38 10:45 11:89 12:78 13:54 14:100 15:20 16:68 
0.395906466645668 1:75 2:91 3:30 4:100 5:24 6:60 7:53 8:21 9:11 12:37 13:44 14:70 15:100 16:93 
0.07470816150386682 1:80 2:100 3:27 4:78 6:42 7:21 8:6 9:99 10:8 11:100 12:37 13:19 14:30 15:10 
0.5184004480741909 1:54 2:73 3:92 4:92 5:100 6:100 7:65 8:80 9:42 10:61 11:19 12:41 13:8 14:20 
1.145659671554722 1:48 2:74 3:88 4:95 5:100 6:100 7:78 8:75 9:66 10:49 11:64 12:23 13:32 16:1 
0.004821845319833981 1:75 2:100 3:61 4:79 5:100 6:96 7:57 8:96 9:65 10:66 11:82 12:36 13:51 14:10 
0.07465047674615516 1:55 2:90 3:44 4:56 5:29 6:13 9:28 10:38 11:64 12:69 13:100 14:100 15:63 16:99 
0.003476308667944829 1:60 2:56 3:56 4:100 6:79 7:46 8:38 9:100 11:45 12:1 13:39 14:48 15:91 16:86 
0.1121725252071856 1:94 2:100 3:35 4:94 5:3 6:58 8:21 9:74 10:14 11:100 12:43 13:21 14:34 15:19 
0.2323422144401832 1:100 2:76 3:73 4:100 5:18 6:95 7:11 8:66 9:66 10:65 11:74 12:48 13:49 14:16 
0.05899572367407464 1:59 2:78 3:60 4:100 5:7 6:94 8:65 9:53 10:57 11:100 12:42 13:80 14:14 15:32 
0.006118949620414758 1:97 2:100 3:54 4:83 6:48 7:3 8:10 9:84 11:100 12:39 13:14 14:51 15:8 16:18 
0.3630121819518152 1:15 2:94 3:58 4:100 5:100 6:70 7:71 8:34 9:31 11:14 12:30 14:57 15:91 16:57 
0.04320011664264371 1:100 2:89 3:58 4:100 5:29 6:72 7:70 8:75 9:79 10:49 11:87 12:8 13:43 16:8 
0.08691588821388206 1:12 2:74 3:66 4:73 5:100 6:100 7:39 8:96 10:68 11:62 12:70 13:49 14:40 15:27 
11.97596298575022 1:16 2:100 4:57 5:55 6:55 7:44 9:12 10:17 11:6 12:77 13:45 14:98 15:100 16:100 
0.253559531967689 2:74 3:82 4:79 5:100 6:100 7:19 8:92 9:7 10:73 11:88 12:77 13:54 14:39 15:18 
0.1694103312206815 1:21 2:85 3:92 4:100 5:100 6:99 7:71 8:79 9:46 10:59 11:21 12:39 14:19 15:4 
0.02566036568206755 1:18 2:73 3:100 4:80 5:95 6:100 7:10 8:80 10:54 11:92 12:68 13:92 14:40 15:58 
0.1224246409287467 1:5 2:87 3:50 4:100 5:100 6:98 7:73 8:75 9:36 10:56 11:65 12:36 13:44 14:15 
0.09104277546719584 1:27 2:76 3:74 4:75 5:100 6:100 7:30 8:97 10:75 11:56 12:55 13:81 14:28 15:68 
0.3286847987466269 1:47 2:100 3:3 4:99 5:14 6:80 7:43 8:82 9:72 10:50 11:100 12:17 13:58 16:12 
2.035796941162608 1:68 2:66 3:100 4:98 5:57 6:100 7:27 8:68 9:73 10:72 11:78 12:37 13:45 14:5 
0.03868912378397113 1:100 2:98 3:67 4:100 5:48 6:84 7:38 8:68 9:27 10:51 11:19 12:33 13:9 14:16 
0.441231937958715 1:36 2:90 3:77 4:100 5:100 6:88 7:66 8:68 9:47 10:49 11:73 12:27 13:42 14:6 
0.0003745628338878031 1:100 2:100 3:64 4:99 5:29 6:78 7:4 8:51 10:18 11:30 13:42 14:26 16:22 
0.2376560159609295 1:35 2:90 3:88 4:100 5:81 6:79 7:44 8:62 9:94 10:44 11:100 12:18 13:54 16:8 
0.6289007144976944 1:96 2:98 3:44 4:100 5:5 6:72 8:36 9:38 10:8 11:100 12:6 13:61 14:21 15:11 
-0.3829681493897963 1:100 2:81 3:83 4:96 5:26 6:100 8:88 9:16 10:54 11:69 12:40 13:87 14:6 15:34 
-3.434078683218982 1:17 2:100 3:8 4:53 5:61 6:47 7:42 9:3 10:17 12:80 13:44 14:96 15:100 16:94 
-1.272472573668671 1:13 2:98 4:74 5:51 6:57 7:32 9:2 10:22 11:4 12:85 13:41 14:100 15:100 16:100 
-2.336596813486724 1:22 2:100 4:55 5:40 6:59 7:53 8:2 9:19 11:20 12:66 13:41 14:99 15:100 16:98 
-1.251650732450226 1:24 2:88 4:46 5:54 6:45 7:20 9:24 10:55 11:38 12:95 13:51 14:94 15:100 16:100 
-0.5382848389104875 1:9 2:95 3:3 4:60 5:65 6:67 7:66 8:8 9:11 12:61 13:32 14:91 15:100 16:100 
-2.363292774129558 1:55 2:85 3:100 4:100 5:82 6:94 7:38 8:74 9:90 10:65 11:94 12:36 13:52 14:13 
-0.3227282770763901 1:100 2:90 3:75 4:100 5:42 6:81 7:63 8:51 9:97 10:29 11:85 12:4 13:42 16:4 
-0.3194772713041616 1:4 2:80 3:3 4:52 5:47 6:54 7:55 9:10 10:2 12:80 13:43 14:100 15:100 16:95 
-3.769196557162005 1:15 2:96 3:3 4:61 5:57 6:49 7:42 9:10 10:13 12:66 13:44 14:95 15:100 16:100 
-0.2845382872915723 1:100 2:90 3:68 4:100 5:38 6:74 7:28 8:38 9:68 10:43 11:76 12:15 13:39 16:8 
-2.729346908296672 1:79 2:90 3:61 4:100 5:26 6:73 7:44 8:60 9:97 10:50 11:100 12:17 13:51 16:8 
-0.5732637971128044 2:98 3:67 4:93 5:47 6:100 7:19 8:68 9:45 10:55 11:100 12:33 13:73 15:17 16:7 
-0.02852782864668333 1:25 2:92 3:20 4:41 5:67 6:47 7:55 9:20 10:30 12:76 13:43 14:100 15:100 16:99 
-0.06454871849247067 1:24 2:80 3:59 4:95 5:100 6:100 7:63 8:92 9:25 10:78 11:21 12:47 13:36 14:16 
-0.6071411854142674 1:43 2:87 3:100 4:100 5:96 6:93 7:47 8:72 9:53 10:48 11:91 12:34 13:58 14:2 
-2.804499523322502 1:68 2:82 3:100 4:100 5:99 6:91 7:68 8:75 9:95 10:48 11:80 12:21 13:41 14:7 
-0.01081533037129945 1:10 2:91 3:20 4:59 5:83 6:56 7:100 8:13 9:40 11:3 12:42 14:82 15:60 16:100 
-1.198816799520226 1:31 2:81 3:70 4:98 5:100 6:100 7:58 8:87 9:42 10:58 11:78 12:32 13:42 14:9 
-0.3438001934274924 1:21 2:80 3:60 4:95 5:100 6:100 7:55 8:87 9:37 10:52 11:76 12:28 13:46 14:2 
-0.457860345089094 1:57 2:96 4:87 5:46 6:65 7:63 8:15 9:7 11:3 12:39 13:43 14:84 15:100 16:100 
-0.7027647089536339 1:70 2:91 3:100 4:100 5:61 6:86 7:35 8:60 9:60 10:50 11:64 12:21 13:34 16:15 
-0.05156958179973298 1:97 2:94 3:58 4:100 5:30 6:76 7:67 8:58 9:100 10:35 11:84 12:4 13:37 16:15 
-1.145035803173634 1:72 2:94 3:25 4:100 5:26 6:71 7:25 8:36 9:72 10:44 11:100 12:18 13:55 16:2 
-0.04245824072581397 1:100 2:88 3:67 4:100 5:31 6:80 7:61 8:55 9:100 10:34 11:95 12:5 13:45 14:3 
-0.424660070040457 1:100 2:81 3:66 4:100 5:29 6:82 7:5 8:52 9:31 10:45 11:68 12:28 13:46 16:2 
-0.7654877446461666 1:54 2:87 3:72 4:100 5:100 6:100 7:69 8:100 9:42 10:84 11:44 12:45 13:28 14:10 
-0.3094923562459129 1:97 2:94 3:61 4:100 5:28 6:77 7:67 8:71 9:100 10:47 11:86 12:8 13:43 16:12 
-0.3469496954508358 1:37 2:100 3:14 4:55 5:84 6:61 7:100 8:20 9:38 11:2 12:43 14:83 15:72 16:87 
