svm_type c_svc
kernel_type polynomial
degree 7
gamma 1
coef0 0
nr_class 2
total_sv 21
rho 0.132888
label 4 0
probA -2.94119
probB 0.272268
nr_sv 11 10
SV
3.421603419537011e-34 1:63 2:100 3:40 4:73 5:70 6:63 7:100 8:77 9:79 10:74 11:55 12:48 13:29 14:23 
2.557028963254548e-34 1:56 2:100 3:17 4:77 6:46 7:45 8:27 9:100 10:42 11:83 12:53 13:38 14:28 15:6 
4.349702520131746e-34 1:23 2:100 3:14 4:76 5:11 6:41 7:94 8:35 9:100 10:51 11:52 12:71 13:24 14:35 
2.233480419234096e-33 1:100 2:100 3:56 4:66 6:37 7:8 8:34 9:83 10:43 11:86 12:71 13:57 14:35 15:24 
1.936814519433452e-33 1:18 2:61 3:37 4:100 5:17 6:65 8:33 9:61 10:39 11:100 12:55 13:66 14:37 15:37 
2.97305455050985e-34 1:36 2:100 3:13 4:75 5:57 6:65 7:100 8:78 9:63 10:85 11:41 12:57 13:18 14:29 
3.391581625119113e-34 1:53 2:100 4:75 5:7 6:43 7:100 8:52 9:50 10:76 11:16 12:91 13:14 14:44 15:28 
3.322491885815582e-33 1:59 2:100 3:9 4:64 6:23 7:61 8:17 9:100 10:28 11:73 12:82 13:57 14:60 15:50 
6.631068055053828e-33 1:21 2:100 3:13 4:70 6:38 7:6 8:17 9:73 10:20 11:100 12:28 13:62 14:32 15:56 
9.757561816959258e-34 1:22 2:100 4:54 5:18 6:10 7:100 8:14 9:94 10:56 11:63 12:100 13:59 14:50 15:60 
3.372976041426912e-33 1:16 2:96 4:59 5:34 6:22 7:100 8:30 9:74 10:77 11:49 12:100 13:46 14:50 15:40 
-2.539582502496087e-33 1:77 2:100 3:53 4:90 6:43 7:13 9:86 10:34 11:100 12:84 13:73 14:51 15:10 16:9 
-2.014209917241744e-33 1:45 2:100 3:12 4:82 6:41 7:17 8:4 9:62 11:100 12:21 13:96 14:60 15:54 16:66 
-1.410015848858533e-33 1:6 2:43 3:16 4:2 5:68 7:100 8:35 9:81 10:75 11:38 12:100 13:7 14:63 16:22 
-7.423837112939531e-33 1:32 2:84 4:55 5:18 6:1 7:76 9:100 10:52 11:71 12:100 13:34 14:61 15:43 16:5 
-3.563311819115575e-35 1:66 2:100 3:30 4:87 5:8 6:56 8:21 9:31 11:75 12:17 13:100 14:47 15:89 16:79 
-1.007435940950411e-33 1:95 2:31 3:44 4:2 6:26 7:11 8:69 9:60 10:100 11:100 12:73 13:84 14:30 15:40 
-6.694087678107599e-35 1:4 2:25 3:68 4:64 5:33 6:97 8:36 9:38 11:100 12:43 13:96 14:100 15:22 16:85 
-4.116763269024527e-34 1:66 2:98 3:55 4:70 5:98 6:68 7:100 8:100 9:57 10:92 11:33 12:62 13:16 14:31 
-4.792447710964056e-33 1:52 2:100 4:36 5:36 7:100 8:52 9:40 10:73 11:15 12:45 13:65 14:60 15:5 16:2 
-4.401048551899758e-34 1:70 2:100 3:2 4:50 5:15 6:1 7:100 8:36 9:70 10:79 11:36 12:56 13:67 14:51 
