svm_type c_svc
kernel_type polynomial
degree 7
gamma 1
coef0 0
nr_class 2
total_sv 27
rho 0.509729
label 9 3
probA -3.34522
probB -0.105659
nr_sv 13 14
SV
5.18138908218775e-34 1:84 2:52 3:98 4:96 5:64 6:100 7:73 8:62 9:100 10:55 11:83 12:9 13:42 16:4 
5.921360363937358e-33 1:7 2:100 4:73 5:57 6:81 7:49 8:80 9:76 10:52 11:100 12:23 13:65 15:1 16:2 
7.242930506073076e-34 1:8 2:64 3:65 4:74 5:100 6:100 7:43 8:93 10:66 11:57 12:72 13:48 14:42 15:27 
4.585664515100684e-34 1:74 2:98 3:43 4:100 5:69 6:89 7:90 8:82 9:100 10:38 11:84 12:3 13:41 16:8 
6.628362945044793e-34 1:44 2:68 3:79 4:100 5:26 6:93 7:59 8:67 9:100 10:71 11:95 12:25 13:56 16:12 
3.254764010912855e-33 1:14 2:76 3:57 4:100 5:63 6:55 7:13 8:72 9:71 10:86 11:100 12:37 13:52 16:21 
9.384290351292612e-35 3:46 4:16 5:85 6:41 7:100 8:72 9:73 10:100 11:18 12:95 13:19 14:66 15:76 16:55 
2.271971997144042e-34 3:33 4:12 5:66 6:35 7:90 8:61 9:100 10:89 11:57 12:100 13:25 14:79 15:58 16:60 
1.134566959563866e-33 1:59 2:78 3:60 4:100 5:7 6:94 8:65 9:53 10:57 11:100 12:42 13:80 14:14 15:32 
1.968627145547923e-33 1:50 2:85 3:3 4:100 5:4 6:78 7:63 8:68 9:100 10:61 11:80 12:19 13:32 16:7 
4.716384446348767e-34 1:45 2:100 3:4 4:91 5:40 6:77 7:51 8:76 9:72 10:49 11:100 12:22 13:69 16:3 
6.399854407251511e-34 1:81 2:100 3:39 4:94 5:69 6:77 7:63 8:73 9:86 10:41 11:100 12:9 13:52 16:2 
1.612122202145794e-36 3:32 4:13 5:77 6:36 7:100 8:65 9:92 10:94 11:32 12:100 13:7 14:75 15:66 16:63 
-8.219006219951305e-35 1:47 2:80 3:71 4:100 5:100 6:89 7:38 8:72 9:44 10:48 11:91 12:23 13:45 16:10 
-6.997166846676026e-34 1:49 2:95 3:82 4:100 5:68 6:68 7:73 8:66 9:100 10:41 11:74 12:12 13:29 16:21 
-7.587069157632981e-33 1:7 2:85 3:29 4:100 5:28 6:70 7:26 8:55 9:83 10:58 11:100 12:31 13:55 14:11 
-1.414345458275188e-34 2:66 3:3 4:93 5:52 6:100 7:100 8:91 9:84 10:65 11:45 12:46 13:27 14:21 15:65 
-2.992460690017691e-34 1:39 2:78 3:25 4:97 5:74 6:100 7:100 8:81 9:85 10:57 11:72 12:32 13:46 14:10 
-1.717068756596183e-34 2:75 3:28 4:92 5:64 6:100 7:93 8:91 9:93 10:62 11:100 12:35 13:78 14:13 15:46 
-6.427206671003072e-34 1:45 2:75 3:22 4:99 5:70 6:100 7:100 8:80 9:62 10:50 11:88 12:23 13:48 16:8 
-1.974193619461978e-34 1:34 2:99 3:14 4:98 5:68 6:100 7:84 8:68 9:70 10:43 11:100 12:11 13:53 16:8 
-3.187168221014222e-33 1:38 2:84 3:23 4:100 5:68 6:93 7:41 8:64 9:78 10:52 11:100 12:24 13:60 16:1 
-8.771870380165134e-34 1:61 2:100 3:100 4:84 5:84 6:62 7:37 8:53 9:71 10:39 11:87 12:15 13:47 16:4 
-5.108005012024904e-34 2:89 3:10 4:100 5:46 6:82 7:11 8:58 9:32 10:50 11:94 12:43 13:100 14:18 15:52 
-1.850670439974024e-34 2:65 3:2 4:94 5:58 6:100 7:98 8:88 9:72 10:59 11:100 12:28 13:69 14:5 15:24 
-7.587690424242522e-34 1:33 2:74 3:4 4:93 5:73 6:100 7:55 8:72 9:38 10:50 11:100 12:35 13:73 14:8 
-7.369340249017425e-34 1:30 2:85 3:68 4:100 5:54 6:78 7:60 8:65 9:100 10:46 11:85 12:15 13:38 16:16 
