svm_type c_svc
kernel_type polynomial
degree 7
gamma 1
coef0 0
nr_class 2
total_sv 27
rho -0.0453612
label 6 5
probA -3.16482
probB -0.175058
nr_sv 7 20
SV
1.893098268622071e-34 1:32 2:100 3:12 4:76 6:48 7:1 8:21 9:39 11:100 12:9 13:64 14:21 15:18 16:3 
5.301858766153612e-33 1:89 2:90 3:49 4:100 5:14 6:73 7:11 8:41 9:49 10:17 11:100 12:28 13:41 14:24 
4.154276405920829e-34 1:75 2:100 3:44 4:70 5:23 6:34 7:47 8:4 9:100 10:6 11:89 12:29 13:36 14:26 
1.541527744490055e-31 1:16 2:100 4:57 5:55 6:55 7:44 9:12 10:17 11:6 12:77 13:45 14:98 15:100 16:100 
2.647863955066097e-33 1:25 2:75 3:85 4:100 5:49 6:72 7:18 8:40 10:7 11:51 13:100 14:28 15:49 16:29 
2.472003201295052e-32 1:24 2:100 3:7 4:72 6:42 7:6 8:13 9:60 10:9 11:100 12:29 13:43 14:23 15:9 
7.370930787704818e-33 1:100 2:100 3:68 4:89 5:36 6:70 7:12 8:46 9:4 10:18 11:33 13:40 14:9 16:13 
-2.470299833513348e-32 1:14 2:100 3:1 4:54 5:51 6:47 7:36 10:14 11:6 12:71 13:42 14:93 15:100 16:97 
-6.831207471510098e-34 1:32 2:95 3:100 4:100 5:55 6:95 8:71 9:7 10:45 11:73 12:33 13:78 14:7 15:11 
-4.238409845334847e-34 1:8 2:95 3:8 4:58 5:61 6:47 7:54 9:20 10:21 12:68 13:37 14:100 15:100 16:100 
-3.199452653994883e-32 1:17 2:100 3:8 4:53 5:61 6:47 7:42 9:3 10:17 12:80 13:44 14:96 15:100 16:94 
-1.996827656995146e-32 1:13 2:98 4:74 5:51 6:57 7:32 9:2 10:22 11:4 12:85 13:41 14:100 15:100 16:100 
-2.331134504579133e-32 1:22 2:100 4:55 5:40 6:59 7:53 8:2 9:19 11:20 12:66 13:41 14:99 15:100 16:98 
-1.36107593844567e-33 1:7 2:91 3:57 4:100 5:8 6:96 8:54 9:57 10:50 11:100 12:21 13:46 15:1 16:14 
-8.733704524649113e-33 1:24 2:88 4:46 5:54 6:45 7:20 9:24 10:55 11:38 12:95 13:51 14:94 15:100 16:100 
-7.627007764488323e-33 1:9 2:95 3:3 4:60 5:65 6:67 7:66 8:8 9:11 12:61 13:32 14:91 15:100 16:100 
-1.978657658122275e-32 1:16 2:94 4:60 5:53 6:50 7:47 9:17 10:11 11:13 12:70 13:46 14:100 15:100 16:96 
-6.870982919587191e-33 1:4 2:80 3:3 4:52 5:47 6:54 7:55 9:10 10:2 12:80 13:43 14:100 15:100 16:95 
-2.678180919695284e-32 1:15 2:96 3:3 4:61 5:57 6:49 7:42 9:10 10:13 12:66 13:44 14:95 15:100 16:100 
-6.142363817305114e-33 1:25 2:92 3:20 4:41 5:67 6:47 7:55 9:20 10:30 12:76 13:43 14:100 15:100 16:99 
-4.741764761867005e-33 1:15 2:80 4:48 5:45 6:31 7:51 9:30 10:36 11:13 12:76 13:46 14:100 15:100 16:99 
-8.81301160007969e-34 1:16 2:91 4:49 5:61 6:55 7:54 8:2 9:14 12:57 13:33 14:96 15:100 16:100 
-4.790372545176182e-33 1:72 2:94 3:25 4:100 5:26 6:71 7:25 8:36 9:72 10:44 11:100 12:18 13:55 16:2 
-1.205597779944341e-33 1:100 2:96 3:42 4:100 5:8 6:76 8:43 9:55 10:42 11:92 12:20 13:62 15:6 16:8 
-1.031707959695277e-33 1:100 2:100 3:38 4:87 5:2 6:62 7:48 8:51 9:94 10:28 11:70 14:4 15:2 16:28 
-3.627375101191535e-33 1:100 2:81 3:66 4:100 5:29 6:82 7:5 8:52 9:31 10:45 11:68 12:28 13:46 16:2 
-1.324491652919278e-34 1:33 2:79 3:83 4:99 5:100 6:100 7:47 8:84 10:62 11:22 12:38 13:53 14:14 15:1 
