svm_type c_svc
kernel_type polynomial
degree 7
gamma 1
coef0 0
nr_class 2
total_sv 26
rho -0.430024
label 7 3
probA -3.15355
probB 0.00548568
nr_sv 17 9
SV
3.715507464268853e-33 2:96 3:45 4:100 5:100 6:99 7:79 8:83 9:60 10:63 11:45 12:42 13:36 14:21 15:33 
1.712043158904702e-33 2:91 3:19 4:97 5:69 6:100 7:100 8:85 9:84 10:62 11:59 12:41 13:33 14:21 15:7 
3.997100249846625e-33 2:74 3:13 4:100 5:55 6:100 7:100 8:98 9:79 10:80 11:59 12:55 13:45 14:28 15:42 
5.586794467922612e-35 2:89 3:44 4:100 5:91 6:89 7:77 8:53 9:63 10:17 11:83 13:100 14:15 15:50 16:20 
1.555672983940259e-34 2:72 3:32 4:91 5:77 6:100 7:100 8:88 9:87 10:45 11:75 13:61 14:15 15:89 16:34 
9.809329728350224e-33 2:94 3:32 4:100 5:77 6:98 7:100 8:81 9:83 10:60 11:60 12:40 13:38 14:20 15:22 
2.915728893404719e-33 2:86 3:35 4:97 5:100 6:100 7:73 8:67 9:48 10:34 11:21 13:18 14:5 15:56 16:24 
3.305540598482929e-34 2:83 3:28 4:100 5:85 6:88 7:74 8:43 9:43 11:8 13:38 14:20 15:100 16:25 
1.177985917410785e-33 1:26 2:97 3:29 4:100 5:75 6:99 7:100 8:83 9:82 10:61 11:56 12:39 13:27 14:20 
6.650550762404094e-33 1:1 2:87 3:38 4:100 5:49 6:63 7:34 8:22 9:16 12:29 13:49 14:24 15:100 16:22 
7.510340099161856e-34 2:79 3:24 4:100 5:62 6:84 7:66 8:53 9:56 10:22 11:43 13:49 14:24 15:100 16:22 
2.505473710883191e-34 1:22 2:94 4:92 5:27 6:100 7:100 8:99 9:68 10:51 11:48 13:24 14:24 15:94 16:36 
8.088821322142999e-34 1:34 2:77 3:77 4:100 5:100 6:74 7:75 8:43 9:40 10:16 14:24 15:79 16:26 
1.673958386277934e-33 2:92 3:33 4:99 5:84 6:100 7:100 8:92 9:67 10:71 11:45 12:47 13:30 14:21 15:27 
4.586608354009026e-33 2:100 3:46 4:96 5:91 6:94 7:100 8:82 9:72 10:59 11:53 12:33 13:49 14:5 15:66 
4.708507969373416e-34 1:2 2:63 4:92 5:39 6:96 7:83 8:100 9:100 10:87 11:81 12:59 13:68 14:30 15:60 
6.390977998389758e-33 2:96 3:47 4:100 5:71 6:70 7:67 8:35 9:58 11:100 12:1 13:74 14:17 15:19 16:18 
-1.728855812749458e-32 2:92 3:42 4:100 5:90 6:100 7:100 8:83 9:71 10:63 11:57 12:40 13:44 14:17 15:14 
-5.736879735583866e-33 1:7 2:90 3:55 4:100 5:93 6:82 7:79 8:54 9:41 10:31 12:10 13:40 15:100 
-2.813395030120552e-35 1:7 2:85 3:29 4:100 5:28 6:70 7:26 8:55 9:83 10:58 11:100 12:31 13:55 14:11 
-1.801510223218696e-33 2:81 3:20 4:100 5:64 6:100 7:100 8:85 9:72 10:60 11:35 12:42 13:46 14:21 15:79 
-9.097859881635508e-33 2:66 3:3 4:93 5:52 6:100 7:100 8:91 9:84 10:65 11:45 12:46 13:27 14:21 15:65 
-8.486541902090202e-33 2:98 3:34 4:100 5:53 6:78 7:47 8:47 9:72 10:26 11:100 12:8 13:68 15:36 16:8 
-1.428101152758764e-33 1:2 2:79 3:48 4:100 5:77 6:83 7:60 8:53 9:100 10:28 11:83 13:23 14:1 16:30 
-8.278278292332776e-34 1:49 2:100 3:79 4:95 5:61 6:63 7:67 8:47 9:100 10:27 11:73 12:4 13:31 16:13 
-7.576817240283005e-34 2:89 3:10 4:100 5:46 6:82 7:11 8:58 9:32 10:50 11:94 12:43 13:100 14:18 15:52 
