svm_type c_svc
kernel_type polynomial
degree 3
gamma 0.0001
coef0 0
nr_class 2
total_sv 42
rho -1.29868
label 10 0
probA -2.97548
probB -0.155732
nr_sv 28 14
SV
0.1639353607319546 1:55 2:76 3:22 4:68 5:66 6:29 7:39 9:52 10:32 11:100 12:68 13:69 14:100 16:86 
0.07689768616660121 1:100 2:97 3:40 4:100 6:65 7:35 8:27 9:39 11:40 12:38 13:87 14:73 15:87 16:100 
0.02407215175444443 1:19 2:78 3:29 4:36 5:13 7:8 8:27 9:58 10:49 11:100 12:79 13:55 14:100 16:88 
0.4056377216540221 1:64 2:100 3:21 4:74 6:38 7:17 8:3 9:72 11:100 12:31 13:59 14:51 15:6 16:39 
0.01487826083441498 1:32 2:52 3:22 5:100 6:2 7:78 8:63 9:35 10:37 11:14 12:100 13:71 14:92 16:73 
0.008682673458529985 1:34 2:100 3:32 4:100 5:8 6:64 8:27 9:41 11:100 12:10 13:76 14:42 15:19 16:60 
0.004476088913198797 1:60 2:59 3:98 4:26 5:48 7:25 8:19 9:77 10:49 11:100 12:85 13:43 14:100 16:70 
0.01669590520086059 2:24 3:43 4:47 5:75 6:73 7:100 8:100 9:71 10:82 11:43 12:55 13:18 14:28 15:3 
0.006774013452530117 2:3 3:28 5:62 6:18 7:87 8:43 9:100 10:71 11:89 12:100 13:54 14:98 15:78 16:80 
0.0003456568156871679 1:60 2:100 3:14 4:67 5:100 6:55 7:80 8:98 9:39 10:56 12:13 13:80 15:50 16:45 
0.007867457260408281 1:26 2:25 3:23 4:41 5:62 6:71 7:100 8:100 9:88 10:93 11:55 12:62 13:24 14:31 
0.03506273170859614 1:65 2:100 3:19 4:69 5:22 6:53 7:95 8:56 9:100 10:72 11:48 12:94 13:26 14:46 
0.1070305421355192 1:54 2:77 3:30 4:37 7:13 8:25 9:55 10:54 11:100 12:80 13:89 14:100 15:37 16:86 
0.02529419617617869 1:59 2:100 3:28 4:71 5:26 6:20 9:28 10:40 11:72 12:67 13:100 14:99 15:49 16:99 
0.1213144880921042 1:51 2:91 3:5 4:86 6:43 7:22 9:8 10:24 11:50 12:61 13:100 14:93 15:45 16:100 
0.02938501349203286 1:100 2:80 3:60 4:62 6:48 7:26 8:79 9:81 10:100 11:90 12:67 13:59 14:32 15:30 
0.6471065627076232 1:70 2:100 3:45 4:86 5:11 6:53 8:15 9:57 11:100 12:26 13:67 14:57 16:67 
0.005855808595284342 1:35 2:74 3:71 4:42 5:100 6:9 7:62 9:76 10:38 11:89 12:76 13:48 14:100 16:82 
0.09184555213064563 3:35 4:8 5:69 6:31 7:93 8:62 9:100 10:100 11:69 12:100 13:57 14:64 15:64 16:26 
0.05562540186061762 1:22 2:100 4:54 5:18 6:10 7:100 8:14 9:94 10:56 11:63 12:100 13:59 14:50 15:60 
0.01705041705797695 1:21 2:64 3:55 4:29 5:7 8:32 9:55 10:65 11:100 12:100 13:20 14:93 15:12 16:57 
0.1098534416105869 1:16 2:96 4:59 5:34 6:22 7:100 8:30 9:74 10:77 11:49 12:100 13:46 14:50 15:40 
0.8660127783478442 1:55 2:100 3:20 4:69 5:3 6:36 7:4 8:3 9:72 11:100 12:31 13:68 14:57 16:45 
0.003284636759956013 3:32 4:13 5:77 6:36 7:100 8:65 9:92 10:94 11:32 12:100 13:7 14:75 15:66 16:63 
0.001845065592691772 1:18 2:95 3:14 4:65 5:77 6:57 7:100 8:13 9:49 11:12 12:43 14:88 15:62 16:100 
0.02316239865826415 1:40 2:100 4:58 5:20 6:16 7:92 8:10 9:100 10:49 11:77 12:100 13:66 14:54 15:62 
0.02008666870807323 1:88 2:63 3:87 4:100 5:7 6:94 8:59 9:73 10:76 11:100 12:77 13:85 14:39 15:80 
0.004182503098371889 1:78 2:96 3:9 4:75 5:100 6:66 7:82 8:100 9:17 10:54 13:81 14:18 15:24 16:61 
-0.2365553092645477 1:77 2:100 3:53 4:90 6:43 7:13 9:86 10:34 11:100 12:84 13:73 14:51 15:10 16:9 
-0.09716624003213868 1:94 2:95 3:56 4:100 5:23 6:67 8:29 9:19 11:69 12:16 13:100 14:50 15:89 16:90 
-0.06119139243270836 1:32 2:84 4:55 5:18 6:1 7:76 9:100 10:52 11:71 12:100 13:34 14:61 15:43 16:5 
-0.09284650850291719 2:52 3:23 5:79 6:5 7:100 8:58 9:59 10:60 11:74 12:64 13:79 14:100 15:27 16:74 
-0.1956637025547971 2:47 3:5 4:25 5:52 7:93 8:30 9:100 10:75 11:62 12:100 13:30 14:63 15:42 16:22 
-0.0277816994339664 1:66 2:100 3:30 4:87 5:8 6:56 8:21 9:31 11:75 12:17 13:100 14:47 15:89 16:79 
-0.08232933988969918 1:95 2:31 3:44 4:2 6:26 7:11 8:69 9:60 10:100 11:100 12:73 13:84 14:30 15:40 
-1.573680430899534 1:55 2:100 3:16 4:79 6:39 7:5 9:61 10:1 11:100 12:31 13:67 14:61 15:5 16:67 
-0.0959517680787229 1:4 2:25 3:68 4:64 5:33 6:97 8:36 9:38 11:100 12:43 13:96 14:100 15:22 16:85 
-0.05531645472465548 1:66 2:98 3:55 4:70 5:98 6:68 7:100 8:100 9:57 10:92 11:33 12:62 13:16 14:31 
-0.00637514203182736 1:52 2:100 4:36 5:36 7:100 8:52 9:40 10:73 11:15 12:45 13:65 14:60 15:5 16:2 
-0.02784847724343734 1:34 2:100 4:77 5:11 6:25 7:56 9:100 10:17 11:99 12:69 13:52 14:83 15:34 16:45 
-0.09599765936458972 1:49 2:100 4:30 5:39 7:100 8:59 9:49 10:79 11:19 12:44 13:85 14:80 15:23 16:21 
-0.245557058521478 1:100 2:100 3:53 4:77 5:20 6:40 7:13 9:65 10:15 11:94 12:51 13:56 14:78 16:78 
