svm_type c_svc
kernel_type polynomial
degree 3
gamma 0.0625
coef0 0
nr_class 10
total_sv 525
rho -0.0677609 0.467088 -0.758553 0.434021 -0.741708 -2.09055 -1.93022 -1.13963 -1.41582 2.29825 -0.923415 0.103658 -0.187909 -0.00181817 0.016517 -0.889913 2.03087 -0.957373 -0.830916 -0.856558 -3.19792 -1.80436 -4.68691 -3.41777 3.14507 0.869313 0.0776396 -2.94362 -0.663525 -1.46579 -2.42264 2.90323 -1.43496 -0.920949 -1.58076 0.452856 -1.72876 0.0735068 -0.303105 2.10748 -0.0601707 1.29457 -1.72466 0.608404 3.08033
label 8 2 1 4 6 0 5 9 7 3
probA -4.23561 -3.7706 -4.12475 -3.60795 -3.65611 -3.59395 -3.81622 -3.00592 -3.66426 -2.80052 -2.86114 -4.02899 -4.34034 -4.8561 -4.14581 -2.74475 -1.3849 -3.24404 -2.79933 -3.78143 -3.3718 -3.11691 -2.68033 -2.35193 -2.50761 -2.75082 -3.72984 -2.90222 -3.08669 -2.91256 -2.14624 -3.00494 -4.0761 -3.51642 -3.87245 -4.59458 -3.77936 -3.90681 -4.35214 -2.64526 -4.08122 -2.91594 -3.30222 -3.10918 -2.25264
probB 0.130376 0.224231 -0.162497 -0.0156159 0.849279 0.108704 -0.166518 -0.203449 0.352401 0.157882 -0.209194 0.0530507 -0.313088 0.16578 -0.389068 -0.332517 -0.143522 -0.216159 0.245382 0.0259022 0.295434 -0.0647902 -0.348639 0.246326 0.45696 0.0971365 0.48982 0.156977 -0.270699 0.330326 0.344485 0.208364 -0.417421 -0.559024 -0.274157 -0.26052 -0.349698 -0.511557 -0.4117 -0.00997017 -0.235787 -0.120987 0.00317926 -0.0545778 -0.0818062
nr_sv 72 50 71 39 36 31 66 68 50 42
SV
1.529689215333623e-11 7.328706136395784e-11 4.853944350584042e-11 0 0 0 7.70111638606784e-11 0 7.264277790810157e-11 1:100 2:100 3:14 4:90 5:74 6:55 7:79 8:97 9:37 10:62 12:39 13:36 15:39 16:44 
0 0 0 0 0 2.535954695927626e-10 0 0 0 1:76 2:85 4:100 5:16 6:63 7:81 8:31 9:69 11:6 12:25 13:34 14:64 15:100 16:95 
0 0 0 0 0 0 0 2.69331357083419e-10 0 2:78 3:40 4:100 5:97 6:78 7:69 8:39 9:44 11:100 12:7 13:35 14:37 15:22 16:73 
0 0 0 0 2.408667273079577e-10 0 0 0 0 1:55 2:76 3:22 4:68 5:66 6:29 7:39 9:52 10:32 11:100 12:68 13:69 14:100 16:86 
0 0 0 0 2.199634548989168e-10 0 0 0 0 1:100 2:97 3:40 4:100 6:65 7:35 8:27 9:39 11:40 12:38 13:87 14:73 15:87 16:100 
0 0 0 0 1.977211240318737e-11 0 0 0 0 2:82 3:37 4:62 5:83 6:30 7:65 9:46 10:32 11:81 12:66 13:100 14:100 15:23 16:90 
0 0 0 0 0 0 0 7.627512813658348e-11 0 1:3 2:57 3:83 4:70 5:100 6:100 7:6 8:85 9:20 10:52 11:71 12:20 15:37 16:32 
0 0 0 0 0 0 1.495788116617853e-12 0 0 1:38 2:73 3:84 4:41 5:100 7:53 8:7 9:73 10:49 11:98 12:90 13:54 14:100 16:75 
0 1.090960110892207e-10 0 0 2.034554490223862e-11 0 0 0 0 1:28 2:6 3:64 4:48 5:100 6:91 7:53 8:100 9:22 10:59 11:80 12:31 13:66 16:2 
0 0 5.213542873948024e-11 3.790849555663747e-10 1.649308730664068e-10 0 0 0 0 1:37 2:71 3:79 4:71 5:49 6:100 8:45 9:25 10:36 11:66 13:100 14:51 15:10 16:26 
0 4.550346907046486e-11 0 0 0 0 0 0 0 1:66 2:90 3:6 4:55 5:100 6:73 7:45 8:100 9:33 10:46 13:89 14:11 15:13 16:23 
0 0 0 0 1.346668337683805e-11 0 6.493678838984887e-12 0 0 1:32 2:52 3:22 5:100 6:2 7:78 8:63 9:35 10:37 11:14 12:100 13:71 14:92 16:73 
0 0 0 8.369371061127102e-11 0 0 0 0 0 1:34 2:71 3:16 4:65 5:17 6:23 9:1 10:42 11:44 12:75 13:100 14:100 15:46 16:91 
0 0 0 9.329521580592999e-11 0 0 0 0 0 1:100 2:94 3:40 4:100 6:68 7:43 8:35 9:92 10:5 11:23 13:3 14:34 15:46 16:68 
0 0 0 3.725308176116355e-10 0 0 0 3.401675073105951e-10 0 1:49 2:100 3:19 4:91 5:31 6:54 7:36 8:15 11:7 12:36 13:51 14:63 15:100 16:87 
0 0 0 0 1.002435193557445e-10 0 0 0 0 1:60 2:59 3:98 4:26 5:48 7:25 8:19 9:77 10:49 11:100 12:85 13:43 14:100 16:70 
0 0 0 0 0 2.946115966721346e-11 0 0 0 1:54 2:64 3:30 4:96 5:15 6:61 7:69 8:27 9:52 12:30 13:48 14:66 15:100 16:100 
0 0 0 0 0 0 0 2.23701515498354e-11 0 1:29 2:95 3:93 4:67 5:84 6:100 7:10 8:68 10:18 11:74 13:100 14:44 15:17 16:44 
0 0 0 1.61955806979047e-10 0 0 0 0 0 1:62 2:100 3:100 4:98 5:77 6:61 7:45 8:28 9:39 11:79 12:25 13:50 14:57 16:72 
0 0 0 0 0 5.977920106061829e-10 0 0 0 1:70 2:92 4:83 5:57 6:49 7:100 8:13 9:16 11:5 12:37 13:48 14:74 15:64 16:100 
0 0 0 0 0 2.429647358917156e-11 2.956490987770315e-11 0 0 1:22 2:100 3:66 4:50 5:100 6:94 7:45 8:95 9:5 10:41 11:58 13:78 14:42 16:46 
0 0 0 3.566757041712631e-11 1.466566747921883e-11 0 0 0 0 1:36 2:53 3:100 4:82 5:55 6:100 7:2 8:69 9:36 10:34 11:74 14:14 15:62 16:44 
0 0 0 0 0 0 2.144441769816362e-10 0 0 2:26 3:57 4:56 5:98 6:94 7:31 8:100 9:45 10:63 11:100 12:31 13:78 15:9 16:16 
6.147339000997267e-11 0 0 0 0 0 0 2.047699151195743e-11 0 1:60 2:100 3:14 4:67 5:100 6:55 7:80 8:98 9:39 10:56 12:13 13:80 15:50 16:45 
1.139041588535029e-11 0 0 6.543846119061763e-11 0 0 0 7.3477036623195e-11 0 1:27 2:100 4:74 5:60 6:43 7:100 8:3 9:34 11:29 12:44 13:74 14:81 15:10 16:58 
0 0 0 1.208288599168708e-11 0 0 0 0 0 1:48 2:97 3:7 4:76 5:22 6:35 9:5 10:31 11:49 12:65 13:100 14:95 15:52 16:100 
0 0 9.776953976409059e-12 0 0 0 1.401732817237343e-11 3.013881906785251e-11 0 1:35 2:100 4:88 5:58 6:44 7:55 9:30 10:39 11:100 12:73 13:94 14:97 15:28 16:84 
0 0 0 0 0 0 1.597727303503345e-11 0 0 1:66 2:93 3:50 4:56 5:80 6:100 8:55 9:17 10:35 11:59 13:100 14:52 16:29 
0 0 9.10974615941956e-12 0 3.148345654851925e-13 0 2.814774937635848e-11 2.055570150387541e-10 1.857767515876408e-11 1:54 2:85 3:94 4:100 5:96 6:61 7:79 8:22 9:84 11:100 12:32 13:53 14:52 16:58 
0 0 0 0 0 3.692123052128622e-11 0 0 0 1:22 2:93 4:70 5:69 6:37 7:100 9:15 10:20 11:51 12:60 13:77 14:94 15:42 16:100 
0 0 0 0 0 0 4.37698633274318e-12 0 0 1:55 2:65 3:100 4:87 5:61 6:100 7:53 8:66 9:71 10:29 11:40 14:21 15:39 16:47 
0 1.499905671183645e-10 0 0 0 0 0 0 0 1:59 2:72 3:36 4:100 6:72 7:23 8:36 9:52 12:1 13:44 14:27 15:100 16:55 
0 0 0 0 0 3.774497253565633e-11 0 0 0 1:35 2:90 3:24 4:61 5:100 6:100 7:12 8:84 10:29 11:49 13:96 14:57 15:7 16:28 
0 0 0 0 0 0 0 0 9.594146702485696e-12 2:30 3:46 4:60 5:59 6:100 7:21 8:81 9:67 10:50 11:100 12:16 13:38 15:7 16:28 
0 0 0 2.876201270223977e-11 0 0 0 0 0 1:50 2:83 3:26 4:62 5:58 6:100 7:14 8:60 9:2 10:30 11:50 13:100 14:51 16:34 
0 0 0 0 0 0 0 2.802400548841973e-10 0 1:44 2:73 3:77 4:100 5:100 6:68 7:78 8:28 9:68 11:100 12:33 13:56 14:51 16:53 
3.069104321019406e-11 2.803691804803687e-10 1.010877080892587e-10 0 5.636445217051305e-11 0 0 2.570286128391608e-11 0 2:20 3:38 4:56 5:46 6:100 7:6 8:81 9:58 10:56 11:100 12:24 13:50 15:7 16:15 
0 0 3.439355195824163e-11 0 0 0 0 0 0 1:70 2:81 3:25 4:100 6:74 7:42 8:40 9:77 10:5 11:40 13:53 14:40 15:100 16:70 
3.394637341480552e-11 1.752666455078712e-10 0 0 0 0 0 5.514168874043936e-10 2.433463935368804e-10 1:2 2:77 3:54 4:100 5:100 6:79 7:86 8:47 9:59 10:16 11:63 13:73 14:27 16:43 
0 1.780796989707607e-11 1.328442997453898e-11 2.991844127130006e-11 8.766922151278404e-11 0 0 0 0 1:20 2:60 4:83 5:15 6:39 7:100 8:9 9:30 11:47 12:54 13:67 14:100 15:2 16:59 
0 0 0 0 0 3.236215295525683e-12 0 0 0 1:55 2:90 3:44 4:56 5:29 6:13 9:28 10:38 11:64 12:69 13:100 14:100 15:63 16:99 
0 0 0 0 7.497352386838376e-10 6.095909128851088e-11 0 0 0 1:54 2:77 3:30 4:37 7:13 8:25 9:55 10:54 11:100 12:80 13:89 14:100 15:37 16:86 
1.731150321320789e-10 1.627190739647856e-10 0 0 0 0 0 1.177538933657051e-11 0 1:59 2:61 3:91 4:100 5:37 6:92 7:36 8:46 9:45 12:6 13:35 14:36 15:100 16:38 
0 0 0 0 6.63592241542474e-11 0 0 0 0 1:60 2:56 3:56 4:100 6:79 7:46 8:38 9:100 11:45 12:1 13:39 14:48 15:91 16:86 
0 0 0 0 0 0 0 3.98976358831053e-11 0 1:17 2:97 3:25 4:59 5:85 6:100 8:82 9:27 10:51 11:23 13:100 14:36 15:19 16:33 
0 0 0 0 0 0 0 5.282649812953752e-11 0 1:31 2:100 4:82 5:47 6:46 7:97 8:12 9:44 11:31 12:33 13:95 14:61 15:100 16:91 
0 0 0 2.838506724094456e-11 0 0 0 1.303312394258414e-10 0 1:72 2:100 3:3 4:76 5:100 6:63 7:49 8:99 9:29 10:45 12:28 13:53 15:33 16:48 
0 2.330217503743662e-10 0 0 0 0 0 0 1.705995780669835e-10 1:53 2:61 3:100 4:73 5:92 6:100 7:55 8:72 9:58 10:36 11:51 12:1 15:29 16:31 
0 0 0 2.868790454249307e-11 0 0 0 0 0 2:77 3:50 4:100 5:100 6:72 7:40 8:39 9:13 11:74 12:1 13:23 14:38 15:12 16:77 
0 0 0 0 0 0 2.163770034965417e-12 0 0 1:76 2:56 3:75 4:100 6:90 7:35 8:53 9:95 10:21 11:47 13:57 14:44 15:100 16:85 
0 0 0 0 4.659986647444309e-12 0 0 0 0 1:35 2:74 3:71 4:42 5:100 6:9 7:62 9:76 10:38 11:89 12:76 13:48 14:100 16:82 
0 0 0 0 0 3.510604728649876e-10 0 0 0 1:59 2:99 3:8 4:100 5:24 6:58 7:81 8:28 9:57 12:25 13:39 14:64 15:100 16:93 
1.060992255830059e-10 0 0 0 0 0 0 0 0 1:27 2:50 3:79 4:68 5:100 6:100 7:46 8:85 9:42 10:42 11:51 12:1 15:35 16:33 
0 0 0 0 0 1.099172557443767e-10 0 0 0 2:39 3:62 4:67 5:86 6:100 7:6 8:87 9:38 10:54 11:100 12:26 13:72 15:1 16:17 
0 0 0 0 0 0 1.82004887555865e-11 0 0 2:18 3:39 4:59 5:82 6:100 7:34 8:100 9:34 10:62 11:100 12:36 13:68 15:14 16:19 
0 0 0 0 0 0 0 5.838409355466694e-11 0 1:49 2:100 3:57 4:55 5:40 6:9 9:44 10:40 11:100 12:77 13:77 14:100 15:14 16:69 
0 0 0 2.70680187532703e-11 0 0 0 0 0 1:91 2:67 3:83 4:100 5:25 6:86 7:24 8:43 9:41 12:6 13:36 14:33 15:100 16:36 
0 0 0 0 0 0 0 2.068720249964835e-10 0 1:5 2:92 3:82 4:100 5:100 6:67 7:57 8:32 9:12 11:80 12:11 13:70 14:46 16:66 
0 0 5.420666941239084e-11 0 0 0 7.116547995827475e-11 0 0 1:14 2:70 3:58 4:36 5:28 8:30 9:48 10:66 11:100 12:100 13:46 14:95 15:22 16:55 
0 0 0 0 0 1.114996098736173e-10 0 0 0 1:55 2:95 4:100 5:26 6:67 7:64 8:33 9:50 11:16 12:29 13:47 14:63 15:100 16:90 
1.522666595527756e-12 2.922523484837789e-11 0 6.338181337738346e-11 0 0 0 0 0 1:21 2:64 3:55 4:29 5:7 8:32 9:55 10:65 11:100 12:100 13:20 14:93 15:12 16:57 
0 0 0 0 0 0 0 2.283673984164102e-10 0 1:1 2:74 3:23 4:100 5:83 6:87 7:75 8:42 9:49 11:100 12:2 13:55 14:34 16:64 
5.082755661875255e-11 0 2.198089074265441e-11 7.491863343115775e-11 0 0 0 0 0 1:49 2:82 3:6 4:100 6:65 7:19 8:27 9:15 11:8 12:38 13:48 14:62 15:100 16:68 
1.158768101806067e-11 0 0 6.136732325476571e-11 0 1.659705902537508e-10 0 0 0 2:79 3:25 4:50 5:98 6:25 7:71 9:10 10:16 11:50 12:47 13:100 14:76 15:83 16:100 
0 0 0 0 0 1.683008472526317e-09 0 0 0 1:67 2:100 3:10 4:92 5:29 6:53 7:50 8:14 9:1 12:37 13:45 14:67 15:100 16:87 
0 0 7.703630053215159e-12 0 1.740385339556255e-10 0 0 0 0 1:29 2:100 4:75 5:53 6:54 7:100 8:30 9:78 11:56 12:25 13:66 14:63 15:15 16:71 
0 0 0 0 0 3.005000080090787e-10 2.841191803624191e-11 0 0 1:23 2:49 3:81 4:69 5:100 6:100 7:35 8:87 9:33 10:53 11:68 12:21 13:13 16:28 
0 0 0 0 0 0 0 0 1.254419534891901e-10 1:6 2:36 3:60 4:64 5:74 6:100 7:19 8:83 9:62 10:51 11:100 12:18 13:40 16:28 
0 0 0 0 0 0 9.673814427046979e-11 0 0 1:11 2:17 3:54 4:54 5:99 6:92 7:42 8:100 9:31 10:64 11:100 12:35 13:75 16:13 
5.097156339297694e-12 0 0 0 0 0 0 0 0 1:5 2:76 3:29 4:100 5:100 6:81 7:55 8:39 11:61 12:3 13:15 14:44 15:21 16:83 
2.976579532435015e-11 0 0 0 0 0 0 5.459321663883346e-10 0 1:45 2:71 3:63 4:100 5:20 6:78 7:44 8:39 9:51 12:11 13:40 14:40 15:100 16:52 
0 0 0 0 0 2.945687878039818e-11 0 0 0 1:32 2:68 4:100 5:38 6:71 7:100 8:37 9:75 11:13 12:18 13:35 14:59 15:90 16:95 
-5.048440213582687e-11 0 0 1.837910152025699e-10 4.042238083136424e-11 9.616626488246053e-11 0 0 0 1:3 2:66 3:16 4:100 5:27 6:69 7:14 8:32 11:33 12:5 13:67 14:10 15:100 16:11 
-0 0 0 6.881454808143079e-11 0 0 1.290052349326074e-11 0 0 1:37 2:100 3:57 4:91 5:47 6:50 7:22 8:20 10:17 11:33 12:17 13:66 14:4 15:100 
-2.356488174967281e-11 4.127724865172048e-09 7.084970739682832e-11 0 2.184319158101392e-11 5.337552822469914e-11 1.641076207537324e-10 3.027601233621837e-09 1.840722780584154e-09 2:79 3:31 4:94 5:68 6:100 7:100 8:88 9:94 10:62 11:74 12:39 13:51 14:18 15:64 
-0 0 0 0 0 0 0 0 4.746012606551248e-09 2:99 3:50 4:100 5:77 6:77 7:59 8:50 9:29 10:26 12:2 13:48 15:100 16:4 
-0 0 0 0 0 0 0 3.441128129535838e-11 0 2:63 3:23 4:100 5:56 6:78 7:48 8:34 9:19 11:11 12:13 13:55 14:23 15:100 16:11 
-0 0 0 0 0 0 0 0 1.238281558726226e-10 1:53 2:81 3:86 4:100 5:98 6:69 7:83 8:37 9:52 10:9 12:3 13:47 15:100 16:2 
-0 0 0 0 0 0 0 6.878248022892862e-11 2.265087467424434e-09 1:46 2:95 4:94 5:18 6:100 7:94 8:92 9:59 10:61 11:4 12:32 13:49 14:7 15:100 
-0 0 0 0 0 0 0 0 7.176377513238404e-09 2:79 3:35 4:100 5:87 6:99 7:100 8:71 9:63 10:46 11:23 12:24 13:46 14:4 15:98 
-0 2.645998695525815e-09 0 0 0 0 0 0 0 1:16 2:37 3:8 4:82 5:49 6:100 7:55 8:56 9:26 10:17 13:50 14:3 15:100 16:3 
-9.121487996255834e-11 0 0 0 0 0 0 0 0 2:70 3:11 4:100 5:34 6:88 7:26 8:55 9:15 10:23 11:28 13:66 14:7 15:100 16:19 
-0 0 0 1.801540169463069e-12 0 0 0 0 0 1:54 2:69 3:78 4:100 5:70 6:55 7:39 8:18 11:16 12:23 13:58 14:18 15:100 16:10 
-0 0 0 0 0 2.730989979470699e-11 0 0 0 1:40 2:80 3:63 4:100 5:100 6:91 7:84 8:67 9:52 10:46 11:18 12:28 14:6 15:47 
-0 6.835784491772848e-09 0 0 0 0 0 0 0 1:5 2:68 3:22 4:100 5:47 6:75 7:35 8:35 9:8 10:1 12:2 13:50 14:4 15:100 
-0 0 1.969274201526467e-10 0 0 0 0 0 0 2:80 3:17 4:100 5:41 6:99 7:60 8:83 9:53 10:52 11:56 12:20 13:77 14:7 15:100 
-0 0 0 0 0 0 0 1.757117250170465e-10 0 1:6 2:89 3:52 4:100 5:100 6:91 7:93 8:65 9:62 10:43 11:25 12:23 14:2 15:55 
-0 0 0 0 0 0 0 0 5.645909124847264e-10 1:19 2:88 3:53 4:100 5:92 6:84 7:71 8:53 9:36 10:29 12:5 13:48 14:1 15:100 
-0 2.876192780796044e-09 0 0 4.691188536315149e-11 0 0 0 0 2:72 3:19 4:100 5:27 6:60 7:10 8:21 9:2 10:1 11:35 13:68 14:1 15:100 16:8 
-0 0 0 0 0 0 0 0 1.909765284820655e-09 1:12 2:96 3:60 4:100 5:96 6:81 7:60 8:55 9:16 10:33 12:8 13:55 14:2 15:100 
-0 0 0 0 0 0 0 0 4.77652346210677e-10 1:32 2:63 3:52 4:100 5:86 6:69 7:70 8:24 9:24 12:4 13:53 14:2 15:100 16:1 
-0 0 0 0 0 0 0 0 3.876161610897893e-09 2:83 3:30 4:100 5:78 6:96 7:100 8:74 9:70 10:51 11:37 12:30 13:35 14:7 15:83 
-0 0 8.345327356058815e-11 0 0 0 0 0 0 2:95 3:27 4:100 5:32 6:63 7:15 8:31 9:11 10:10 11:41 12:7 13:70 14:3 15:100 
-0 2.184553614043023e-09 0 0 0 0 0 0 0 2:79 3:28 4:100 5:54 6:90 7:46 8:62 9:28 10:36 11:18 12:9 13:52 15:100 16:5 
-0 1.836124546515933e-09 4.709139630964973e-10 0 0 0 2.388935117158687e-11 0 0 2:80 3:22 4:100 5:24 6:66 7:7 8:34 10:14 11:34 12:9 13:69 14:4 15:100 
-0 0 0 0 0 0 0 0 6.807556756580244e-08 1:8 2:91 3:63 4:100 5:100 6:82 7:79 8:55 9:42 10:31 12:11 13:37 14:1 15:100 
-0 0 0 0 0 0 0 2.523623749112227e-10 0 2:78 3:16 4:100 5:51 6:74 7:42 8:37 9:10 10:8 11:21 12:18 13:65 15:100 16:19 
-0 0 0 0 0 0 0 0 7.385090539660607e-09 1:2 2:81 3:28 4:100 5:68 6:83 7:67 8:49 9:37 10:23 12:1 13:48 15:100 16:1 
-0 0 0 0 4.76671535133307e-12 0 1.659798146502189e-11 0 0 1:30 2:59 3:46 4:100 5:49 6:47 7:27 8:5 10:7 11:33 12:16 13:66 15:100 16:4 
-0 0 0 0 0 0 0 2.27539873536472e-10 0 1:20 2:93 3:74 4:100 5:100 6:83 7:78 8:64 9:41 10:46 12:29 13:11 14:11 15:78 
-0 4.849128586209417e-09 0 0 0 0 0 0 0 1:1 2:55 3:7 4:100 5:30 6:92 7:20 8:45 10:4 11:23 13:61 14:10 15:100 16:12 
-1.867047868262508e-10 0 0 0 0 0 0 0 0 1:51 2:63 3:59 4:100 5:79 6:70 7:56 8:31 9:20 12:6 13:47 14:24 15:100 16:19 
-0 0 0 0 0 0 0 0 1.167288970451105e-08 2:82 3:42 4:100 5:100 6:90 7:86 8:62 9:46 10:39 11:1 12:17 13:26 14:1 15:93 
-0 0 0 0 0 0 0 2.722580334354265e-10 0 2:75 3:28 4:100 5:66 6:71 7:55 8:34 9:5 10:12 11:22 12:11 13:80 15:100 16:32 
-0 0 0 0 0 0 3.088085351764802e-11 0 0 1:68 2:94 3:49 4:100 5:78 6:88 7:42 8:61 10:37 11:25 12:16 13:79 14:8 15:100 
-0 0 0 0 0 0 0 0 6.130945848388726e-10 1:59 2:84 3:83 4:100 5:91 6:70 7:74 8:41 9:38 10:19 13:49 15:100 16:4 
-0 0 0 0 0 0 0 0 1.745913037905504e-08 1:9 2:90 3:46 4:100 5:74 6:74 7:62 8:42 9:29 10:18 13:49 14:2 15:100 16:1 
-0 1.374024491495553e-09 0 0 0 0 0 0 0 1:16 2:67 3:35 4:100 5:50 6:70 7:36 8:34 9:15 12:21 13:48 14:20 15:100 16:9 
-0 0 0 0 0 0 0 3.774565732126265e-10 0 2:99 3:27 4:100 5:49 6:83 7:51 8:55 9:43 10:29 11:44 12:3 13:72 15:100 16:2 
-0 0 0 0 0 0 0 1.25127396536611e-10 0 1:50 2:84 3:85 4:100 5:100 6:64 7:73 8:27 9:32 12:18 13:45 14:31 15:81 
-0 4.092812921569624e-10 0 0 0 0 0 0 0 2:66 3:30 4:90 5:69 6:100 7:65 8:62 9:39 10:29 11:12 12:1 13:57 15:100 16:3 
-6.850001841468039e-12 0 0 0 0 3.22192482414892e-11 0 1.813910229665628e-09 0 1:22 2:76 3:54 4:100 5:62 6:58 7:39 8:20 11:13 12:24 13:57 14:27 15:100 16:23 
-0 3.195744499073855e-09 0 0 0 0 0 0 0 1:20 2:72 3:51 4:100 5:60 6:69 7:40 8:35 9:12 10:4 12:12 13:49 14:9 15:100 
-5.351818644562589e-11 2.553459928478493e-10 0 0 0 0 0 0 0 1:6 2:48 3:32 4:77 5:75 6:100 7:100 8:79 9:73 10:51 11:33 12:26 14:1 15:62 
-0 1.243558371709429e-09 0 0 0 0 0 0 0 2:52 3:20 4:83 5:56 6:100 7:79 8:84 9:58 10:52 11:36 12:20 13:59 14:1 15:100 
-9.463870536750221e-11 1.55649767958777e-09 0 7.058976532978901e-11 2.166996252245499e-11 8.63700745948118e-11 4.103078034155922e-11 0 0 1:68 2:93 3:100 4:100 5:97 6:76 7:72 8:57 9:43 10:38 11:13 12:21 14:1 15:39 
-0 1.046034670867757e-09 0 0 0 0 0 0 0 1:41 2:73 3:60 4:100 5:72 6:73 7:61 8:40 9:37 10:10 13:49 14:1 15:100 16:2 
-0 0 0 0 0 0 0 1.391611162328462e-09 3.046629465345145e-09 1:2 2:95 3:64 4:100 5:100 6:78 7:87 8:50 9:51 10:25 12:6 13:20 15:89 16:3 
-0 3.000599511646044e-09 0 0 0 0 0 0 0 1:30 2:83 3:62 4:100 5:51 6:69 7:29 8:40 10:14 11:1 13:50 14:8 15:100 16:10 
-2.383738395582752e-11 0 0 7.246415589231774e-11 2.715090728753432e-11 2.316470042142294e-12 0 0 0 1:42 2:88 3:49 4:100 5:60 6:58 7:37 8:20 10:28 11:46 12:15 13:89 15:100 16:40 
-0 0 0 0 0 0 0 4.776182654752514e-10 0 2:88 3:31 4:100 5:65 6:90 7:62 8:68 9:45 10:48 11:38 12:26 13:62 14:9 15:100 
-0 0 0 0 0 0 0 7.242106234975378e-11 0 1:24 2:88 3:59 4:100 5:100 6:91 7:89 8:64 9:61 10:42 11:28 12:22 15:47 16:2 
-0 -0 0 0 4.623085774432431e-12 0 0 0 0 1:88 2:80 3:12 4:80 5:100 6:100 7:100 8:91 9:65 10:68 11:29 12:46 13:6 14:23 
-0 -0 0 0 0 0 0 5.49206801975277e-10 2.933258715395907e-09 2:100 3:73 4:97 5:95 6:80 7:100 8:64 9:95 10:48 11:82 12:31 13:64 14:15 15:23 
-0 -0 0 0 0 0 0 1.282004330979101e-09 0 2:75 3:29 4:79 5:71 6:91 7:100 8:100 9:82 10:74 11:68 12:48 13:57 14:21 15:58 
-0 -0 2.721733392335806e-11 0 0 0 0 0 0 1:100 2:100 3:92 4:85 5:75 6:71 7:58 8:57 9:58 10:42 11:33 12:28 13:8 14:14 
-1.810799909116242e-10 -0 0 0 0 0 0 0 0 1:14 2:55 3:40 4:61 5:59 6:100 7:58 8:62 9:59 10:21 11:100 12:14 13:48 14:5 
-0 -0 0 0 0 0 1.353424030867064e-10 0 0 1:36 2:63 4:67 5:53 6:84 7:100 8:100 9:83 10:74 11:66 12:47 13:53 14:21 15:51 
-0 -6.956868364482922e-10 0 0 0 0 0 0 0 1:44 2:60 4:77 5:47 6:99 7:100 8:100 9:84 10:75 11:75 12:50 13:75 14:24 15:100 
-0 -0 0 0 0 0 0 0 2.200062849559758e-09 1:29 2:75 3:29 4:85 5:100 6:100 7:85 8:81 9:59 10:61 11:38 12:41 13:15 14:20 
-1.009252564622467e-10 -0 2.506668437148662e-10 7.264255284566247e-10 0 0 0 0 1.75311985244257e-10 1:15 2:73 3:42 4:100 5:32 6:72 7:27 8:39 9:44 10:7 11:100 13:52 14:5 16:3 
-0 -1.969170901609976e-08 5.19041242288584e-12 0 0 0 0 0 0 2:62 3:21 4:100 5:27 6:80 7:26 8:35 9:4 10:4 11:12 13:55 14:2 15:100 16:5 
-7.19968332917969e-11 -0 0 0 0 0 0 0 0 1:100 2:84 3:27 4:100 6:85 8:68 9:13 10:51 11:20 12:34 13:27 14:17 15:60 
-0 -0 0 0 5.247416319051663e-11 0 0 0 0 1:100 2:100 3:100 4:92 5:80 6:76 7:65 8:61 9:50 10:45 11:40 12:30 13:15 14:15 
-0 -2.075713655585644e-09 0 0 0 0 0 0 0 1:55 2:70 3:73 4:100 5:62 6:66 7:49 8:26 9:30 12:2 13:50 14:3 15:100 16:6 
-0 -0 0 0 0 0 7.609623160567265e-11 0 0 1:83 2:85 3:57 4:77 5:60 6:83 7:65 8:100 9:72 10:55 11:87 12:10 15:100 16:2 
-0 -9.599990659130195e-11 0 0 0 0 0 0 0 2:76 3:42 4:100 5:51 6:91 7:43 8:52 9:46 10:13 11:100 12:7 13:71 14:2 15:31 
-0 -3.530997894740315e-10 0 0 0 0 0 0 0 1:48 2:100 3:18 4:59 5:43 6:74 7:53 8:82 9:41 10:22 13:38 14:1 15:100 
-0 -0 1.827932722565112e-10 0 0 0 0 0 0 2:40 3:22 4:53 5:49 6:64 7:76 8:79 9:100 10:100 11:84 12:73 13:71 14:38 15:63 
-3.02544349080872e-10 -0 0 0 0 0 0 0 0 1:39 2:59 3:74 4:78 5:100 6:100 7:76 8:77 9:62 10:51 11:57 12:24 13:38 16:2 
-0 -0 0 0 0 5.012642211844936e-10 1.178627772147501e-10 0 9.416188947577552e-09 1:47 2:73 3:82 4:95 5:100 6:100 7:89 8:75 9:79 10:49 11:76 12:24 13:47 16:2 
-9.379186830592185e-11 -0 0 0 0 0 0 0 0 2:37 3:14 4:70 5:27 6:100 7:26 8:64 9:24 10:28 11:3 13:18 14:5 15:100 16:12 
-0 -0 3.927534523641221e-10 0 5.018809783900528e-11 0 4.572579538200647e-10 0 0 1:35 2:94 4:74 5:75 6:97 7:100 8:100 9:70 10:75 11:45 12:50 13:25 14:25 
-0 -2.32538491160023e-09 0 0 0 0 0 0 2.519975031873796e-09 2:69 3:23 4:83 5:82 6:100 7:100 8:95 9:86 10:70 11:75 12:44 13:62 14:19 15:64 
-0 -1.11274019292613e-09 0 0 0 0 0 0 0 2:62 3:30 4:90 5:70 6:100 7:57 8:61 9:48 10:22 11:7 13:36 14:2 15:100 16:3 
-0 -6.744669083187405e-11 0 0 0 3.869861026929367e-11 0 0 0 2:93 3:60 4:100 5:70 6:83 7:70 8:67 9:70 10:50 11:80 12:33 13:80 14:16 15:100 
-9.96924235229645e-12 -0 0 0 0 0 0 0 0 1:19 2:63 3:58 4:100 5:52 6:74 7:47 8:27 9:91 11:100 12:5 13:25 14:8 16:9 
-1.572198245546563e-11 -0 0 0 0 0 1.667638109079692e-10 0 0 2:4 3:74 4:29 5:100 6:62 7:88 8:95 9:74 10:100 11:74 12:67 13:74 14:33 15:76 
-0 -0 0 1.451528192410281e-10 0 0 0 0 0 1:39 2:76 3:68 4:100 5:49 6:61 7:40 8:21 9:19 12:4 13:50 14:6 15:100 16:5 
-0 -0 0 0 1.234607517231711e-10 0 0 0 0 1:26 2:25 3:23 4:41 5:62 6:71 7:100 8:100 9:88 10:93 11:55 12:62 13:24 14:31 
-3.939987212327781e-11 -0 0 0 0 0 0 0 0 1:74 2:69 3:100 4:100 5:84 6:86 7:70 8:51 9:47 10:19 13:36 14:7 15:98 16:10 
-1.291467666580653e-11 -0 0 0 0 0 0 0 0 2:20 3:47 4:42 5:78 6:70 7:100 8:100 9:88 10:86 11:66 12:56 13:40 14:27 15:7 
-0 -0 0 0 0 3.851041456302277e-10 3.69054199044885e-10 0 4.285419302440669e-10 1:100 2:100 3:96 4:97 5:93 6:80 7:82 8:63 9:71 10:46 11:46 12:30 13:25 14:14 
-2.819339771857933e-11 -0 0 0 0 0 0 0 0 3:18 4:27 5:48 6:49 7:76 8:73 9:100 10:100 11:94 12:73 13:82 14:40 15:82 16:9 
-0 -0 0 0 1.069874432419375e-11 0 0 0 0 1:100 2:100 3:89 4:94 5:89 6:79 7:78 8:63 9:56 10:47 11:33 12:31 13:22 14:16 
-0 -0 0 0 0 0 0 0 8.190002995694392e-10 2:76 3:35 4:100 5:55 6:100 7:49 8:62 9:44 10:24 11:2 13:27 15:100 16:8 
-0 -2.046052395187411e-09 0 0 0 0 0 1.634550202272452e-10 0 2:82 3:42 4:100 5:73 6:100 7:63 8:58 9:52 10:16 11:19 12:8 13:50 14:3 15:100 
-0 -0 0 0 0 1.87862278482794e-10 0 0 0 1:48 2:74 3:88 4:95 5:100 6:100 7:78 8:75 9:66 10:49 11:64 12:23 13:32 16:1 
-0 -0 0 0 5.253678146909276e-11 0 2.015171599752244e-11 0 0 2:37 3:25 4:50 5:50 6:63 7:74 8:81 9:97 10:100 11:100 12:78 13:88 14:40 15:79 
-1.826966644967159e-11 -0 0 0 0 0 0 0 0 1:34 2:100 4:51 5:18 6:87 7:12 8:97 9:36 10:44 11:16 13:34 14:8 15:100 16:14 
-3.055231680952197e-11 -0 0 0 0 0 0 0 0 1:11 2:47 3:58 4:70 5:100 6:100 7:73 8:70 9:50 10:34 11:28 14:12 15:70 16:10 
-0 -0 0 0 0 6.088299030453271e-10 5.947509024472682e-10 0 3.722338597275852e-10 1:12 2:77 3:36 4:90 5:44 6:100 7:37 8:63 9:46 10:27 11:100 12:21 13:47 14:8 
-0 -0 0 0 0 0 6.351392798930565e-10 0 0 2:71 3:36 4:67 5:73 6:77 7:100 8:100 9:98 10:95 11:86 12:62 13:74 14:30 15:60 
-4.293822223347529e-11 -0 0 0 0 0 0 0 0 2:66 3:43 4:100 5:49 6:89 7:19 8:42 9:48 10:10 11:100 12:5 13:38 14:1 15:3 
-1.659861249492507e-10 -0 0 0 0 0 0 0 0 1:36 2:74 3:77 4:100 5:69 6:68 7:50 8:24 9:35 12:9 13:50 14:12 15:100 16:18 
-1.046825226079635e-10 -0 0 0 0 0 0 0 0 1:31 2:96 3:44 4:76 5:24 6:100 7:41 8:50 9:48 10:7 13:49 14:14 15:100 16:23 
-0 -4.004886239293634e-10 0 0 0 0 0 0 0 1:39 2:100 3:16 4:74 5:40 6:57 7:14 8:80 9:32 10:35 12:7 13:18 15:100 16:8 
-0 -2.133170779762208e-11 0 1.204685541570364e-10 0 0 0 0 0 1:100 2:100 4:86 6:72 8:57 10:43 12:28 13:50 14:14 15:50 
-0 -0 0 0 0 0 0 8.679241286711702e-11 0 2:86 3:49 4:96 5:65 6:100 7:53 8:56 9:53 10:11 11:100 12:2 13:53 15:8 16:9 
-0 -4.46225431519138e-10 0 0 0 0 0 0 0 1:65 2:94 3:100 4:100 5:82 6:83 7:71 8:67 9:41 10:50 11:18 12:33 13:6 14:17 
-0 -7.607636725788153e-10 0 0 1.084490824553195e-10 0 0 0 0 1:67 2:100 3:67 4:85 5:100 6:71 7:67 8:57 9:33 10:42 12:28 14:14 
-0 -0 2.048024005822862e-10 6.876473872695588e-11 4.824551323068976e-11 3.330527194852399e-11 2.698433314212072e-10 0 1.137563184916589e-10 1:100 2:100 4:87 6:73 7:17 8:58 9:33 10:44 11:33 12:29 13:50 14:15 15:67 
-0 -0 0 0 0 1.710805860145347e-10 2.776435299494453e-11 0 0 1:33 2:63 3:69 4:82 5:100 6:100 7:78 8:78 9:71 10:54 11:69 12:29 13:57 14:6 
-0 -0 0 0 0 6.273465830947185e-10 0 0 0 2:67 3:45 4:80 5:100 6:100 7:50 8:85 9:32 10:64 11:23 12:42 13:18 14:21 15:14 
-0 -1.844864093600436e-10 0 0 0 0 0 0 0 2:59 3:20 4:79 5:100 6:100 7:100 8:90 9:60 10:67 11:33 12:44 13:7 14:22 15:33 
-0 -1.188545020652495e-09 0 0 0 0 0 0 0 1:20 2:65 3:43 4:94 5:76 6:100 7:58 8:64 9:44 10:27 12:1 13:18 14:4 15:100 
-0 -0 0 6.67207310760299e-11 0 0 0 0 0 1:100 2:100 3:67 4:90 5:33 6:75 7:25 8:60 10:45 12:30 14:15 
-0 -0 0 0 0 0 0 1.086718117519979e-09 0 2:80 3:35 4:84 5:84 6:100 7:100 8:89 9:82 10:67 11:63 12:44 13:41 14:22 15:22 
-0 -0 0 0 0 0 0 0 2.907647291932548e-10 2:74 3:29 4:100 5:37 6:94 7:30 8:62 9:23 10:30 11:12 13:47 14:10 15:100 16:12 
-0 -1.788080697637935e-09 0 0 0 4.031348884127895e-11 0 5.936918611491031e-10 0 2:82 3:38 4:100 5:62 6:95 7:31 8:75 9:23 10:57 11:23 12:37 13:46 14:18 15:100 
-0 -0 0 0 0 0 0 6.230909249623179e-10 0 1:36 2:87 3:81 4:100 5:80 6:74 7:61 8:31 9:44 12:10 13:50 14:11 15:100 16:15 
-5.732064129708302e-11 -0 0 3.508439561154269e-10 0 0 0 0 0 1:100 2:100 3:74 4:86 5:48 6:73 7:29 8:59 9:16 10:44 11:6 12:29 14:15 
-0 -0 0 0 0 0 0 8.331585502271545e-10 1.12555820061038e-09 1:31 2:88 3:3 4:84 5:77 6:100 7:100 8:96 9:69 10:72 11:37 12:49 13:14 14:24 
-0 -3.662999964117954e-10 0 0 0 0 0 0 2.903572969237638e-09 2:78 3:44 4:100 5:68 6:85 7:66 8:46 9:80 10:8 11:100 13:38 14:2 15:1 16:7 
-0 -0 3.119397890309172e-10 0 0 0 0 5.396628135912504e-10 0 2:100 3:54 4:93 5:57 6:77 7:57 8:61 9:61 10:46 11:61 12:30 13:68 14:14 15:100 
-0 -0 0 0 0 4.138815369942503e-10 0 0 0 1:100 2:98 3:67 4:100 5:48 6:84 7:38 8:68 9:27 10:51 11:19 12:33 13:9 14:16 
-0 -5.395299269668974e-10 0 0 0 0 0 2.458007772130881e-10 0 2:100 3:57 4:94 5:100 6:78 7:100 8:63 9:100 10:47 11:86 12:31 13:71 14:15 15:100 
-0 -1.150974975859803e-10 0 0 0 0 0 0 0 2:57 3:14 4:73 5:54 6:90 7:100 8:100 9:100 10:74 11:80 12:47 13:55 14:22 15:49 
-0 -2.819100336968402e-09 0 0 0 0 0 0 0 1:34 2:79 3:69 4:100 5:60 6:75 7:41 8:26 9:13 12:8 13:50 14:7 15:100 16:5 
-0 -1.504909104303302e-10 0 0 0 0 0 0 5.419154226437182e-10 2:60 3:24 4:82 5:84 6:100 7:100 8:90 9:73 10:68 11:43 12:44 13:18 14:22 15:14 
-0 -0 2.859447024541936e-11 0 0 0 2.597724212988745e-10 0 0 1:14 2:52 4:56 5:36 6:78 7:74 8:100 9:100 10:96 11:79 12:64 13:58 14:32 15:39 
-0 -0 0 0 0 0 0 0 3.680240394041042e-10 2:54 4:72 5:42 6:90 7:91 8:100 9:100 10:76 11:74 12:51 13:48 14:26 15:26 
-0 -1.923204628368522e-10 0 0 0 0 0 0 0 2:58 3:6 4:67 5:53 6:85 7:100 8:100 9:76 10:75 11:52 12:51 13:34 14:26 15:40 
-4.899418363568915e-11 -3.301154403260261e-12 -2.848853726884595e-10 0 2.303800368995327e-10 1.562216387859932e-10 3.321284700486514e-11 3.596425999820572e-11 0 1:63 2:100 3:40 4:73 5:70 6:63 7:100 8:77 9:79 10:74 11:55 12:48 13:29 14:23 
-0 -0 -0 0 0 0 6.531328045853129e-12 0 0 1:100 2:100 3:24 4:77 6:56 7:96 8:57 9:100 10:86 11:79 12:70 13:37 14:35 15:4 
-0 -0 -0 0 0 0 3.436970281704464e-10 0 0 1:56 2:97 3:42 4:100 6:74 7:52 8:60 9:100 10:81 11:74 12:60 13:50 14:30 15:33 
-4.406746782235677e-13 -5.849888721191771e-10 -2.850460701277115e-10 0 0 0 0 3.228099811880109e-10 2.252520379244535e-10 2:81 3:15 4:100 5:20 6:76 7:19 8:52 9:24 10:28 11:71 12:21 13:88 14:23 15:100 
-0 -0 -0 3.777689628660586e-10 0 0 0 0 0 1:56 2:100 3:17 4:77 6:46 7:45 8:27 9:100 10:42 11:83 12:53 13:38 14:28 15:6 
-0 -0 -1.334168240707454e-11 0 0 1.319837698286105e-10 0 0 0 1:100 2:100 3:64 4:79 5:27 6:59 8:38 9:71 10:45 11:98 12:41 13:60 14:21 15:44 
-0 -0 -0 0 0 0 0 0 7.299213660168956e-12 1:5 2:100 3:31 4:93 6:63 7:52 8:50 9:100 10:72 11:62 12:61 13:31 14:31 15:1 
-0 -0 -0 0 0 0 6.669946882710326e-10 0 0 1:90 2:100 3:43 4:79 6:56 7:51 8:58 9:100 10:69 11:97 12:61 13:79 14:28 15:60 
-0 -0 -0 0 0 9.982448597668246e-13 0 0 0 1:65 2:89 3:61 4:100 5:16 6:73 8:47 9:65 10:40 11:100 12:59 13:61 14:30 15:28 
-5.851482037518875e-11 -7.471067073157349e-12 -5.225285140854127e-11 0 0 1.00042635952039e-10 0 0 0 1:41 2:90 3:62 4:100 5:29 6:74 7:2 8:47 10:22 11:64 12:33 13:100 14:28 15:88 
-0 -0 -0 0 0 0 0 0 3.703571191591455e-11 1:4 2:100 4:100 5:7 6:69 7:56 8:55 9:100 10:67 11:86 12:60 13:62 14:31 15:55 
-0 -0 -0 0 4.004817949535402e-10 0 0 0 0 1:100 2:100 3:56 4:66 6:37 7:8 8:34 9:83 10:43 11:86 12:71 13:57 14:35 15:24 
-0 -0 -2.937796204953925e-10 0 0 0 0 3.402783489410215e-10 2.391840936409017e-10 1:9 2:100 4:75 5:78 6:72 7:100 8:92 9:74 10:93 11:56 12:62 13:38 14:31 15:21 
-1.245995232822483e-10 -0 -0 0 1.52308617155175e-10 0 0 0 3.282474948244561e-11 1:18 2:61 3:37 4:100 5:17 6:65 8:33 9:61 10:39 11:100 12:55 13:66 14:37 15:37 
-2.227343847344491e-11 -1.220068995752557e-10 -0 0 0 0 0 0 0 1:36 2:100 3:13 4:75 5:57 6:65 7:100 8:78 9:63 10:85 11:41 12:57 13:18 14:29 
-0 -0 -0 0 0 0 0 0 1.702383450031729e-11 1:29 2:80 3:53 4:100 5:7 6:70 8:49 9:83 10:48 11:100 12:65 13:61 14:33 15:29 
-8.540839857490279e-12 -0 -5.659976263006782e-11 0 0 0 0 0 0 1:26 2:100 3:16 4:79 6:52 7:36 8:32 9:100 10:38 11:55 12:52 13:38 14:26 15:32 
-0 -0 -0 0 0 1.830811790134067e-10 6.087481299451382e-10 0 0 1:78 2:100 3:43 4:92 6:73 7:14 8:54 9:83 10:55 11:100 12:43 13:63 14:22 15:29 
-0 -0 -0 0 0 0 1.90209751012222e-11 0 0 1:20 2:92 3:5 4:100 6:76 7:2 8:52 9:52 10:33 11:95 12:47 13:80 14:23 15:100 
-0 -0 -0 0 0 0 0 4.327479827337328e-11 0 1:26 2:77 3:12 4:100 6:62 7:57 8:45 9:100 10:60 11:68 12:77 13:50 14:39 15:41 
-2.821940373300654e-11 -0 -0 0 0 0 0 0 0 1:53 2:100 4:75 5:7 6:43 7:100 8:52 9:50 10:76 11:16 12:91 13:14 14:44 15:28 
-0 -0 -0 0 0 0 0 9.78223890722596e-11 5.954760513889841e-11 1:25 2:100 4:84 5:16 6:63 7:77 8:67 9:100 10:66 11:76 12:45 13:53 14:22 15:34 
-0 -0 -0 0 0 0 9.151524279246666e-10 0 0 1:59 2:100 4:79 5:31 6:64 7:100 8:75 9:93 10:76 11:63 12:51 13:37 14:26 15:11 
-0 -0 -0 0 0 0 1.606592355650128e-10 0 0 1:53 2:100 3:5 4:80 6:63 7:60 8:64 9:100 10:79 11:79 12:57 13:55 14:26 15:31 
-0 -0 -0 5.671286162703576e-11 0 0 0 0 0 1:71 2:100 3:39 4:87 5:11 6:63 8:37 9:42 10:25 11:100 12:37 13:74 14:24 15:53 
-0 -0 -0 0 0 0 2.532867646159072e-11 0 0 1:38 2:95 3:53 4:100 5:19 6:80 8:59 9:61 10:65 11:100 12:89 13:75 14:47 15:49 
-0 -0 -0 0 0 0 0 3.196280663960538e-10 0 1:9 2:100 4:80 5:37 6:67 7:100 8:72 9:100 10:85 11:77 12:57 13:53 14:28 15:36 
-0 -0 -0 0 3.751605973853484e-10 0 0 0 0 1:59 2:100 3:9 4:64 6:23 7:61 8:17 9:100 10:28 11:73 12:82 13:57 14:60 15:50 
-6.063556857615749e-11 -0 -0 1.153637769575611e-09 0 0 0 0 0 1:21 2:100 3:13 4:70 6:38 7:6 8:17 9:73 10:20 11:100 12:28 13:62 14:32 15:56 
-0 -0 -0 0 0 0 0 0 1.752371308404775e-11 1:50 2:100 3:44 4:93 5:10 6:69 8:45 9:75 10:49 11:100 12:46 13:60 14:23 15:33 
-0 -0 -0 2.59074126415768e-10 0 0 0 0 0 1:65 2:100 3:46 4:91 5:2 6:58 8:31 9:66 10:31 11:100 12:60 13:49 14:39 15:20 
-0 -0 -1.588473815884847e-10 0 0 0 0 0 2.28556304743922e-10 1:20 2:67 3:45 4:100 5:17 6:73 8:38 9:62 10:24 11:100 12:42 13:78 14:32 15:50 
-0 -0 -0 0 4.267000065974304e-10 0 0 0 0 1:16 2:96 4:59 5:34 6:22 7:100 8:30 9:74 10:77 11:49 12:100 13:46 14:50 15:40 
-0 -0 -0 4.27108137813032e-11 0 0 0 0 0 1:92 2:100 3:50 4:79 5:20 6:56 8:34 9:56 10:22 11:100 12:41 13:66 14:23 15:50 
-0 -0 -0 1.596544525339043e-10 0 0 0 0 0 1:50 2:100 3:63 4:96 5:30 6:65 8:36 9:13 10:8 11:85 12:22 13:100 14:30 15:80 
-0 -0 -5.908765656399996e-11 0 0 2.492511699009184e-10 0 0 0 1:66 2:100 3:39 4:86 5:11 6:64 7:36 8:45 9:100 10:57 11:66 12:45 13:32 14:23 
-0 -1.043763710357102e-10 -9.590167681235638e-11 0 0 0 0 0 0 2:100 3:3 4:84 5:1 6:63 7:7 8:43 9:52 10:38 11:55 12:35 13:62 14:14 15:100 
-0 -0 -1.04215899818278e-10 0 0 0 2.78429126407062e-10 4.037999450520193e-12 0 1:12 2:100 4:70 5:64 6:68 7:100 8:87 9:82 10:90 11:67 12:60 13:54 14:30 15:50 
-0 -0 -0 0 0 0 0 0 2.160077165901054e-11 1:10 2:100 3:26 4:94 5:18 6:72 8:50 9:41 10:36 11:100 12:43 13:72 14:22 15:77 
-2.924238061299669e-10 -0 -0 -0 0 6.548264467770164e-12 0 0 0 1:100 2:92 3:64 4:100 5:37 6:77 7:20 8:50 9:11 10:21 11:22 13:35 14:26 16:40 
-2.738387077636288e-11 -0 -0 -0 0 0 0 4.280088638521813e-11 0 1:85 2:100 3:56 4:72 5:42 6:39 7:55 8:7 9:100 11:95 12:30 13:46 14:37 16:23 
-0 -0 -2.432269783004607e-10 -0 0 4.169397405518746e-10 0 0 0 1:38 2:76 3:58 4:100 5:21 6:65 8:27 9:44 11:100 12:22 13:45 14:36 15:22 16:8 
-0 -0 -0 -0 1.492309452351582e-10 0 0 0 0 1:64 2:100 3:21 4:74 6:38 7:17 8:3 9:72 11:100 12:31 13:59 14:51 15:6 16:39 
-0 -0 -2.877290118364416e-10 -0 0 0 1.879577511889579e-11 1.156325507216628e-10 9.548406628625152e-11 1:16 2:100 3:11 4:71 5:5 6:39 7:29 8:11 9:85 10:11 11:100 12:28 13:46 14:18 
-0 -0 -0 -0 0 0 0 0 1.591475768195055e-12 1:95 2:85 3:100 4:100 5:61 6:71 7:41 8:36 9:50 11:93 12:3 13:58 14:30 16:26 
-0 -0 -0 -0 1.366555771660026e-10 0 0 5.663537306257632e-12 0 1:34 2:100 3:32 4:100 5:8 6:64 8:27 9:41 11:100 12:10 13:76 14:42 15:19 16:60 
-0 -0 -0 -0 0 1.722564020280123e-10 0 0 0 1:86 2:71 3:100 4:100 5:58 6:79 7:24 8:51 10:17 11:28 13:43 14:25 15:2 16:21 
-0 -1.160798039884455e-10 -8.14465004025112e-11 -0 0 0 0 0 0 1:100 2:100 3:76 4:95 5:50 6:72 7:26 8:49 9:6 10:26 13:46 14:2 15:25 16:20 
-0 -0 -0 -0 0 1.722629231585781e-11 0 0 0 1:100 2:100 3:40 4:83 5:2 6:51 8:16 9:67 10:9 11:89 12:38 13:18 14:32 15:11 
-0 -0 -0 -0 0 0 0 5.383496392057029e-11 0 1:40 2:98 3:51 4:100 6:61 7:11 8:16 9:93 11:100 12:37 13:18 14:51 15:24 16:19 
-8.079107289927108e-11 -0 -0 -0 0 0 0 2.003635850966089e-11 0 1:71 2:100 3:50 4:87 5:32 6:50 7:32 8:11 9:76 11:100 12:32 13:51 14:49 16:41 
-0 -0 -0 -0 0 4.437700660030778e-10 1.850757139486121e-10 0 0 1:89 2:90 3:49 4:100 5:14 6:73 7:11 8:41 9:49 10:17 11:100 12:28 13:41 14:24 
-2.363333457821321e-11 -0 -0 -0 0 0 0 0 0 1:100 2:100 3:55 4:93 5:23 6:59 7:11 8:15 9:53 11:77 12:31 13:41 14:62 16:51 
-0 -0 -0 -0 0 0 0 0 3.700673098686856e-11 1:100 2:99 3:72 4:100 5:54 6:71 7:44 8:41 9:42 10:10 11:69 13:47 14:25 16:29 
-0 -0 -0 -1.037786953233777e-09 0 6.503628114013765e-10 0 0 0 1:52 2:100 3:18 4:76 6:46 7:9 8:17 9:61 10:19 11:100 12:38 13:54 14:22 15:18 
-8.859034790133438e-11 -0 -0 -0 8.087144051060842e-10 0 0 0 0 1:70 2:100 3:45 4:86 5:11 6:53 8:15 9:57 11:100 12:26 13:67 14:57 16:67 
-0 -0 -4.866283204002313e-10 -0 0 0 0 0 0 1:100 2:100 3:69 4:91 5:43 6:72 7:18 8:49 10:22 11:16 13:34 14:11 15:3 16:10 
-0 -0 -0 -0 0 1.405022744025433e-10 0 0 0 1:82 2:100 3:64 4:75 5:16 6:46 8:13 9:73 10:1 11:100 12:20 13:27 14:27 15:47 
-0 -0 -0 -5.126040834819291e-10 0 0 0 0 0 1:47 2:100 3:21 4:78 6:42 7:26 8:8 9:94 10:4 11:100 12:32 13:34 14:28 15:28 
-0 -0 -0 -0 0 0 0 4.63610054818765e-12 1.493079804757582e-11 1:100 2:100 3:85 4:97 5:65 6:65 7:49 8:33 9:46 11:86 12:10 13:47 14:24 16:19 
-0 -0 -0 -0 0 0 0 0 5.53936301582087e-11 1:63 2:93 3:69 4:100 5:38 6:67 7:16 8:31 9:43 10:4 11:100 12:22 13:48 14:25 
-4.13537313733352e-10 -4.965351649030376e-11 -3.035745554382972e-11 -4.379268906267652e-11 1.74869788910114e-10 2.204652422352541e-08 2.166485617853365e-12 2.075147529488852e-10 0 1:16 2:100 4:57 5:55 6:55 7:44 9:12 10:17 11:6 12:77 13:45 14:98 15:100 16:100 
-1.301911418856566e-10 -0 -0 -0 0 0 0 0 0 1:53 2:100 3:36 4:91 5:15 6:55 7:10 8:17 9:61 11:100 12:21 13:59 14:50 16:61 
-0 -0 -6.433607609201059e-11 -0 0 3.311834129887459e-10 1.694308089430458e-11 0 0 1:100 2:94 3:76 4:100 5:44 6:82 7:18 8:59 10:29 11:6 13:41 14:7 15:22 16:25 
-0 -0 -0 -0 0 7.831074833883658e-11 0 0 0 1:69 2:100 3:71 4:86 5:12 6:57 8:24 9:69 11:100 12:30 13:12 14:39 15:31 16:12 
-0 -0 -0 -0 2.21887985339955e-09 0 0 0 0 1:55 2:100 3:20 4:69 5:3 6:36 7:4 8:3 9:72 11:100 12:31 13:68 14:57 16:45 
-0 -0 -0 -0 1.3278717915574e-11 0 0 0 0 1:42 2:100 3:15 4:73 6:45 7:4 8:17 9:51 11:100 12:16 13:92 14:43 15:34 16:39 
-0 -0 -0 -0 0 0 3.7173612327207e-12 0 0 1:88 2:85 3:100 4:100 5:60 6:75 7:26 8:48 10:19 11:34 13:80 14:18 15:30 16:30 
-4.896877508430864e-10 -1.195460278443938e-10 -8.632719646088912e-11 -0 0 4.365485867415051e-10 1.424184198941318e-11 2.538002429308165e-10 3.329283926071597e-11 1:25 2:75 3:85 4:100 5:49 6:72 7:18 8:40 10:7 11:51 13:100 14:28 15:49 16:29 
-0 -4.1262815047263e-11 -0 -0 0 0 0 0 0 1:24 2:100 3:7 4:72 6:42 7:6 8:13 9:60 10:9 11:100 12:29 13:43 14:23 15:9 
-0 -0 -1.98324788736728e-10 -0 0 0 0 0 0 1:46 2:100 3:28 4:98 5:7 6:64 7:13 8:29 9:55 10:6 11:100 12:15 13:46 14:17 
-0 -0 -0 -0 0 1.439138177593022e-10 0 0 0 1:100 2:100 3:68 4:89 5:36 6:70 7:12 8:46 9:4 10:18 11:33 13:40 14:9 16:13 
-0 -7.09188613051645e-11 -0 -4.553752610212973e-10 0 0 0 0 4.601041931869083e-12 1:25 2:90 3:42 4:100 5:15 6:63 8:26 9:42 11:100 12:3 13:80 14:28 15:59 16:6 
-0 -0 -0 -0 0 3.712318634652515e-11 0 0 0 1:100 2:100 3:58 4:86 5:27 6:66 7:7 8:43 10:18 11:34 13:72 14:14 15:43 16:29 
-0 -0 -0 -0 0 0 0 1.974859463775066e-12 0 1:100 2:100 3:83 4:85 5:63 6:60 7:44 8:34 9:32 10:6 11:50 13:36 14:21 16:15 
-0 -0 -0 -3.914991968735218e-10 -2.630019967451946e-10 0 4.607590912862096e-11 0 1.29998096460805e-11 1:77 2:100 3:53 4:90 6:43 7:13 9:86 10:34 11:100 12:84 13:73 14:51 15:10 16:9 
-0 -1.852436470327123e-11 -0 -0 -6.688751403215599e-11 0 0 0 0 1:6 2:43 3:16 4:2 5:68 7:100 8:35 9:81 10:75 11:38 12:100 13:7 14:63 16:22 
-0 -0 -6.581532663320775e-12 -0 -0 0 3.444474023806731e-13 0 7.677052785648214e-12 1:80 2:88 3:43 4:100 5:9 6:70 8:31 9:28 11:78 12:11 13:100 14:46 15:90 16:85 
-2.75529111854524e-10 -0 -0 -0 -5.043359821265467e-11 3.188722144153123e-11 0 5.909684660477683e-13 0 1:94 2:95 3:56 4:100 5:23 6:67 8:29 9:19 11:69 12:16 13:100 14:50 15:89 16:90 
-0 -0 -0 -2.063767983945889e-11 -0 0 0 0 0 1:39 2:94 4:31 5:42 7:100 8:43 9:95 10:100 11:30 12:69 13:49 14:53 15:30 16:28 
-0 -0 -0 -5.546054359174679e-10 -0 0 0 0 0 1:32 2:84 4:55 5:18 6:1 7:76 9:100 10:52 11:71 12:100 13:34 14:61 15:43 16:5 
-0 -1.688798031179278e-11 -0 -0 -0 1.786652378181281e-11 0 0 0 1:25 2:77 3:3 4:60 5:11 7:71 8:4 9:100 10:57 11:56 12:100 13:2 14:66 16:11 
-1.789522969139795e-10 -0 -0 -0 -0 0 3.465767270804847e-11 0 0 2:52 3:23 5:79 6:5 7:100 8:58 9:59 10:60 11:74 12:64 13:79 14:100 15:27 16:74 
-0 -0 -6.943179825195287e-11 -0 -0 0 5.948767543244462e-11 2.215989596631384e-11 7.802584584399943e-12 2:47 3:5 4:25 5:52 7:93 8:30 9:100 10:75 11:62 12:100 13:30 14:63 15:42 16:22 
-0 -0 -0 -0 -0 0 1.69017144709816e-12 4.65324446153008e-11 0 2:85 3:42 4:97 5:30 6:75 7:23 8:21 9:72 11:100 12:47 13:87 14:100 15:36 16:99 
-0 -0 -0 -0 -0 0 1.941461371057669e-11 0 0 1:100 2:81 3:56 4:100 5:12 6:79 8:33 9:30 11:78 12:14 13:94 14:58 15:66 16:93 
-0 -0 -0 -0 -0 2.466746963529151e-11 0 0 0 1:100 2:66 3:61 4:100 6:51 7:8 9:82 10:32 11:92 12:89 13:64 14:61 15:8 16:8 
-0 -6.459505307081716e-11 -2.661213747935237e-11 -8.833785932277646e-11 -0 7.26007257723192e-11 0 5.041248489733577e-11 0 1:66 2:100 3:30 4:87 5:8 6:56 8:21 9:31 11:75 12:17 13:100 14:47 15:89 16:79 
-0 -0 -0 -0 -0 0 0 5.132486678186595e-11 3.991802296672542e-11 1:34 2:100 3:24 4:100 6:53 7:8 8:4 9:59 11:100 12:34 13:69 14:68 15:14 16:69 
-3.331280247516208e-11 -0 -0 -0 -0 0 0 0 0 1:73 2:98 3:14 4:78 5:19 7:100 8:41 9:56 10:100 12:58 13:76 14:85 15:14 16:13 
-0 -4.089982245516839e-12 -5.255196535278899e-11 -9.376729697376325e-11 -3.318866566709927e-11 3.215239053185637e-11 1.186319190491958e-10 0 8.221921411798721e-12 1:95 2:31 3:44 4:2 6:26 7:11 8:69 9:60 10:100 11:100 12:73 13:84 14:30 15:40 
-0 -0 -0 -0 -0 2.325034616575855e-11 0 0 0 1:15 2:55 4:35 5:15 6:1 7:54 9:88 10:19 11:100 12:53 13:80 14:85 15:45 16:100 
-0 -0 -2.88199341388843e-11 -0 -2.873131185180281e-09 5.111785617037643e-11 0 0 0 1:55 2:100 3:16 4:79 6:39 7:5 9:61 10:1 11:100 12:31 13:67 14:61 15:5 16:67 
-7.052448545131907e-10 -0 -0 -0 -0 0 0 0 0 1:48 2:86 3:16 4:51 6:11 7:37 9:77 10:29 11:100 12:66 13:81 14:100 15:31 16:92 
-1.815327837324373e-10 -8.449835621777536e-12 -2.179847887169574e-11 -0 -8.259651727435317e-11 1.164430910006456e-11 1.175023293396988e-11 5.775836345900566e-12 1.213193509600765e-11 1:4 2:25 3:68 4:64 5:33 6:97 8:36 9:38 11:100 12:43 13:96 14:100 15:22 16:85 
-4.667537633563268e-11 -2.43988315989781e-11 -2.139656622567911e-10 -2.376655412871897e-10 -1.359979450857298e-11 9.631190328538015e-11 2.353491737014011e-10 7.030474205524491e-11 6.676591041335862e-11 1:66 2:98 3:55 4:70 5:98 6:68 7:100 8:100 9:57 10:92 11:33 12:62 13:16 14:31 
-0 -0 -0 -0 -0 0 6.776972630295916e-12 0 0 1:97 2:100 3:41 4:81 5:14 6:13 7:71 8:23 9:100 10:85 11:77 12:85 13:47 14:53 
-0 -0 -0 -0 -0 0 1.116231590269796e-12 0 0 1:93 2:77 3:51 4:100 5:3 6:77 8:32 9:39 11:90 12:20 13:100 14:63 15:54 16:84 
-7.5040305880818e-11 -2.581899538469839e-11 -1.007444084771757e-11 -0 -1.187900161121732e-10 3.514327415302125e-11 0 3.793449923836901e-11 0 1:52 2:100 4:36 5:36 7:100 8:52 9:40 10:73 11:15 12:45 13:65 14:60 15:5 16:2 
-0 -0 -0 -1.98518042776849e-10 -0 0 0 0 0 1:70 2:100 3:2 4:50 5:15 6:1 7:100 8:36 9:70 10:79 11:36 12:56 13:67 14:51 
-8.588138128299898e-11 -0 -0 -0 -0 0 0 0 0 1:51 2:86 3:45 4:100 5:9 6:51 7:13 9:69 10:22 11:100 12:71 13:54 14:95 16:68 
-0 -0 -2.084027014391752e-11 -0 -0 1.423420217456931e-11 0 3.271212143233222e-11 7.856829152963858e-12 1:21 2:74 3:4 4:74 5:2 6:19 7:63 9:100 10:49 11:71 12:100 13:10 14:73 16:20 
-5.007594742219537e-11 -0 -0 -0 -0 0 0 0 0 1:51 2:99 3:28 4:60 5:40 6:9 7:79 9:100 10:44 11:81 12:90 13:40 14:100 16:87 
-1.943936763752816e-10 -0 -0 -0 -0 0 0 0 0 1:96 2:43 3:63 5:1 6:7 8:57 9:38 10:100 11:100 12:94 13:81 14:45 15:36 16:7 
-4.733797830993307e-12 -0 -0 -0 -0 0 0 0 0 1:49 2:100 4:30 5:39 7:100 8:59 9:49 10:79 11:19 12:44 13:85 14:80 15:23 16:21 
-1.020237398632321e-10 -0 -0 -0 -0 0 0 0 0 1:100 2:100 3:53 4:77 5:20 6:40 7:13 9:65 10:15 11:94 12:51 13:56 14:78 16:78 
-0 -0 -0 -0 -0 -5.549897138957362e-13 3.12613872550691e-10 0 0 1:100 2:81 3:83 4:96 5:26 6:100 8:88 9:16 10:54 11:69 12:40 13:87 14:6 15:34 
-0 -1.337762395210695e-11 -0 -0 -0 -0 0 2.549657659064055e-11 0 1:33 2:100 4:66 5:28 6:40 7:55 8:12 9:1 11:10 12:46 13:44 14:84 15:100 16:92 
-0 -0 -0 -0 -4.058682910000056e-10 -0 0 0 0 1:32 2:95 3:100 4:100 5:55 6:95 8:71 9:7 10:45 11:73 12:33 13:78 14:7 15:11 
-0 -0 -0 -1.059780913941309e-10 -0 -0 0 0 0 1:35 2:96 3:100 4:100 5:44 6:93 8:73 9:27 10:60 11:85 12:46 13:76 14:17 15:21 
-0 -0 -0 -0 -1.352629297136506e-11 -0 0 0 0 1:8 2:95 3:8 4:58 5:61 6:47 7:54 9:20 10:21 12:68 13:37 14:100 15:100 16:100 
-0 -0 -0 -0 -4.78578988928265e-11 -0 0 0 0 1:100 2:98 3:58 4:100 5:29 6:81 7:55 8:55 9:87 10:32 11:81 12:4 13:39 16:1 
-0 -0 -0 -0 -5.733109512572788e-09 -0 0 0 0 1:17 2:100 3:8 4:53 5:61 6:47 7:42 9:3 10:17 12:80 13:44 14:96 15:100 16:94 
-0 -0 -0 -0 -3.493504408103482e-09 -0 0 0 0 1:13 2:98 4:74 5:51 6:57 7:32 9:2 10:22 11:4 12:85 13:41 14:100 15:100 16:100 
-0 -0 -0 -0 -4.51094163053897e-09 -0 0 0 0 1:22 2:100 4:55 5:40 6:59 7:53 8:2 9:19 11:20 12:66 13:41 14:99 15:100 16:98 
-0 -0 -1.349726369683081e-10 -8.748528379876138e-12 -0 -0 0 0 0 1:7 2:91 3:57 4:100 5:8 6:96 8:54 9:57 10:50 11:100 12:21 13:46 15:1 16:14 
-0 -0 -2.950277211799424e-11 -0 -0 -0 0 0 8.640847229488962e-11 1:12 2:60 3:37 4:36 5:41 7:15 8:2 10:42 11:27 12:66 13:63 14:84 15:100 16:100 
-0 -0 -0 -0 -1.710026770013283e-09 -0 0 0 0 1:24 2:88 4:46 5:54 6:45 7:20 9:24 10:55 11:38 12:95 13:51 14:94 15:100 16:100 
-1.103145583454247e-11 -0 -0 -7.840963045056893e-11 -0 -1.221023024227305e-10 0 0 0 1:46 2:83 3:41 4:52 5:38 6:15 9:18 10:32 11:36 12:65 13:59 14:87 15:100 16:100 
-0 -0 -0 -0 -0 -0 9.103134244118115e-10 0 0 1:100 2:93 3:78 4:95 5:29 6:100 8:82 9:33 10:70 11:73 12:45 13:61 15:18 16:1 
-0 -0 -0 -0 -1.37860964403596e-09 -0 0 0 0 1:9 2:95 3:3 4:60 5:65 6:67 7:66 8:8 9:11 12:61 13:32 14:91 15:100 16:100 
-0 -0 -0 -0 -0 -0 1.098515402312705e-09 0 0 1:55 2:85 3:100 4:100 5:82 6:94 7:38 8:74 9:90 10:65 11:94 12:36 13:52 14:13 
-0 -0 -0 -0 -0 -0 0 4.864986322722344e-11 0 2:89 3:14 4:72 5:35 6:59 7:53 8:12 9:14 11:11 12:64 13:42 14:97 15:100 16:100 
-0 -1.680031952108774e-11 -0 -0 -0 -0 0 0 0 2:58 3:39 4:38 5:56 6:5 7:27 9:6 10:35 11:18 12:64 13:59 14:83 15:100 16:100 
-0 -0 -0 -0 -0 -0 5.920907138611325e-11 0 0 1:40 2:85 3:92 4:100 5:100 6:98 7:45 8:85 9:79 10:65 11:99 12:33 13:55 14:7 
-0 -0 -0 -0 -3.218219889303808e-11 -0 0 0 0 1:100 2:90 3:75 4:100 5:42 6:81 7:63 8:51 9:97 10:29 11:85 12:4 13:42 16:4 
-0 -3.234434486081263e-11 -0 -0 -0 -0 0 9.581582463240719e-11 0 1:34 2:62 3:51 4:96 5:55 6:56 7:50 8:13 11:6 12:56 13:38 14:100 15:100 16:90 
-0 -0 -0 -0 -1.716774422336678e-09 -0 0 0 0 1:16 2:94 4:60 5:53 6:50 7:47 9:17 10:11 11:13 12:70 13:46 14:100 15:100 16:96 
-0 -0 -0 -0 -0 -0 1.678355724345606e-10 0 0 1:10 2:68 3:25 4:34 5:20 7:2 8:24 10:66 11:30 12:88 13:65 14:95 15:100 16:100 
-0 -0 -0 -0 -0 -0 0 1.097937567990716e-10 0 1:36 2:100 3:23 4:78 5:57 6:38 7:31 10:16 11:11 12:71 13:51 14:94 15:100 16:82 
-0 -0 -0 -0 -0 -0 7.400439965997392e-10 0 0 1:33 2:75 3:68 4:100 5:100 6:98 7:52 8:92 9:37 10:51 11:79 12:35 13:47 14:6 
-0 -0 -0 -0 -4.332152253212475e-09 -0 0 0 0 1:15 2:96 3:3 4:61 5:57 6:49 7:42 9:10 10:13 12:66 13:44 14:95 15:100 16:100 
-9.776217751857353e-12 -0 -0 -1.875987413938192e-11 -0 -0 0 0 0 1:42 2:100 3:11 4:71 5:38 6:34 7:17 10:26 11:3 12:79 13:50 14:90 15:100 16:85 
-9.560350870335524e-12 -0 -0 -0 -0 -0 0 0 0 1:100 2:92 3:46 4:100 5:11 6:78 7:37 8:56 9:86 10:43 11:81 13:28 14:5 16:41 
-0 -0 -0 -0 -0 -0 1.669093608650084e-10 0 0 1:79 2:90 3:61 4:100 5:26 6:73 7:44 8:60 9:97 10:50 11:100 12:17 13:51 16:8 
-0 -2.134340272170395e-11 -0 -0 -0 -0 0 0 0 2:98 3:67 4:93 5:47 6:100 7:19 8:68 9:45 10:55 11:100 12:33 13:73 15:17 16:7 
-0 -0 -0 -3.918191955126832e-10 -0 -7.914906147236273e-11 1.147802979119142e-09 0 0 1:100 2:100 3:46 4:90 5:19 6:71 7:42 8:63 9:92 10:56 11:91 12:26 13:54 14:2 
-0 -0 -0 -0 -0 -4.292686406061428e-12 0 0 0 1:98 2:100 3:36 4:99 6:69 7:30 8:52 9:89 10:49 11:100 12:4 13:42 15:9 16:36 
-0 -0 -0 -0 -5.17686191834294e-10 -0 0 0 0 1:25 2:92 3:20 4:41 5:67 6:47 7:55 9:20 10:30 12:76 13:43 14:100 15:100 16:99 
-0 -3.729527737212135e-11 -7.347421639756838e-10 -4.797541864287853e-11 -0 -8.209802819804257e-11 0 9.189111578856072e-11 0 1:24 2:80 3:59 4:95 5:100 6:100 7:63 8:92 9:25 10:78 11:21 12:47 13:36 14:16 
-0 -0 -0 -0 -0 -0 0 0 7.374509929712386e-12 1:43 2:87 3:100 4:100 5:96 6:93 7:47 8:72 9:53 10:48 11:91 12:34 13:58 14:2 
-0 -2.461250121012561e-11 -9.759771780527745e-11 -4.002822053300722e-11 -0 -3.626868586213489e-11 1.513746391879927e-10 0 0 1:21 2:52 4:48 5:39 6:50 7:100 8:51 9:68 11:26 12:29 13:8 14:83 15:85 16:100 
-0 -4.373015873035542e-12 -5.431078875527141e-10 -0 -0 -0 0 6.992178231612929e-12 1.879623776819565e-09 1:68 2:82 3:100 4:100 5:99 6:91 7:68 8:75 9:95 10:48 11:80 12:21 13:41 14:7 
-0 -0 -0 -0 -0 -0 0 9.163690905743211e-11 2.046752868236471e-10 1:1 2:97 3:68 4:98 5:39 6:100 7:21 8:63 9:55 10:50 11:100 12:25 13:46 16:19 
-4.71481939950805e-10 -0 -0 -0 -0 -0 0 0 0 1:70 2:97 3:28 4:78 5:65 6:53 7:57 8:9 11:13 12:42 13:51 14:86 15:100 16:100 
-0 -0 -0 -0 -1.582153836722114e-10 -0 0 0 0 1:100 2:94 3:66 4:100 5:24 6:86 7:19 8:51 9:65 10:40 11:90 12:14 13:48 16:3 
-0 -0 -0 -0 -0 -0 0 2.427858837708578e-11 0 1:10 2:91 3:20 4:59 5:83 6:56 7:100 8:13 9:40 11:3 12:42 14:82 15:60 16:100 
-0 -0 -0 -0 -2.328566279285227e-11 -0 0 0 0 1:100 2:100 3:62 4:98 5:28 6:83 7:48 8:57 9:78 10:35 11:67 12:11 13:29 14:4 
-1.425737442831197e-09 -0 -0 -0 -0 -1.78010960610018e-11 0 0 0 1:60 2:91 4:85 5:19 6:37 7:82 8:27 9:31 11:3 12:30 13:40 14:74 15:100 16:100 
-0 -0 -6.524240639809087e-11 -0 -0 -0 0 0 3.206628433390607e-09 1:21 2:80 3:60 4:95 5:100 6:100 7:55 8:87 9:37 10:52 11:76 12:28 13:46 14:2 
-1.031487669157035e-09 -0 -0 -0 -0 -0 0 0 0 1:57 2:96 4:87 5:46 6:65 7:63 8:15 9:7 11:3 12:39 13:43 14:84 15:100 16:100 
-0 -0 -0 -0 -0 -7.015614819549115e-12 0 0 0 1:34 2:89 4:64 5:47 6:49 7:61 8:8 9:25 11:33 12:53 13:45 14:100 15:100 16:92 
-0 -1.22333830828527e-11 -0 -0 -0 -0 0 5.979752299812986e-11 0 1:11 2:84 4:66 5:58 6:67 7:99 8:41 9:41 11:6 12:33 13:8 14:84 15:100 16:100 
-0 -4.334836135938341e-11 -6.41875166828882e-10 -0 -0 -0 0 0 0 1:100 2:97 3:69 4:100 5:39 6:86 7:59 8:62 9:78 10:36 11:63 12:9 13:30 14:2 
-2.856079958735364e-10 -3.565356535216524e-11 -5.812840694934581e-10 -0 -0 -0 0 9.716882935427847e-11 0 1:4 2:73 3:53 4:91 5:100 6:100 7:47 8:88 9:20 10:41 11:72 12:36 13:52 14:1 
-0 -0 -0 -0 -0 -0 0 5.440152955788779e-11 0 1:97 2:94 3:58 4:100 5:30 6:76 7:67 8:58 9:100 10:35 11:84 12:4 13:37 16:15 
-0 -0 -6.721765542095747e-11 -0 -0 -0 0 0 0 1:2 2:64 3:31 4:33 5:47 6:3 9:3 10:39 11:8 12:74 13:54 14:89 15:100 16:100 
-0 -0 -0 -0 -0 -0 0 0 2.709787260277681e-10 1:40 2:92 3:100 4:100 5:97 6:94 7:43 8:77 9:57 10:54 11:89 12:27 13:55 16:8 
-0 -0 -8.705709030243676e-12 -1.052769052084503e-10 -1.003598828392825e-10 -2.799559022360216e-11 0 1.866372597830074e-11 1.194979750142789e-09 1:72 2:94 3:25 4:100 5:26 6:71 7:25 8:36 9:72 10:44 11:100 12:18 13:55 16:2 
-0 -0 -0 -0 -6.22191103240289e-10 -3.359816703260045e-11 0 0 0 1:100 2:96 3:42 4:100 5:8 6:76 8:43 9:55 10:42 11:92 12:20 13:62 15:6 16:8 
-2.025976920647265e-10 -1.808421208195338e-11 -0 -1.289533033509866e-11 -0 -0 0 3.57415798159042e-11 0 1:100 2:100 3:38 4:87 5:2 6:62 7:48 8:51 9:94 10:28 11:70 14:4 15:2 16:28 
-0 -3.309757744521563e-11 -0 -0 -0 -0 0 0 0 1:40 2:92 3:74 4:99 5:100 6:100 7:66 8:92 9:33 10:80 11:30 12:39 13:32 
-7.332187413929204e-11 -0 -0 -0 -0 -0 3.487473078522869e-10 0 0 1:10 2:89 3:32 4:98 5:36 6:100 8:68 9:31 10:49 11:100 12:29 13:60 15:1 16:15 
-8.92640288583704e-11 -0 -0 -0 -0 -0 0 0 0 1:100 2:81 3:66 4:100 5:29 6:82 7:5 8:52 9:31 10:45 11:68 12:28 13:46 16:2 
-0 -0 -0 -0 -0 -0 9.310507967122258e-10 0 0 1:54 2:87 3:72 4:100 5:100 6:100 7:69 8:100 9:42 10:84 11:44 12:45 13:28 14:10 
-7.760672837702708e-11 -0 -0 -0 -0 -0 0 0 0 1:43 2:82 3:21 4:51 5:35 6:15 9:8 10:32 11:30 12:66 13:64 14:85 15:100 16:100 
-0 -0 -0 -0 -0 -0 3.943431176577592e-09 0 0 1:97 2:94 3:61 4:100 5:28 6:77 7:67 8:71 9:100 10:47 11:86 12:8 13:43 16:12 
-0 -3.317128969561847e-12 -1.034384399138327e-10 -1.16874437446588e-11 -0 -0 0 0 0 1:37 2:100 3:14 4:55 5:84 6:61 7:100 8:20 9:38 11:2 12:43 14:83 15:72 16:87 
-1.079465154401113e-10 -1.876771978183971e-12 -0 -0 -0 -0 0 0 0 1:33 2:79 3:83 4:99 5:100 6:100 7:47 8:84 10:62 11:22 12:38 13:53 14:14 15:1 
-0 -0 -0 -0 -0 -0 1.339112900697756e-09 0 0 1:40 2:88 3:99 4:100 5:78 6:94 7:25 8:75 9:74 10:69 11:100 12:42 13:62 14:13 
-0 -0 -0 -0 -0 -0 0 0 2.029546082407537e-10 1:18 2:95 3:14 4:65 5:77 6:57 7:100 8:13 9:49 11:12 12:43 14:88 15:62 16:100 
-0 -0 -0 -0 -1.249182799210356e-10 -0 0 0 0 1:100 2:100 3:65 4:94 5:34 6:83 7:27 8:50 9:67 10:40 11:76 12:12 13:40 16:7 
-0 -0 -0 -0 -0 -0 -1.00854110630105e-09 0 0 1:100 2:96 3:66 4:100 5:63 6:85 7:85 8:88 9:78 10:53 11:66 12:20 13:35 16:12 
-0 -0 -0 -0 -0 -0 -3.283856104191734e-11 0 0 1:29 2:74 3:97 4:77 5:100 6:100 8:84 9:2 10:59 11:100 12:71 13:44 14:35 15:7 
-0 -0 -2.005835735962689e-11 -0 -0 -0 -0 0 0 1:68 2:46 3:89 4:75 5:52 6:100 8:80 9:6 10:53 11:72 12:54 13:100 14:33 15:89 
-2.523452229156674e-11 -0 -1.778375133293951e-10 -0 -0 -0 -0 0 1.058390881787654e-10 1:84 2:52 3:98 4:96 5:64 6:100 7:73 8:62 9:100 10:55 11:83 12:9 13:42 16:4 
-0 -0 -0 -3.33900556908795e-10 -0 -0 -0 0 0 1:78 2:72 3:81 4:100 5:8 6:91 8:55 9:69 10:59 11:100 12:71 13:74 14:33 15:58 
-0 -0 -0 -0 -0 -0 -8.51999671205772e-10 0 0 1:79 2:81 3:57 4:100 5:17 6:82 7:62 8:65 9:99 10:52 11:100 12:16 13:52 14:1 
-0 -0 -4.308745609317135e-10 -3.742349867109946e-10 -0 -0 -0 1.310850199028345e-10 7.952437145892626e-10 1:7 2:100 4:73 5:57 6:81 7:49 8:80 9:76 10:52 11:100 12:23 13:65 15:1 16:2 
-0 -0 -0 -0 -0 -0 -2.647659038652064e-10 0 0 1:57 2:87 3:100 4:69 5:97 6:100 7:23 8:83 9:74 10:59 11:96 12:52 13:78 14:10 
-0 -0 -0 -0 -0 -0 -6.687623409418045e-10 0 0 1:79 2:89 3:100 4:100 5:41 6:96 8:74 9:53 10:66 11:95 12:51 13:74 14:24 15:39 
-0 -0 -0 -0 -0 -0 -2.400857945360949e-10 0 0 1:100 2:79 3:81 4:100 5:41 6:79 7:62 8:59 9:93 10:64 11:80 12:27 13:46 
-0 -0 -0 -0 -0 -0 -8.780160534389962e-10 0 0 1:30 2:97 3:82 4:100 5:65 6:67 7:19 8:87 9:81 10:83 11:100 12:39 13:68 16:16 
-0 -0 -0 -1.419177612319703e-10 -0 -0 -0 0 0 1:87 2:90 3:38 4:100 6:82 7:46 8:71 9:100 10:71 11:73 12:47 13:38 14:24 15:27 
-4.029923213158295e-11 -0 -0 -1.072959253027758e-11 -2.114895345459311e-12 -2.971690029134168e-11 -0 0 0 2:3 3:28 5:62 6:18 7:87 8:43 9:100 10:71 11:89 12:100 13:54 14:98 15:78 16:80 
-0 -0 -0 -0 -0 -0 -3.049282301555264e-10 0 1.17377483760526e-10 1:8 2:64 3:65 4:74 5:100 6:100 7:43 8:93 10:66 11:57 12:72 13:48 14:42 15:27 
-0 -0 -0 -0 -0 -6.015746007808042e-11 -4.245214580547733e-10 0 0 1:21 2:94 3:44 4:73 5:100 6:100 7:13 8:100 9:16 10:80 11:61 12:66 13:23 14:33 
-0 -0 -7.106057535432545e-11 -0 -0 -0 -0 1.580003628423729e-10 0 1:62 2:76 4:82 5:29 6:100 7:90 8:98 9:100 10:74 11:90 12:49 13:75 14:25 15:70 
-0 -3.173663099061073e-11 -0 -0 -0 -0 -6.189634366777538e-10 9.140316296742389e-13 6.50424001601585e-10 1:74 2:98 3:43 4:100 5:69 6:89 7:90 8:82 9:100 10:38 11:84 12:3 13:41 16:8 
-0 -0 -0 -0 -0 -0 -5.235150591919355e-10 0 0 1:49 2:97 3:56 4:77 5:68 6:100 7:40 8:82 9:78 10:55 11:100 12:23 13:52 14:5 
-0 -0 -0 -0 -0 -2.766738620347877e-11 -0 0 0 1:41 2:71 3:32 4:40 5:100 6:76 7:34 8:100 9:36 10:57 11:89 12:68 13:70 14:4 
-0 -0 -0 -0 -1.017891453104958e-10 -0 -0 0 0 1:50 2:100 3:4 4:93 5:22 6:66 7:42 8:84 9:66 10:49 11:100 12:15 13:56 16:10 
-0 -0 -0 -0 -0 -0 -0 0 1.703152671662571e-10 1:44 2:68 3:79 4:100 5:26 6:93 7:59 8:67 9:100 10:71 11:95 12:25 13:56 16:12 
-0 -0 -0 -0 -0 -0 -3.011811373379588e-10 0 0 1:46 2:97 3:90 4:97 5:55 6:68 7:66 8:100 9:100 10:60 11:97 12:9 13:40 16:34 
-0 -0 -0 -0 -0 -9.210373691838057e-11 -0 0 0 1:92 2:100 3:54 4:84 5:66 6:70 7:100 8:88 9:85 10:64 11:68 12:39 13:39 14:18 
-0 -0 -0 -3.830864618798562e-10 -0 -4.741241963039928e-11 -0 0 0 1:79 2:100 3:35 4:86 5:60 6:67 7:100 8:85 9:89 10:71 11:70 12:43 13:40 14:19 
-0 -0 -0 -0 -1.299021499684465e-11 -0 -0 0 1.954527890721118e-11 1:44 2:56 3:99 4:74 5:100 6:100 7:30 8:80 10:49 11:74 12:64 13:62 14:39 15:36 
-0 -1.863200092335374e-11 -0 -0 -0 -0 -0 0 0 3:42 4:18 5:77 6:43 7:100 8:73 9:84 10:100 11:29 12:92 13:24 14:64 15:79 16:53 
-0 -4.102602195430998e-11 -5.767637883887316e-10 -6.090683595280557e-11 -0 -2.617428383124165e-11 -0 0 0 2:69 3:52 4:60 5:100 6:77 7:74 8:100 9:23 10:89 11:47 12:69 13:55 14:36 15:51 
-8.417891336240681e-11 -0 -0 -0 -0 -0 -0 0 3.88139263891753e-10 1:14 2:76 3:57 4:100 5:63 6:55 7:13 8:72 9:71 10:86 11:100 12:37 13:52 16:21 
-0 -9.06810605437593e-12 -0 -0 -0 -0 -0 0 1.581180870108296e-11 2:76 3:66 4:74 5:100 6:100 7:28 8:88 9:3 10:59 11:76 12:69 13:74 14:40 15:59 
-1.881933711468833e-11 -0 -0 -0 -0 -4.09118402492949e-11 -0 0 0 3:46 4:16 5:85 6:41 7:100 8:72 9:73 10:100 11:18 12:95 13:19 14:66 15:76 16:55 
-0 -0 -0 -1.105103500537398e-10 -0 -0 -0 0 0 1:100 2:83 3:47 4:100 6:79 7:25 8:51 9:78 10:68 11:82 12:71 13:77 14:34 15:64 
-0 -6.608000244498423e-11 -3.440034293757837e-10 -0 -0 -0 -0 1.138453137024965e-10 0 2:91 3:47 4:70 5:62 6:100 7:43 8:78 9:91 10:70 11:100 12:30 13:68 15:29 16:12 
-0 -0 -0 -0 -1.480430321874976e-11 -0 -0 0 0 1:95 2:59 3:74 4:100 5:6 6:96 8:52 9:64 10:59 11:100 12:70 13:73 14:26 15:15 
-0 -0 -0 -0 -6.457164991226069e-11 -0 -1.019336005172911e-09 0 0 1:100 2:76 3:73 4:100 5:18 6:95 7:11 8:66 9:66 10:65 11:74 12:48 13:49 14:16 
-4.945636372410804e-11 -3.943239678821745e-11 -2.790832736079016e-11 -0 -3.60026213242628e-12 -0 -0 0 0 1:69 2:48 3:100 4:74 5:76 6:100 7:26 8:86 10:56 11:46 12:44 13:81 14:34 15:77 
-0 -0 -0 -1.702548614403401e-11 -0 -0 -0 0 0 3:33 4:12 5:66 6:35 7:90 8:61 9:100 10:89 11:57 12:100 13:25 14:79 15:58 16:60 
-0 -0 -0 -2.564561786720709e-10 -0 -0 -0 0 0 1:73 2:100 3:12 4:90 6:55 7:65 8:61 9:100 10:71 11:99 12:32 13:65 15:3 16:6 
-0 -0 -0 -0 -0 -0 -0 8.396583910086438e-13 0 1:56 2:76 3:66 4:100 6:88 7:23 8:60 9:90 10:71 11:100 12:68 13:87 14:31 15:92 
-0 -0 -0 -6.936678629959755e-12 -0 -1.060520573374102e-10 -0 0 0 1:100 2:80 3:60 4:62 6:48 7:26 8:79 9:81 10:100 11:90 12:67 13:59 14:32 15:30 
-0 -0 -0 -0 -2.263916132279163e-11 -0 -0 0 0 1:59 2:78 3:60 4:100 5:7 6:94 8:65 9:53 10:57 11:100 12:42 13:80 14:14 15:32 
-0 -0 -4.705447081621077e-10 -0 -0 -0 -0 0 0 1:79 2:89 3:57 4:100 5:65 6:89 7:100 8:91 9:83 10:62 11:59 12:36 13:32 14:13 
-0 -0 -0 -0 -0 -8.817824169952909e-12 -0 0 0 1:100 2:72 3:43 4:78 6:91 7:50 8:100 9:54 10:75 11:40 12:50 13:30 14:25 15:29 
-0 -0 -1.43599648459952e-10 -0 -0 -0 -0 5.536967704527131e-12 0 1:63 2:67 3:13 4:77 5:39 6:100 7:96 8:93 9:100 10:67 11:75 12:43 13:40 14:20 
-0 -0 -3.549258353973332e-10 -4.591477118248302e-12 -0 -8.469944726318814e-12 -0 0 0 3:35 4:8 5:69 6:31 7:93 8:62 9:100 10:100 11:69 12:100 13:57 14:64 15:64 16:26 
-0 -0 -0 -0 -0 -0 -2.596681307270717e-10 0 0 1:91 2:95 3:43 4:100 5:25 6:65 7:72 8:59 9:100 10:64 11:92 12:23 13:52 16:8 
-0 -4.551539517417688e-12 -0 -0 -0 -0 -0 1.626746775228514e-10 0 1:50 2:85 3:3 4:100 5:4 6:78 7:63 8:68 9:100 10:61 11:80 12:19 13:32 16:7 
-0 -7.888041206953939e-11 -4.478467303858465e-10 -0 -0 -0 -0 2.99338991917937e-10 0 1:57 2:100 4:83 5:48 6:72 7:100 8:93 9:89 10:74 11:67 12:47 13:48 14:21 15:56 
-0 -0 -0 -0 -2.898767533336865e-12 -0 -1.822171339849365e-09 0 0 1:100 2:89 3:58 4:100 5:29 6:72 7:70 8:75 9:79 10:49 11:87 12:8 13:43 16:8 
-0 -0 -0 -0 -0 -0 -0 0 4.733748410160628e-12 1:45 2:100 3:4 4:91 5:40 6:77 7:51 8:76 9:72 10:49 11:100 12:22 13:69 16:3 
-0 -0 -0 -0 -0 -2.450503861942974e-11 -0 0 0 1:44 2:82 3:42 4:51 5:100 6:77 7:47 8:100 10:81 11:74 12:69 13:54 14:35 15:36 
-0 -0 -0 -0 -0 -0 -0 8.022335418212894e-12 0 2:100 3:13 4:72 5:87 6:78 7:58 8:97 9:49 10:80 11:100 12:58 13:70 14:29 15:47 
-0 -0 -0 -2.59723133114465e-11 -0 -0 -0 0 0 1:74 2:100 3:72 4:59 5:16 6:57 7:45 8:95 9:96 10:84 11:100 12:36 13:61 16:3 
-0 -0 -0 -0 -0 -0 -0 0 4.474771461695862e-12 1:94 2:75 3:55 4:100 6:78 7:17 8:45 9:76 10:62 11:100 12:78 13:92 14:36 15:84 
-6.354834048276155e-11 -0 -0 -0 -0 -0 -0 0 0 1:46 2:48 3:100 4:74 5:87 6:100 7:10 8:86 9:30 10:68 11:90 12:58 13:43 14:29 
-0 -0 -0 -0 -0 -0 -6.878767603026556e-11 0 0 1:27 2:76 3:74 4:75 5:100 6:100 7:30 8:97 10:75 11:56 12:55 13:81 14:28 15:68 
-9.752272157517526e-12 -0 -0 -0 -0 -0 -0 0 0 1:79 2:70 3:18 4:71 5:38 6:100 7:72 8:80 9:85 10:48 11:100 12:16 13:57 16:15 
-0 -0 -0 -0 -0 -0 -1.464287217750453e-09 0 0 1:68 2:66 3:100 4:98 5:57 6:100 7:27 8:68 9:73 10:72 11:78 12:37 13:45 14:5 
-0 -0 -0 -0 -0 -2.046826369070887e-11 -0 0 0 1:64 2:81 3:7 4:82 5:54 6:74 7:100 8:100 9:4 10:87 11:82 12:61 13:55 14:29 
-0 -0 -0 -0 -0 -0 -0 6.48238374143716e-11 0 2:81 3:53 4:71 5:100 6:100 7:47 8:100 9:14 10:69 11:77 12:76 13:78 14:42 15:61 
-0 -0 -0 -0 -0 -0 -0 0 1.240577220072364e-10 1:69 2:67 3:100 4:100 5:42 6:94 7:31 8:57 9:86 10:69 11:90 12:43 13:58 14:7 
-3.504736927475307e-11 -0 -0 -0 -0 -0 -0 0 0 1:61 2:83 3:4 4:66 5:29 6:100 7:80 8:85 9:100 10:46 11:100 12:6 13:43 16:29 
-0 -0 -0 -0 -0 -0 -5.645913784287677e-10 0 0 1:81 2:100 3:39 4:94 5:69 6:77 7:63 8:73 9:86 10:41 11:100 12:9 13:52 16:2 
-0 -0 -0 -8.270400253304089e-11 -1.553185902943477e-11 -4.28378639882643e-11 -0 0 1.718890195585422e-11 3:32 4:13 5:77 6:36 7:100 8:65 9:92 10:94 11:32 12:100 13:7 14:75 15:66 16:63 
-0 -0 -0 -1.21845829496062e-09 -0 -0 -0 0 0 1:75 2:100 3:4 4:88 6:61 7:74 8:70 9:100 10:88 11:82 12:58 13:56 14:28 15:51 
-0 -0 -0 -3.034348625902882e-11 -0 -0 -0 0 0 1:81 2:67 3:72 4:100 6:83 7:31 8:50 9:100 10:66 11:94 12:51 13:83 14:11 15:4 
-5.761887638165382e-11 -0 -0 -0 -0 -0 -0 0 0 1:40 2:100 3:15 4:68 5:85 6:73 7:24 8:89 9:77 10:59 11:100 12:32 13:52 16:29 
-2.242536287266285e-10 -0 -2.737369564964836e-11 -0 -0 -0 -0 0 0 2:60 3:39 4:49 5:100 6:78 7:57 8:100 9:10 10:68 11:88 12:58 13:80 14:20 15:11 
-0 -0 -3.700220957766723e-11 -0 -0 -0 -0 0 0 1:37 2:69 3:100 4:83 5:61 6:100 8:91 9:64 10:78 11:62 12:55 13:26 14:28 15:2 
-0 -0 -0 -0 -0 -1.360774225950574e-11 -0 -0 0 1:22 2:93 4:95 5:50 6:97 7:100 8:100 9:67 10:81 11:43 12:56 13:28 14:28 15:30 
-3.21675765515243e-10 -0 -0 -0 -3.337531281038717e-11 -0 -0 -0 0 1:2 2:85 3:31 4:100 5:76 6:74 7:62 8:37 9:47 11:100 12:8 13:68 14:30 16:41 
-0 -0 -0 -0 -0 -0 -1.479217251851483e-11 -0 9.6554909258905e-10 2:96 3:45 4:100 5:100 6:99 7:79 8:83 9:60 10:63 11:45 12:42 13:36 14:21 15:33 
-0 -0 -2.082682214180691e-09 -0 -0 -0 -0 -0 0 2:89 3:41 4:94 5:87 6:100 7:100 8:98 9:80 10:75 11:68 12:50 13:59 14:25 15:60 
-0 -4.856385009640301e-10 -0 -0 -0 -0 -0 -0 0 2:80 3:30 4:100 5:74 6:81 7:82 8:43 9:75 10:4 11:39 13:44 14:16 15:100 16:20 
-2.326870210020579e-10 -0 -0 -0 -0 -0 -0 -0 0 1:16 2:78 4:100 5:76 6:92 7:100 8:78 9:77 10:35 11:74 13:98 14:32 15:27 16:38 
-0 -0 -0 -0 -0 -0 -9.092762644319439e-12 -0 0 1:33 2:89 3:92 4:100 5:100 6:91 7:63 8:62 9:29 10:31 13:6 14:29 15:66 16:38 
-0 -0 -0 -0 -0 -0 -0 -0 6.073506839121498e-10 2:91 3:19 4:97 5:69 6:100 7:100 8:85 9:84 10:62 11:59 12:41 13:33 14:21 15:7 
-0 -0 -0 -2.687018987309979e-10 -9.926643168722637e-11 -3.05706450646568e-11 -0 -0 0 2:89 3:26 4:100 5:35 6:51 7:32 9:13 10:13 11:22 12:32 13:60 14:40 15:100 16:46 
-0 -0 -0 -0 -0 -0 -0 -0 2.135411214408085e-09 2:74 3:13 4:100 5:55 6:100 7:100 8:98 9:79 10:80 11:59 12:55 13:45 14:28 15:42 
-0 -0 -4.871369940087839e-11 -0 -0 -0 -0 -0 3.997617214126638e-10 2:89 3:44 4:100 5:91 6:89 7:77 8:53 9:63 10:17 11:83 13:100 14:15 15:50 16:20 
-0 -2.294040265110914e-11 -9.335369467300112e-11 -0 -0 -0 -0 -0 0 2:72 3:32 4:91 5:77 6:100 7:100 8:88 9:87 10:45 11:75 13:61 14:15 15:89 16:34 
-0 -0 -0 -0 -0 -0 -0 -0 3.133401625362229e-09 2:94 3:32 4:100 5:77 6:98 7:100 8:81 9:83 10:60 11:60 12:40 13:38 14:20 15:22 
-0 -0 -0 -0 -2.804988751838223e-11 -0 -0 -4.959280227427678e-11 0 1:11 2:83 3:41 4:100 5:47 6:67 7:25 8:35 9:8 12:31 13:49 14:32 15:100 16:31 
-0 -1.449404680950161e-10 -0 -0 -0 -0 -0 -0 0 2:83 3:37 4:99 5:81 6:100 7:100 8:74 9:84 10:36 11:65 13:33 14:8 15:55 16:27 
-4.40379389947077e-10 -0 -0 -0 -0 -0 -0 -0 0 1:31 2:90 3:63 4:100 5:100 6:76 7:75 8:36 9:56 11:96 12:34 13:61 14:43 16:45 
-0 -0 -0 -0 -0 -0 -0 -0 3.461908786301573e-11 2:67 3:46 4:91 5:100 6:100 7:83 8:56 9:52 10:15 11:22 13:29 14:28 15:85 16:29 
-1.828111962190663e-11 -0 -0 -0 -2.688322256668292e-10 -7.944167718775688e-11 -2.856524202011433e-10 -0 0 1:7 2:100 3:40 4:89 5:37 6:48 7:21 8:9 11:3 12:40 13:48 14:58 15:100 16:65 
-0 -0 -0 -0 -0 -0 -0 -0 9.468352402590933e-10 2:86 3:35 4:97 5:100 6:100 7:73 8:67 9:48 10:34 11:21 13:18 14:5 15:56 16:24 
-9.290171637511807e-12 -0 -0 -0 -0 -0 -0 -0 0 2:96 3:41 4:100 5:100 6:88 7:59 8:49 9:34 11:53 12:4 13:64 14:33 15:8 16:34 
-0 -0 -2.705214711232216e-10 -0 -0 -0 -0 -0 0 1:34 2:100 3:100 4:87 5:82 6:58 7:55 8:29 9:42 11:3 12:7 14:27 15:85 16:35 
-4.238153762937731e-12 -0 -0 -0 -0 -0 -4.672896948141403e-11 -0 0 1:26 2:73 3:35 4:100 5:100 6:97 7:78 8:68 9:46 10:35 11:26 14:31 15:52 16:30 
-0 -0 -0 -0 -0 -0 -0 -0 2.741226489870487e-10 2:99 3:27 4:100 5:64 6:95 7:100 8:87 9:77 10:63 11:58 12:36 13:41 14:7 15:32 
-0 -0 -4.821841514877401e-10 -4.088998473803493e-10 -0 -0 -0 -1.34488997729533e-10 0 2:100 3:15 4:84 5:57 6:75 7:100 8:68 9:77 10:55 11:53 12:34 13:29 14:13 15:16 
-0 -0 -0 -0 -0 -0 -0 -7.934584496364663e-12 0 1:35 2:97 3:68 4:100 5:100 6:69 7:75 8:34 9:44 11:91 12:15 13:75 14:34 16:33 
-0 -0 -7.870478718099904e-10 -0 -0 -0 -1.344453056567051e-10 -0 2.380129546484217e-10 1:26 2:97 3:29 4:100 5:75 6:99 7:100 8:83 9:82 10:61 11:56 12:39 13:27 14:20 
-0 -2.022054723717386e-09 -1.082394953815356e-09 -0 -0 -0 -0 -0 4.577736421351431e-10 1:1 2:87 3:38 4:100 5:49 6:63 7:34 8:22 9:16 12:29 13:49 14:24 15:100 16:22 
-0 -6.974035736403568e-10 -0 -0 -0 -0 -0 -0 0 2:79 3:24 4:100 5:62 6:84 7:66 8:53 9:56 10:22 11:43 13:49 14:24 15:100 16:22 
-0 -0 -0 -0 -3.214658428147708e-11 -0 -0 -6.252182559204625e-10 0 1:34 2:91 4:98 5:42 6:100 7:83 8:94 9:100 10:71 11:86 12:46 13:62 14:23 15:46 
-0 -0 -0 -0 -0 -0 -7.990971382469715e-11 -0 0 2:66 3:21 4:100 5:50 6:78 7:42 8:33 9:24 11:9 12:40 13:54 14:55 15:100 16:69 
-0 -1.398490015726285e-11 -0 -0 -0 -0 -0 -0 0 1:7 2:72 4:100 5:42 6:100 7:100 8:100 9:90 10:80 11:61 12:55 13:39 14:28 15:23 
-0 -4.015078453620334e-10 -8.335801926633091e-11 -0 -0 -0 -0 -0 0 1:25 2:100 3:71 4:93 5:77 6:57 7:59 8:20 9:30 12:28 13:50 14:25 15:100 16:14 
-2.008507228903155e-10 -0 -0 -0 -0 -0 -0 -0 0 1:24 2:100 3:77 4:93 5:100 6:72 7:71 8:48 9:46 10:23 11:28 14:24 15:31 16:35 
-0 -0 -0 -1.385553660333019e-10 -0 -1.747141561663784e-11 -1.230917722731138e-11 -0 0 1:13 2:65 4:94 5:38 6:98 7:78 8:100 9:100 10:93 11:83 12:63 13:67 14:32 15:57 
-0 -9.228817938632375e-10 -1.348965932192164e-10 -0 -0 -0 -0 -0 0 1:34 2:77 3:77 4:100 5:100 6:74 7:75 8:43 9:40 10:16 14:24 15:79 16:26 
-1.646588999483024e-10 -0 -0 -0 -0 -0 -0 -0 0 2:83 3:26 4:90 5:100 6:100 7:72 8:68 9:38 10:34 11:7 13:3 14:19 15:46 16:41 
-0 -0 -0 -0 -5.245517114812908e-11 -0 -0 -0 0 1:32 2:100 3:57 4:90 5:46 6:51 7:25 8:15 9:6 12:38 13:48 14:46 15:100 16:48 
-0 -0 -0 -0 -0 -0 -0 -8.263890256327996e-11 0 1:29 2:100 3:72 4:80 5:65 6:52 7:38 8:25 11:2 12:22 13:25 14:47 15:100 16:49 
-0 -4.951253351169671e-10 -0 -0 -0 -0 -0 -0 4.104963618438681e-10 2:78 3:23 4:91 5:61 6:97 7:100 8:100 9:87 10:75 11:78 12:50 13:71 14:24 15:68 
-0 -2.468208385150296e-09 -4.368716350919877e-10 -0 -0 -0 -0 -0 1.830853543019861e-09 2:100 3:46 4:96 5:91 6:94 7:100 8:82 9:72 10:59 11:53 12:33 13:49 14:5 15:66 
-2.190345856973053e-11 -0 -0 -2.623354334110764e-11 -1.736587973254203e-10 -1.294100907233652e-10 -0 -4.520765346237032e-11 0 1:19 2:100 3:69 4:92 5:68 6:53 7:53 8:15 9:67 11:100 12:27 13:54 14:47 16:56 
-0 -0 -0 -0 -0 -3.662955715606756e-11 -1.006950520812882e-11 -0 0 1:21 2:98 4:100 5:54 6:100 7:100 8:100 9:60 10:81 11:32 12:57 13:21 14:29 15:19 
-0 -6.42125762896928e-10 -2.438377908963643e-10 -0 -0 -0 -0 -0 0 1:2 2:63 4:92 5:39 6:96 7:83 8:100 9:100 10:87 11:81 12:59 13:68 14:30 15:60 
-0 -0 -0 -2.368004985882175e-10 -0 -0 -0 -0 0 1:1 2:94 4:89 5:49 6:90 7:100 8:100 9:99 10:85 11:79 12:56 13:63 14:25 15:54 
-6.400966718818316e-10 -0 -0 -0 -0 -0 -3.033487458211987e-12 -0 0 1:28 2:65 3:41 4:100 5:63 6:64 7:55 8:21 9:31 12:33 13:50 14:45 15:100 16:58 
-0 -0 -2.577195157468546e-10 -0 -1.810984229718269e-11 -0 -0 -0 1.063051511374801e-09 2:96 3:47 4:100 5:71 6:70 7:67 8:35 9:58 11:100 12:1 13:74 14:17 15:19 16:18 
-7.392990459756213e-10 -0 -0 -0 -0 -0 -1.182591380257445e-10 -0 0 1:25 2:100 3:76 4:95 5:75 6:63 7:58 8:29 9:54 11:100 12:24 13:61 14:43 16:54 
-3.596229451667871e-10 -0 -0 -0 -0 -0 -4.603534816234488e-11 -0 0 1:39 2:94 3:47 4:100 5:47 6:61 7:26 8:23 9:3 12:39 13:50 14:50 15:100 16:63 
-0 -0 -0 -8.462468924547071e-11 -0 -1.061673179072077e-11 -0 -0 0 1:40 2:93 4:99 5:50 6:100 7:100 8:99 9:82 10:88 11:64 12:60 13:55 14:30 15:55 
-1.655689010632615e-11 -0 -0 -0 -0 -0 -0 -0 0 2:74 3:33 4:91 5:92 6:100 7:100 8:77 9:71 10:40 11:52 13:37 14:34 15:69 16:44 
-0 -0 -6.568425821397059e-09 -0 -0 -0 -0 -0 -0 1:19 2:73 3:54 4:91 5:100 6:100 7:99 8:78 9:86 10:52 11:78 12:26 13:43 14:8 
-0 -0 -8.639677597840002e-10 -0 -0 -0 -4.969556781345404e-10 -0 -0 1:59 2:85 3:84 4:100 5:82 6:79 7:60 8:56 9:100 10:48 11:74 12:28 13:37 14:14 
-0 -0 -0 -0 -0 -0 -0 -0 -5.398679519149224e-09 2:92 3:42 4:100 5:90 6:100 7:100 8:83 9:71 10:63 11:57 12:40 13:44 14:17 15:14 
-0 -0 -6.794873332581195e-10 -0 -0 -0 -8.448269198798198e-10 -0 -0 1:51 2:100 3:93 4:95 5:64 6:73 7:70 8:61 9:100 10:39 11:82 12:12 13:38 16:7 
-1.562665813283075e-11 -0 -0 -0 -0 -1.187734327792055e-11 -0 -0 -0 2:85 3:43 4:100 5:100 6:95 7:85 8:74 9:44 10:57 11:33 12:37 13:50 14:16 15:9 
-8.598484501393591e-11 -1.223538115558577e-07 -8.87998249376738e-10 -3.360200916193296e-11 -1.671147385343615e-11 -4.502275519069764e-12 -2.851537876153475e-12 -0 -7.276896991656817e-10 1:7 2:90 3:55 4:100 5:93 6:82 7:79 8:54 9:41 10:31 12:10 13:40 15:100 
-0 -0 -1.401032439252091e-09 -0 -0 -0 -0 -0 -0 2:80 3:43 4:93 5:91 6:100 7:96 8:80 9:75 10:57 11:100 12:36 13:90 14:14 15:48 
-0 -0 -0 -0 -0 -0 -2.98212359000222e-09 -0 -0 1:47 2:80 3:71 4:100 5:100 6:89 7:38 8:72 9:44 10:48 11:91 12:23 13:45 16:10 
-0 -0 -1.513501384029319e-10 -0 -0 -0 -0 -0 -0 1:55 2:82 3:95 4:100 5:98 6:83 7:64 8:62 9:91 10:38 11:100 12:13 13:49 16:8 
-0 -0 -0 -0 -0 -0 -0 -4.085531268762091e-10 -0 1:49 2:95 3:82 4:100 5:68 6:68 7:73 8:66 9:100 10:41 11:74 12:12 13:29 16:21 
-0 -0 -0 -2.392896164075219e-10 -5.725185043200164e-11 -5.268233244887865e-11 -1.080899286007369e-10 -3.745130219226574e-10 -0 1:7 2:85 3:29 4:100 5:28 6:70 7:26 8:55 9:83 10:58 11:100 12:31 13:55 14:11 
-0 -8.208562375616172e-10 -0 -0 -0 -0 -0 -0 -0 1:9 2:78 3:48 4:100 5:100 6:94 7:78 8:63 9:85 10:36 11:73 12:6 13:19 16:29 
-0 -0 -0 -0 -0 -0 -0 -5.947920715633059e-11 -0 1:39 2:94 3:74 4:100 5:62 6:74 7:66 8:67 9:100 10:45 11:85 12:16 13:36 16:12 
-0 -0 -0 -0 -0 -0 -0 -2.618734218518763e-11 -0 1:55 2:94 3:30 4:100 5:84 6:99 7:63 8:66 9:77 10:58 11:100 12:31 13:60 14:3 
-0 -0 -0 -0 -0 -0 -8.538706153837011e-13 -0 -1.803370146375029e-09 2:81 3:20 4:100 5:64 6:100 7:100 8:85 9:72 10:60 11:35 12:42 13:46 14:21 15:79 
-0 -0 -6.219418136401154e-09 -0 -0 -0 -1.501482047494375e-09 -0 -0 1:32 2:72 3:57 4:93 5:100 6:100 7:87 8:78 9:62 10:56 11:61 12:30 13:44 14:7 
-0 -0 -0 -0 -0 -0 -0 -0 -6.783663681961524e-10 2:93 3:36 4:100 5:79 6:98 7:94 8:79 9:72 10:57 11:100 12:33 13:79 14:11 15:38 
-3.907757265902848e-11 -0 -0 -0 -0 -0 -0 -0 -0 1:2 2:55 3:18 4:86 5:70 6:100 7:98 8:79 9:75 10:50 11:100 12:15 13:52 16:15 
-0 -0 -0 -0 -0 -0 -4.114465973917609e-10 -2.767593800594355e-10 -0 1:25 2:90 3:24 4:100 5:61 6:90 7:31 8:64 9:77 10:53 11:100 12:27 13:68 14:4 
-0 -0 -0 -0 -0 -0 -4.646971835787914e-11 -0 -0 1:31 2:88 3:68 4:100 5:60 6:86 7:76 8:68 9:100 10:44 11:78 12:18 13:39 14:6 
-0 -0 -5.022120494797764e-10 -0 -0 -0 -0 -0 -0 1:66 2:89 3:100 4:100 5:99 6:81 7:77 8:61 9:64 10:38 11:67 12:15 13:38 14:1 
-0 -6.235931100541917e-09 -2.516042410395103e-09 -2.191996847369928e-10 -0 -2.2686930378989e-11 -0 -0 -1.930169161076359e-09 2:66 3:3 4:93 5:52 6:100 7:100 8:91 9:84 10:65 11:45 12:46 13:27 14:21 15:65 
-0 -5.040790678127094e-10 -0 -0 -0 -0 -0 -0 -0 2:90 3:36 4:100 5:64 6:89 7:53 8:64 9:67 10:41 11:100 12:25 13:88 14:7 15:48 
-0 -0 -0 -0 -0 -0 -0 -1.561653258569239e-10 -0 1:39 2:78 3:25 4:97 5:74 6:100 7:100 8:81 9:85 10:57 11:72 12:32 13:46 14:10 
-0 -0 -0 -0 -0 -0 -0 -1.27201903303683e-10 -0 2:75 3:28 4:92 5:64 6:100 7:93 8:91 9:93 10:62 11:100 12:35 13:78 14:13 15:46 
-0 -0 -1.978781712023902e-09 -0 -0 -0 -0 -0 -0 1:61 2:88 3:100 4:100 5:96 6:81 7:75 8:60 9:80 10:36 11:81 12:13 13:44 16:1 
-0 -0 -0 -0 -0 -0 -0 -0 -8.899270234571192e-10 2:98 3:34 4:100 5:53 6:78 7:47 8:47 9:72 10:26 11:100 12:8 13:68 15:36 16:8 
-0 -0 -0 -0 -0 -0 -0 -3.076905182704708e-10 -0 1:45 2:75 3:22 4:99 5:70 6:100 7:100 8:80 9:62 10:50 11:88 12:23 13:48 16:8 
-0 -0 -0 -0 -0 -0 -1.945728243327187e-10 -0 -0 1:70 2:94 3:98 4:100 5:100 6:79 7:70 8:61 9:75 10:35 11:62 12:12 13:26 
-4.896983738945653e-13 -0 -4.59948842500582e-10 -0 -0 -0 -0 -0 -0 1:2 2:79 3:48 4:100 5:77 6:83 7:60 8:53 9:100 10:28 11:83 13:23 14:1 16:30 
-0 -0 -0 -4.293660705787817e-11 -5.606321626117107e-11 -7.546931444825769e-12 -0 -0 -0 1:49 2:100 3:79 4:95 5:61 6:63 7:67 8:47 9:100 10:27 11:73 12:4 13:31 16:13 
-0 -0 -0 -0 -0 -0 -0 -4.645548087912655e-10 -0 1:38 2:84 3:23 4:100 5:68 6:93 7:41 8:64 9:78 10:52 11:100 12:24 13:60 16:1 
-0 -0 -1.199480127900576e-09 -0 -0 -0 -0 -0 -5.840129978833777e-10 2:100 3:38 4:97 5:44 6:76 7:47 8:54 9:73 10:37 11:100 12:21 13:74 14:6 15:35 
-0 -0 -0 -0 -3.340878282793707e-11 -1.329765222404904e-11 -3.378792402897332e-11 -2.120464162092267e-10 -0 1:61 2:100 3:100 4:84 5:84 6:62 7:37 8:53 9:71 10:39 11:87 12:15 13:47 16:4 
-0 -0 -0 -0 -0 -3.164368414184168e-11 -0 -0 -0 1:60 2:89 3:69 4:100 5:100 6:88 7:69 8:68 9:48 10:47 11:76 12:29 13:40 14:13 
-1.641904783641524e-10 -0 -0 -0 -4.124478168490125e-11 -0 -0 -0 -0 1:12 2:73 3:22 4:100 5:72 6:80 7:26 8:54 9:56 10:47 11:100 12:20 13:50 16:18 
-2.386508233677513e-10 -6.415848415879496e-10 -0 -0 -0 -7.895527601150999e-12 -0 -0 -0 1:54 2:86 3:84 4:100 5:100 6:79 7:71 8:59 9:56 10:34 11:62 12:9 13:22 16:15 
-0 -0 -0 -0 -0 -0 -2.733322274365762e-10 -0 -0 1:5 2:87 3:50 4:100 5:100 6:98 7:73 8:75 9:36 10:56 11:65 12:36 13:44 14:15 
-7.50434192271133e-12 -6.7633811393617e-10 -0 -3.508201183857546e-10 -3.762047738023754e-11 -1.124138902025748e-11 -1.568306995185931e-10 -0 -0 2:89 3:10 4:100 5:46 6:82 7:11 8:58 9:32 10:50 11:94 12:43 13:100 14:18 15:52 
-7.685140553409021e-11 -0 -0 -0 -0 -0 -0 -0 -4.850244125124835e-10 1:8 2:81 3:48 4:100 5:98 6:90 7:77 8:63 9:100 10:28 11:86 13:35 14:9 16:35 
-1.182670149401052e-11 -0 -5.036175023202392e-10 -0 -0 -0 -0 -0 -0 1:58 2:91 3:93 4:100 5:77 6:73 7:97 8:49 9:100 10:20 11:70 13:26 14:7 16:28 
-0 -0 -2.764027762808362e-10 -0 -0 -0 -0 -0 -0 1:54 2:100 3:96 4:93 5:81 6:72 7:77 8:54 9:100 10:30 11:83 12:7 13:41 16:8 
