svm_type c_svc
kernel_type polynomial
degree 7
gamma 1
coef0 0
nr_class 2
total_sv 22
rho -0.664705
label 1 0
probA -3.52177
probB -0.118237
nr_sv 13 9
SV
2.778278245042474e-33 1:15 2:73 3:42 4:100 5:32 6:72 7:27 8:39 9:44 10:7 11:100 13:52 14:5 16:3 
1.056611088933932e-33 2:62 3:21 4:100 5:27 6:80 7:26 8:35 9:4 10:4 11:12 13:55 14:2 15:100 16:5 
2.285205192513666e-34 1:10 2:100 3:4 4:67 5:11 6:70 7:2 8:80 9:19 10:33 13:21 14:8 15:100 16:12 
2.037816365608052e-34 2:40 3:22 4:53 5:49 6:64 7:76 8:79 9:100 10:100 11:84 12:73 13:71 14:38 15:63 
4.67286570257638e-33 2:37 3:14 4:70 5:27 6:100 7:26 8:64 9:24 10:28 11:3 13:18 14:5 15:100 16:12 
9.429708563609165e-35 1:35 2:94 4:74 5:75 6:97 7:100 8:100 9:70 10:75 11:45 12:50 13:25 14:25 
1.226993659937824e-33 1:100 2:100 3:38 4:87 5:25 6:72 7:19 8:58 9:12 10:43 11:6 12:28 14:14 15:6 
9.416140271423281e-34 1:26 2:25 3:23 4:41 5:62 6:71 7:100 8:100 9:88 10:93 11:55 12:62 13:24 14:31 
8.420769258097665e-35 3:18 4:27 5:48 6:49 7:76 8:73 9:100 10:100 11:94 12:73 13:82 14:40 15:82 16:9 
9.939873511183759e-35 1:19 2:100 3:16 4:55 5:10 6:96 7:16 8:48 9:24 10:2 13:50 14:11 15:100 16:16 
4.206575558882817e-34 1:100 2:100 4:86 6:72 8:57 10:43 12:28 13:50 14:14 15:50 
3.609164760925545e-34 1:67 2:100 3:67 4:85 5:100 6:71 7:67 8:57 9:33 10:42 12:28 14:14 
2.25760049798508e-34 1:100 2:100 4:87 6:73 7:17 8:58 9:33 10:44 11:33 12:29 13:50 14:15 15:67 
-2.852279872454096e-33 1:6 2:43 3:16 4:2 5:68 7:100 8:35 9:81 10:75 11:38 12:100 13:7 14:63 16:22 
-1.892677120430926e-33 1:25 2:77 3:3 4:60 5:11 7:71 8:4 9:100 10:57 11:56 12:100 13:2 14:66 16:11 
-1.912399952093424e-34 1:66 2:100 3:30 4:87 5:8 6:56 8:21 9:31 11:75 12:17 13:100 14:47 15:89 16:79 
-9.128061966830165e-34 1:95 2:31 3:44 4:2 6:26 7:11 8:69 9:60 10:100 11:100 12:73 13:84 14:30 15:40 
-2.136492512089416e-34 1:15 2:55 4:35 5:15 6:1 7:54 9:88 10:19 11:100 12:53 13:80 14:85 15:45 16:100 
-2.320586290114976e-33 1:55 2:100 3:16 4:79 6:39 7:5 9:61 10:1 11:100 12:31 13:67 14:61 15:5 16:67 
-3.038736001494767e-34 1:4 2:25 3:68 4:64 5:33 6:97 8:36 9:38 11:100 12:43 13:96 14:100 15:22 16:85 
-2.096652789433063e-34 1:66 2:98 3:55 4:70 5:98 6:68 7:100 8:100 9:57 10:92 11:33 12:62 13:16 14:31 
-3.497124869359279e-33 1:52 2:100 4:36 5:36 7:100 8:52 9:40 10:73 11:15 12:45 13:65 14:60 15:5 16:2 
