svm_type c_svc
kernel_type polynomial
degree 7
gamma 1
coef0 0
nr_class 2
total_sv 23
rho -0.726918
label 1 4
probA -3.02454
probB -0.287395
nr_sv 13 10
SV
7.81666120057636e-35 1:100 2:100 3:92 4:85 5:75 6:71 7:58 8:57 9:58 10:42 11:33 12:28 13:8 14:14 
1.103079240568766e-34 2:58 3:4 4:67 5:42 6:83 7:79 8:100 9:100 10:98 11:81 12:66 13:65 14:34 15:66 
5.566101063521497e-33 1:15 2:73 3:42 4:100 5:32 6:72 7:27 8:39 9:44 10:7 11:100 13:52 14:5 16:3 
5.733345094356346e-33 2:62 3:21 4:100 5:27 6:80 7:26 8:35 9:4 10:4 11:12 13:55 14:2 15:100 16:5 
1.983799177154425e-33 1:10 2:100 3:4 4:67 5:11 6:70 7:2 8:80 9:19 10:33 13:21 14:8 15:100 16:12 
2.080719924795939e-34 2:40 3:22 4:53 5:49 6:64 7:76 8:79 9:100 10:100 11:84 12:73 13:71 14:38 15:63 
1.780949918319854e-33 1:35 2:94 4:74 5:75 6:97 7:100 8:100 9:70 10:75 11:45 12:50 13:25 14:25 
3.879447409847012e-36 1:100 2:100 3:38 4:87 5:25 6:72 7:19 8:58 9:12 10:43 11:6 12:28 14:14 15:6 
4.964530056286189e-34 1:19 2:100 3:16 4:55 5:10 6:96 7:16 8:48 9:24 10:2 13:50 14:11 15:100 16:16 
1.003312348708213e-34 1:67 2:100 3:67 4:85 5:100 6:71 7:67 8:57 9:33 10:42 12:28 14:14 
2.57132016648429e-33 1:100 2:100 4:87 6:73 7:17 8:58 9:33 10:44 11:33 12:29 13:50 14:15 15:67 
1.702700145755261e-33 2:100 3:54 4:93 5:57 6:77 7:57 8:61 9:61 10:46 11:61 12:30 13:68 14:14 15:100 
6.462081568515674e-34 1:14 2:52 4:56 5:36 6:78 7:74 8:100 9:100 10:96 11:79 12:64 13:58 14:32 15:39 
-3.692758196179481e-34 1:63 2:100 3:40 4:73 5:70 6:63 7:100 8:77 9:79 10:74 11:55 12:48 13:29 14:23 
-2.627793221655275e-33 2:81 3:15 4:100 5:20 6:76 7:19 8:52 9:24 10:28 11:71 12:21 13:88 14:23 15:100 
-9.340497788128514e-34 1:41 2:90 3:62 4:100 5:29 6:74 7:2 8:47 10:22 11:64 12:33 13:100 14:28 15:88 
-8.165800790062694e-34 1:9 2:100 4:75 5:78 6:72 7:100 8:92 9:74 10:93 11:56 12:62 13:38 14:31 15:21 
-1.607005412943015e-33 1:18 2:61 3:37 4:100 5:17 6:65 8:33 9:61 10:39 11:100 12:55 13:66 14:37 15:37 
-2.308652019796153e-33 1:36 2:100 3:13 4:75 5:57 6:65 7:100 8:78 9:63 10:85 11:41 12:57 13:18 14:29 
-5.888490524951141e-33 1:26 2:100 3:16 4:79 6:52 7:36 8:32 9:100 10:38 11:55 12:52 13:38 14:26 15:32 
-1.241221621398305e-35 1:53 2:100 4:75 5:7 6:43 7:100 8:52 9:50 10:76 11:16 12:91 13:14 14:44 15:28 
-3.019226704989582e-33 1:21 2:100 3:13 4:70 6:38 7:6 8:17 9:73 10:20 11:100 12:28 13:62 14:32 15:56 
-3.398148160908545e-33 2:100 3:3 4:84 5:1 6:63 7:7 8:43 9:52 10:38 11:55 12:35 13:62 14:14 15:100 
