svm_type c_svc
kernel_type polynomial
degree 7
gamma 1
coef0 0
nr_class 2
total_sv 45
rho -0.0573243
label 5 9
probA -3.65958
probB -0.261926
nr_sv 20 25
SV
9.19125808274027e-34 1:100 2:81 3:83 4:96 5:26 6:100 8:88 9:16 10:54 11:69 12:40 13:87 14:6 15:34 
1.762300998606333e-34 2:66 3:1 4:64 5:26 6:53 7:63 8:26 9:12 11:12 12:52 13:33 14:91 15:100 16:100 
1.339174461814699e-33 1:12 2:60 3:37 4:36 5:41 7:15 8:2 10:42 11:27 12:66 13:63 14:84 15:100 16:100 
1.950869946471764e-33 1:100 2:93 3:78 4:95 5:29 6:100 8:82 9:33 10:70 11:73 12:45 13:61 15:18 16:1 
8.413147293150608e-34 1:55 2:85 3:100 4:100 5:82 6:94 7:38 8:74 9:90 10:65 11:94 12:36 13:52 14:13 
1.714317142603594e-35 2:58 3:39 4:38 5:56 6:5 7:27 9:6 10:35 11:18 12:64 13:59 14:83 15:100 16:100 
3.899853799656798e-35 1:40 2:85 3:92 4:100 5:100 6:98 7:45 8:85 9:79 10:65 11:99 12:33 13:55 14:7 
3.431919930663604e-33 1:85 2:90 3:35 4:100 5:15 6:77 7:32 8:53 9:91 10:52 11:100 12:22 13:56 16:7 
1.21010038576896e-33 1:33 2:75 3:68 4:100 5:100 6:98 7:52 8:92 9:37 10:51 11:79 12:35 13:47 14:6 
2.069289923351054e-33 1:100 2:81 3:65 4:97 5:24 6:100 7:7 8:64 9:41 10:57 11:65 12:25 13:31 16:5 
3.172399407536157e-33 1:100 2:100 3:46 4:90 5:19 6:71 7:42 8:63 9:92 10:56 11:91 12:26 13:54 14:2 
2.104357679369694e-34 1:36 2:80 4:64 5:37 6:41 7:25 9:1 10:8 11:7 12:54 13:43 14:88 15:100 16:100 
7.93209179572102e-34 1:21 2:52 4:48 5:39 6:50 7:100 8:51 9:68 11:26 12:29 13:8 14:83 15:85 16:100 
5.493865286477855e-34 1:78 2:86 3:61 4:100 6:100 7:7 8:64 9:62 10:51 11:100 12:25 13:63 15:7 16:5 
6.556587050256361e-34 1:2 2:64 3:31 4:33 5:47 6:3 9:3 10:39 11:8 12:74 13:54 14:89 15:100 16:100 
3.947611188813171e-33 1:10 2:89 3:32 4:98 5:36 6:100 8:68 9:31 10:49 11:100 12:29 13:60 15:1 16:15 
2.36246473229193e-34 1:34 2:89 3:96 4:100 5:93 6:99 7:24 8:86 9:60 10:72 11:100 12:46 13:63 14:16 
1.266184167316179e-33 1:54 2:87 3:72 4:100 5:100 6:100 7:69 8:100 9:42 10:84 11:44 12:45 13:28 14:10 
1.118525227490662e-32 1:97 2:94 3:61 4:100 5:28 6:77 7:67 8:71 9:100 10:47 11:86 12:8 13:43 16:12 
4.203675893706501e-33 1:40 2:88 3:99 4:100 5:78 6:94 7:25 8:75 9:74 10:69 11:100 12:42 13:62 14:13 
-7.288093441357592e-34 1:29 2:74 3:97 4:77 5:100 6:100 8:84 9:2 10:59 11:100 12:71 13:44 14:35 15:7 
-1.296737425273651e-34 1:79 2:81 3:57 4:100 5:17 6:82 7:62 8:65 9:99 10:52 11:100 12:16 13:52 14:1 
-5.753261262764616e-34 1:57 2:87 3:100 4:69 5:97 6:100 7:23 8:83 9:74 10:59 11:96 12:52 13:78 14:10 
-3.188407855628062e-34 1:61 2:59 3:100 4:80 5:66 6:100 7:15 8:85 10:55 11:55 12:48 13:87 14:32 15:71 
-5.736905281434332e-34 1:100 2:79 3:81 4:100 5:41 6:79 7:62 8:59 9:93 10:64 11:80 12:27 13:46 
-1.608865119998685e-33 1:30 2:97 3:82 4:100 5:65 6:67 7:19 8:87 9:81 10:83 11:100 12:39 13:68 16:16 
-7.159685469661057e-35 2:3 3:28 5:62 6:18 7:87 8:43 9:100 10:71 11:89 12:100 13:54 14:98 15:78 16:80 
-7.478376149667971e-34 1:8 2:64 3:65 4:74 5:100 6:100 7:43 8:93 10:66 11:57 12:72 13:48 14:42 15:27 
-7.737232399361515e-34 1:21 2:94 3:44 4:73 5:100 6:100 7:13 8:100 9:16 10:80 11:61 12:66 13:23 14:33 
-3.086362481539768e-33 1:49 2:97 3:56 4:77 5:68 6:100 7:40 8:82 9:78 10:55 11:100 12:23 13:52 14:5 
-2.507218256978789e-34 1:46 2:97 3:90 4:97 5:55 6:68 7:66 8:100 9:100 10:60 11:97 12:9 13:40 16:34 
-4.344393443260094e-34 1:14 2:76 3:57 4:100 5:63 6:55 7:13 8:72 9:71 10:86 11:100 12:37 13:52 16:21 
-1.190316531515696e-34 3:46 4:16 5:85 6:41 7:100 8:72 9:73 10:100 11:18 12:95 13:19 14:66 15:76 16:55 
-4.29214644000641e-33 1:100 2:76 3:73 4:100 5:18 6:95 7:11 8:66 9:66 10:65 11:74 12:48 13:49 14:16 
-3.079541588946257e-33 1:59 2:78 3:60 4:100 5:7 6:94 8:65 9:53 10:57 11:100 12:42 13:80 14:14 15:32 
-3.528287208559908e-34 1:24 2:90 3:76 4:71 5:65 6:100 7:30 8:72 9:93 10:72 11:100 12:33 13:61 16:18 
-4.565637304205711e-33 1:87 2:87 3:44 4:100 5:24 6:74 7:70 8:67 9:100 10:57 11:89 12:12 13:46 16:11 
-1.115040885392284e-34 1:50 2:85 3:3 4:100 5:4 6:78 7:63 8:68 9:100 10:61 11:80 12:19 13:32 16:7 
-9.129525305784784e-33 1:100 2:89 3:58 4:100 5:29 6:72 7:70 8:75 9:79 10:49 11:87 12:8 13:43 16:8 
-7.107584531814054e-34 1:87 2:86 3:45 4:100 5:26 6:71 7:71 8:60 9:100 10:57 11:90 12:17 13:49 16:5 
-7.711173327622876e-34 1:47 2:100 3:3 4:99 5:14 6:80 7:43 8:82 9:72 10:50 11:100 12:17 13:58 16:12 
-4.296376742670398e-34 2:88 3:61 4:68 5:100 6:90 7:14 8:100 9:24 10:79 11:80 12:54 13:46 14:25 15:3 
-3.903599723765889e-33 1:68 2:66 3:100 4:98 5:57 6:100 7:27 8:68 9:73 10:72 11:78 12:37 13:45 14:5 
-1.382997143756782e-33 1:81 2:100 3:39 4:94 5:69 6:77 7:63 8:73 9:86 10:41 11:100 12:9 13:52 16:2 
-6.601414460164083e-35 3:32 4:13 5:77 6:36 7:100 8:65 9:92 10:94 11:32 12:100 13:7 14:75 15:66 16:63 
