svm_type c_svc
kernel_type polynomial
degree 7
gamma 1
coef0 0
nr_class 2
total_sv 39
rho -0.749902
label 8 5
probA -3.77883
probB -0.315464
nr_sv 24 15
SV
6.000394782212573e-34 2:67 3:38 4:66 5:62 6:30 7:38 9:8 10:30 11:45 12:63 13:100 14:90 15:58 16:100 
5.453128410751219e-34 1:37 2:71 3:79 4:71 5:49 6:100 8:45 9:25 10:36 11:66 13:100 14:51 15:10 16:26 
2.139174524004744e-34 1:66 2:90 3:6 4:55 5:100 6:73 7:45 8:100 9:33 10:46 13:89 14:11 15:13 16:23 
1.111640890159365e-35 1:32 2:52 3:22 5:100 6:2 7:78 8:63 9:35 10:37 11:14 12:100 13:71 14:92 16:73 
6.355657345880432e-34 1:34 2:71 3:16 4:65 5:17 6:23 9:1 10:42 11:44 12:75 13:100 14:100 15:46 16:91 
3.272335246641514e-34 1:49 2:100 3:19 4:91 5:31 6:54 7:36 8:15 11:7 12:36 13:51 14:63 15:100 16:87 
1.646808274663444e-33 1:54 2:64 3:30 4:96 5:15 6:61 7:69 8:27 9:52 12:30 13:48 14:66 15:100 16:100 
3.921819270557613e-33 1:70 2:92 4:83 5:57 6:49 7:100 8:13 9:16 11:5 12:37 13:48 14:74 15:64 16:100 
3.320227455328991e-35 1:36 2:53 3:100 4:82 5:55 6:100 7:2 8:69 9:36 10:34 11:74 14:14 15:62 16:44 
7.060353089385957e-35 1:35 2:90 3:24 4:61 5:100 6:100 7:12 8:84 10:29 11:49 13:96 14:57 15:7 16:28 
1.076543272646707e-34 1:50 2:83 3:26 4:62 5:58 6:100 7:14 8:60 9:2 10:30 11:50 13:100 14:51 16:34 
2.217446415850013e-33 2:20 3:38 4:56 5:46 6:100 7:6 8:81 9:58 10:56 11:100 12:24 13:50 15:7 16:15 
5.204506791920599e-34 1:55 2:90 3:44 4:56 5:29 6:13 9:28 10:38 11:64 12:69 13:100 14:100 15:63 16:99 
5.440468919996466e-35 1:56 2:66 3:100 4:94 5:44 6:100 7:35 8:64 9:63 10:29 11:37 14:22 15:42 16:54 
2.041213774688371e-33 1:59 2:99 3:8 4:100 5:24 6:58 7:81 8:28 9:57 12:25 13:39 14:64 15:100 16:93 
8.840503550550698e-35 1:5 2:66 3:16 4:100 5:100 6:98 7:69 8:58 9:29 10:20 11:75 13:21 14:32 16:71 
6.645523600752028e-34 2:39 3:62 4:67 5:86 6:100 7:6 8:87 9:38 10:54 11:100 12:26 13:72 15:1 16:17 
2.220935018655874e-34 1:7 2:91 3:34 4:60 5:77 6:100 8:69 9:8 10:39 11:32 13:100 14:43 15:8 16:39 
4.444123505062146e-34 1:21 2:64 3:55 4:29 5:7 8:32 9:55 10:65 11:100 12:100 13:20 14:93 15:12 16:57 
1.100389843287024e-33 2:79 3:25 4:50 5:98 6:25 7:71 9:10 10:16 11:50 12:47 13:100 14:76 15:83 16:100 
1.061539965773445e-32 1:67 2:100 3:10 4:92 5:29 6:53 7:50 8:14 9:1 12:37 13:45 14:67 15:100 16:87 
1.890864197779294e-33 1:23 2:49 3:81 4:69 5:100 6:100 7:35 8:87 9:33 10:53 11:68 12:21 13:13 16:28 
1.764026777774959e-34 1:5 2:76 3:29 4:100 5:100 6:81 7:55 8:39 11:61 12:3 13:15 14:44 15:21 16:83 
4.586695733761159e-34 1:32 2:68 4:100 5:38 6:71 7:100 8:37 9:75 11:13 12:18 13:35 14:59 15:90 16:95 
-8.555440404364095e-34 1:7 2:91 3:57 4:100 5:8 6:96 8:54 9:57 10:50 11:100 12:21 13:46 15:1 16:14 
-5.148975775253238e-33 1:12 2:60 3:37 4:36 5:41 7:15 8:2 10:42 11:27 12:66 13:63 14:84 15:100 16:100 
-1.175429358249782e-34 1:42 2:100 3:11 4:71 5:38 6:34 7:17 10:26 11:3 12:79 13:50 14:90 15:100 16:85 
-1.504535146969831e-35 1:24 2:80 3:59 4:95 5:100 6:100 7:63 8:92 9:25 10:78 11:21 12:47 13:36 14:16 
-1.904356142726147e-33 1:70 2:97 3:28 4:78 5:65 6:53 7:57 8:9 11:13 12:42 13:51 14:86 15:100 16:100 
-8.379117051632993e-34 1:10 2:91 3:20 4:59 5:83 6:56 7:100 8:13 9:40 11:3 12:42 14:82 15:60 16:100 
-7.999666033321414e-33 1:60 2:91 4:85 5:19 6:37 7:82 8:27 9:31 11:3 12:30 13:40 14:74 15:100 16:100 
-5.22928400504333e-33 1:57 2:96 4:87 5:46 6:65 7:63 8:15 9:7 11:3 12:39 13:43 14:84 15:100 16:100 
-1.913551981973521e-33 1:4 2:73 3:53 4:91 5:100 6:100 7:47 8:88 9:20 10:41 11:72 12:36 13:52 14:1 
-1.333699000626308e-33 1:100 2:100 3:38 4:87 5:2 6:62 7:48 8:51 9:94 10:28 11:70 14:4 15:2 16:28 
-1.107778495465215e-33 1:10 2:89 3:32 4:98 5:36 6:100 8:68 9:31 10:49 11:100 12:29 13:60 15:1 16:15 
-1.143581019072902e-33 1:100 2:81 3:66 4:100 5:29 6:82 7:5 8:52 9:31 10:45 11:68 12:28 13:46 16:2 
-2.180961937961615e-34 1:43 2:82 3:21 4:51 5:35 6:15 9:8 10:32 11:30 12:66 13:64 14:85 15:100 16:100 
-2.722286053687759e-34 1:33 2:79 3:83 4:99 5:100 6:100 7:47 8:84 10:62 11:22 12:38 13:53 14:14 15:1 
-5.107165890794165e-34 1:77 2:95 3:20 4:81 5:43 6:59 7:76 8:19 9:15 12:36 13:38 14:85 15:100 16:100 
