svm_type c_svc
kernel_type polynomial
degree 7
gamma 1
coef0 0
nr_class 2
total_sv 20
rho -0.675082
label 6 7
probA -3.54257
probB -1.15357
nr_sv 10 10
SV
3.560128033770034e-34 1:85 2:100 3:56 4:72 5:42 6:39 7:55 8:7 9:100 11:95 12:30 13:46 14:37 16:23 
5.091183240888391e-34 1:38 2:76 3:58 4:100 5:21 6:65 8:27 9:44 11:100 12:22 13:45 14:36 15:22 16:8 
8.324441188171773e-34 1:16 2:100 3:11 4:71 5:5 6:39 7:29 8:11 9:85 10:11 11:100 12:28 13:46 14:18 
3.249781543452635e-35 1:100 2:100 3:76 4:95 5:50 6:72 7:26 8:49 9:6 10:26 13:46 14:2 15:25 16:20 
5.569036374575077e-34 1:100 2:100 3:74 4:88 5:46 6:69 7:22 8:47 10:24 11:3 13:36 14:11 15:7 16:23 
5.787763717141605e-33 1:22 2:100 3:8 4:72 6:41 7:5 8:10 9:57 11:100 12:21 13:51 14:33 15:6 16:13 
1.581696881726614e-33 1:16 2:100 4:57 5:55 6:55 7:44 9:12 10:17 11:6 12:77 13:45 14:98 15:100 16:100 
3.108571175830586e-33 1:25 2:75 3:85 4:100 5:49 6:72 7:18 8:40 10:7 11:51 13:100 14:28 15:49 16:29 
1.334960227877801e-33 1:24 2:100 3:7 4:72 6:42 7:6 8:13 9:60 10:9 11:100 12:29 13:43 14:23 15:9 
1.870296519527574e-34 1:100 2:100 3:83 4:85 5:63 6:60 7:44 8:34 9:32 10:6 11:50 13:36 14:21 16:15 
-1.118605564553956e-33 1:2 2:85 3:31 4:100 5:76 6:74 7:62 8:37 9:47 11:100 12:8 13:68 14:30 16:41 
-4.546892801904717e-33 2:89 3:26 4:100 5:35 6:51 7:32 9:13 10:13 11:22 12:32 13:60 14:40 15:100 16:46 
-1.749589240688631e-33 1:11 2:83 3:41 4:100 5:47 6:67 7:25 8:35 9:8 12:31 13:49 14:32 15:100 16:31 
-1.77825483062789e-33 1:7 2:100 3:40 4:89 5:37 6:48 7:21 8:9 11:3 12:40 13:48 14:58 15:100 16:65 
-4.834535152679856e-34 2:100 3:15 4:84 5:57 6:75 7:100 8:68 9:77 10:55 11:53 12:34 13:29 14:13 15:16 
-3.063696562431897e-33 1:1 2:87 3:38 4:100 5:49 6:63 7:34 8:22 9:16 12:29 13:49 14:24 15:100 16:22 
-6.070400663813971e-35 1:24 2:100 3:77 4:93 5:100 6:72 7:71 8:48 9:46 10:23 11:28 14:24 15:31 16:35 
-2.808096424147312e-34 2:83 3:26 4:90 5:100 6:100 7:72 8:68 9:38 10:34 11:7 13:3 14:19 15:46 16:41 
-1.392421565324416e-34 1:29 2:100 3:72 4:80 5:65 6:52 7:38 8:25 11:2 12:22 13:25 14:47 15:100 16:49 
-1.065750032644027e-33 1:19 2:100 3:69 4:92 5:68 6:53 7:53 8:15 9:67 11:100 12:27 13:54 14:47 16:56 
