svm_type c_svc
kernel_type polynomial
degree 3
gamma 0.0001
coef0 0
nr_class 2
total_sv 71
rho -1.45974
label 10 9
probA -2.60458
probB -0.176544
nr_sv 36 35
SV
0.6213806175385699 1:63 2:100 3:40 4:73 5:70 6:63 7:100 8:77 9:79 10:74 11:55 12:48 13:29 14:23 
0.153756746864314 1:88 2:80 3:12 4:80 5:100 6:100 7:100 8:91 9:65 10:68 11:29 12:46 13:6 14:23 
0.4026545434352291 1:36 2:63 4:67 5:53 6:84 7:100 8:100 9:83 10:74 11:66 12:47 13:53 14:21 15:51 
0.1867386732071067 1:100 2:81 3:83 4:96 5:26 6:100 8:88 9:16 10:54 11:69 12:40 13:87 14:6 15:34 
0.02647644577133245 1:100 2:100 3:24 4:77 6:56 7:96 8:57 9:100 10:86 11:79 12:70 13:37 14:35 15:4 
0.9232166459088462 1:56 2:97 3:42 4:100 6:74 7:52 8:60 9:100 10:81 11:74 12:60 13:50 14:30 15:33 
0.2009318242415948 1:83 2:85 3:57 4:77 5:60 6:83 7:65 8:100 9:72 10:55 11:87 12:10 15:100 16:2 
0.08980849456578409 1:53 2:91 3:100 4:100 5:86 6:100 7:28 8:86 9:58 10:64 11:98 12:32 13:60 16:1 
0.0001651388692484187 1:18 2:26 3:43 5:77 6:5 7:100 8:43 9:88 10:86 11:55 12:100 13:21 14:88 16:52 
0.08527471530330505 1:49 2:93 4:55 5:28 6:74 7:63 8:100 9:62 10:50 11:59 12:3 13:24 14:1 15:100 
0.3670621999302366 2:31 3:52 4:59 5:46 6:100 7:11 8:81 9:65 10:52 11:100 12:17 13:38 15:9 16:26 
0.01701320363022051 1:27 2:65 3:58 4:36 5:61 7:25 8:10 10:45 11:13 12:74 13:56 14:89 15:100 16:100 
0.07410079385150652 1:22 2:100 3:66 4:50 5:100 6:94 7:45 8:95 9:5 10:41 11:58 13:78 14:42 16:46 
0.08424598938706328 1:60 2:100 3:14 4:67 5:100 6:55 7:80 8:98 9:39 10:56 12:13 13:80 15:50 16:45 
0.785355115955731 1:100 2:93 3:78 4:95 5:29 6:100 8:82 9:33 10:70 11:73 12:45 13:61 15:18 16:1 
0.0415832351525495 1:40 2:85 3:92 4:100 5:100 6:98 7:45 8:85 9:79 10:65 11:99 12:33 13:55 14:7 
0.1734918230993525 1:85 2:90 3:35 4:100 5:15 6:77 7:32 8:53 9:91 10:52 11:100 12:22 13:56 16:7 
0.5871835841586274 1:55 2:94 3:30 4:100 5:84 6:99 7:63 8:66 9:77 10:58 11:100 12:31 13:60 14:3 
0.05512589778021497 2:52 3:23 5:79 6:5 7:100 8:58 9:59 10:60 11:74 12:64 13:79 14:100 15:27 16:74 
0.04524932705408297 2:37 3:25 4:50 5:50 6:63 7:74 8:81 9:97 10:100 11:100 12:78 13:88 14:40 15:79 
0.3114699629253455 1:79 2:90 3:61 4:100 5:26 6:73 7:44 8:60 9:97 10:50 11:100 12:17 13:51 16:8 
0.7413261317149773 1:45 2:75 3:22 4:99 5:70 6:100 7:100 8:80 9:62 10:50 11:88 12:23 13:48 16:8 
0.009616259503561897 1:59 2:100 4:79 5:31 6:64 7:100 8:75 9:93 10:76 11:63 12:51 13:37 14:26 15:11 
0.08066088860446446 1:53 2:100 3:5 4:80 6:63 7:60 8:64 9:100 10:79 11:79 12:57 13:55 14:26 15:31 
0.1330850771156663 1:6 2:27 3:47 4:57 5:62 6:100 7:8 8:91 9:48 10:56 11:100 12:25 13:51 16:22 
0.1183441935011794 1:34 2:93 3:92 4:100 5:53 6:92 8:73 9:49 10:61 11:100 12:40 13:86 14:10 15:26 
0.2147204552189401 1:34 2:91 4:98 5:42 6:100 7:83 8:94 9:100 10:71 11:86 12:46 13:62 14:23 15:46 
0.4750271533680118 1:38 2:95 3:53 4:100 5:19 6:80 8:59 9:61 10:65 11:100 12:89 13:75 14:47 15:49 
0.2523905373667498 1:95 2:31 3:44 4:2 6:26 7:11 8:69 9:60 10:100 11:100 12:73 13:84 14:30 15:40 
0.3343964729274564 1:78 2:86 3:61 4:100 6:100 7:7 8:64 9:62 10:51 11:100 12:25 13:63 15:7 16:5 
0.1507789936429698 1:66 2:98 3:55 4:70 5:98 6:68 7:100 8:100 9:57 10:92 11:33 12:62 13:16 14:31 
0.2406631500218521 2:17 3:100 4:38 5:96 6:69 7:91 8:100 9:78 10:94 11:70 12:62 13:65 14:31 15:70 
1.344178475727053 1:34 2:89 3:96 4:100 5:93 6:99 7:24 8:86 9:60 10:72 11:100 12:46 13:63 14:16 
0.02852242043035497 1:54 2:87 3:72 4:100 5:100 6:100 7:69 8:100 9:42 10:84 11:44 12:45 13:28 14:10 
4.819928663507203 1:97 2:94 3:61 4:100 5:28 6:77 7:67 8:71 9:100 10:47 11:86 12:8 13:43 16:12 
0.1767514596912597 1:14 2:52 4:56 5:36 6:78 7:74 8:100 9:100 10:96 11:79 12:64 13:58 14:32 15:39 
-0.05344345874809881 1:90 2:71 3:100 4:100 5:25 6:85 7:10 8:50 9:80 10:62 11:99 12:53 13:64 14:17 
-0.8432850850384646 1:100 2:96 3:66 4:100 5:63 6:85 7:85 8:88 9:78 10:53 11:66 12:20 13:35 16:12 
-0.08476608787728969 1:29 2:74 3:97 4:77 5:100 6:100 8:84 9:2 10:59 11:100 12:71 13:44 14:35 15:7 
-0.03240339050580286 1:84 2:52 3:98 4:96 5:64 6:100 7:73 8:62 9:100 10:55 11:83 12:9 13:42 16:4 
-0.06483677958720196 1:57 2:87 3:100 4:69 5:97 6:100 7:23 8:83 9:74 10:59 11:96 12:52 13:78 14:10 
-0.7046243412643847 1:79 2:89 3:100 4:100 5:41 6:96 8:74 9:53 10:66 11:95 12:51 13:74 14:24 15:39 
-0.4100411086684249 1:100 2:79 3:81 4:100 5:41 6:79 7:62 8:59 9:93 10:64 11:80 12:27 13:46 
-1.059963306991327 1:87 2:90 3:38 4:100 6:82 7:46 8:71 9:100 10:71 11:73 12:47 13:38 14:24 15:27 
-0.2177405576879533 1:8 2:64 3:65 4:74 5:100 6:100 7:43 8:93 10:66 11:57 12:72 13:48 14:42 15:27 
-0.1991914654597499 1:21 2:94 3:44 4:73 5:100 6:100 7:13 8:100 9:16 10:80 11:61 12:66 13:23 14:33 
-1.568336180347266 1:74 2:98 3:43 4:100 5:69 6:89 7:90 8:82 9:100 10:38 11:84 12:3 13:41 16:8 
-0.8097137799890693 1:49 2:97 3:56 4:77 5:68 6:100 7:40 8:82 9:78 10:55 11:100 12:23 13:52 14:5 
-0.1094311830898911 1:46 2:97 3:90 4:97 5:55 6:68 7:66 8:100 9:100 10:60 11:97 12:9 13:40 16:34 
-0.4614151100521985 2:69 3:52 4:60 5:100 6:77 7:74 8:100 9:23 10:89 11:47 12:69 13:55 14:36 15:51 
-0.3381756264874011 1:14 2:76 3:57 4:100 5:63 6:55 7:13 8:72 9:71 10:86 11:100 12:37 13:52 16:21 
-0.2136831105549065 2:91 3:47 4:70 5:62 6:100 7:43 8:78 9:91 10:70 11:100 12:30 13:68 15:29 16:12 
-0.4263676288167644 1:100 2:76 3:73 4:100 5:18 6:95 7:11 8:66 9:66 10:65 11:74 12:48 13:49 14:16 
-0.8533124871492594 1:59 2:78 3:60 4:100 5:7 6:94 8:65 9:53 10:57 11:100 12:42 13:80 14:14 15:32 
-0.1131557946624107 1:78 2:100 3:60 4:77 5:100 6:93 7:54 8:84 9:66 10:59 11:86 12:34 13:70 14:9 
-0.1809176787558174 1:24 2:90 3:76 4:71 5:65 6:100 7:30 8:72 9:93 10:72 11:100 12:33 13:61 16:18 
-0.8117382082109231 1:53 2:80 3:78 4:100 5:14 6:80 7:55 8:65 9:92 10:64 11:100 12:24 13:50 16:20 
-0.09638310472995308 1:63 2:67 3:13 4:77 5:39 6:100 7:96 8:93 9:100 10:67 11:75 12:43 13:40 14:20 
-0.3132791078716331 3:35 4:8 5:69 6:31 7:93 8:62 9:100 10:100 11:69 12:100 13:57 14:64 15:64 16:26 
-0.8600593089101585 1:91 2:95 3:43 4:100 5:25 6:65 7:72 8:59 9:100 10:64 11:92 12:23 13:52 16:8 
-0.1695282620826161 1:50 2:85 3:3 4:100 5:4 6:78 7:63 8:68 9:100 10:61 11:80 12:19 13:32 16:7 
-0.5375845618182873 1:57 2:100 4:83 5:48 6:72 7:100 8:93 9:89 10:74 11:67 12:47 13:48 14:21 15:56 
-1.701939122976421 1:100 2:89 3:58 4:100 5:29 6:72 7:70 8:75 9:79 10:49 11:87 12:8 13:43 16:8 
-0.07349036265301574 1:45 2:100 3:4 4:91 5:40 6:77 7:51 8:76 9:72 10:49 11:100 12:22 13:69 16:3 
-0.0287976451850473 1:80 2:80 3:18 4:66 6:84 7:51 8:100 9:78 10:77 11:78 12:50 13:78 14:24 15:100 
-0.2933655703152963 1:68 2:66 3:100 4:98 5:57 6:100 7:27 8:68 9:73 10:72 11:78 12:37 13:45 14:5 
-0.02537360635810896 1:61 2:83 3:4 4:66 5:29 6:100 7:80 8:85 9:100 10:46 11:100 12:6 13:43 16:29 
-0.2390497637519401 1:75 2:100 3:4 4:88 6:61 7:74 8:70 9:100 10:88 11:82 12:58 13:56 14:28 15:51 
-0.3513020701002063 1:19 2:76 3:67 4:68 5:86 6:100 7:7 8:83 9:61 10:61 11:100 12:57 13:81 14:16 
-0.09294356119224248 2:60 3:39 4:49 5:100 6:78 7:57 8:100 9:10 10:68 11:88 12:58 13:80 14:20 15:11 
-0.01303689308242182 1:54 2:93 3:100 4:90 5:38 6:70 7:63 8:100 9:100 10:63 11:96 12:21 13:35 16:34 
