svm_type c_svc
kernel_type polynomial
degree 3
gamma 0.0001
coef0 0
nr_class 2
total_sv 59
rho -2.86293
label 10 3
probA -1.52194
probB -0.386587
nr_sv 39 20
SV
1.485962840495423 2:100 3:73 4:97 5:95 6:80 7:100 8:64 9:95 10:48 11:82 12:31 13:64 14:15 15:23 
0.2627467711003483 1:19 2:88 3:62 4:100 5:100 6:81 7:83 8:48 9:47 10:23 12:6 13:18 15:72 16:1 
0.4623502205159546 1:35 2:61 3:54 4:100 5:58 6:76 7:54 8:31 9:78 11:100 12:6 13:36 14:5 16:8 
0.682638156681155 1:15 2:73 3:42 4:100 5:32 6:72 7:27 8:39 9:44 10:7 11:100 13:52 14:5 16:3 
4.652484699347988 2:99 3:50 4:100 5:77 6:77 7:59 8:50 9:29 10:26 12:2 13:48 15:100 16:4 
0.02678899636156666 1:16 2:78 4:100 5:76 6:92 7:100 8:78 9:77 10:35 11:74 13:98 14:32 15:27 16:38 
0.588159484283449 1:7 2:100 4:73 5:57 6:81 7:49 8:80 9:76 10:52 11:100 12:23 13:65 15:1 16:2 
0.6158620867910616 1:46 2:95 4:94 5:18 6:100 7:94 8:92 9:59 10:61 11:4 12:32 13:49 14:7 15:100 
2.381268558009626 2:78 3:23 4:100 5:77 6:99 7:100 8:75 9:70 10:50 11:30 12:28 13:29 14:6 15:84 
4.126027448049992 2:74 3:13 4:100 5:55 6:100 7:100 8:98 9:79 10:80 11:59 12:55 13:45 14:28 15:42 
3.169575713314984 1:47 2:73 3:82 4:95 5:100 6:100 7:89 8:75 9:79 10:49 11:76 12:24 13:47 16:2 
11.44035634003446 2:79 3:35 4:100 5:87 6:99 7:100 8:71 9:63 10:46 11:23 12:24 13:46 14:4 15:98 
0.5560927084139708 1:6 2:79 3:42 4:95 5:100 6:100 7:35 8:88 10:56 11:62 12:41 13:64 15:2 
1.981474772572849 1:40 2:90 3:87 4:100 5:81 6:93 7:39 8:71 9:70 10:46 11:100 12:23 13:52 14:6 
8.17151142276998 2:94 3:32 4:100 5:77 6:98 7:100 8:81 9:83 10:60 11:60 12:40 13:38 14:20 15:22 
1.030570710438052 1:33 2:91 3:79 4:100 5:100 6:79 7:79 8:56 9:41 10:37 12:20 13:37 14:7 15:93 
0.6911280445176142 1:2 2:77 3:54 4:100 5:100 6:79 7:86 8:47 9:59 10:16 11:63 13:73 14:27 16:43 
0.1093606714678998 1:19 2:88 3:53 4:100 5:92 6:84 7:71 8:53 9:36 10:29 12:5 13:48 14:1 15:100 
0.8731561714958053 1:14 2:76 3:57 4:100 5:63 6:55 7:13 8:72 9:71 10:86 11:100 12:37 13:52 16:21 
0.6537842407436516 1:12 2:96 3:60 4:100 5:96 6:81 7:60 8:55 9:16 10:33 12:8 13:55 14:2 15:100 
2.484743572560879 2:75 3:8 4:100 5:52 6:99 7:96 8:98 9:100 10:81 11:83 12:54 13:68 14:27 15:58 
3.018995937489547 2:99 3:27 4:100 5:64 6:95 7:100 8:87 9:77 10:63 11:58 12:36 13:41 14:7 15:32 
32.49166326283242 1:8 2:91 3:63 4:100 5:100 6:82 7:79 8:55 9:42 10:31 12:11 13:37 14:1 15:100 
0.43286822433933 1:12 2:77 3:36 4:90 5:44 6:100 7:37 8:63 9:46 10:27 11:100 12:21 13:47 14:8 
1.938841044311238 1:2 2:81 3:28 4:100 5:68 6:83 7:67 8:49 9:37 10:23 12:1 13:48 15:100 16:1 
2.984920041087034 2:82 3:42 4:100 5:100 6:90 7:86 8:62 9:46 10:39 11:1 12:17 13:26 14:1 15:93 
0.1763291222922359 1:3 2:100 4:81 5:3 6:55 7:33 8:34 9:84 10:36 11:100 12:50 13:86 14:25 15:97 
8.012233461926277 1:9 2:90 3:46 4:100 5:74 6:74 7:62 8:42 9:29 10:18 13:49 14:2 15:100 16:1 
1.340422723383327 1:67 2:100 3:67 4:85 5:100 6:71 7:67 8:57 9:33 10:42 12:28 14:14 
0.1824294121064176 2:70 3:6 4:98 5:46 6:100 7:76 8:77 9:50 10:46 11:24 12:17 13:58 15:100 16:1 
0.2958133743667061 1:44 2:89 3:97 4:100 5:76 6:93 7:36 8:67 9:88 10:60 11:100 12:29 13:57 14:6 
1.435202071424283 1:21 2:80 3:60 4:95 5:100 6:100 7:55 8:87 9:37 10:52 11:76 12:28 13:46 14:2 
1.59788558419008 2:55 3:20 4:77 5:53 6:100 7:73 8:91 9:93 10:68 11:100 12:45 13:93 14:22 15:47 
1.245893208747806 1:15 2:77 3:27 4:100 5:90 6:87 7:88 8:59 9:52 10:33 12:12 13:23 15:100 16:2 
0.1308616683671456 1:72 2:94 3:25 4:100 5:26 6:71 7:25 8:36 9:72 10:44 11:100 12:18 13:55 16:2 
0.4727744719337792 1:67 2:93 3:40 4:100 5:68 6:76 7:76 8:92 9:100 10:55 11:94 12:13 13:49 16:6 
0.7440556635052257 1:81 2:100 3:39 4:94 5:69 6:77 7:63 8:73 9:86 10:41 11:100 12:9 13:52 16:2 
1.430782593858865 2:78 3:44 4:100 5:68 6:85 7:66 8:46 9:80 10:8 11:100 13:38 14:2 15:1 16:7 
0.04474952250424149 1:3 2:94 4:100 5:76 6:100 7:100 8:92 9:64 10:70 11:39 12:46 13:26 14:21 15:33 
-0.4699769364027228 1:59 2:85 3:84 4:100 5:82 6:79 7:60 8:56 9:100 10:48 11:74 12:28 13:37 14:14 
-8.451065384929096 2:92 3:42 4:100 5:90 6:100 7:100 8:83 9:71 10:63 11:57 12:40 13:44 14:17 15:14 
-0.8215175034496327 1:51 2:100 3:93 4:95 5:64 6:73 7:70 8:61 9:100 10:39 11:82 12:12 13:38 16:7 
-60.29161870728456 1:7 2:90 3:55 4:100 5:93 6:82 7:79 8:54 9:41 10:31 12:10 13:40 15:100 
-2.439234379675907 1:47 2:80 3:71 4:100 5:100 6:89 7:38 8:72 9:44 10:48 11:91 12:23 13:45 16:10 
-1.436900679502686 1:7 2:85 3:29 4:100 5:28 6:70 7:26 8:55 9:83 10:58 11:100 12:31 13:55 14:11 
-0.6032280713876156 1:9 2:78 3:48 4:100 5:100 6:94 7:78 8:63 9:85 10:36 11:73 12:6 13:19 16:29 
-5.789867290754557 2:81 3:20 4:100 5:64 6:100 7:100 8:85 9:72 10:60 11:35 12:42 13:46 14:21 15:79 
-0.8563802696006299 1:31 2:88 3:68 4:100 5:60 6:86 7:76 8:68 9:100 10:44 11:78 12:18 13:39 14:6 
-7.56925769290949 2:66 3:3 4:93 5:52 6:100 7:100 8:91 9:84 10:65 11:45 12:46 13:27 14:21 15:65 
-1.034555339488446 1:39 2:78 3:25 4:97 5:74 6:100 7:100 8:81 9:85 10:57 11:72 12:32 13:46 14:10 
-6.057004989935163 2:75 3:28 4:92 5:64 6:100 7:93 8:91 9:93 10:62 11:100 12:35 13:78 14:13 15:46 
-1.628776550053743 2:98 3:34 4:100 5:53 6:78 7:47 8:47 9:72 10:26 11:100 12:8 13:68 15:36 16:8 
-0.792791052445136 1:70 2:94 3:98 4:100 5:100 6:79 7:70 8:61 9:75 10:35 11:62 12:12 13:26 
-0.3219500608546618 1:61 2:100 3:100 4:84 5:84 6:62 7:37 8:53 9:71 10:39 11:87 12:15 13:47 16:4 
-3.977750021566733 1:29 2:87 3:66 4:100 5:100 6:97 7:74 8:76 9:69 10:52 11:72 12:29 13:38 14:12 
-0.3648749131990895 1:60 2:89 3:69 4:100 5:100 6:88 7:69 8:68 9:48 10:47 11:76 12:29 13:40 14:13 
-0.8008762541073517 2:89 3:10 4:100 5:46 6:82 7:11 8:58 9:32 10:50 11:94 12:43 13:100 14:18 15:52 
-0.396613324464678 1:8 2:81 3:48 4:100 5:98 6:90 7:77 8:63 9:100 10:28 11:86 13:35 14:9 16:35 
-0.318525596620917 1:58 2:91 3:93 4:100 5:77 6:73 7:97 8:49 9:100 10:20 11:70 13:26 14:7 16:28 
