svm_type c_svc
kernel_type polynomial
degree 3
gamma 0.0001
coef0 0
nr_class 2
total_sv 76
rho 3.30835
label 10 1
probA -2.40706
probB -0.393174
nr_sv 44 32
SV
6.287499021003562 1:19 2:73 3:54 4:91 5:100 6:100 7:99 8:78 9:86 10:52 11:78 12:26 13:43 14:8 
5.254010627594137 2:89 3:41 4:94 5:87 6:100 7:100 8:98 9:80 10:75 11:68 12:50 13:59 14:25 15:60 
3.814500877606832 2:79 3:31 4:94 5:68 6:100 7:100 8:88 9:94 10:62 11:74 12:39 13:51 14:18 15:64 
0.2107981294425602 1:58 2:85 3:100 4:100 5:87 6:94 7:52 8:72 9:59 10:43 11:85 12:27 13:47 14:2 
0.2622242276142739 1:35 2:44 3:41 4:2 5:81 6:14 7:100 8:60 9:81 10:100 11:40 12:85 13:9 14:49 
0.1662998586996437 1:84 2:52 3:98 4:96 5:64 6:100 7:73 8:62 9:100 10:55 11:83 12:9 13:42 16:4 
0.08890074285677897 1:28 2:6 3:64 4:48 5:100 6:91 7:53 8:100 9:22 10:59 11:80 12:31 13:66 16:2 
0.05300169112904417 1:16 2:100 3:11 4:71 5:5 6:39 7:29 8:11 9:85 10:11 11:100 12:28 13:46 14:18 
0.1384867376887417 1:90 2:85 3:100 4:100 5:64 6:97 7:59 8:68 9:80 10:38 11:72 12:8 13:36 14:1 
0.1066356291362624 1:4 2:86 3:54 4:100 5:85 6:72 7:80 8:32 9:76 11:100 12:37 13:48 14:40 16:38 
0.7041358440901095 1:16 2:37 3:8 4:82 5:49 6:100 7:55 8:56 9:26 10:17 13:50 14:3 15:100 16:3 
0.9000740280982233 2:80 3:43 4:93 5:91 6:100 7:96 8:80 9:75 10:57 11:100 12:36 13:90 14:14 15:48 
0.05353963676462309 1:16 2:100 4:65 5:43 6:57 7:100 8:70 9:99 10:87 11:97 12:76 13:84 14:38 15:73 
0.006116446059474625 1:69 2:98 3:82 4:55 5:100 6:100 7:44 8:82 9:92 10:72 11:91 12:46 13:64 
0.5201918242390557 1:100 2:80 3:60 4:71 5:45 6:94 7:88 8:100 9:88 10:70 11:67 12:42 13:34 14:18 
0.9375091901418079 1:5 2:68 3:22 4:100 5:47 6:75 7:35 8:35 9:8 10:1 12:2 13:50 14:4 15:100 
1.158001434094877 1:82 2:94 3:100 4:100 5:96 6:79 7:90 8:55 9:99 10:30 11:74 12:11 13:37 14:6 
2.060138589107354 1:32 2:72 3:57 4:93 5:100 6:100 7:87 8:78 9:62 10:56 11:61 12:30 13:44 14:7 
0.05960796076276497 2:62 3:52 4:63 5:78 6:98 7:23 8:100 9:32 10:70 11:99 12:77 13:100 14:39 15:94 
1.33541481609128 2:72 3:19 4:100 5:27 6:60 7:10 8:21 9:2 10:1 11:35 13:68 14:1 15:100 16:8 
0.2099645464965696 2:69 3:52 4:60 5:100 6:77 7:74 8:100 9:23 10:89 11:47 12:69 13:55 14:36 15:51 
0.1741080970183981 2:21 3:49 4:57 5:79 6:100 7:15 8:81 9:45 10:44 11:100 12:15 13:29 15:5 16:25 
0.5471086548969349 2:97 3:68 4:100 5:66 6:69 7:55 8:35 9:54 11:31 12:1 13:32 14:25 15:100 16:33 
2.454906471774321 1:61 2:88 3:100 4:100 5:96 6:81 7:75 8:60 9:80 10:36 11:81 12:13 13:44 16:1 
0.457083888288606 2:91 3:47 4:70 5:62 6:100 7:43 8:78 9:91 10:70 11:100 12:30 13:68 15:29 16:12 
0.9954842167734151 1:59 2:61 3:91 4:100 5:37 6:92 7:36 8:46 9:45 12:6 13:35 14:36 15:100 16:38 
0.1183563616838066 1:53 2:69 3:49 4:91 5:100 6:100 7:86 8:66 9:52 10:36 12:18 13:15 14:9 15:74 
1.037199747090705 1:53 2:61 3:100 4:73 5:92 6:100 7:55 8:72 9:58 10:36 11:51 12:1 15:29 16:31 
0.05773167630131999 1:100 2:100 3:69 4:91 5:43 6:72 7:18 8:49 10:22 11:16 13:34 14:11 15:3 16:10 
0.06032723759544632 1:100 2:72 3:43 4:78 6:91 7:50 8:100 9:54 10:75 11:40 12:50 13:30 14:25 15:29 
1.208259768454117 1:1 2:55 3:7 4:100 5:30 6:92 7:20 8:45 10:4 11:23 13:61 14:10 15:100 16:12 
0.2519837698371462 3:35 4:8 5:69 6:31 7:93 8:62 9:100 10:100 11:69 12:100 13:57 14:64 15:64 16:26 
0.01616805983224239 1:54 2:82 3:26 4:63 5:100 6:76 7:28 8:100 9:61 10:50 12:36 13:49 15:55 16:54 
0.1202820415164053 1:80 2:80 3:18 4:66 6:84 7:51 8:100 9:78 10:77 11:78 12:50 13:78 14:24 15:100 
0.2470457201210873 1:66 2:98 3:55 4:70 5:98 6:68 7:100 8:100 9:57 10:92 11:33 12:62 13:16 14:31 
0.2128061125006564 1:53 2:67 3:40 4:56 5:100 6:71 7:61 8:100 9:42 10:50 11:89 12:74 13:68 14:19 
0.4512120607084642 1:49 2:90 3:33 4:88 5:74 6:100 7:69 8:55 9:39 10:18 12:3 13:49 14:3 15:100 
2.936064201835272 1:20 2:72 3:51 4:100 5:60 6:69 7:40 8:35 9:12 10:4 12:12 13:49 14:9 15:100 
0.5516258593689877 1:50 2:92 3:100 4:100 5:51 6:96 7:22 8:60 9:43 10:42 11:86 12:31 13:49 
1.479877614621673 1:6 2:48 3:32 4:77 5:75 6:100 7:100 8:79 9:73 10:51 11:33 12:26 14:1 15:62 
2.292681919856424 2:52 3:20 4:83 5:56 6:100 7:79 8:84 9:58 10:52 11:36 12:20 13:59 14:1 15:100 
1.850453531083985 1:68 2:93 3:100 4:100 5:97 6:76 7:72 8:57 9:43 10:38 11:13 12:21 14:1 15:39 
2.44426109589857 1:41 2:73 3:60 4:100 5:72 6:73 7:61 8:40 9:37 10:10 13:49 14:1 15:100 16:2 
0.4329302996858239 2:100 3:3 4:84 5:1 6:63 7:7 8:43 9:52 10:38 11:55 12:35 13:62 14:14 15:100 
-1.833596428029633 2:100 3:73 4:97 5:95 6:80 7:100 8:64 9:95 10:48 11:82 12:31 13:64 14:15 15:23 
-3.301081865613948 2:75 3:29 4:79 5:71 6:91 7:100 8:100 9:82 10:74 11:68 12:48 13:57 14:21 15:58 
-0.536824880519283 1:44 2:60 4:77 5:47 6:99 7:100 8:100 9:84 10:75 11:75 12:50 13:75 14:24 15:100 
-1.012844329222878 1:15 2:73 3:42 4:100 5:32 6:72 7:27 8:39 9:44 10:7 11:100 13:52 14:5 16:3 
-3.235578646449254 2:62 3:21 4:100 5:27 6:80 7:26 8:35 9:4 10:4 11:12 13:55 14:2 15:100 16:5 
-0.2362307992717352 1:55 2:83 3:100 4:100 5:93 6:83 7:82 8:56 9:84 10:28 11:71 12:2 15:73 16:3 
-0.5015656380717971 1:100 2:100 3:100 4:92 5:80 6:76 7:65 8:61 9:50 10:45 11:40 12:30 13:15 14:15 
-0.226661754280678 1:83 2:85 3:57 4:77 5:60 6:83 7:65 8:100 9:72 10:55 11:87 12:10 15:100 16:2 
-0.2086563175643929 1:48 2:100 3:18 4:59 5:43 6:74 7:53 8:82 9:41 10:22 13:38 14:1 15:100 
-0.01042041673293611 1:7 2:78 3:78 4:100 5:100 6:93 7:98 8:51 9:98 10:9 11:22 14:1 15:93 16:2 
-7.305155948371723 1:47 2:73 3:82 4:95 5:100 6:100 7:89 8:75 9:79 10:49 11:76 12:24 13:47 16:2 
-4.542575132130228 2:69 3:23 4:83 5:82 6:100 7:100 8:95 9:86 10:70 11:75 12:44 13:62 14:19 15:64 
-1.271008029105705 2:62 3:30 4:90 5:70 6:100 7:57 8:61 9:48 10:22 11:7 13:36 14:2 15:100 16:3 
-1.243400290609031 2:93 3:60 4:100 5:70 6:83 7:70 8:67 9:70 10:50 11:80 12:33 13:80 14:16 15:100 
-0.8642074581776801 1:33 2:66 3:72 4:86 5:100 6:100 7:76 8:71 9:70 10:40 11:55 12:10 15:13 16:6 
-0.2022589788320534 1:74 2:69 3:100 4:100 5:84 6:86 7:70 8:51 9:47 10:19 13:36 14:7 15:98 16:10 
-1.812872773170073 1:100 2:100 3:96 4:97 5:93 6:80 7:82 8:63 9:71 10:46 11:46 12:30 13:25 14:14 
-1.268238233985052 1:49 2:73 3:83 4:100 5:76 6:91 7:59 8:57 9:37 10:24 13:38 14:7 15:100 16:6 
-3.001534713832263 1:18 2:60 3:39 4:100 5:45 6:82 7:46 8:32 9:20 12:1 13:50 14:4 15:100 16:11 
-0.1305605138164338 1:11 2:47 3:58 4:70 5:100 6:100 7:73 8:70 9:50 10:34 11:28 14:12 15:70 16:10 
-0.5678240660121837 1:12 2:77 3:36 4:90 5:44 6:100 7:37 8:63 9:46 10:27 11:100 12:21 13:47 14:8 
-1.404922681485829 1:44 2:74 3:53 4:100 5:50 6:73 7:46 8:42 9:44 10:10 13:35 14:5 15:100 16:7 
-0.3660472459021778 1:67 2:100 3:67 4:85 5:100 6:71 7:67 8:57 9:33 10:42 12:28 14:14 
-0.1977444760752455 1:100 2:100 4:87 6:73 7:17 8:58 9:33 10:44 11:33 12:29 13:50 14:15 15:67 
-1.126944585418771 2:59 3:20 4:79 5:100 6:100 7:100 8:90 9:60 10:67 11:33 12:44 13:7 14:22 15:33 
-0.02694882762672561 1:20 2:65 3:43 4:94 5:76 6:100 7:58 8:64 9:44 10:27 12:1 13:18 14:4 15:100 
-3.910260743827964 2:80 3:35 4:84 5:84 6:100 7:100 8:89 9:82 10:67 11:63 12:44 13:41 14:22 15:22 
-0.9107175841324108 1:35 2:78 3:92 4:100 5:100 6:96 7:85 8:68 9:88 10:40 11:79 12:13 15:27 16:4 
-0.08801100032660179 1:23 2:73 3:60 4:100 5:54 6:76 7:40 8:34 9:22 12:15 13:50 14:14 15:100 16:14 
-1.423059892884684 2:82 3:38 4:100 5:62 6:95 7:31 8:75 9:23 10:57 11:23 12:37 13:46 14:18 15:100 
-1.359110364742471 1:36 2:87 3:81 4:100 5:80 6:74 7:61 8:31 9:44 12:10 13:50 14:11 15:100 16:15 
-0.5981456492399414 2:78 3:44 4:100 5:68 6:85 7:66 8:46 9:80 10:8 11:100 13:38 14:2 15:1 16:7 
