svm_type c_svc
kernel_type rbf
gamma 0.00892857
nr_class 2
total_sv 552
rho -0.2597
label 1 2
probA -6.95274
probB -1.65244
nr_sv 280 272
SV
0.7141268208188903 6:1 7:1 15:1 21:1 29:1 33:1 34:1 37:1 48:1 50:1 53:1 57:1 67:1 76:1 78:1 81:1 84:1 86:1 95:1 103:1 111:1 
1 6:1 7:1 15:1 21:1 29:1 33:1 34:1 37:1 42:1 50:1 53:1 57:1 67:1 76:1 78:1 81:1 84:1 86:1 95:1 104:1 111:1 
0.09212587693918307 6:1 7:1 15:1 21:1 29:1 33:1 34:1 37:1 48:1 50:1 53:1 57:1 67:1 76:1 78:1 81:1 84:1 86:1 95:1 104:1 111:1 
1 6:1 7:1 19:1 21:1 29:1 33:1 34:1 37:1 45:1 50:1 53:1 57:1 67:1 76:1 78:1 81:1 84:1 86:1 95:1 104:1 111:1 
1 6:1 7:1 15:1 21:1 29:1 33:1 34:1 37:1 45:1 50:1 53:1 57:1 67:1 76:1 78:1 81:1 84:1 86:1 93:1 104:1 111:1 
1 3:1 7:1 15:1 21:1 29:1 33:1 34:1 37:1 48:1 50:1 53:1 57:1 67:1 76:1 78:1 81:1 84:1 86:1 93:1 103:1 111:1 
1 6:1 7:1 15:1 21:1 29:1 33:1 34:1 37:1 44:1 50:1 53:1 57:1 67:1 76:1 78:1 81:1 84:1 86:1 95:1 104:1 111:1 
1 6:1 7:1 15:1 21:1 29:1 33:1 34:1 37:1 42:1 50:1 53:1 57:1 67:1 76:1 78:1 81:1 84:1 86:1 93:1 103:1 111:1 
0.4343661616996883 6:1 7:1 15:1 21:1 29:1 33:1 34:1 37:1 45:1 50:1 53:1 57:1 67:1 76:1 78:1 81:1 84:1 86:1 93:1 103:1 111:1 
0.8526092934528682 6:1 8:1 15:1 21:1 29:1 33:1 34:1 37:1 42:1 50:1 53:1 57:1 67:1 76:1 78:1 81:1 84:1 86:1 95:1 104:1 111:1 
0.6670207602474625 6:1 7:1 19:1 21:1 29:1 33:1 34:1 37:1 44:1 50:1 53:1 57:1 67:1 76:1 78:1 81:1 84:1 86:1 95:1 103:1 107:1 
0.7727117967754645 6:1 7:1 15:1 21:1 29:1 33:1 34:1 37:1 42:1 50:1 53:1 57:1 67:1 76:1 78:1 81:1 84:1 86:1 93:1 104:1 111:1 
0.7305992863627888 6:1 7:1 19:1 21:1 29:1 33:1 34:1 37:1 42:1 50:1 53:1 57:1 67:1 76:1 78:1 81:1 84:1 86:1 95:1 103:1 107:1 
1 6:1 7:1 15:1 21:1 29:1 33:1 34:1 37:1 48:1 50:1 53:1 57:1 67:1 76:1 78:1 81:1 84:1 86:1 93:1 103:1 107:1 
0.2203340699581316 6:1 7:1 15:1 21:1 29:1 33:1 34:1 37:1 44:1 50:1 53:1 57:1 67:1 76:1 78:1 81:1 84:1 86:1 93:1 103:1 107:1 
0.6650469465905955 6:1 7:1 15:1 21:1 29:1 33:1 34:1 37:1 45:1 50:1 53:1 57:1 67:1 76:1 78:1 81:1 84:1 86:1 95:1 103:1 107:1 
0.7973398657359887 6:1 8:1 15:1 21:1 29:1 33:1 34:1 37:1 45:1 50:1 53:1 57:1 67:1 76:1 78:1 81:1 84:1 86:1 95:1 104:1 111:1 
1 3:1 7:1 15:1 21:1 29:1 33:1 34:1 37:1 45:1 50:1 53:1 57:1 67:1 76:1 78:1 81:1 84:1 86:1 95:1 104:1 111:1 
1 6:1 7:1 15:1 21:1 29:1 33:1 34:1 37:1 48:1 50:1 53:1 57:1 67:1 76:1 78:1 81:1 84:1 86:1 93:1 103:1 111:1 
1 3:1 7:1 19:1 21:1 29:1 33:1 34:1 37:1 45:1 50:1 53:1 57:1 67:1 76:1 78:1 81:1 84:1 86:1 95:1 103:1 107:1 
1 3:1 7:1 15:1 21:1 29:1 33:1 34:1 37:1 44:1 50:1 53:1 57:1 67:1 76:1 78:1 81:1 84:1 86:1 95:1 103:1 111:1 
1 3:1 7:1 19:1 21:1 29:1 33:1 34:1 37:1 42:1 50:1 53:1 57:1 67:1 76:1 78:1 81:1 84:1 86:1 93:1 103:1 111:1 
1 6:1 7:1 15:1 21:1 29:1 33:1 34:1 37:1 48:1 50:1 53:1 57:1 67:1 76:1 78:1 81:1 84:1 86:1 95:1 103:1 107:1 
0.7436377184860749 3:1 8:1 19:1 21:1 29:1 33:1 34:1 37:1 44:1 50:1 53:1 57:1 67:1 76:1 78:1 81:1 84:1 86:1 95:1 103:1 107:1 
0.3974482583068335 3:1 7:1 19:1 21:1 29:1 33:1 34:1 37:1 45:1 50:1 53:1 57:1 67:1 76:1 78:1 81:1 84:1 86:1 93:1 103:1 111:1 
0.2458412509111686 3:1 8:1 19:1 21:1 29:1 33:1 34:1 37:1 42:1 50:1 53:1 57:1 67:1 76:1 78:1 81:1 84:1 86:1 93:1 103:1 111:1 
0.3433279347649502 3:1 7:1 19:1 21:1 29:1 33:1 34:1 37:1 42:1 50:1 53:1 57:1 67:1 76:1 78:1 81:1 84:1 86:1 95:1 103:1 111:1 
0.6977497779532146 6:1 7:1 15:1 21:1 29:1 33:1 34:1 37:1 45:1 50:1 53:1 57:1 67:1 76:1 78:1 81:1 84:1 86:1 93:1 103:1 107:1 
1 3:1 7:1 19:1 21:1 29:1 33:1 34:1 37:1 45:1 50:1 53:1 57:1 67:1 76:1 78:1 81:1 84:1 86:1 95:1 103:1 111:1 
1 3:1 7:1 15:1 21:1 29:1 33:1 34:1 37:1 45:1 50:1 53:1 57:1 67:1 76:1 78:1 81:1 84:1 86:1 93:1 104:1 111:1 
0.01549976150716198 3:1 8:1 15:1 21:1 29:1 33:1 34:1 37:1 45:1 50:1 53:1 57:1 67:1 76:1 78:1 81:1 84:1 86:1 95:1 103:1 111:1 
1 3:1 8:1 19:1 21:1 29:1 33:1 34:1 37:1 42:1 50:1 53:1 57:1 67:1 76:1 78:1 81:1 84:1 86:1 95:1 103:1 111:1 
0.6294288587135696 6:1 7:1 15:1 21:1 29:1 33:1 34:1 37:1 44:1 50:1 53:1 57:1 67:1 76:1 78:1 81:1 84:1 86:1 93:1 104:1 111:1 
1 3:1 7:1 15:1 21:1 29:1 33:1 34:1 37:1 45:1 50:1 53:1 57:1 67:1 76:1 78:1 81:1 84:1 86:1 95:1 103:1 107:1 
0.6441776200423134 3:1 7:1 19:1 21:1 29:1 33:1 34:1 37:1 44:1 50:1 53:1 57:1 67:1 76:1 78:1 81:1 84:1 86:1 93:1 103:1 111:1 
1 3:1 8:1 15:1 21:1 29:1 33:1 34:1 37:1 42:1 50:1 53:1 57:1 67:1 76:1 78:1 81:1 84:1 86:1 93:1 103:1 111:1 
0.4616088235866024 3:1 8:1 15:1 21:1 29:1 33:1 34:1 37:1 48:1 50:1 53:1 57:1 67:1 76:1 78:1 81:1 84:1 86:1 95:1 103:1 111:1 
1 3:1 7:1 15:1 21:1 29:1 33:1 34:1 37:1 45:1 50:1 53:1 57:1 67:1 76:1 78:1 81:1 84:1 86:1 93:1 103:1 107:1 
0.4362889369288182 3:1 8:1 15:1 21:1 29:1 33:1 34:1 37:1 42:1 50:1 53:1 57:1 67:1 76:1 78:1 81:1 84:1 86:1 95:1 103:1 111:1 
0.8862394889550606 6:1 7:1 15:1 21:1 29:1 33:1 34:1 37:1 42:1 50:1 53:1 57:1 67:1 76:1 78:1 81:1 84:1 86:1 93:1 103:1 107:1 
1 3:1 7:1 15:1 21:1 29:1 33:1 34:1 37:1 48:1 50:1 53:1 57:1 67:1 76:1 78:1 81:1 84:1 86:1 93:1 103:1 107:1 
0.611639577309751 3:1 7:1 15:1 21:1 29:1 33:1 34:1 37:1 44:1 50:1 53:1 57:1 67:1 76:1 78:1 81:1 84:1 86:1 95:1 104:1 111:1 
0.3844940504635306 3:1 8:1 19:1 21:1 29:1 33:1 34:1 37:1 45:1 50:1 53:1 57:1 67:1 76:1 78:1 81:1 84:1 86:1 95:1 104:1 111:1 
1 3:1 7:1 15:1 21:1 29:1 33:1 34:1 37:1 48:1 50:1 53:1 57:1 67:1 76:1 78:1 81:1 84:1 86:1 95:1 103:1 111:1 
1 3:1 8:1 15:1 21:1 29:1 33:1 34:1 37:1 44:1 50:1 53:1 57:1 67:1 76:1 78:1 81:1 84:1 86:1 95:1 103:1 111:1 
1 3:1 7:1 15:1 21:1 29:1 33:1 34:1 37:1 44:1 50:1 53:1 57:1 67:1 76:1 78:1 81:1 84:1 86:1 93:1 103:1 111:1 
0.8839833391404734 3:1 8:1 19:1 21:1 29:1 33:1 34:1 37:1 44:1 50:1 53:1 57:1 67:1 76:1 78:1 81:1 84:1 86:1 95:1 104:1 111:1 
0.4484396784139776 3:1 7:1 15:1 21:1 29:1 33:1 34:1 37:1 48:1 50:1 53:1 57:1 67:1 76:1 78:1 81:1 84:1 86:1 95:1 103:1 107:1 
0.3733423479547945 3:1 8:1 15:1 21:1 29:1 33:1 34:1 37:1 44:1 50:1 53:1 57:1 67:1 76:1 78:1 81:1 84:1 86:1 93:1 103:1 111:1 
1 3:1 8:1 15:1 21:1 29:1 33:1 34:1 37:1 44:1 50:1 53:1 57:1 67:1 76:1 78:1 81:1 84:1 86:1 95:1 104:1 111:1 
1 6:1 10:1 19:1 22:1 24:1 33:1 35:1 37:1 40:1 50:1 53:1 57:1 67:1 76:1 78:1 81:1 84:1 86:1 95:1 103:1 106:1 
1 6:1 10:1 19:1 22:1 24:1 33:1 35:1 37:1 47:1 50:1 53:1 57:1 67:1 76:1 78:1 81:1 84:1 86:1 95:1 104:1 106:1 
1 6:1 10:1 14:1 22:1 24:1 33:1 35:1 37:1 40:1 50:1 53:1 57:1 67:1 76:1 78:1 81:1 84:1 86:1 93:1 103:1 106:1 
1 6:1 8:1 19:1 22:1 24:1 33:1 35:1 37:1 40:1 50:1 53:1 57:1 67:1 76:1 78:1 81:1 84:1 86:1 93:1 104:1 106:1 
1 6:1 8:1 14:1 22:1 24:1 33:1 35:1 37:1 40:1 50:1 53:1 57:1 67:1 76:1 78:1 81:1 84:1 86:1 95:1 104:1 106:1 
1 6:1 8:1 14:1 22:1 24:1 33:1 35:1 37:1 40:1 50:1 53:1 57:1 67:1 76:1 78:1 81:1 84:1 86:1 93:1 103:1 106:1 
1 6:1 8:1 19:1 22:1 24:1 33:1 35:1 37:1 45:1 50:1 53:1 57:1 67:1 76:1 78:1 81:1 84:1 86:1 93:1 103:1 106:1 
1 6:1 10:1 19:1 22:1 24:1 33:1 35:1 37:1 44:1 50:1 53:1 57:1 67:1 76:1 78:1 81:1 84:1 86:1 95:1 103:1 106:1 
1 6:1 8:1 19:1 22:1 24:1 33:1 35:1 37:1 40:1 50:1 53:1 57:1 67:1 76:1 78:1 81:1 84:1 86:1 95:1 103:1 106:1 
1 6:1 8:1 14:1 22:1 24:1 33:1 35:1 37:1 40:1 50:1 53:1 57:1 67:1 76:1 78:1 81:1 84:1 86:1 93:1 104:1 106:1 
1 6:1 8:1 19:1 22:1 24:1 33:1 35:1 37:1 47:1 50:1 53:1 57:1 67:1 76:1 78:1 81:1 84:1 86:1 95:1 103:1 106:1 
1 6:1 10:1 19:1 22:1 24:1 33:1 35:1 37:1 45:1 50:1 53:1 57:1 67:1 76:1 78:1 81:1 84:1 86:1 93:1 104:1 106:1 
1 6:1 8:1 19:1 22:1 24:1 33:1 35:1 37:1 44:1 50:1 53:1 57:1 67:1 76:1 78:1 81:1 84:1 86:1 95:1 103:1 106:1 
1 6:1 10:1 19:1 22:1 24:1 33:1 35:1 37:1 40:1 50:1 53:1 57:1 67:1 76:1 78:1 81:1 84:1 86:1 93:1 104:1 106:1 
1 6:1 10:1 20:1 22:1 25:1 33:1 34:1 36:1 45:1 50:1 54:1 58:1 65:1 74:1 78:1 81:1 84:1 89:1 92:1 105:1 110:1 
1 6:1 8:1 14:1 22:1 24:1 33:1 35:1 37:1 40:1 50:1 53:1 57:1 67:1 76:1 78:1 81:1 84:1 86:1 95:1 103:1 106:1 
1 6:1 8:1 19:1 22:1 24:1 33:1 35:1 37:1 44:1 50:1 53:1 57:1 67:1 76:1 78:1 81:1 84:1 86:1 95:1 104:1 106:1 
1 6:1 8:1 19:1 22:1 24:1 33:1 35:1 37:1 44:1 50:1 53:1 57:1 67:1 76:1 78:1 81:1 84:1 86:1 93:1 103:1 106:1 
1 6:1 8:1 14:1 22:1 24:1 33:1 35:1 37:1 45:1 50:1 53:1 57:1 67:1 76:1 78:1 81:1 84:1 86:1 93:1 104:1 106:1 
1 6:1 10:1 16:1 22:1 24:1 33:1 35:1 37:1 45:1 50:1 53:1 57:1 67:1 76:1 78:1 81:1 84:1 86:1 95:1 104:1 106:1 
1 6:1 10:1 14:1 22:1 24:1 33:1 35:1 37:1 44:1 50:1 53:1 57:1 67:1 76:1 78:1 81:1 84:1 86:1 95:1 104:1 106:1 
1 6:1 10:1 19:1 22:1 24:1 33:1 35:1 37:1 47:1 50:1 53:1 57:1 67:1 76:1 78:1 81:1 84:1 86:1 95:1 103:1 106:1 
1 6:1 10:1 19:1 22:1 24:1 33:1 35:1 37:1 40:1 50:1 53:1 57:1 67:1 76:1 78:1 81:1 84:1 86:1 93:1 103:1 106:1 
1 6:1 10:1 19:1 22:1 24:1 33:1 35:1 37:1 44:1 50:1 53:1 57:1 67:1 76:1 78:1 81:1 84:1 86:1 93:1 103:1 106:1 
1 6:1 10:1 19:1 22:1 24:1 33:1 35:1 37:1 45:1 50:1 53:1 57:1 67:1 76:1 78:1 81:1 84:1 86:1 95:1 103:1 106:1 
1 6:1 10:1 19:1 22:1 24:1 33:1 35:1 37:1 47:1 50:1 53:1 57:1 67:1 76:1 78:1 81:1 84:1 86:1 93:1 103:1 106:1 
1 6:1 8:1 19:1 22:1 24:1 33:1 35:1 37:1 45:1 50:1 53:1 57:1 67:1 76:1 78:1 81:1 84:1 86:1 95:1 104:1 106:1 
1 6:1 8:1 14:1 22:1 24:1 33:1 35:1 37:1 44:1 50:1 53:1 57:1 67:1 76:1 78:1 81:1 84:1 86:1 93:1 103:1 106:1 
1 6:1 8:1 14:1 22:1 24:1 33:1 35:1 37:1 45:1 50:1 53:1 57:1 67:1 76:1 78:1 81:1 84:1 86:1 95:1 104:1 106:1 
1 6:1 10:1 14:1 22:1 24:1 33:1 35:1 37:1 44:1 50:1 53:1 57:1 67:1 76:1 78:1 81:1 84:1 86:1 93:1 103:1 106:1 
0.4767289578540864 6:1 10:1 14:1 22:1 25:1 33:1 34:1 36:1 40:1 50:1 54:1 58:1 65:1 74:1 78:1 81:1 84:1 89:1 92:1 105:1 110:1 
1 6:1 10:1 14:1 22:1 24:1 33:1 35:1 37:1 44:1 50:1 53:1 57:1 67:1 76:1 78:1 81:1 84:1 86:1 95:1 103:1 106:1 
1 6:1 10:1 19:1 22:1 24:1 33:1 35:1 37:1 45:1 50:1 53:1 57:1 67:1 76:1 78:1 81:1 84:1 86:1 95:1 104:1 106:1 
1 6:1 8:1 19:1 22:1 24:1 33:1 35:1 37:1 40:1 50:1 53:1 57:1 67:1 76:1 78:1 81:1 84:1 86:1 95:1 104:1 106:1 
1 6:1 10:1 19:1 22:1 24:1 33:1 35:1 37:1 45:1 50:1 53:1 57:1 67:1 76:1 78:1 81:1 84:1 86:1 93:1 103:1 106:1 
1 6:1 10:1 14:1 22:1 24:1 33:1 35:1 37:1 45:1 50:1 53:1 57:1 67:1 76:1 78:1 81:1 84:1 86:1 93:1 104:1 106:1 
1 6:1 8:1 14:1 22:1 24:1 33:1 35:1 37:1 44:1 50:1 53:1 57:1 67:1 76:1 78:1 81:1 84:1 86:1 95:1 104:1 106:1 
1 6:1 10:1 14:1 22:1 24:1 33:1 35:1 37:1 47:1 50:1 53:1 57:1 67:1 76:1 78:1 81:1 84:1 86:1 93:1 103:1 106:1 
1 6:1 8:1 19:1 22:1 24:1 33:1 35:1 37:1 40:1 50:1 53:1 57:1 67:1 76:1 78:1 81:1 84:1 86:1 93:1 103:1 106:1 
0.256393519180436 6:1 10:1 16:1 22:1 24:1 33:1 35:1 37:1 44:1 50:1 53:1 57:1 67:1 76:1 78:1 81:1 84:1 86:1 93:1 104:1 106:1 
1 6:1 10:1 14:1 22:1 24:1 33:1 35:1 37:1 45:1 50:1 53:1 57:1 67:1 76:1 78:1 81:1 84:1 86:1 95:1 103:1 106:1 
1 6:1 8:1 19:1 22:1 24:1 33:1 35:1 37:1 47:1 50:1 53:1 57:1 67:1 76:1 78:1 81:1 84:1 86:1 95:1 104:1 106:1 
1 6:1 10:1 19:1 22:1 24:1 33:1 35:1 37:1 44:1 50:1 53:1 57:1 67:1 76:1 78:1 81:1 84:1 86:1 95:1 104:1 106:1 
1 6:1 10:1 19:1 22:1 24:1 33:1 35:1 37:1 44:1 50:1 53:1 57:1 67:1 76:1 78:1 81:1 84:1 86:1 93:1 104:1 106:1 
1 6:1 10:1 19:1 22:1 24:1 33:1 35:1 37:1 47:1 50:1 53:1 57:1 67:1 76:1 78:1 81:1 84:1 86:1 93:1 104:1 106:1 
1 6:1 10:1 14:1 22:1 24:1 33:1 35:1 37:1 45:1 50:1 53:1 57:1 67:1 76:1 78:1 81:1 84:1 86:1 93:1 103:1 106:1 
1 6:1 8:1 14:1 22:1 24:1 33:1 35:1 37:1 44:1 50:1 53:1 57:1 67:1 76:1 78:1 81:1 84:1 86:1 93:1 104:1 106:1 
1 6:1 10:1 14:1 22:1 24:1 33:1 35:1 37:1 40:1 50:1 53:1 57:1 67:1 76:1 78:1 81:1 84:1 86:1 95:1 103:1 106:1 
1 6:1 10:1 19:1 22:1 24:1 33:1 35:1 37:1 40:1 50:1 53:1 57:1 67:1 76:1 78:1 81:1 84:1 86:1 95:1 104:1 106:1 
0.05972637571694109 6:1 10:1 20:1 22:1 25:1 33:1 34:1 36:1 45:1 50:1 54:1 58:1 66:1 74:1 78:1 81:1 84:1 89:1 92:1 105:1 110:1 
1 6:1 10:1 14:1 22:1 24:1 33:1 35:1 37:1 47:1 50:1 53:1 57:1 67:1 76:1 78:1 81:1 84:1 86:1 95:1 103:1 106:1 
1 6:1 8:1 14:1 22:1 24:1 33:1 35:1 37:1 47:1 50:1 53:1 57:1 67:1 76:1 78:1 81:1 84:1 86:1 95:1 104:1 106:1 
1 6:1 8:1 19:1 22:1 24:1 33:1 35:1 37:1 47:1 50:1 53:1 57:1 67:1 76:1 78:1 81:1 84:1 86:1 93:1 104:1 106:1 
0.3731042741227149 3:1 10:1 20:1 22:1 25:1 33:1 34:1 36:1 45:1 50:1 54:1 58:1 61:1 74:1 78:1 81:1 84:1 89:1 92:1 105:1 110:1 
1 2:1 8:1 12:1 21:1 28:1 33:1 34:1 36:1 40:1 50:1 53:1 57:1 67:1 76:1 78:1 81:1 83:1 86:1 96:1 104:1 108:1 
1 6:1 10:1 14:1 22:1 24:1 33:1 35:1 37:1 44:1 50:1 53:1 57:1 67:1 76:1 78:1 81:1 84:1 86:1 93:1 104:1 106:1 
1 6:1 10:1 16:1 22:1 24:1 33:1 35:1 37:1 44:1 50:1 53:1 57:1 67:1 76:1 78:1 81:1 84:1 86:1 95:1 104:1 106:1 
0.6110002006060515 6:1 8:1 14:1 21:1 25:1 33:1 34:1 36:1 48:1 51:1 53:1 59:1 67:1 76:1 78:1 81:1 84:1 86:1 92:1 103:1 111:1 
1 3:1 10:1 14:1 22:1 25:1 33:1 34:1 36:1 45:1 50:1 54:1 58:1 65:1 74:1 78:1 81:1 84:1 89:1 92:1 105:1 110:1 
0.3198091095146089 3:1 10:1 20:1 22:1 25:1 33:1 34:1 36:1 41:1 50:1 54:1 58:1 65:1 74:1 78:1 81:1 84:1 89:1 92:1 105:1 110:1 
1 2:1 7:1 19:1 21:1 28:1 33:1 35:1 37:1 48:1 50:1 53:1 57:1 67:1 76:1 78:1 81:1 84:1 86:1 98:1 101:1 109:1 
1 3:1 10:1 20:1 22:1 28:1 33:1 34:1 37:1 48:1 50:1 54:1 56:1 67:1 77:1 78:1 81:1 84:1 88:1 98:1 104:1 106:1 
1 6:1 8:1 14:1 22:1 24:1 33:1 35:1 37:1 47:1 50:1 53:1 57:1 67:1 76:1 78:1 81:1 84:1 86:1 93:1 104:1 106:1 
0.01928033475762667 6:1 7:1 15:1 22:1 30:1 33:1 34:1 37:1 38:1 51:1 53:1 57:1 66:1 75:1 78:1 81:1 84:1 88:1 98:1 104:1 109:1 
1 3:1 8:1 19:1 21:1 28:1 33:1 34:1 36:1 40:1 50:1 53:1 57:1 67:1 76:1 78:1 81:1 83:1 86:1 96:1 104:1 108:1 
1 3:1 8:1 19:1 21:1 25:1 33:1 34:1 36:1 48:1 51:1 53:1 59:1 67:1 76:1 78:1 81:1 84:1 86:1 92:1 103:1 111:1 
0.9913743380474358 3:1 10:1 14:1 22:1 25:1 33:1 34:1 36:1 40:1 50:1 54:1 58:1 66:1 74:1 78:1 81:1 84:1 89:1 92:1 105:1 110:1 
1 4:1 10:1 15:1 22:1 28:1 33:1 34:1 37:1 48:1 50:1 54:1 56:1 67:1 74:1 78:1 81:1 84:1 88:1 98:1 104:1 106:1 
1 2:1 10:1 20:1 22:1 28:1 33:1 34:1 37:1 48:1 50:1 54:1 56:1 67:1 74:1 78:1 81:1 84:1 88:1 98:1 104:1 106:1 
1 2:1 8:1 19:1 21:1 28:1 33:1 34:1 36:1 40:1 50:1 53:1 57:1 67:1 76:1 78:1 81:1 83:1 86:1 96:1 104:1 108:1 
1 3:1 10:1 20:1 22:1 25:1 33:1 34:1 36:1 45:1 50:1 54:1 58:1 65:1 74:1 78:1 81:1 84:1 89:1 92:1 105:1 110:1 
1 2:1 7:1 19:1 21:1 28:1 33:1 34:1 36:1 48:1 50:1 53:1 57:1 67:1 76:1 78:1 81:1 83:1 86:1 96:1 104:1 108:1 
0.4690944885939262 6:1 8:1 19:1 21:1 25:1 33:1 34:1 36:1 41:1 51:1 53:1 57:1 67:1 76:1 78:1 81:1 84:1 86:1 92:1 103:1 107:1 
0.4832878741048586 6:1 10:1 20:1 22:1 25:1 33:1 34:1 36:1 40:1 50:1 54:1 58:1 65:1 74:1 78:1 81:1 84:1 89:1 92:1 105:1 110:1 
1 3:1 7:1 16:1 21:1 28:1 33:1 34:1 36:1 40:1 50:1 53:1 57:1 67:1 76:1 78:1 81:1 83:1 86:1 96:1 104:1 107:1 
1 6:1 7:1 15:1 22:1 28:1 33:1 34:1 37:1 48:1 50:1 54:1 56:1 67:1 74:1 78:1 81:1 84:1 88:1 98:1 104:1 106:1 
1 4:1 10:1 20:1 22:1 28:1 33:1 34:1 37:1 48:1 50:1 54:1 56:1 67:1 74:1 78:1 81:1 84:1 88:1 98:1 104:1 106:1 
1 2:1 7:1 16:1 21:1 28:1 33:1 34:1 36:1 48:1 50:1 53:1 57:1 67:1 76:1 78:1 81:1 83:1 86:1 96:1 104:1 107:1 
1 6:1 8:1 19:1 21:1 25:1 33:1 34:1 36:1 45:1 51:1 53:1 57:1 67:1 76:1 78:1 81:1 84:1 86:1 92:1 103:1 111:1 
1 3:1 9:1 19:1 21:1 28:1 33:1 35:1 37:1 48:1 50:1 53:1 57:1 67:1 76:1 78:1 81:1 84:1 86:1 98:1 101:1 109:1 
1 6:1 8:1 19:1 21:1 25:1 33:1 34:1 36:1 48:1 51:1 53:1 59:1 67:1 76:1 78:1 81:1 84:1 86:1 92:1 103:1 111:1 
0.3999770750185074 3:1 8:1 14:1 21:1 25:1 33:1 34:1 36:1 48:1 51:1 53:1 57:1 67:1 76:1 78:1 81:1 84:1 86:1 92:1 103:1 111:1 
1 1:1 9:1 19:1 21:1 28:1 33:1 35:1 37:1 48:1 50:1 53:1 57:1 67:1 76:1 78:1 81:1 84:1 86:1 98:1 101:1 109:1 
0.9631411233849573 6:1 8:1 14:1 21:1 25:1 33:1 34:1 36:1 45:1 51:1 53:1 59:1 67:1 76:1 78:1 81:1 84:1 86:1 92:1 103:1 111:1 
1 2:1 9:1 19:1 21:1 28:1 33:1 35:1 37:1 48:1 50:1 53:1 57:1 67:1 76:1 78:1 81:1 84:1 86:1 98:1 101:1 109:1 
1 2:1 10:1 20:1 22:1 28:1 33:1 34:1 37:1 48:1 50:1 54:1 56:1 67:1 77:1 78:1 81:1 84:1 88:1 98:1 104:1 106:1 
1 3:1 8:1 12:1 21:1 28:1 33:1 34:1 36:1 46:1 50:1 53:1 57:1 67:1 76:1 78:1 81:1 83:1 86:1 96:1 104:1 107:1 
1 3:1 7:1 12:1 21:1 28:1 33:1 34:1 36:1 46:1 50:1 53:1 57:1 67:1 76:1 78:1 81:1 83:1 86:1 96:1 104:1 108:1 
1 6:1 7:1 15:1 22:1 28:1 33:1 34:1 37:1 48:1 50:1 54:1 56:1 67:1 77:1 78:1 81:1 84:1 88:1 98:1 104:1 106:1 
1 3:1 10:1 15:1 22:1 28:1 33:1 34:1 37:1 48:1 50:1 54:1 56:1 67:1 77:1 78:1 81:1 84:1 88:1 98:1 104:1 106:1 
1 6:1 10:1 15:1 22:1 28:1 33:1 34:1 37:1 48:1 50:1 54:1 56:1 67:1 74:1 78:1 81:1 84:1 88:1 98:1 104:1 106:1 
1 3:1 7:1 16:1 21:1 28:1 33:1 34:1 36:1 48:1 50:1 53:1 57:1 67:1 76:1 78:1 81:1 83:1 86:1 96:1 104:1 107:1 
1 3:1 10:1 15:1 22:1 28:1 33:1 34:1 37:1 48:1 50:1 54:1 56:1 67:1 74:1 78:1 81:1 84:1 88:1 98:1 104:1 106:1 
1 2:1 7:1 15:1 22:1 28:1 33:1 34:1 37:1 48:1 50:1 54:1 56:1 67:1 74:1 78:1 81:1 84:1 88:1 98:1 104:1 106:1 
0.2407909132165207 3:1 8:1 14:1 21:1 25:1 33:1 34:1 36:1 48:1 51:1 53:1 59:1 67:1 76:1 78:1 81:1 84:1 86:1 92:1 104:1 111:1 
1 4:1 10:1 20:1 22:1 28:1 33:1 34:1 37:1 48:1 50:1 54:1 56:1 67:1 77:1 78:1 81:1 84:1 88:1 98:1 104:1 106:1 
0.3578916746955649 3:1 8:1 19:1 21:1 25:1 33:1 34:1 36:1 48:1 51:1 55:1 59:1 67:1 76:1 78:1 81:1 84:1 86:1 92:1 103:1 107:1 
1 3:1 7:1 20:1 22:1 28:1 33:1 34:1 37:1 48:1 50:1 54:1 56:1 67:1 77:1 78:1 81:1 84:1 88:1 98:1 104:1 106:1 
0.8636439586003544 6:1 8:1 19:1 21:1 25:1 33:1 34:1 36:1 45:1 51:1 53:1 59:1 67:1 76:1 78:1 81:1 84:1 86:1 92:1 104:1 107:1 
1 2:1 7:1 12:1 21:1 28:1 33:1 34:1 36:1 48:1 50:1 53:1 57:1 67:1 76:1 78:1 81:1 83:1 86:1 96:1 104:1 108:1 
1 4:1 7:1 15:1 22:1 28:1 33:1 34:1 37:1 48:1 50:1 54:1 56:1 67:1 77:1 78:1 81:1 84:1 88:1 98:1 104:1 106:1 
1 6:1 7:1 15:1 22:1 31:1 33:1 34:1 37:1 38:1 51:1 53:1 57:1 67:1 76:1 78:1 81:1 84:1 88:1 98:1 104:1 109:1 
1 4:1 7:1 20:1 22:1 28:1 33:1 34:1 37:1 48:1 50:1 54:1 56:1 67:1 77:1 78:1 81:1 84:1 88:1 98:1 104:1 106:1 
1 3:1 8:1 19:1 21:1 28:1 33:1 34:1 36:1 48:1 50:1 53:1 57:1 67:1 76:1 78:1 81:1 83:1 86:1 96:1 104:1 108:1 
1 3:1 7:1 19:1 21:1 28:1 33:1 35:1 37:1 48:1 50:1 53:1 57:1 67:1 76:1 78:1 81:1 84:1 86:1 98:1 101:1 109:1 
1 3:1 8:1 19:1 21:1 25:1 33:1 34:1 36:1 45:1 51:1 53:1 57:1 67:1 76:1 78:1 81:1 84:1 86:1 92:1 103:1 107:1 
1 6:1 7:1 15:1 22:1 30:1 33:1 34:1 37:1 38:1 51:1 53:1 57:1 67:1 76:1 78:1 81:1 84:1 88:1 98:1 104:1 109:1 
1 6:1 8:1 14:1 21:1 25:1 33:1 34:1 36:1 48:1 51:1 53:1 59:1 67:1 76:1 78:1 81:1 84:1 86:1 92:1 104:1 111:1 
1 2:1 7:1 15:1 22:1 28:1 33:1 34:1 37:1 48:1 50:1 54:1 56:1 67:1 77:1 78:1 81:1 84:1 88:1 98:1 104:1 106:1 
1 2:1 7:1 19:1 21:1 28:1 33:1 34:1 36:1 40:1 50:1 53:1 57:1 67:1 76:1 78:1 81:1 83:1 86:1 96:1 104:1 108:1 
1 3:1 8:1 14:1 21:1 25:1 33:1 34:1 36:1 48:1 51:1 53:1 59:1 67:1 76:1 78:1 81:1 84:1 86:1 92:1 103:1 111:1 
1 6:1 8:1 19:1 21:1 25:1 33:1 34:1 36:1 41:1 51:1 53:1 59:1 67:1 76:1 78:1 81:1 84:1 86:1 92:1 103:1 111:1 
1 3:1 7:1 16:1 21:1 28:1 33:1 34:1 36:1 46:1 50:1 53:1 57:1 67:1 76:1 78:1 81:1 83:1 86:1 96:1 104:1 107:1 
1 3:1 7:1 12:1 21:1 28:1 33:1 34:1 36:1 46:1 50:1 53:1 57:1 67:1 76:1 78:1 81:1 83:1 86:1 96:1 104:1 107:1 
1 6:1 10:1 20:1 22:1 28:1 33:1 34:1 37:1 48:1 50:1 54:1 56:1 67:1 74:1 78:1 81:1 84:1 88:1 98:1 104:1 106:1 
1 6:1 7:1 20:1 22:1 28:1 33:1 34:1 37:1 48:1 50:1 54:1 56:1 67:1 74:1 78:1 81:1 84:1 88:1 98:1 104:1 106:1 
1 3:1 8:1 16:1 21:1 28:1 33:1 34:1 36:1 48:1 50:1 53:1 57:1 67:1 76:1 78:1 81:1 83:1 86:1 96:1 104:1 108:1 
0.4113854104005967 6:1 8:1 19:1 21:1 25:1 33:1 34:1 36:1 45:1 51:1 55:1 57:1 67:1 76:1 78:1 81:1 84:1 86:1 92:1 103:1 107:1 
0.4696287179819313 2:1 7:1 16:1 21:1 28:1 33:1 34:1 36:1 46:1 50:1 53:1 57:1 67:1 76:1 78:1 81:1 83:1 86:1 96:1 104:1 108:1 
1 6:1 8:1 19:1 21:1 25:1 33:1 34:1 36:1 45:1 51:1 53:1 59:1 67:1 76:1 78:1 81:1 84:1 86:1 92:1 104:1 111:1 
1 2:1 7:1 20:1 22:1 28:1 33:1 34:1 37:1 48:1 50:1 54:1 56:1 67:1 77:1 78:1 81:1 84:1 88:1 98:1 104:1 106:1 
1 2:1 10:1 15:1 22:1 28:1 33:1 34:1 37:1 48:1 50:1 54:1 56:1 67:1 77:1 78:1 81:1 84:1 88:1 98:1 104:1 106:1 
1 2:1 7:1 12:1 21:1 28:1 33:1 34:1 36:1 40:1 50:1 53:1 57:1 67:1 76:1 78:1 81:1 83:1 86:1 96:1 104:1 108:1 
1 3:1 8:1 19:1 21:1 25:1 33:1 34:1 36:1 48:1 51:1 53:1 57:1 67:1 76:1 78:1 81:1 84:1 86:1 92:1 103:1 107:1 
0.7294810770578113 3:1 8:1 19:1 21:1 25:1 33:1 34:1 36:1 45:1 51:1 55:1 59:1 67:1 76:1 78:1 81:1 84:1 86:1 92:1 103:1 107:1 
1 6:1 8:1 14:1 21:1 25:1 33:1 34:1 36:1 48:1 51:1 53:1 59:1 67:1 76:1 78:1 81:1 84:1 86:1 92:1 103:1 107:1 
1 6:1 8:1 19:1 21:1 25:1 33:1 34:1 36:1 48:1 51:1 53:1 57:1 67:1 76:1 78:1 81:1 84:1 86:1 92:1 103:1 107:1 
1 3:1 7:1 12:1 21:1 28:1 33:1 34:1 36:1 48:1 50:1 53:1 57:1 67:1 76:1 78:1 81:1 83:1 86:1 96:1 104:1 108:1 
0.07276465911888286 6:1 7:1 15:1 22:1 31:1 33:1 34:1 37:1 38:1 51:1 53:1 57:1 66:1 76:1 78:1 81:1 84:1 88:1 98:1 104:1 109:1 
1 2:1 8:1 16:1 21:1 28:1 33:1 34:1 36:1 48:1 50:1 53:1 57:1 67:1 76:1 78:1 81:1 83:1 86:1 96:1 104:1 107:1 
1 3:1 7:1 19:1 21:1 28:1 33:1 34:1 36:1 46:1 50:1 53:1 57:1 67:1 76:1 78:1 81:1 83:1 86:1 96:1 104:1 108:1 
1 3:1 8:1 19:1 21:1 25:1 33:1 34:1 36:1 45:1 51:1 53:1 59:1 67:1 76:1 78:1 81:1 84:1 86:1 92:1 103:1 111:1 
1 3:1 7:1 16:1 21:1 28:1 33:1 34:1 36:1 40:1 50:1 53:1 57:1 67:1 76:1 78:1 81:1 83:1 86:1 96:1 104:1 108:1 
1 3:1 7:1 19:1 21:1 28:1 33:1 34:1 36:1 48:1 50:1 53:1 57:1 67:1 76:1 78:1 81:1 83:1 86:1 96:1 104:1 108:1 
1 6:1 8:1 19:1 21:1 25:1 33:1 34:1 36:1 45:1 51:1 53:1 59:1 67:1 76:1 78:1 81:1 84:1 86:1 92:1 103:1 107:1 
1 6:1 8:1 19:1 21:1 25:1 33:1 34:1 36:1 45:1 51:1 55:1 59:1 67:1 76:1 78:1 81:1 84:1 86:1 92:1 103:1 107:1 
1 1:1 7:1 19:1 21:1 28:1 33:1 35:1 37:1 48:1 50:1 53:1 57:1 67:1 76:1 78:1 81:1 84:1 86:1 98:1 101:1 109:1 
1 3:1 8:1 14:1 21:1 25:1 33:1 34:1 36:1 48:1 51:1 53:1 59:1 67:1 76:1 78:1 81:1 84:1 86:1 92:1 103:1 107:1 
1 6:1 8:1 14:1 21:1 25:1 33:1 34:1 36:1 48:1 51:1 53:1 57:1 67:1 76:1 78:1 81:1 84:1 86:1 92:1 103:1 107:1 
1 3:1 8:1 19:1 21:1 25:1 33:1 34:1 36:1 45:1 51:1 53:1 59:1 67:1 76:1 78:1 81:1 84:1 86:1 92:1 104:1 111:1 
1 6:1 8:1 19:1 21:1 25:1 33:1 34:1 36:1 48:1 51:1 53:1 59:1 67:1 76:1 78:1 81:1 84:1 86:1 92:1 104:1 111:1 
1 3:1 8:1 12:1 21:1 28:1 33:1 34:1 36:1 40:1 50:1 53:1 57:1 67:1 76:1 78:1 81:1 83:1 86:1 96:1 104:1 108:1 
1 2:1 7:1 16:1 21:1 28:1 33:1 34:1 36:1 40:1 50:1 53:1 57:1 67:1 76:1 78:1 81:1 83:1 86:1 96:1 104:1 107:1 
1 6:1 8:1 19:1 21:1 25:1 33:1 34:1 36:1 48:1 51:1 53:1 57:1 67:1 76:1 78:1 81:1 84:1 86:1 92:1 103:1 111:1 
1 2:1 7:1 16:1 21:1 28:1 33:1 34:1 36:1 48:1 50:1 53:1 57:1 67:1 76:1 78:1 81:1 83:1 86:1 96:1 104:1 108:1 
1 3:1 8:1 19:1 21:1 28:1 33:1 34:1 36:1 46:1 50:1 53:1 57:1 67:1 76:1 78:1 81:1 83:1 86:1 96:1 104:1 108:1 
1 3:1 8:1 19:1 21:1 28:1 33:1 34:1 36:1 46:1 50:1 53:1 57:1 67:1 76:1 78:1 81:1 83:1 86:1 96:1 104:1 107:1 
1 2:1 8:1 19:1 21:1 28:1 33:1 34:1 36:1 40:1 50:1 53:1 57:1 67:1 76:1 78:1 81:1 83:1 86:1 96:1 104:1 107:1 
1 2:1 7:1 12:1 21:1 28:1 33:1 34:1 36:1 46:1 50:1 53:1 57:1 67:1 76:1 78:1 81:1 83:1 86:1 96:1 104:1 107:1 
1 3:1 7:1 20:1 22:1 28:1 33:1 34:1 37:1 48:1 50:1 54:1 56:1 67:1 74:1 78:1 81:1 84:1 88:1 98:1 104:1 106:1 
1 6:1 8:1 19:1 21:1 25:1 33:1 34:1 36:1 48:1 51:1 55:1 59:1 67:1 76:1 78:1 81:1 84:1 86:1 92:1 103:1 107:1 
1 6:1 10:1 15:1 22:1 28:1 33:1 34:1 37:1 48:1 50:1 54:1 56:1 67:1 77:1 78:1 81:1 84:1 88:1 98:1 104:1 106:1 
1 6:1 8:1 14:1 21:1 25:1 33:1 34:1 36:1 45:1 51:1 53:1 59:1 67:1 76:1 78:1 81:1 84:1 86:1 92:1 104:1 111:1 
1 2:1 7:1 12:1 21:1 28:1 33:1 34:1 36:1 48:1 50:1 53:1 57:1 67:1 76:1 78:1 81:1 83:1 86:1 96:1 104:1 107:1 
1 4:1 9:1 19:1 21:1 28:1 33:1 35:1 37:1 48:1 50:1 53:1 57:1 67:1 76:1 78:1 81:1 84:1 86:1 98:1 101:1 109:1 
1 2:1 8:1 19:1 21:1 28:1 33:1 34:1 36:1 46:1 50:1 53:1 57:1 67:1 76:1 78:1 81:1 83:1 86:1 96:1 104:1 108:1 
0.3077393741923242 6:1 8:1 19:1 21:1 25:1 33:1 34:1 36:1 41:1 51:1 53:1 59:1 67:1 76:1 78:1 81:1 84:1 86:1 92:1 104:1 111:1 
1 3:1 7:1 19:1 21:1 28:1 33:1 34:1 36:1 48:1 50:1 53:1 57:1 67:1 76:1 78:1 81:1 83:1 86:1 96:1 104:1 107:1 
1 3:1 8:1 14:1 21:1 25:1 33:1 34:1 36:1 45:1 51:1 53:1 59:1 67:1 76:1 78:1 81:1 84:1 86:1 92:1 103:1 107:1 
1 3:1 7:1 12:1 21:1 28:1 33:1 34:1 36:1 40:1 50:1 53:1 57:1 67:1 76:1 78:1 81:1 83:1 86:1 96:1 104:1 108:1 
1 2:1 8:1 16:1 21:1 28:1 33:1 34:1 36:1 46:1 50:1 53:1 57:1 67:1 76:1 78:1 81:1 83:1 86:1 96:1 104:1 107:1 
1 3:1 8:1 19:1 21:1 25:1 33:1 34:1 36:1 48:1 51:1 53:1 59:1 67:1 76:1 78:1 81:1 84:1 86:1 92:1 103:1 107:1 
0.1436224169777598 6:1 7:1 15:1 22:1 30:1 33:1 34:1 37:1 38:1 51:1 53:1 58:1 67:1 76:1 78:1 81:1 84:1 88:1 98:1 104:1 109:1 
1 3:1 8:1 16:1 21:1 28:1 33:1 34:1 36:1 40:1 50:1 53:1 57:1 67:1 76:1 78:1 81:1 83:1 86:1 96:1 104:1 107:1 
1 2:1 8:1 16:1 21:1 28:1 33:1 34:1 36:1 40:1 50:1 53:1 57:1 67:1 76:1 78:1 81:1 83:1 86:1 96:1 104:1 107:1 
1 3:1 8:1 12:1 21:1 28:1 33:1 34:1 36:1 48:1 50:1 53:1 57:1 67:1 76:1 78:1 81:1 83:1 86:1 96:1 104:1 107:1 
1 2:1 8:1 16:1 21:1 28:1 33:1 34:1 36:1 48:1 50:1 53:1 57:1 67:1 76:1 78:1 81:1 83:1 86:1 96:1 104:1 108:1 
1 2:1 7:1 19:1 21:1 28:1 33:1 34:1 36:1 40:1 50:1 53:1 57:1 67:1 76:1 78:1 81:1 83:1 86:1 96:1 104:1 107:1 
1 6:1 7:1 20:1 22:1 28:1 33:1 34:1 37:1 48:1 50:1 54:1 56:1 67:1 77:1 78:1 81:1 84:1 88:1 98:1 104:1 106:1 
1 6:1 8:1 19:1 21:1 25:1 33:1 34:1 36:1 48:1 51:1 53:1 59:1 67:1 76:1 78:1 81:1 84:1 86:1 92:1 103:1 107:1 
1 3:1 7:1 19:1 21:1 28:1 33:1 34:1 36:1 46:1 50:1 53:1 57:1 67:1 76:1 78:1 81:1 83:1 86:1 96:1 104:1 107:1 
1 3:1 8:1 19:1 21:1 28:1 33:1 34:1 36:1 48:1 50:1 53:1 57:1 67:1 76:1 78:1 81:1 83:1 86:1 96:1 104:1 107:1 
1 2:1 8:1 12:1 21:1 28:1 33:1 34:1 36:1 48:1 50:1 53:1 57:1 67:1 76:1 78:1 81:1 83:1 86:1 96:1 104:1 108:1 
1 3:1 8:1 12:1 21:1 28:1 33:1 34:1 36:1 46:1 50:1 53:1 57:1 67:1 76:1 78:1 81:1 83:1 86:1 96:1 104:1 108:1 
1 3:1 8:1 12:1 21:1 28:1 33:1 34:1 36:1 40:1 50:1 53:1 57:1 67:1 76:1 78:1 81:1 83:1 86:1 96:1 104:1 107:1 
1 2:1 8:1 19:1 21:1 28:1 33:1 34:1 36:1 46:1 50:1 53:1 57:1 67:1 76:1 78:1 81:1 83:1 86:1 96:1 104:1 107:1 
1 3:1 10:1 14:1 22:1 25:1 33:1 34:1 36:1 45:1 50:1 54:1 58:1 66:1 74:1 78:1 81:1 84:1 89:1 92:1 105:1 110:1 
1 6:1 8:1 19:1 21:1 25:1 33:1 34:1 36:1 41:1 51:1 53:1 59:1 67:1 76:1 78:1 81:1 84:1 86:1 92:1 103:1 107:1 
1 2:1 8:1 16:1 21:1 28:1 33:1 34:1 36:1 40:1 50:1 53:1 57:1 67:1 76:1 78:1 81:1 83:1 86:1 96:1 104:1 108:1 
1 2:1 8:1 19:1 21:1 28:1 33:1 34:1 36:1 48:1 50:1 53:1 57:1 67:1 76:1 78:1 81:1 83:1 86:1 96:1 104:1 107:1 
1 2:1 7:1 16:1 21:1 28:1 33:1 34:1 36:1 40:1 50:1 53:1 57:1 67:1 76:1 78:1 81:1 83:1 86:1 96:1 104:1 108:1 
1 3:1 7:1 12:1 21:1 28:1 33:1 34:1 36:1 48:1 50:1 53:1 57:1 67:1 76:1 78:1 81:1 83:1 86:1 96:1 104:1 107:1 
1 2:1 8:1 12:1 21:1 28:1 33:1 34:1 36:1 46:1 50:1 53:1 57:1 67:1 76:1 78:1 81:1 83:1 86:1 96:1 104:1 107:1 
1 2:1 10:1 15:1 22:1 28:1 33:1 34:1 37:1 48:1 50:1 54:1 56:1 67:1 74:1 78:1 81:1 84:1 88:1 98:1 104:1 106:1 
1 3:1 7:1 12:1 21:1 28:1 33:1 34:1 36:1 40:1 50:1 53:1 57:1 67:1 76:1 78:1 81:1 83:1 86:1 96:1 104:1 107:1 
1 4:1 10:1 15:1 22:1 28:1 33:1 34:1 37:1 48:1 50:1 54:1 56:1 67:1 77:1 78:1 81:1 84:1 88:1 98:1 104:1 106:1 
1 6:1 8:1 14:1 21:1 25:1 33:1 34:1 36:1 45:1 51:1 53:1 59:1 67:1 76:1 78:1 81:1 84:1 86:1 92:1 103:1 107:1 
1 3:1 8:1 16:1 21:1 28:1 33:1 34:1 36:1 40:1 50:1 53:1 57:1 67:1 76:1 78:1 81:1 83:1 86:1 96:1 104:1 108:1 
0.68810334814318 3:1 8:1 19:1 21:1 25:1 33:1 34:1 36:1 48:1 51:1 53:1 57:1 67:1 76:1 78:1 81:1 84:1 86:1 92:1 103:1 111:1 
1 3:1 8:1 16:1 21:1 28:1 33:1 34:1 36:1 46:1 50:1 53:1 57:1 67:1 76:1 78:1 81:1 83:1 86:1 96:1 104:1 107:1 
1 2:1 7:1 12:1 21:1 28:1 33:1 34:1 36:1 40:1 50:1 53:1 57:1 67:1 76:1 78:1 81:1 83:1 86:1 96:1 104:1 107:1 
1 3:1 7:1 13:1 22:1 31:1 33:1 34:1 37:1 38:1 51:1 53:1 57:1 67:1 76:1 78:1 81:1 84:1 88:1 98:1 104:1 110:1 
0.09256153804510381 3:1 8:1 15:1 22:1 31:1 33:1 34:1 37:1 38:1 51:1 53:1 57:1 66:1 75:1 78:1 81:1 84:1 88:1 98:1 104:1 109:1 
1 3:1 7:1 15:1 22:1 30:1 33:1 34:1 37:1 38:1 51:1 53:1 57:1 67:1 76:1 78:1 81:1 84:1 88:1 98:1 104:1 110:1 
0.04168897108068321 3:1 7:1 13:1 22:1 30:1 33:1 34:1 37:1 38:1 51:1 53:1 57:1 66:1 75:1 78:1 81:1 84:1 88:1 98:1 104:1 109:1 
0.2914178036886385 3:1 7:1 15:1 22:1 31:1 33:1 34:1 37:1 38:1 51:1 53:1 57:1 67:1 75:1 78:1 81:1 84:1 88:1 98:1 104:1 109:1 
0.1147713830487987 3:1 7:1 13:1 22:1 31:1 33:1 34:1 37:1 38:1 51:1 53:1 57:1 66:1 75:1 78:1 81:1 84:1 88:1 98:1 104:1 109:1 
0.02437824197150482 3:1 7:1 13:1 22:1 30:1 33:1 34:1 37:1 38:1 51:1 53:1 57:1 66:1 76:1 78:1 81:1 84:1 88:1 98:1 104:1 109:1 
0.01557770605915269 3:1 7:1 13:1 22:1 30:1 33:1 34:1 37:1 38:1 51:1 53:1 57:1 67:1 75:1 78:1 81:1 84:1 88:1 98:1 104:1 109:1 
1 3:1 7:1 13:1 22:1 30:1 33:1 34:1 37:1 38:1 51:1 53:1 57:1 67:1 76:1 78:1 81:1 84:1 88:1 98:1 104:1 109:1 
1 3:1 7:1 13:1 22:1 30:1 33:1 34:1 37:1 38:1 51:1 53:1 57:1 67:1 76:1 78:1 81:1 84:1 88:1 98:1 104:1 110:1 
0.1471053691779184 4:1 8:1 15:1 22:1 31:1 33:1 34:1 37:1 38:1 51:1 53:1 57:1 66:1 76:1 78:1 81:1 84:1 88:1 98:1 104:1 109:1 
0.2007425907534403 3:1 8:1 13:1 22:1 31:1 33:1 34:1 37:1 38:1 51:1 53:1 57:1 67:1 76:1 78:1 81:1 84:1 88:1 98:1 104:1 110:1 
1 3:1 7:1 15:1 22:1 30:1 33:1 34:1 37:1 38:1 51:1 53:1 57:1 67:1 76:1 78:1 81:1 84:1 88:1 98:1 104:1 109:1 
0.1828974090051652 3:1 8:1 15:1 22:1 30:1 33:1 34:1 37:1 38:1 51:1 53:1 57:1 67:1 76:1 78:1 81:1 84:1 88:1 98:1 104:1 109:1 
0.5975822169109836 3:1 7:1 15:1 22:1 31:1 33:1 34:1 37:1 38:1 51:1 53:1 57:1 66:1 76:1 78:1 81:1 84:1 88:1 98:1 104:1 109:1 
0.5679268509667385 3:1 7:1 13:1 22:1 31:1 33:1 34:1 37:1 38:1 51:1 53:1 57:1 67:1 75:1 78:1 81:1 84:1 88:1 98:1 104:1 109:1 
0.8448850662245092 3:1 8:1 15:1 22:1 30:1 33:1 34:1 37:1 38:1 51:1 53:1 57:1 67:1 76:1 78:1 81:1 84:1 88:1 98:1 104:1 110:1 
1 3:1 8:1 15:1 22:1 31:1 33:1 34:1 37:1 38:1 51:1 53:1 57:1 67:1 76:1 78:1 81:1 84:1 88:1 98:1 104:1 109:1 
1 2:1 7:1 20:1 22:1 28:1 33:1 35:1 37:1 49:1 50:1 52:1 56:1 68:1 77:1 78:1 79:1 84:1 88:1 98:1 101:1 109:1 
0.6765139127419497 3:1 7:1 15:1 22:1 31:1 33:1 34:1 37:1 38:1 51:1 53:1 58:1 67:1 76:1 78:1 81:1 84:1 88:1 98:1 104:1 109:1 
1 4:1 8:1 15:1 22:1 31:1 33:1 34:1 37:1 38:1 51:1 53:1 57:1 67:1 76:1 78:1 81:1 84:1 88:1 98:1 104:1 109:1 
1 4:1 7:1 11:1 22:1 26:1 33:1 34:1 36:1 48:1 50:1 54:1 56:1 60:1 69:1 78:1 81:1 85:1 87:1 98:1 101:1 106:1 
0.8422608317122664 4:1 7:1 15:1 22:1 31:1 33:1 34:1 37:1 38:1 51:1 53:1 57:1 67:1 76:1 78:1 81:1 84:1 88:1 98:1 104:1 110:1 
0.4303271263435647 4:1 7:1 15:1 22:1 26:1 32:1 34:1 36:1 48:1 50:1 54:1 56:1 60:1 69:1 78:1 81:1 85:1 87:1 98:1 101:1 106:1 
1 3:1 7:1 11:1 22:1 26:1 33:1 34:1 36:1 48:1 50:1 54:1 56:1 60:1 69:1 78:1 81:1 85:1 87:1 98:1 101:1 106:1 
1 3:1 7:1 15:1 22:1 26:1 32:1 34:1 36:1 48:1 50:1 54:1 56:1 60:1 69:1 78:1 81:1 85:1 87:1 98:1 101:1 106:1 
1 6:1 7:1 11:1 22:1 26:1 32:1 34:1 36:1 48:1 50:1 54:1 56:1 60:1 69:1 78:1 81:1 85:1 87:1 98:1 101:1 106:1 
1 1:1 7:1 20:1 22:1 28:1 33:1 35:1 37:1 49:1 50:1 52:1 56:1 68:1 77:1 78:1 79:1 84:1 88:1 98:1 101:1 109:1 
0.07270906156705112 4:1 7:1 13:1 22:1 31:1 33:1 34:1 37:1 38:1 51:1 53:1 57:1 67:1 76:1 78:1 81:1 84:1 88:1 98:1 104:1 110:1 
0.2625304763443503 4:1 8:1 15:1 22:1 30:1 33:1 34:1 37:1 38:1 51:1 53:1 57:1 66:1 76:1 78:1 81:1 84:1 88:1 98:1 104:1 109:1 
1 2:1 7:1 20:1 22:1 28:1 33:1 35:1 37:1 48:1 50:1 52:1 56:1 68:1 77:1 78:1 79:1 84:1 88:1 98:1 101:1 109:1 
0.4858403667723886 4:1 7:1 15:1 22:1 30:1 33:1 34:1 37:1 38:1 51:1 53:1 57:1 67:1 76:1 78:1 81:1 84:1 88:1 98:1 104:1 109:1 
0.3571491778555432 3:1 7:1 13:1 22:1 31:1 33:1 34:1 37:1 38:1 51:1 53:1 57:1 66:1 76:1 78:1 81:1 84:1 88:1 98:1 104:1 110:1 
0.5332964081198764 6:1 7:1 11:1 22:1 26:1 33:1 34:1 36:1 48:1 50:1 54:1 56:1 60:1 69:1 78:1 81:1 85:1 87:1 98:1 101:1 106:1 
0.2216314964699169 3:1 8:1 15:1 22:1 30:1 33:1 34:1 37:1 38:1 51:1 53:1 57:1 66:1 75:1 78:1 81:1 84:1 88:1 98:1 104:1 109:1 
1 3:1 7:1 11:1 22:1 26:1 32:1 34:1 36:1 48:1 50:1 54:1 56:1 60:1 69:1 78:1 81:1 85:1 87:1 98:1 101:1 106:1 
0.1581521374395934 4:1 8:1 15:1 22:1 30:1 33:1 34:1 37:1 38:1 51:1 53:1 57:1 66:1 75:1 78:1 81:1 84:1 88:1 98:1 104:1 109:1 
0.2048804196618693 4:1 8:1 15:1 22:1 31:1 33:1 34:1 37:1 38:1 51:1 53:1 57:1 67:1 76:1 78:1 81:1 84:1 88:1 98:1 104:1 110:1 
0.8197064849776057 4:1 8:1 15:1 22:1 30:1 33:1 34:1 37:1 38:1 51:1 53:1 57:1 67:1 76:1 78:1 81:1 84:1 88:1 98:1 104:1 109:1 
-1 2:1 8:1 19:1 21:1 27:1 33:1 34:1 36:1 40:1 50:1 53:1 57:1 67:1 76:1 78:1 81:1 84:1 86:1 93:1 103:1 108:1 
-1 6:1 8:1 20:1 21:1 23:1 33:1 35:1 37:1 44:1 51:1 53:1 57:1 67:1 76:1 78:1 81:1 84:1 86:1 95:1 104:1 106:1 
-1 5:1 10:1 14:1 22:1 28:1 33:1 34:1 37:1 42:1 50:1 53:1 57:1 67:1 76:1 78:1 81:1 84:1 86:1 93:1 104:1 111:1 
-1 6:1 10:1 15:1 22:1 28:1 33:1 34:1 37:1 40:1 50:1 53:1 57:1 67:1 76:1 78:1 81:1 84:1 86:1 93:1 105:1 111:1 
-1 6:1 7:1 15:1 21:1 23:1 33:1 34:1 36:1 48:1 50:1 53:1 56:1 67:1 76:1 78:1 81:1 84:1 86:1 93:1 103:1 107:1 
-1 6:1 8:1 19:1 21:1 27:1 33:1 34:1 36:1 42:1 50:1 53:1 57:1 67:1 76:1 78:1 81:1 84:1 86:1 93:1 103:1 107:1 
-1 5:1 10:1 14:1 22:1 28:1 33:1 34:1 37:1 42:1 50:1 53:1 57:1 67:1 76:1 78:1 81:1 84:1 86:1 95:1 104:1 111:1 
-0.06497093617201133 6:1 8:1 19:1 21:1 27:1 33:1 34:1 36:1 44:1 50:1 53:1 57:1 67:1 76:1 78:1 81:1 84:1 86:1 93:1 103:1 107:1 
-1 3:1 7:1 20:1 21:1 23:1 33:1 34:1 36:1 48:1 50:1 53:1 56:1 67:1 76:1 78:1 81:1 84:1 86:1 95:1 103:1 107:1 
-1 6:1 10:1 14:1 22:1 28:1 33:1 34:1 37:1 45:1 50:1 53:1 57:1 67:1 76:1 78:1 81:1 84:1 86:1 95:1 104:1 111:1 
-1 2:1 7:1 19:1 21:1 27:1 33:1 34:1 36:1 40:1 50:1 53:1 57:1 67:1 76:1 78:1 81:1 84:1 86:1 95:1 103:1 108:1 
-0.6561155919473088 3:1 8:1 20:1 21:1 27:1 33:1 35:1 37:1 45:1 51:1 53:1 57:1 67:1 76:1 78:1 81:1 84:1 86:1 95:1 104:1 106:1 
-1 6:1 8:1 19:1 21:1 27:1 33:1 35:1 37:1 44:1 51:1 53:1 57:1 67:1 76:1 78:1 81:1 84:1 86:1 97:1 104:1 106:1 
-0.4709620412077868 6:1 7:1 20:1 21:1 27:1 33:1 34:1 36:1 48:1 50:1 53:1 56:1 67:1 76:1 78:1 81:1 84:1 86:1 93:1 103:1 107:1 
-1 5:1 10:1 15:1 22:1 28:1 33:1 34:1 37:1 44:1 50:1 53:1 57:1 67:1 76:1 78:1 81:1 84:1 86:1 95:1 104:1 111:1 
-1 6:1 10:1 15:1 22:1 28:1 33:1 34:1 37:1 44:1 50:1 53:1 57:1 67:1 76:1 78:1 81:1 84:1 86:1 95:1 105:1 111:1 
-1 6:1 8:1 19:1 21:1 23:1 33:1 34:1 36:1 40:1 50:1 53:1 57:1 67:1 76:1 78:1 81:1 84:1 86:1 95:1 103:1 107:1 
-1 3:1 7:1 15:1 21:1 27:1 33:1 34:1 36:1 45:1 50:1 53:1 56:1 67:1 76:1 78:1 81:1 84:1 86:1 95:1 103:1 107:1 
-1 2:1 8:1 19:1 21:1 23:1 33:1 34:1 36:1 40:1 50:1 53:1 57:1 67:1 76:1 78:1 81:1 84:1 86:1 95:1 103:1 107:1 
-1 3:1 7:1 20:1 21:1 27:1 33:1 34:1 36:1 48:1 50:1 53:1 56:1 67:1 76:1 78:1 81:1 84:1 86:1 95:1 103:1 107:1 
-1 2:1 7:1 19:1 21:1 23:1 33:1 34:1 36:1 40:1 50:1 53:1 57:1 67:1 76:1 78:1 81:1 84:1 86:1 95:1 103:1 108:1 
-0.5996302461646058 6:1 10:1 19:1 21:1 23:1 33:1 35:1 37:1 48:1 51:1 53:1 57:1 67:1 76:1 78:1 81:1 84:1 86:1 97:1 104:1 106:1 
-0.4240404767325057 2:1 7:1 19:1 21:1 27:1 33:1 34:1 36:1 48:1 50:1 53:1 57:1 67:1 76:1 78:1 81:1 84:1 86:1 95:1 103:1 108:1 
-1 3:1 8:1 19:1 21:1 27:1 33:1 35:1 37:1 48:1 51:1 53:1 57:1 67:1 76:1 78:1 81:1 84:1 86:1 97:1 104:1 106:1 
-1 3:1 8:1 19:1 21:1 23:1 33:1 35:1 37:1 45:1 51:1 53:1 57:1 67:1 76:1 78:1 81:1 84:1 86:1 95:1 104:1 106:1 
-1 5:1 10:1 15:1 22:1 28:1 33:1 34:1 37:1 42:1 50:1 53:1 57:1 67:1 76:1 78:1 81:1 84:1 86:1 95:1 104:1 111:1 
-1 5:1 10:1 15:1 22:1 28:1 33:1 34:1 37:1 42:1 50:1 53:1 57:1 67:1 76:1 78:1 81:1 84:1 86:1 93:1 104:1 111:1 
-1 6:1 7:1 15:1 21:1 27:1 33:1 34:1 36:1 48:1 50:1 53:1 56:1 67:1 76:1 78:1 81:1 84:1 86:1 93:1 103:1 107:1 
-1 6:1 10:1 14:1 22:1 28:1 33:1 34:1 37:1 40:1 50:1 53:1 57:1 67:1 76:1 78:1 81:1 84:1 86:1 95:1 105:1 111:1 
-1 3:1 7:1 20:1 21:1 27:1 33:1 34:1 36:1 45:1 50:1 53:1 56:1 67:1 76:1 78:1 81:1 84:1 86:1 95:1 103:1 107:1 
-1 3:1 10:1 15:1 22:1 28:1 33:1 34:1 37:1 40:1 50:1 53:1 57:1 67:1 76:1 78:1 81:1 84:1 86:1 93:1 104:1 111:1 
-1 2:1 8:1 19:1 21:1 27:1 33:1 34:1 36:1 40:1 50:1 53:1 57:1 67:1 76:1 78:1 81:1 84:1 86:1 95:1 103:1 108:1 
-1 3:1 10:1 14:1 22:1 28:1 33:1 34:1 37:1 45:1 50:1 53:1 57:1 67:1 76:1 78:1 81:1 84:1 86:1 93:1 104:1 111:1 
-1 6:1 8:1 19:1 21:1 27:1 33:1 35:1 37:1 48:1 51:1 53:1 57:1 67:1 76:1 78:1 81:1 84:1 86:1 95:1 104:1 106:1 
-0.722353739883939 2:1 8:1 19:1 21:1 27:1 33:1 34:1 36:1 48:1 50:1 53:1 57:1 67:1 76:1 78:1 81:1 84:1 86:1 95:1 103:1 108:1 
-1 3:1 8:1 19:1 21:1 23:1 33:1 35:1 37:1 44:1 51:1 53:1 57:1 67:1 76:1 78:1 81:1 84:1 86:1 95:1 104:1 106:1 
-0.8812742118653111 2:1 8:1 19:1 21:1 27:1 33:1 34:1 36:1 48:1 50:1 53:1 57:1 67:1 76:1 78:1 81:1 84:1 86:1 93:1 103:1 107:1 
-0.1293368025280915 2:1 8:1 19:1 21:1 23:1 33:1 34:1 36:1 42:1 50:1 53:1 57:1 67:1 76:1 78:1 81:1 84:1 86:1 93:1 103:1 108:1 
-1 6:1 10:1 14:1 22:1 28:1 33:1 34:1 37:1 44:1 50:1 53:1 57:1 67:1 76:1 78:1 81:1 84:1 86:1 95:1 105:1 111:1 
-1 5:1 10:1 14:1 22:1 28:1 33:1 34:1 37:1 45:1 50:1 53:1 57:1 67:1 76:1 78:1 81:1 84:1 86:1 95:1 104:1 111:1 
-1 3:1 10:1 15:1 22:1 28:1 33:1 34:1 37:1 42:1 50:1 53:1 57:1 67:1 76:1 78:1 81:1 84:1 86:1 93:1 104:1 111:1 
-1 6:1 10:1 19:1 21:1 27:1 33:1 35:1 37:1 48:1 51:1 53:1 57:1 67:1 76:1 78:1 81:1 84:1 86:1 95:1 104:1 106:1 
-0.5666825352914429 6:1 8:1 19:1 21:1 27:1 33:1 34:1 36:1 48:1 50:1 53:1 57:1 67:1 76:1 78:1 81:1 84:1 86:1 93:1 103:1 107:1 
-1 5:1 10:1 15:1 22:1 28:1 33:1 34:1 37:1 40:1 50:1 53:1 57:1 67:1 76:1 78:1 81:1 84:1 86:1 95:1 104:1 111:1 
-1 3:1 7:1 15:1 21:1 27:1 33:1 34:1 36:1 48:1 50:1 53:1 56:1 67:1 76:1 78:1 81:1 84:1 86:1 95:1 103:1 107:1 
-1 3:1 10:1 14:1 22:1 28:1 33:1 34:1 37:1 40:1 50:1 53:1 57:1 67:1 76:1 78:1 81:1 84:1 86:1 93:1 104:1 111:1 
-1 5:1 10:1 15:1 22:1 28:1 33:1 34:1 37:1 45:1 50:1 53:1 57:1 67:1 76:1 78:1 81:1 84:1 86:1 95:1 104:1 111:1 
-1 3:1 7:1 15:1 21:1 23:1 33:1 34:1 36:1 44:1 50:1 53:1 56:1 67:1 76:1 78:1 81:1 84:1 86:1 93:1 103:1 107:1 
-1 6:1 10:1 14:1 22:1 28:1 33:1 34:1 37:1 40:1 50:1 53:1 57:1 67:1 76:1 78:1 81:1 84:1 86:1 93:1 105:1 111:1 
-1 6:1 8:1 19:1 21:1 23:1 33:1 34:1 36:1 40:1 50:1 53:1 57:1 67:1 76:1 78:1 81:1 84:1 86:1 93:1 103:1 108:1 
-1 6:1 10:1 19:1 21:1 23:1 33:1 35:1 37:1 45:1 51:1 53:1 57:1 67:1 76:1 78:1 81:1 84:1 86:1 95:1 104:1 106:1 
-1 6:1 8:1 20:1 21:1 23:1 33:1 35:1 37:1 48:1 51:1 53:1 57:1 67:1 76:1 78:1 81:1 84:1 86:1 95:1 104:1 106:1 
-1 6:1 10:1 19:1 21:1 27:1 33:1 35:1 37:1 44:1 51:1 53:1 57:1 67:1 76:1 78:1 81:1 84:1 86:1 95:1 104:1 106:1 
-1 3:1 8:1 19:1 21:1 27:1 33:1 35:1 37:1 48:1 51:1 53:1 57:1 67:1 76:1 78:1 81:1 84:1 86:1 95:1 104:1 106:1 
-1 3:1 10:1 15:1 22:1 28:1 33:1 34:1 37:1 45:1 50:1 53:1 57:1 67:1 76:1 78:1 81:1 84:1 86:1 93:1 104:1 111:1 
-1 6:1 8:1 19:1 21:1 23:1 33:1 34:1 36:1 42:1 50:1 53:1 57:1 67:1 76:1 78:1 81:1 84:1 86:1 93:1 103:1 108:1 
-1 3:1 7:1 15:1 21:1 23:1 33:1 34:1 36:1 48:1 50:1 53:1 56:1 67:1 76:1 78:1 81:1 84:1 86:1 93:1 103:1 107:1 
-1 6:1 10:1 14:1 22:1 28:1 33:1 34:1 37:1 44:1 50:1 53:1 57:1 67:1 76:1 78:1 81:1 84:1 86:1 93:1 104:1 111:1 
-0.9795329683289099 6:1 8:1 19:1 21:1 27:1 33:1 34:1 36:1 42:1 50:1 53:1 57:1 67:1 76:1 78:1 81:1 84:1 86:1 95:1 103:1 108:1 
-1 6:1 8:1 19:1 21:1 23:1 33:1 34:1 36:1 40:1 50:1 53:1 57:1 67:1 76:1 78:1 81:1 84:1 86:1 95:1 103:1 108:1 
-1 6:1 8:1 19:1 21:1 23:1 33:1 34:1 36:1 40:1 50:1 53:1 57:1 67:1 76:1 78:1 81:1 84:1 86:1 93:1 103:1 107:1 
-0.9019467485427219 6:1 10:1 19:1 21:1 27:1 33:1 35:1 37:1 45:1 51:1 53:1 57:1 67:1 76:1 78:1 81:1 84:1 86:1 97:1 104:1 106:1 
-1 6:1 8:1 19:1 21:1 23:1 33:1 35:1 37:1 44:1 51:1 53:1 57:1 67:1 76:1 78:1 81:1 84:1 86:1 95:1 104:1 106:1 
-1 3:1 10:1 14:1 22:1 28:1 33:1 34:1 37:1 44:1 50:1 53:1 57:1 67:1 76:1 78:1 81:1 84:1 86:1 95:1 104:1 111:1 
-1 3:1 8:1 19:1 21:1 27:1 33:1 35:1 37:1 44:1 51:1 53:1 57:1 67:1 76:1 78:1 81:1 84:1 86:1 95:1 104:1 106:1 
-1 6:1 7:1 15:1 21:1 27:1 33:1 34:1 36:1 45:1 50:1 53:1 56:1 67:1 76:1 78:1 81:1 84:1 86:1 93:1 103:1 107:1 
-1 2:1 8:1 19:1 21:1 27:1 33:1 34:1 36:1 48:1 50:1 53:1 57:1 67:1 76:1 78:1 81:1 84:1 86:1 93:1 103:1 108:1 
-0.4768375672032528 6:1 8:1 19:1 21:1 23:1 33:1 34:1 36:1 42:1 50:1 53:1 57:1 67:1 76:1 78:1 81:1 84:1 86:1 95:1 103:1 108:1 
-1 2:1 8:1 19:1 21:1 23:1 33:1 34:1 36:1 40:1 50:1 53:1 57:1 67:1 76:1 78:1 81:1 84:1 86:1 93:1 103:1 107:1 
-1 6:1 8:1 19:1 21:1 23:1 33:1 35:1 37:1 45:1 51:1 53:1 57:1 67:1 76:1 78:1 81:1 84:1 86:1 95:1 104:1 106:1 
-1 3:1 8:1 19:1 21:1 27:1 33:1 35:1 37:1 45:1 51:1 53:1 57:1 67:1 76:1 78:1 81:1 84:1 86:1 97:1 104:1 106:1 
-1 3:1 8:1 19:1 21:1 23:1 33:1 35:1 37:1 48:1 51:1 53:1 57:1 67:1 76:1 78:1 81:1 84:1 86:1 95:1 104:1 106:1 
-1 6:1 10:1 19:1 21:1 23:1 33:1 35:1 37:1 44:1 51:1 53:1 57:1 67:1 76:1 78:1 81:1 84:1 86:1 95:1 104:1 106:1 
-1 3:1 10:1 14:1 22:1 28:1 33:1 34:1 37:1 45:1 50:1 53:1 57:1 67:1 76:1 78:1 81:1 84:1 86:1 95:1 104:1 111:1 
-1 5:1 10:1 14:1 22:1 28:1 33:1 34:1 37:1 44:1 50:1 53:1 57:1 67:1 76:1 78:1 81:1 84:1 86:1 95:1 104:1 111:1 
-1 6:1 10:1 15:1 22:1 28:1 33:1 34:1 37:1 42:1 50:1 53:1 57:1 67:1 76:1 78:1 81:1 84:1 86:1 95:1 104:1 111:1 
-0.6325818555592774 6:1 8:1 19:1 21:1 23:1 33:1 34:1 36:1 44:1 50:1 53:1 57:1 67:1 76:1 78:1 81:1 84:1 86:1 93:1 103:1 107:1 
-1 5:1 10:1 15:1 22:1 28:1 33:1 34:1 37:1 45:1 50:1 53:1 57:1 67:1 76:1 78:1 81:1 84:1 86:1 93:1 104:1 111:1 
-1 3:1 8:1 19:1 21:1 23:1 33:1 35:1 37:1 45:1 51:1 53:1 57:1 67:1 76:1 78:1 81:1 84:1 86:1 97:1 104:1 106:1 
-1 3:1 10:1 14:1 22:1 28:1 33:1 34:1 37:1 40:1 50:1 53:1 57:1 67:1 76:1 78:1 81:1 84:1 86:1 95:1 104:1 111:1 
-1 3:1 8:1 19:1 21:1 27:1 33:1 35:1 37:1 45:1 51:1 53:1 57:1 67:1 76:1 78:1 81:1 84:1 86:1 95:1 104:1 106:1 
-0.1887600063321796 6:1 10:1 19:1 21:1 27:1 33:1 35:1 37:1 48:1 51:1 53:1 57:1 67:1 76:1 78:1 81:1 84:1 86:1 97:1 104:1 106:1 
-1 6:1 8:1 20:1 21:1 23:1 33:1 35:1 37:1 48:1 51:1 53:1 57:1 67:1 76:1 78:1 81:1 84:1 86:1 97:1 104:1 106:1 
-0.9199508051197962 2:1 8:1 19:1 21:1 23:1 33:1 34:1 36:1 48:1 50:1 53:1 57:1 67:1 76:1 78:1 81:1 84:1 86:1 95:1 103:1 108:1 
-1 3:1 7:1 20:1 21:1 23:1 33:1 34:1 36:1 48:1 50:1 53:1 56:1 67:1 76:1 78:1 81:1 84:1 86:1 93:1 103:1 107:1 
-1 5:1 10:1 14:1 22:1 28:1 33:1 34:1 37:1 40:1 50:1 53:1 57:1 67:1 76:1 78:1 81:1 84:1 86:1 93:1 104:1 111:1 
-1 2:1 7:1 19:1 21:1 27:1 33:1 34:1 36:1 40:1 50:1 53:1 57:1 67:1 76:1 78:1 81:1 84:1 86:1 93:1 103:1 108:1 
-1 3:1 10:1 14:1 22:1 28:1 33:1 34:1 37:1 44:1 50:1 53:1 57:1 67:1 76:1 78:1 81:1 84:1 86:1 93:1 104:1 111:1 
-1 2:1 8:1 19:1 21:1 27:1 33:1 34:1 36:1 40:1 50:1 53:1 57:1 67:1 76:1 78:1 81:1 84:1 86:1 93:1 103:1 107:1 
-0.8596453086200145 3:1 7:1 20:1 21:1 27:1 33:1 34:1 36:1 45:1 50:1 53:1 56:1 67:1 76:1 78:1 81:1 84:1 86:1 93:1 103:1 107:1 
-0.5213739729282827 6:1 10:1 19:1 21:1 27:1 33:1 35:1 37:1 44:1 51:1 53:1 57:1 67:1 76:1 78:1 81:1 84:1 86:1 97:1 104:1 106:1 
-1 6:1 8:1 19:1 21:1 27:1 33:1 34:1 36:1 40:1 50:1 53:1 57:1 67:1 76:1 78:1 81:1 84:1 86:1 93:1 103:1 108:1 
-0.3044013815175007 2:1 7:1 19:1 21:1 23:1 33:1 34:1 36:1 40:1 50:1 53:1 57:1 67:1 76:1 78:1 81:1 84:1 86:1 95:1 103:1 107:1 
-1 6:1 7:1 15:1 21:1 23:1 33:1 34:1 36:1 45:1 50:1 53:1 56:1 67:1 76:1 78:1 81:1 84:1 86:1 95:1 103:1 107:1 
-1 6:1 8:1 20:1 21:1 27:1 33:1 35:1 37:1 44:1 51:1 53:1 57:1 67:1 76:1 78:1 81:1 84:1 86:1 97:1 104:1 106:1 
-1 2:1 7:1 19:1 21:1 23:1 33:1 34:1 36:1 40:1 50:1 53:1 57:1 67:1 76:1 78:1 81:1 84:1 86:1 93:1 103:1 108:1 
-1 6:1 8:1 19:1 21:1 27:1 33:1 34:1 36:1 42:1 50:1 53:1 57:1 67:1 76:1 78:1 81:1 84:1 86:1 93:1 103:1 108:1 
-1 3:1 7:1 15:1 21:1 23:1 33:1 34:1 36:1 48:1 50:1 53:1 56:1 67:1 76:1 78:1 81:1 84:1 86:1 95:1 103:1 107:1 
-1 3:1 10:1 15:1 22:1 28:1 33:1 34:1 37:1 45:1 50:1 53:1 57:1 67:1 76:1 78:1 81:1 84:1 86:1 95:1 104:1 111:1 
-0.1583014844433097 3:1 10:1 15:1 22:1 28:1 33:1 34:1 37:1 40:1 50:1 53:1 57:1 67:1 76:1 78:1 81:1 84:1 86:1 93:1 105:1 111:1 
-1 3:1 10:1 14:1 22:1 28:1 33:1 34:1 37:1 42:1 50:1 53:1 57:1 67:1 76:1 78:1 81:1 84:1 86:1 95:1 104:1 111:1 
-1 2:1 8:1 19:1 21:1 23:1 33:1 34:1 36:1 40:1 50:1 53:1 57:1 67:1 76:1 78:1 81:1 84:1 86:1 93:1 103:1 108:1 
-1 6:1 8:1 19:1 21:1 27:1 33:1 35:1 37:1 44:1 51:1 53:1 57:1 67:1 76:1 78:1 81:1 84:1 86:1 95:1 104:1 106:1 
-1 3:1 10:1 14:1 22:1 28:1 33:1 34:1 37:1 42:1 50:1 53:1 57:1 67:1 76:1 78:1 81:1 84:1 86:1 93:1 104:1 111:1 
-1 6:1 7:1 15:1 21:1 23:1 33:1 34:1 36:1 44:1 50:1 53:1 56:1 67:1 76:1 78:1 81:1 84:1 86:1 95:1 103:1 107:1 
-1 5:1 10:1 15:1 22:1 28:1 33:1 34:1 37:1 40:1 50:1 53:1 57:1 67:1 76:1 78:1 81:1 84:1 86:1 93:1 104:1 111:1 
-0.1730548876208133 3:1 8:1 20:1 21:1 27:1 33:1 35:1 37:1 48:1 51:1 53:1 57:1 67:1 76:1 78:1 81:1 84:1 86:1 95:1 104:1 106:1 
-1 6:1 10:1 19:1 21:1 23:1 33:1 35:1 37:1 48:1 51:1 53:1 57:1 67:1 76:1 78:1 81:1 84:1 86:1 95:1 104:1 106:1 
-1 6:1 8:1 19:1 21:1 27:1 33:1 34:1 36:1 40:1 50:1 53:1 57:1 67:1 76:1 78:1 81:1 84:1 86:1 93:1 103:1 107:1 
-1 6:1 10:1 14:1 22:1 28:1 33:1 34:1 37:1 45:1 50:1 53:1 57:1 67:1 76:1 78:1 81:1 84:1 86:1 93:1 104:1 111:1 
-1 6:1 10:1 15:1 22:1 28:1 33:1 34:1 37:1 45:1 50:1 53:1 57:1 67:1 76:1 78:1 81:1 84:1 86:1 93:1 104:1 111:1 
-1 6:1 7:1 15:1 21:1 23:1 33:1 34:1 36:1 45:1 50:1 53:1 56:1 67:1 76:1 78:1 81:1 84:1 86:1 93:1 103:1 107:1 
-0.8046028426612108 2:1 7:1 19:1 21:1 23:1 33:1 34:1 36:1 48:1 50:1 53:1 57:1 67:1 76:1 78:1 81:1 84:1 86:1 93:1 103:1 108:1 
-0.7116900259196002 3:1 8:1 20:1 21:1 23:1 33:1 35:1 37:1 44:1 51:1 53:1 57:1 67:1 76:1 78:1 81:1 84:1 86:1 97:1 104:1 106:1 
-1 3:1 8:1 19:1 21:1 23:1 33:1 35:1 37:1 44:1 51:1 53:1 57:1 67:1 76:1 78:1 81:1 84:1 86:1 97:1 104:1 106:1 
-1 6:1 8:1 19:1 21:1 27:1 33:1 35:1 37:1 45:1 51:1 53:1 57:1 67:1 76:1 78:1 81:1 84:1 86:1 95:1 104:1 106:1 
-1 6:1 8:1 20:1 21:1 23:1 33:1 35:1 37:1 45:1 51:1 53:1 57:1 67:1 76:1 78:1 81:1 84:1 86:1 95:1 104:1 106:1 
-1 6:1 8:1 19:1 21:1 27:1 33:1 34:1 36:1 44:1 50:1 53:1 57:1 67:1 76:1 78:1 81:1 84:1 86:1 93:1 103:1 108:1 
-1 6:1 10:1 15:1 22:1 28:1 33:1 34:1 37:1 44:1 50:1 53:1 57:1 67:1 76:1 78:1 81:1 84:1 86:1 93:1 104:1 111:1 
-1 3:1 7:1 20:1 21:1 27:1 33:1 34:1 36:1 48:1 50:1 53:1 56:1 67:1 76:1 78:1 81:1 84:1 86:1 93:1 103:1 107:1 
-1 6:1 8:1 20:1 21:1 27:1 33:1 35:1 37:1 45:1 51:1 53:1 57:1 67:1 76:1 78:1 81:1 84:1 86:1 95:1 104:1 106:1 
-0.7695854066870991 6:1 8:1 19:1 21:1 23:1 33:1 34:1 36:1 44:1 50:1 53:1 57:1 67:1 76:1 78:1 81:1 84:1 86:1 93:1 103:1 108:1 
-1 6:1 8:1 19:1 21:1 23:1 33:1 35:1 37:1 48:1 51:1 53:1 57:1 67:1 76:1 78:1 81:1 84:1 86:1 95:1 104:1 106:1 
-1 6:1 10:1 14:1 22:1 28:1 33:1 34:1 37:1 42:1 50:1 53:1 57:1 67:1 76:1 78:1 81:1 84:1 86:1 93:1 104:1 111:1 
-1 6:1 8:1 19:1 21:1 27:1 33:1 34:1 36:1 40:1 50:1 53:1 57:1 67:1 76:1 78:1 81:1 84:1 86:1 95:1 103:1 107:1 
-0.2141768124183931 3:1 8:1 20:1 21:1 27:1 33:1 35:1 37:1 45:1 51:1 53:1 57:1 67:1 76:1 78:1 81:1 84:1 86:1 97:1 104:1 106:1 
-1 5:1 10:1 14:1 22:1 28:1 33:1 34:1 37:1 45:1 50:1 53:1 57:1 67:1 76:1 78:1 81:1 84:1 86:1 93:1 104:1 111:1 
-0.1040468405447418 6:1 7:1 20:1 21:1 27:1 33:1 34:1 36:1 48:1 50:1 53:1 56:1 67:1 76:1 78:1 81:1 84:1 86:1 95:1 103:1 107:1 
-0.6891908729979476 3:1 8:1 20:1 21:1 23:1 33:1 35:1 37:1 48:1 51:1 53:1 57:1 67:1 76:1 78:1 81:1 84:1 86:1 97:1 104:1 106:1 
-1 2:1 7:1 19:1 21:1 27:1 33:1 34:1 36:1 40:1 50:1 53:1 57:1 67:1 76:1 78:1 81:1 84:1 86:1 95:1 103:1 107:1 
-1 6:1 8:1 19:1 21:1 27:1 33:1 35:1 37:1 48:1 51:1 53:1 57:1 67:1 76:1 78:1 81:1 84:1 86:1 97:1 104:1 106:1 
-0.7758872480895335 3:1 7:1 20:1 21:1 23:1 33:1 34:1 36:1 45:1 50:1 53:1 56:1 67:1 76:1 78:1 81:1 84:1 86:1 95:1 103:1 107:1 
-0.4949869233685962 6:1 10:1 14:1 22:1 28:1 33:1 34:1 37:1 45:1 50:1 53:1 57:1 67:1 76:1 78:1 81:1 84:1 86:1 95:1 105:1 111:1 
-1 6:1 8:1 19:1 21:1 23:1 33:1 35:1 37:1 45:1 51:1 53:1 57:1 67:1 76:1 78:1 81:1 84:1 86:1 97:1 104:1 106:1 
-0.8000901652650461 6:1 10:1 15:1 22:1 28:1 33:1 34:1 37:1 44:1 50:1 53:1 57:1 67:1 76:1 78:1 81:1 84:1 86:1 93:1 105:1 111:1 
-1 3:1 8:1 19:1 21:1 23:1 33:1 35:1 37:1 48:1 51:1 53:1 57:1 67:1 76:1 78:1 81:1 84:1 86:1 97:1 104:1 106:1 
-0.06713743974902753 6:1 7:1 19:1 21:1 23:1 33:1 34:1 36:1 40:1 50:1 53:1 57:1 67:1 76:1 78:1 81:1 84:1 86:1 95:1 103:1 108:1 
-1 3:1 7:1 15:1 21:1 27:1 33:1 34:1 36:1 44:1 50:1 53:1 56:1 67:1 76:1 78:1 81:1 84:1 86:1 95:1 103:1 107:1 
-1 3:1 8:1 20:1 21:1 27:1 33:1 35:1 37:1 48:1 51:1 53:1 57:1 67:1 76:1 78:1 81:1 84:1 86:1 97:1 104:1 106:1 
-1 6:1 10:1 19:1 21:1 27:1 33:1 35:1 37:1 45:1 51:1 53:1 57:1 67:1 76:1 78:1 81:1 84:1 86:1 95:1 104:1 106:1 
-1 6:1 8:1 20:1 21:1 27:1 33:1 35:1 37:1 44:1 51:1 53:1 57:1 67:1 76:1 78:1 81:1 84:1 86:1 95:1 104:1 106:1 
-1 6:1 7:1 15:1 21:1 23:1 33:1 34:1 36:1 48:1 50:1 53:1 56:1 67:1 76:1 78:1 81:1 84:1 86:1 95:1 103:1 107:1 
-1 3:1 7:1 15:1 21:1 27:1 33:1 34:1 36:1 45:1 50:1 53:1 56:1 67:1 76:1 78:1 81:1 84:1 86:1 93:1 103:1 107:1 
-0.02530781994954022 2:1 7:1 19:1 21:1 23:1 33:1 34:1 36:1 42:1 50:1 53:1 57:1 67:1 76:1 78:1 81:1 84:1 86:1 95:1 103:1 108:1 
-1 6:1 10:1 14:1 22:1 28:1 33:1 34:1 37:1 40:1 50:1 53:1 57:1 67:1 76:1 78:1 81:1 84:1 86:1 93:1 104:1 111:1 
-1 6:1 8:1 20:1 21:1 23:1 33:1 35:1 37:1 45:1 51:1 53:1 57:1 67:1 76:1 78:1 81:1 84:1 86:1 97:1 104:1 106:1 
-1 6:1 7:1 15:1 21:1 23:1 33:1 34:1 36:1 44:1 50:1 53:1 56:1 67:1 76:1 78:1 81:1 84:1 86:1 93:1 103:1 107:1 
-0.3060670279969814 6:1 7:1 14:1 21:1 28:1 33:1 34:1 36:1 47:1 51:1 53:1 57:1 63:1 72:1 78:1 81:1 84:1 86:1 93:1 104:1 106:1 
-1 3:1 8:1 19:1 21:1 27:1 33:1 35:1 37:1 44:1 51:1 53:1 57:1 67:1 76:1 78:1 81:1 84:1 86:1 97:1 104:1 106:1 
-0.8997390329748989 3:1 8:1 20:1 21:1 23:1 33:1 35:1 37:1 44:1 51:1 53:1 57:1 67:1 76:1 78:1 81:1 84:1 86:1 95:1 104:1 106:1 
-1 6:1 7:1 14:1 21:1 28:1 33:1 34:1 36:1 47:1 51:1 53:1 57:1 66:1 72:1 78:1 81:1 84:1 86:1 93:1 104:1 106:1 
-1 2:1 8:1 19:1 21:1 23:1 33:1 34:1 36:1 40:1 50:1 53:1 57:1 67:1 76:1 78:1 81:1 84:1 86:1 95:1 103:1 108:1 
-0.278680591981093 6:1 7:1 14:1 21:1 28:1 33:1 34:1 36:1 47:1 51:1 53:1 57:1 63:1 75:1 78:1 81:1 84:1 86:1 93:1 104:1 106:1 
-0.2629893014553209 6:1 7:1 14:1 21:1 28:1 33:1 34:1 36:1 47:1 51:1 53:1 57:1 67:1 75:1 78:1 81:1 84:1 86:1 93:1 104:1 106:1 
-0.252098049638673 6:1 7:1 13:1 21:1 28:1 33:1 34:1 36:1 47:1 51:1 53:1 57:1 66:1 75:1 78:1 81:1 84:1 86:1 93:1 104:1 106:1 
-1 3:1 7:1 13:1 21:1 28:1 33:1 34:1 36:1 47:1 51:1 53:1 57:1 66:1 75:1 78:1 81:1 84:1 86:1 93:1 104:1 106:1 
-1 3:1 7:1 13:1 21:1 28:1 33:1 34:1 36:1 47:1 51:1 53:1 57:1 66:1 72:1 78:1 81:1 84:1 86:1 93:1 104:1 106:1 
-0.3946557976454869 3:1 7:1 13:1 21:1 28:1 33:1 34:1 36:1 47:1 51:1 53:1 57:1 63:1 75:1 78:1 81:1 84:1 86:1 93:1 104:1 106:1 
-0.838580073464388 3:1 7:1 13:1 21:1 28:1 33:1 34:1 36:1 47:1 51:1 53:1 57:1 67:1 75:1 78:1 81:1 84:1 86:1 93:1 104:1 106:1 
-0.6459394183759589 3:1 7:1 14:1 21:1 28:1 33:1 34:1 36:1 47:1 51:1 53:1 57:1 66:1 75:1 78:1 81:1 84:1 86:1 93:1 104:1 106:1 
-0.4885131440893463 3:1 7:1 13:1 21:1 28:1 33:1 34:1 36:1 47:1 51:1 53:1 57:1 67:1 72:1 78:1 81:1 84:1 86:1 93:1 104:1 106:1 
-0.4470370537640116 3:1 7:1 13:1 21:1 28:1 33:1 34:1 36:1 47:1 51:1 53:1 57:1 66:1 75:1 78:1 81:1 84:1 86:1 95:1 104:1 106:1 
-1 4:1 7:1 15:1 22:1 28:1 33:1 35:1 37:1 48:1 50:1 55:1 59:1 67:1 74:1 78:1 81:1 84:1 88:1 98:1 104:1 109:1 
-1 3:1 8:1 16:1 21:1 28:1 33:1 34:1 36:1 39:1 50:1 53:1 57:1 67:1 76:1 78:1 81:1 83:1 88:1 98:1 101:1 112:1 
-1 6:1 7:1 18:1 22:1 28:1 33:1 34:1 37:1 41:1 50:1 53:1 59:1 67:1 76:1 78:1 81:1 84:1 90:1 92:1 104:1 106:1 
-1 6:1 7:1 18:1 22:1 28:1 33:1 34:1 37:1 47:1 50:1 53:1 59:1 67:1 76:1 78:1 81:1 84:1 90:1 92:1 104:1 106:1 
-1 3:1 7:1 12:1 21:1 28:1 33:1 34:1 36:1 48:1 50:1 53:1 57:1 67:1 76:1 78:1 81:1 83:1 88:1 98:1 101:1 112:1 
-0.3537042504563748 3:1 8:1 16:1 21:1 28:1 33:1 34:1 36:1 48:1 50:1 53:1 57:1 67:1 71:1 78:1 81:1 83:1 88:1 98:1 101:1 112:1 
-1 3:1 7:1 18:1 22:1 28:1 33:1 34:1 37:1 47:1 50:1 53:1 59:1 67:1 76:1 78:1 81:1 84:1 90:1 92:1 104:1 106:1 
-1 4:1 7:1 15:1 22:1 28:1 33:1 35:1 37:1 48:1 50:1 55:1 57:1 67:1 74:1 78:1 81:1 84:1 88:1 98:1 104:1 109:1 
-0.9136504192920506 3:1 8:1 12:1 21:1 28:1 33:1 34:1 36:1 48:1 50:1 53:1 57:1 62:1 76:1 78:1 81:1 83:1 88:1 98:1 101:1 112:1 
-1 3:1 7:1 19:1 22:1 28:1 33:1 34:1 37:1 41:1 50:1 53:1 59:1 67:1 76:1 78:1 81:1 84:1 90:1 92:1 104:1 106:1 
-1 3:1 8:1 12:1 21:1 28:1 33:1 34:1 36:1 48:1 50:1 53:1 57:1 67:1 76:1 78:1 81:1 83:1 88:1 98:1 101:1 112:1 
-1 3:1 8:1 12:1 21:1 28:1 33:1 34:1 36:1 48:1 50:1 53:1 57:1 67:1 71:1 78:1 81:1 83:1 88:1 98:1 101:1 112:1 
-1 3:1 8:1 12:1 21:1 28:1 33:1 34:1 36:1 39:1 50:1 53:1 57:1 67:1 76:1 78:1 81:1 83:1 88:1 98:1 101:1 112:1 
-1 3:1 7:1 18:1 22:1 28:1 33:1 34:1 37:1 45:1 50:1 53:1 59:1 67:1 76:1 78:1 81:1 84:1 90:1 92:1 104:1 106:1 
-1 3:1 7:1 12:1 21:1 28:1 33:1 34:1 36:1 48:1 50:1 53:1 57:1 62:1 76:1 78:1 81:1 83:1 88:1 98:1 101:1 112:1 
-1 6:1 7:1 19:1 22:1 28:1 33:1 34:1 37:1 47:1 50:1 53:1 59:1 67:1 76:1 78:1 81:1 84:1 90:1 92:1 105:1 106:1 
-1 3:1 7:1 16:1 21:1 28:1 33:1 34:1 36:1 48:1 50:1 53:1 57:1 67:1 71:1 78:1 81:1 83:1 88:1 98:1 101:1 112:1 
-1 6:1 7:1 19:1 22:1 28:1 33:1 34:1 37:1 41:1 50:1 53:1 59:1 67:1 76:1 78:1 81:1 84:1 90:1 92:1 104:1 106:1 
-0.7095342200666457 4:1 8:1 12:1 21:1 28:1 33:1 34:1 36:1 48:1 50:1 53:1 57:1 67:1 76:1 78:1 81:1 83:1 88:1 98:1 101:1 112:1 
-0.3624823466167959 4:1 7:1 12:1 21:1 28:1 33:1 34:1 36:1 48:1 50:1 53:1 57:1 67:1 71:1 78:1 81:1 83:1 88:1 98:1 101:1 112:1 
-1 6:1 7:1 17:1 22:1 28:1 33:1 34:1 37:1 48:1 50:1 53:1 59:1 67:1 76:1 78:1 81:1 84:1 90:1 92:1 104:1 106:1 
-1 6:1 10:1 11:1 22:1 28:1 33:1 35:1 37:1 48:1 50:1 53:1 57:1 67:1 74:1 78:1 81:1 84:1 88:1 98:1 104:1 109:1 
-1 6:1 7:1 15:1 22:1 28:1 33:1 35:1 37:1 48:1 50:1 53:1 59:1 67:1 74:1 78:1 81:1 84:1 88:1 98:1 104:1 109:1 
-1 3:1 7:1 19:1 22:1 28:1 33:1 34:1 37:1 45:1 50:1 53:1 59:1 67:1 76:1 78:1 81:1 84:1 90:1 92:1 104:1 106:1 
-1 6:1 7:1 11:1 22:1 28:1 33:1 35:1 37:1 48:1 50:1 55:1 57:1 67:1 74:1 78:1 81:1 84:1 88:1 98:1 104:1 109:1 
-1 6:1 10:1 15:1 22:1 28:1 33:1 35:1 37:1 48:1 50:1 55:1 57:1 67:1 74:1 78:1 81:1 84:1 88:1 98:1 104:1 109:1 
-1 6:1 7:1 17:1 22:1 28:1 33:1 34:1 37:1 41:1 50:1 53:1 59:1 67:1 76:1 78:1 81:1 84:1 90:1 92:1 104:1 106:1 
-1 6:1 7:1 15:1 22:1 28:1 33:1 35:1 37:1 48:1 50:1 55:1 59:1 67:1 74:1 78:1 81:1 84:1 88:1 98:1 104:1 109:1 
-1 3:1 7:1 11:1 22:1 28:1 33:1 35:1 37:1 48:1 50:1 53:1 57:1 67:1 74:1 78:1 81:1 84:1 88:1 98:1 104:1 109:1 
-0.2326857167299592 3:1 8:1 12:1 21:1 28:1 33:1 34:1 36:1 39:1 50:1 53:1 57:1 67:1 71:1 78:1 81:1 83:1 88:1 98:1 101:1 112:1 
-1 6:1 10:1 11:1 22:1 28:1 33:1 35:1 37:1 48:1 50:1 55:1 57:1 67:1 74:1 78:1 81:1 84:1 88:1 98:1 104:1 109:1 
-1 3:1 7:1 17:1 22:1 28:1 33:1 34:1 37:1 48:1 50:1 53:1 59:1 67:1 76:1 78:1 81:1 84:1 90:1 92:1 104:1 106:1 
-1 3:1 7:1 17:1 22:1 28:1 33:1 34:1 37:1 41:1 50:1 53:1 59:1 67:1 76:1 78:1 81:1 84:1 90:1 92:1 104:1 106:1 
-1 4:1 7:1 15:1 22:1 28:1 33:1 35:1 37:1 48:1 50:1 53:1 57:1 67:1 74:1 78:1 81:1 84:1 88:1 98:1 104:1 109:1 
-1 3:1 7:1 17:1 22:1 28:1 33:1 34:1 37:1 45:1 50:1 53:1 59:1 67:1 76:1 78:1 81:1 84:1 90:1 92:1 104:1 106:1 
-1 3:1 7:1 15:1 22:1 28:1 33:1 35:1 37:1 48:1 50:1 55:1 57:1 67:1 74:1 78:1 81:1 84:1 88:1 98:1 104:1 109:1 
-1 6:1 7:1 19:1 22:1 28:1 33:1 34:1 37:1 48:1 50:1 53:1 59:1 67:1 76:1 78:1 81:1 84:1 90:1 92:1 105:1 106:1 
-1 3:1 7:1 12:1 21:1 28:1 33:1 34:1 36:1 48:1 50:1 53:1 57:1 67:1 71:1 78:1 81:1 83:1 88:1 98:1 101:1 112:1 
-1 6:1 7:1 15:1 22:1 28:1 33:1 35:1 37:1 48:1 50:1 53:1 57:1 67:1 74:1 78:1 81:1 84:1 88:1 98:1 104:1 109:1 
-0.02342541966032759 3:1 7:1 16:1 21:1 28:1 33:1 34:1 36:1 48:1 50:1 53:1 57:1 62:1 76:1 78:1 81:1 83:1 88:1 98:1 101:1 112:1 
-0.7399578189664249 4:1 7:1 11:1 22:1 28:1 33:1 35:1 37:1 48:1 50:1 55:1 59:1 67:1 74:1 78:1 81:1 84:1 88:1 98:1 104:1 109:1 
-1 3:1 7:1 16:1 21:1 28:1 33:1 34:1 36:1 48:1 50:1 53:1 57:1 67:1 76:1 78:1 81:1 83:1 88:1 98:1 101:1 112:1 
-0.7192747407624508 4:1 10:1 11:1 22:1 28:1 33:1 35:1 37:1 48:1 50:1 53:1 57:1 67:1 74:1 78:1 81:1 84:1 88:1 98:1 104:1 109:1 
-1 4:1 7:1 16:1 21:1 28:1 33:1 34:1 36:1 48:1 50:1 53:1 57:1 67:1 76:1 78:1 81:1 83:1 88:1 98:1 101:1 112:1 
-0.5090272941360439 3:1 10:1 11:1 22:1 28:1 33:1 35:1 37:1 48:1 50:1 55:1 57:1 67:1 74:1 78:1 81:1 84:1 88:1 98:1 104:1 109:1 
-1 3:1 8:1 16:1 21:1 28:1 33:1 34:1 36:1 48:1 50:1 53:1 57:1 67:1 76:1 78:1 81:1 83:1 88:1 98:1 101:1 112:1 
-1 3:1 7:1 19:1 22:1 28:1 33:1 34:1 37:1 47:1 50:1 53:1 59:1 67:1 76:1 78:1 81:1 84:1 90:1 92:1 104:1 106:1 
-1 3:1 10:1 15:1 22:1 28:1 33:1 35:1 37:1 48:1 50:1 55:1 57:1 67:1 74:1 78:1 81:1 84:1 88:1 98:1 104:1 109:1 
-1 6:1 7:1 17:1 22:1 28:1 33:1 34:1 37:1 47:1 50:1 53:1 59:1 67:1 76:1 78:1 81:1 84:1 90:1 92:1 104:1 106:1 
-1 6:1 7:1 19:1 22:1 28:1 33:1 34:1 37:1 47:1 50:1 53:1 59:1 67:1 76:1 78:1 81:1 84:1 90:1 92:1 104:1 106:1 
-1 6:1 7:1 18:1 22:1 28:1 33:1 34:1 37:1 45:1 50:1 53:1 59:1 67:1 76:1 78:1 81:1 84:1 90:1 92:1 104:1 106:1 
-1 3:1 7:1 19:1 22:1 28:1 33:1 34:1 37:1 48:1 50:1 53:1 59:1 67:1 76:1 78:1 81:1 84:1 90:1 92:1 104:1 106:1 
-1 6:1 7:1 19:1 22:1 28:1 33:1 34:1 37:1 41:1 50:1 53:1 59:1 67:1 76:1 78:1 81:1 84:1 90:1 92:1 105:1 106:1 
-0.5397275067459527 6:1 7:1 18:1 22:1 28:1 33:1 34:1 37:1 47:1 50:1 53:1 59:1 67:1 76:1 78:1 81:1 84:1 90:1 92:1 105:1 106:1 
-1 6:1 7:1 19:1 22:1 28:1 33:1 34:1 37:1 45:1 50:1 53:1 59:1 67:1 76:1 78:1 81:1 84:1 90:1 92:1 104:1 106:1 
-1 6:1 10:1 15:1 22:1 28:1 33:1 35:1 37:1 48:1 50:1 53:1 57:1 67:1 74:1 78:1 81:1 84:1 88:1 98:1 104:1 109:1 
-1 3:1 7:1 12:1 21:1 28:1 33:1 34:1 36:1 39:1 50:1 53:1 57:1 67:1 76:1 78:1 81:1 83:1 88:1 98:1 101:1 112:1 
-1 3:1 7:1 16:1 21:1 28:1 33:1 34:1 36:1 39:1 50:1 53:1 57:1 67:1 76:1 78:1 81:1 83:1 88:1 98:1 101:1 112:1 
-1 3:1 7:1 19:1 22:1 28:1 33:1 34:1 37:1 45:1 50:1 53:1 59:1 67:1 76:1 78:1 81:1 84:1 90:1 92:1 105:1 106:1 
-1 6:1 7:1 15:1 22:1 28:1 33:1 35:1 37:1 48:1 50:1 55:1 57:1 67:1 74:1 78:1 81:1 84:1 88:1 98:1 104:1 109:1 
-1 3:1 7:1 15:1 22:1 28:1 33:1 35:1 37:1 48:1 50:1 55:1 59:1 67:1 74:1 78:1 81:1 84:1 88:1 98:1 104:1 109:1 
-1 3:1 7:1 19:1 22:1 28:1 33:1 34:1 37:1 48:1 50:1 53:1 59:1 67:1 76:1 78:1 81:1 84:1 90:1 92:1 105:1 106:1 
-0.4635798558269706 4:1 7:1 12:1 21:1 28:1 33:1 34:1 36:1 39:1 50:1 53:1 57:1 67:1 76:1 78:1 81:1 83:1 88:1 98:1 101:1 112:1 
-1 6:1 7:1 19:1 22:1 28:1 33:1 34:1 37:1 45:1 50:1 53:1 59:1 67:1 76:1 78:1 81:1 84:1 90:1 92:1 105:1 106:1 
-1 4:1 8:1 19:1 22:1 28:1 33:1 35:1 36:1 40:1 50:1 54:1 57:1 67:1 76:1 78:1 81:1 83:1 86:1 98:1 103:1 107:1 
-0.6098491469598665 4:1 8:1 14:1 22:1 28:1 33:1 35:1 36:1 40:1 50:1 54:1 57:1 67:1 76:1 78:1 81:1 83:1 86:1 98:1 103:1 107:1 
-1 2:1 8:1 19:1 22:1 28:1 33:1 35:1 36:1 45:1 50:1 54:1 58:1 67:1 76:1 78:1 81:1 83:1 86:1 98:1 103:1 107:1 
-0.7697733771807888 2:1 8:1 15:1 22:1 28:1 32:1 34:1 36:1 43:1 50:1 53:1 57:1 64:1 73:1 78:1 82:1 84:1 86:1 99:1 104:1 109:1 
-0.9830404587470396 4:1 8:1 19:1 22:1 28:1 33:1 35:1 36:1 40:1 50:1 54:1 58:1 67:1 76:1 78:1 81:1 83:1 86:1 98:1 103:1 107:1 
-1 3:1 7:1 15:1 21:1 28:1 33:1 34:1 36:1 48:1 50:1 53:1 57:1 67:1 76:1 78:1 81:1 83:1 86:1 98:1 104:1 110:1 
-1 6:1 8:1 15:1 22:1 28:1 33:1 34:1 36:1 48:1 50:1 52:1 56:1 65:1 74:1 78:1 81:1 83:1 86:1 98:1 105:1 106:1 
-1 6:1 8:1 19:1 22:1 28:1 33:1 35:1 36:1 48:1 50:1 54:1 58:1 67:1 76:1 78:1 81:1 83:1 86:1 98:1 103:1 107:1 
-1 3:1 8:1 14:1 21:1 28:1 33:1 34:1 36:1 48:1 50:1 53:1 57:1 67:1 76:1 78:1 81:1 83:1 86:1 98:1 104:1 110:1 
-1 6:1 7:1 14:1 21:1 28:1 33:1 34:1 36:1 48:1 50:1 53:1 57:1 67:1 76:1 78:1 81:1 83:1 86:1 98:1 104:1 110:1 
-0.2488565520806167 2:1 8:1 15:1 22:1 28:1 32:1 34:1 36:1 43:1 50:1 53:1 57:1 64:1 73:1 78:1 80:1 84:1 86:1 91:1 104:1 109:1 
-1 6:1 8:1 14:1 22:1 28:1 33:1 35:1 36:1 45:1 50:1 54:1 57:1 67:1 76:1 78:1 81:1 83:1 86:1 98:1 103:1 107:1 
-1 2:1 8:1 14:1 22:1 28:1 33:1 35:1 36:1 40:1 50:1 54:1 58:1 67:1 76:1 78:1 81:1 83:1 86:1 98:1 103:1 107:1 
-0.8836279615595329 2:1 8:1 15:1 22:1 28:1 32:1 34:1 36:1 49:1 50:1 53:1 57:1 64:1 73:1 78:1 80:1 84:1 86:1 99:1 104:1 109:1 
-1 2:1 8:1 19:1 22:1 28:1 33:1 35:1 36:1 48:1 50:1 54:1 57:1 67:1 76:1 78:1 81:1 83:1 86:1 98:1 103:1 107:1 
-0.03691635157772235 3:1 7:1 16:1 21:1 28:1 33:1 34:1 36:1 48:1 50:1 53:1 57:1 67:1 76:1 78:1 81:1 83:1 86:1 98:1 105:1 110:1 
-1 6:1 7:1 16:1 21:1 28:1 33:1 34:1 36:1 48:1 50:1 53:1 57:1 67:1 76:1 78:1 81:1 83:1 86:1 98:1 104:1 110:1 
-0.3818389232880747 2:1 8:1 15:1 22:1 28:1 32:1 34:1 36:1 43:1 50:1 53:1 57:1 64:1 73:1 78:1 82:1 84:1 86:1 91:1 104:1 109:1 
-1 2:1 8:1 19:1 22:1 28:1 33:1 35:1 36:1 48:1 50:1 54:1 58:1 67:1 76:1 78:1 81:1 83:1 86:1 98:1 103:1 107:1 
-0.5951239447668014 2:1 8:1 14:1 22:1 28:1 33:1 35:1 36:1 45:1 50:1 54:1 58:1 67:1 76:1 78:1 81:1 83:1 86:1 98:1 103:1 107:1 
-1 3:1 8:1 16:1 21:1 28:1 33:1 34:1 36:1 48:1 50:1 53:1 57:1 67:1 76:1 78:1 81:1 83:1 86:1 98:1 105:1 110:1 
-1 3:1 8:1 15:1 21:1 28:1 33:1 34:1 36:1 48:1 50:1 53:1 57:1 67:1 76:1 78:1 81:1 83:1 86:1 98:1 104:1 110:1 
-1 6:1 8:1 19:1 22:1 28:1 33:1 35:1 36:1 45:1 50:1 54:1 57:1 67:1 76:1 78:1 81:1 83:1 86:1 98:1 103:1 107:1 
-1 3:1 8:1 16:1 21:1 28:1 33:1 34:1 36:1 48:1 50:1 53:1 57:1 67:1 76:1 78:1 81:1 83:1 86:1 98:1 104:1 110:1 
-1 2:1 8:1 19:1 22:1 28:1 33:1 35:1 36:1 40:1 50:1 54:1 57:1 67:1 76:1 78:1 81:1 83:1 86:1 98:1 103:1 107:1 
-1 2:1 8:1 14:1 22:1 28:1 33:1 35:1 36:1 48:1 50:1 54:1 57:1 67:1 76:1 78:1 81:1 83:1 86:1 98:1 103:1 107:1 
-0.4490881280902029 2:1 8:1 19:1 22:1 28:1 33:1 35:1 36:1 40:1 50:1 54:1 57:1 67:1 76:1 78:1 81:1 83:1 86:1 98:1 102:1 107:1 
-1 2:1 8:1 14:1 22:1 28:1 33:1 35:1 36:1 40:1 50:1 54:1 57:1 67:1 76:1 78:1 81:1 83:1 86:1 98:1 103:1 107:1 
-0.583390286963044 2:1 8:1 14:1 22:1 28:1 33:1 35:1 36:1 45:1 50:1 54:1 57:1 67:1 76:1 78:1 81:1 83:1 86:1 98:1 103:1 107:1 
-1 2:1 8:1 19:1 22:1 28:1 33:1 35:1 36:1 45:1 50:1 54:1 57:1 67:1 76:1 78:1 81:1 83:1 86:1 98:1 103:1 107:1 
-0.07235053100535437 3:1 8:1 15:1 22:1 28:1 32:1 34:1 36:1 49:1 50:1 53:1 57:1 64:1 73:1 78:1 80:1 84:1 86:1 94:1 104:1 109:1 
-0.04923931498129696 6:1 8:1 14:1 22:1 28:1 33:1 35:1 36:1 48:1 50:1 54:1 58:1 67:1 76:1 78:1 81:1 83:1 86:1 98:1 103:1 107:1 
-1 3:1 7:1 11:1 21:1 28:1 33:1 34:1 36:1 48:1 50:1 53:1 57:1 67:1 76:1 78:1 81:1 83:1 86:1 98:1 104:1 110:1 
-1 6:1 8:1 16:1 21:1 28:1 33:1 34:1 36:1 48:1 50:1 53:1 57:1 67:1 76:1 78:1 81:1 83:1 86:1 98:1 104:1 110:1 
-1 2:1 7:1 15:1 22:1 28:1 33:1 34:1 36:1 48:1 50:1 52:1 56:1 65:1 74:1 78:1 81:1 83:1 86:1 98:1 105:1 106:1 
-1 6:1 7:1 15:1 21:1 28:1 33:1 34:1 36:1 48:1 50:1 53:1 57:1 67:1 76:1 78:1 81:1 83:1 86:1 98:1 104:1 110:1 
-1 6:1 8:1 19:1 22:1 28:1 33:1 35:1 36:1 40:1 50:1 54:1 58:1 67:1 76:1 78:1 81:1 83:1 86:1 98:1 103:1 107:1 
-1 4:1 8:1 15:1 22:1 28:1 33:1 34:1 36:1 48:1 50:1 52:1 56:1 65:1 74:1 78:1 81:1 83:1 86:1 98:1 105:1 106:1 
-1 2:1 8:1 15:1 22:1 28:1 32:1 34:1 36:1 49:1 50:1 53:1 57:1 64:1 73:1 78:1 80:1 84:1 86:1 94:1 104:1 109:1 
-1 2:1 8:1 15:1 22:1 28:1 32:1 34:1 36:1 49:1 50:1 53:1 57:1 64:1 73:1 78:1 82:1 84:1 86:1 91:1 104:1 109:1 
-1 6:1 8:1 14:1 22:1 28:1 33:1 35:1 36:1 40:1 50:1 54:1 58:1 67:1 76:1 78:1 81:1 83:1 86:1 98:1 103:1 107:1 
-1 6:1 8:1 14:1 22:1 28:1 33:1 35:1 36:1 40:1 50:1 54:1 57:1 67:1 76:1 78:1 81:1 83:1 86:1 98:1 103:1 107:1 
-1 3:1 7:1 14:1 21:1 28:1 33:1 34:1 36:1 48:1 50:1 53:1 57:1 67:1 76:1 78:1 81:1 83:1 86:1 98:1 104:1 110:1 
-1 6:1 7:1 11:1 21:1 28:1 33:1 34:1 36:1 48:1 50:1 53:1 57:1 67:1 76:1 78:1 81:1 83:1 86:1 98:1 104:1 110:1 
-1 3:1 8:1 15:1 22:1 28:1 33:1 34:1 36:1 48:1 50:1 52:1 56:1 65:1 74:1 78:1 81:1 83:1 86:1 98:1 105:1 106:1 
-0.9110305467387515 2:1 7:1 15:1 22:1 28:1 33:1 34:1 36:1 48:1 50:1 52:1 56:1 65:1 74:1 78:1 81:1 83:1 86:1 98:1 105:1 110:1 
